{"learner":{"attributes":{"best_iteration":"161","best_ntree_limit":"162","scikit_learn":"{\"use_label_encoder\": null, \"n_estimators\": 162, \"objective\": \"binary:logistic\", \"max_depth\": 7, \"max_leaves\": null, \"max_bin\": null, \"grow_policy\": null, \"learning_rate\": 0.03, \"verbosity\": null, \"booster\": null, \"tree_method\": null, \"gamma\": 8, \"min_child_weight\": 19, \"max_delta_step\": null, \"subsample\": null, \"sampling_method\": null, \"colsample_bytree\": null, \"colsample_bylevel\": null, \"colsample_bynode\": null, \"reg_alpha\": null, \"reg_lambda\": null, \"scale_pos_weight\": null, \"base_score\": null, \"missing\": NaN, \"num_parallel_tree\": null, \"random_state\": 1, \"n_jobs\": null, \"monotone_constraints\": null, \"interaction_constraints\": null, \"importance_type\": null, \"gpu_id\": null, \"validate_parameters\": null, \"predictor\": null, \"enable_categorical\": false, \"feature_types\": null, \"max_cat_to_onehot\": null, \"max_cat_threshold\": null, \"eval_metric\": null, \"early_stopping_rounds\": null, \"callbacks\": null, \"classes_\": [0.0, 1.0], \"n_classes_\": 2, \"_estimator_type\": \"classifier\"}"},"feature_names":[],"feature_types":[],"gradient_booster":{"model":{"gbtree_model_param":{"num_parallel_tree":"1","num_trees":"162","size_leaf_vector":"0"},"tree_info":[0,0,0,0,0,0,0,0,0,0,0,0,0,0,0,0,0,0,0,0,0,0,0,0,0,0,0,0,0,0,0,0,0,0,0,0,0,0,0,0,0,0,0,0,0,0,0,0,0,0,0,0,0,0,0,0,0,0,0,0,0,0,0,0,0,0,0,0,0,0,0,0,0,0,0,0,0,0,0,0,0,0,0,0,0,0,0,0,0,0,0,0,0,0,0,0,0,0,0,0,0,0,0,0,0,0,0,0,0,0,0,0,0,0,0,0,0,0,0,0,0,0,0,0,0,0,0,0,0,0,0,0,0,0,0,0,0,0,0,0,0,0,0,0,0,0,0,0,0,0,0,0,0,0,0,0,0,0,0,0,0,0],"trees":[{"base_weights":[1.0890568E-2,-9.6210754E-1,3.2370344E-1,-1.3550296E0,-5.8608574E-1,5.334264E-1,-7.078189E-1,-1.0465117E0,-1.6646707E0,-4.4003177E-1,-1.6666666E0,-1.5114504E0,6.106848E-1,6.754967E-1,-8.6498857E-1,-5.830721E-1,-1.4316354E0,-1.7692307E0,-1E0,-2.0171674E-1,-1.1057402E0,-1.7419355E0,-9E-1,6.831779E-1,-4.3290045E-2,5.2873564E-1,-9.6091205E-1,-8.312757E-1,2E-1,-1.691057E0,-9.0076333E-1,-1.3333334E0,-1.8416667E0,6.753247E-1,-3.7340152E-1,-3.3043477E-1,-1.4909091E0,1.6759777E-1,7.902098E-1,2.605364E-1,-9.4857144E-1,-2.72E-1,-1.0352304E0,-0E0,-1.2704402E0,-1.8588235E0,-1.25E0,-1.9173126E0,-1.4639175E0,-6.609808E-1,5.6782335E-2,-1.7313433E0,-1.0666667E0,-7.305389E-1,3.3150384E-1,8.228753E-1,-6.551724E-1,-3.1351352E-1,5.6891495E-1,-3.5E-1,-1.3939394E0,-1.2114285E0,-7.250608E-1,-1.6144578E0,-8.5E-1,-1.7204301E-1,-9.686411E-1,-6.052632E-1,6.5088755E-1,-3.1111112E-1,-1.1604939E0,-1.3249211E-1,5.7525086E-1,1.3691275E0,7.488749E-1,-7.5E-1,1.5053764E-1,-9.3023255E-2,7.799228E-1,-1.3782772E0,-6.5882355E-1,-1.7721519E-1,-1.0505836E0],"categories":[],"categories_nodes":[],"categories_segments":[],"categories_sizes":[],"default_left":[1,1,1,1,1,1,1,1,1,1,0,1,1,0,1,1,1,1,0,1,1,1,1,1,1,0,1,1,0,1,0,1,1,0,1,0,1,1,1,1,1,0,1,0,1,1,1,1,1,1,1,1,1,1,1,1,0,1,1,0,0,1,1,1,1,0,0,0,0,1,1,0,0,0,0,0,0,0,0,0,0,0,0],"id":0,"left_children":[1,3,5,7,9,11,13,15,17,19,-1,-1,23,-1,25,27,29,-1,-1,33,35,-1,-1,37,39,-1,41,43,-1,-1,-1,-1,-1,-1,49,-1,-1,53,55,57,59,-1,61,-1,-1,-1,-1,-1,-1,65,67,-1,-1,-1,71,73,-1,75,77,-1,-1,79,81,-1,-1,-1,-1,-1,-1,-1,-1,-1,-1,-1,-1,-1,-1,-1,-1,-1,-1,-1,-1],"loss_changes":[8.6669025E2,1.0155774E2,4.66523E2,3.0546936E1,5.5412193E1,2.8391187E2,7.983215E1,2.986409E1,9.836945E0,4.9711514E1,0E0,7.6631775E0,8.1892395E1,0E0,4.432524E1,1.5666571E1,1.1319122E1,2.0596008E0,0E0,3.5336067E1,2.4218452E1,0E0,0E0,8.565033E1,4.7899277E1,0E0,1.5436462E1,2.217781E1,0E0,2.2271423E0,0E0,0E0,6.222229E-1,0E0,2.422322E1,0E0,3.763359E0,3.9768074E1,6.130371E1,2.3280083E1,1.1175194E1,0E0,1.4246368E1,0E0,4.3771057E0,0E0,0E0,0E0,0E0,1.7470886E1,3.1564941E1,0E0,0E0,7.167946E0,2.58342E1,4.9867126E1,0E0,9.480936E0,1.1979773E1,0E0,0E0,1.5227203E1,1.8137875E1,0E0,0E0,0E0,0E0,0E0,0E0,0E0,0E0,0E0,0E0,0E0,0E0,0E0,0E0,0E0,0E0,0E0,0E0,0E0,0E0],"parents":[2147483647,0,0,1,1,2,2,3,3,4,4,5,5,6,6,7,7,8,8,9,9,11,11,12,12,14,14,15,15,16,16,17,17,19,19,20,20,23,23,24,24,26,26,27,27,29,29,32,32,34,34,36,36,37,37,38,38,39,39,40,40,42,42,44,44,49,49,50,50,53,53,54,54,55,55,57,57,58,58,61,61,62,62],"right_children":[2,4,6,8,10,12,14,16,18,20,-1,-1,24,-1,26,28,30,-1,-1,34,36,-1,-1,38,40,-1,42,44,-1,-1,-1,-1,-1,-1,50,-1,-1,54,56,58,60,-1,62,-1,-1,-1,-1,-1,-1,66,68,-1,-1,-1,72,74,-1,76,78,-1,-1,80,82,-1,-1,-1,-1,-1,-1,-1,-1,-1,-1,-1,-1,-1,-1,-1,-1,-1,-1,-1,-1],"split_conditions":[9.6170413E-1,9.436034E-1,4.601578E-4,-2.0836254E-3,7.28768E-4,-8.1210095E-4,-5.8158414E-5,-1.8618742E-3,-1.723022E-2,-1.3604012E-3,-4.9999997E-2,-4.534351E-2,-2.7713336E-3,2.0264901E-2,5.057955E-6,-9.111194E-8,-1.0544807E-6,-5.307692E-2,-3E-2,-2.341223E-5,-6.3307253E-3,-5.2258063E-2,-2.6999999E-2,-1.3502876E-1,-2.4218352E-5,1.5862068E-2,-9.098495E-6,-9.6444346E-5,6E-3,-5.0731707E-2,-2.70229E-2,-4E-2,-5.525E-2,2.025974E-2,-9.974842E-4,-9.913043E-3,-4.4727273E-2,-6.761344E-3,5.343272E-4,-6.694348E-7,-3.386054E-3,-8.160001E-3,-4.8689367E-3,-0E0,-3.8113207E-2,-5.5764705E-2,-3.7499998E-2,-5.7519376E-2,-4.3917526E-2,-5.1991647E-6,-5.5928804E-6,-5.1940296E-2,-3.2E-2,-2.1916166E-2,-9.340948E-9,-1.4593084E-5,-1.9655172E-2,-8.9640685E-7,-3.9976946E-4,-1.05E-2,-4.181818E-2,1.3306688E-3,-6.8616733E-4,-4.8433736E-2,-2.55E-2,-5.16129E-3,-2.9059233E-2,-1.8157896E-2,1.9526627E-2,-9.333333E-3,-3.4814816E-2,-3.974763E-3,1.7257525E-2,4.1073825E-2,2.2466246E-2,-2.2499999E-2,4.516129E-3,-2.7906976E-3,2.3397682E-2,-4.1348316E-2,-1.9764706E-2,-5.3164554E-3,-3.1517506E-2],"split_indices":[1,1,72,52,48,72,103,94,71,52,0,72,47,0,48,109,59,126,0,75,39,2147483647,2147483647,0,16,0,75,87,0,1,0,2147483647,2147483647,0,21,0,17,110,103,48,49,0,73,0,133,2147483647,2147483647,2147483647,2147483647,31,133,2147483647,2147483647,100,25,75,0,28,95,0,0,127,67,2147483647,2147483647,0,0,0,0,2147483647,2147483647,0,0,0,0,0,0,0,0,0,0,0,0],"split_type":[0,0,0,0,0,0,0,0,0,0,0,0,0,0,0,0,0,0,0,0,0,0,0,0,0,0,0,0,0,0,0,0,0,0,0,0,0,0,0,0,0,0,0,0,0,0,0,0,0,0,0,0,0,0,0,0,0,0,0,0,0,0,0,0,0,0,0,0,0,0,0,0,0,0,0,0,0,0,0,0,0,0,0],"sum_hessian":[2.8455E3,6.9175E2,2.15375E3,3.37E2,3.5475E2,1.79025E3,3.635E2,1.71E2,1.66E2,3.1375E2,4.1E1,6.45E1,1.72575E3,3.675E1,3.2675E2,7.875E1,9.225E1,1.42E2,2.4E1,2.32E2,8.175E1,4.55E1,1.9E1,1.5535E3,1.7225E2,2.075E1,3.06E2,5.975E1,1.9E1,6.05E1,3.175E1,2.3E1,1.19E2,3.75E1,1.945E2,2.775E1,5.4E1,2.675E2,1.286E3,1.295E2,4.275E1,3.025E1,2.7575E2,2.1E1,3.875E1,4.15E1,1.9E1,9.575E1,2.325E1,1.1625E2,7.825E1,3.25E1,2.15E1,4.075E1,2.2675E2,1.258E3,2.8E1,4.525E1,8.425E1,1.9E1,2.375E1,1.74E2,1.0175E2,1.975E1,1.9E1,4.55E1,7.075E1,3.7E1,4.125E1,2.15E1,1.925E1,7.825E1,1.485E2,1.48E2,1.11E3,2.3E1,2.225E1,2.05E1,6.375E1,1.325E2,4.15E1,3.85E1,6.325E1],"tree_param":{"num_deleted":"14","num_feature":"134","num_nodes":"83","size_leaf_vector":"0"}},{"base_weights":[1.0410283E-2,-9.340259E-1,3.139846E-1,-1.3155972E0,-5.689623E-1,5.1747096E-1,-6.869339E-1,-1.0161084E0,-1.6162586E0,-4.022154E-1,-1.4736588E0,-1.4675493E0,5.924406E-1,6.558346E-1,-8.3951813E-1,-1.6734872E0,-7.5190043E-1,-1.7177383E0,-9.714119E-1,-1.3889102E0,-2.3399821E-1,-1.1182961E0,-1.8409446E0,-1.6970382E0,-8.7090874E-1,-7.370864E-1,6.26832E-1,5.1363397E-1,-9.326678E-1,-1.3668904E0,-1.8491591E0,-1.6972281E0,-5.4092264E-1,-1.2833457E0,-1.7902943E0,-7.9676056E-1,-1.8431159E0,9.340406E-1,-3.343301E-1,3.55272E-1,-1.6010644E0,1.201058E-1,7.125235E-1,-2.6410526E-1,-1.0048091E0,2.838865E-1,-7.7759546E-1,-1.8660969E0,-1.4139957E0,6.5815324E-1,-4.3035835E-1,2.908809E-1,-7.294336E-1,9.92631E-2,7.895082E-1,-1.141099E0,-6.212566E-1,-1.1614014E0,-2.3219588E-1,-2.6254496E-1,-1.0340405E0,4.9102983E-1,-6.062445E-1,-1.195169E0,-1.873967E-1,-7.838655E-1,4.5968246E-1,1.3232386E0,7.155721E-1,-4.851297E-1,-1.2400486E0,-1.2643956E0,-3.5910204E-1],"categories":[],"categories_nodes":[],"categories_segments":[],"categories_sizes":[],"default_left":[1,1,1,1,1,1,1,1,1,1,1,1,1,0,1,1,1,1,0,1,1,1,1,1,1,1,1,0,1,1,1,0,1,1,1,0,0,0,1,0,0,1,1,0,1,0,1,1,1,0,1,1,1,1,1,1,1,0,0,0,0,0,0,0,0,0,0,0,0,0,0,0,0],"id":1,"left_children":[1,3,5,7,9,11,13,15,17,19,-1,-1,25,-1,27,-1,31,-1,-1,35,37,-1,-1,-1,-1,39,41,-1,43,-1,-1,-1,45,-1,-1,-1,-1,-1,49,-1,-1,51,53,-1,55,-1,57,-1,-1,-1,59,61,63,65,67,69,71,-1,-1,-1,-1,-1,-1,-1,-1,-1,-1,-1,-1,-1,-1,-1,-1],"loss_changes":[8.162306E2,9.5716064E1,4.3914716E2,2.8778015E1,5.3062073E1,2.6739542E2,7.521443E1,2.860524E1,9.252747E0,4.9749813E1,5.1168594E0,7.485901E0,7.940527E1,0E0,4.178061E1,8.34198E-2,2.3905312E1,2.2063293E0,0E0,1.0295738E1,3.0659435E1,0E0,0E0,0E0,0E0,4.208888E1,7.301611E1,0E0,1.4537842E1,0E0,0E0,0E0,2.0370678E1,0E0,7.8186035E-1,0E0,0E0,0E0,2.30811E1,0E0,0E0,3.5715885E1,6.789679E1,0E0,1.3753967E1,0E0,1.6575848E1,0E0,0E0,0E0,2.1884914E1,3.701262E1,1.0188086E1,5.18377E1,4.9527527E1,1.2570923E1,1.2145906E1,0E0,0E0,0E0,0E0,0E0,0E0,0E0,0E0,0E0,0E0,0E0,0E0,0E0,0E0,0E0,0E0],"parents":[2147483647,0,0,1,1,2,2,3,3,4,4,5,5,6,6,7,7,8,8,9,9,10,10,11,11,12,12,14,14,15,15,16,16,17,17,19,19,20,20,25,25,26,26,28,28,32,32,34,34,38,38,41,41,42,42,44,44,46,46,50,50,51,51,52,52,53,53,54,54,55,55,56,56],"right_children":[2,4,6,8,10,12,14,16,18,20,-1,-1,26,-1,28,-1,32,-1,-1,36,38,-1,-1,-1,-1,40,42,-1,44,-1,-1,-1,46,-1,-1,-1,-1,-1,50,-1,-1,52,54,-1,56,-1,58,-1,-1,-1,60,62,64,66,68,70,72,-1,-1,-1,-1,-1,-1,-1,-1,-1,-1,-1,-1,-1,-1,-1,-1],"split_conditions":[9.6170413E-1,9.436034E-1,4.601578E-4,-2.0836254E-3,1.0593244E-3,-8.1210095E-4,-5.8158414E-5,-2.2611551E-2,-1.723022E-2,-7.5295067E-4,-4.4209763E-2,-4.402648E-2,-6.5492876E-3,1.9675039E-2,5.057955E-6,-5.0204616E-2,-1.2235357E-3,-5.1532146E-2,-2.9142356E-2,-1.6479829E-3,-1.6226488E-5,-3.3548884E-2,-5.5228338E-2,-5.0911143E-2,-2.6127262E-2,9.549805E-5,-2.409124E-7,1.5409019E-2,-9.098495E-6,-4.100671E-2,-5.5474773E-2,-5.091684E-2,-1.2387127E-4,-3.850037E-2,-5.370883E-2,-2.3902817E-2,-5.5293478E-2,2.8021218E-2,-4.8296247E-3,1.065816E-2,-4.8031934E-2,1.2461876E-4,-4.096867E-2,-7.923158E-3,-1.2002522E-2,8.516595E-3,-3.0878726E-2,-5.5982903E-2,-4.2419873E-2,1.9744597E-2,-1.3576394E-3,-4.0566977E-3,-7.645116E-7,-1.2251974E-5,-1.5171968E-5,-2.7441012E-5,-1.2751467E-5,-3.484204E-2,-6.9658766E-3,-7.876349E-3,-3.1021213E-2,1.4730895E-2,-1.8187335E-2,-3.585507E-2,-5.6219012E-3,-2.3515964E-2,1.3790473E-2,3.969716E-2,2.1467162E-2,-1.45538915E-2,-3.7201457E-2,-3.7931867E-2,-1.0773061E-2],"split_indices":[1,1,72,52,33,72,103,58,71,72,12,72,83,0,48,129,119,126,0,52,7,2147483647,2147483647,2147483647,2147483647,58,81,0,75,2147483647,2147483647,0,84,2147483647,2147483647,0,0,0,88,0,0,38,113,0,71,0,71,2147483647,2147483647,0,52,39,51,133,75,17,133,0,0,0,0,0,0,0,0,0,0,0,0,0,0,0,0],"split_type":[0,0,0,0,0,0,0,0,0,0,0,0,0,0,0,0,0,0,0,0,0,0,0,0,0,0,0,0,0,0,0,0,0,0,0,0,0,0,0,0,0,0,0,0,0,0,0,0,0,0,0,0,0,0,0,0,0,0,0,0,0,0,0,0,0,0,0,0,0,0,0,0,0],"sum_hessian":[2.8448967E3,6.9150635E2,2.1533906E3,3.368357E2,3.5467065E2,1.7899728E3,3.6341776E2,1.7094106E2,1.6589464E2,3.0069363E2,5.3977016E1,6.446686E1,1.7255059E3,3.6746227E1,3.2667154E2,4.747759E1,1.2346346E2,1.4190004E2,2.3994602E1,4.2740173E1,2.5795346E2,2.948955E1,2.4487467E1,4.522675E1,1.924011E1,4.2993668E1,1.6825122E3,2.0748695E1,3.0592285E2,2.0492813E1,2.6984777E1,2.1241617E1,1.0222185E2,2.298381E1,1.1891623E2,1.9748354E1,2.299182E1,1.9747581E1,2.3820587E2,1.9247349E1,2.3746319E1,2.4371786E2,1.4387943E3,3.0249496E1,2.7567334E2,2.2747366E1,7.947448E1,9.56826E1,2.3233633E1,2.0498047E1,2.1770782E2,2.0347314E2,4.0244728E1,1.6072765E2,1.2780667E3,2.0194133E2,7.373201E1,4.598482E1,3.348966E1,1.7147546E2,4.6232365E1,1.6672859E2,3.674454E1,2.0997797E1,1.9246933E1,4.6243416E1,1.1448422E2,1.534493E2,1.1246174E3,2.7242805E1,1.7469853E2,2.0244198E1,5.3487816E1],"tree_param":{"num_deleted":"10","num_feature":"134","num_nodes":"73","size_leaf_vector":"0"}},{"base_weights":[9.931307E-3,-9.073105E-1,3.0462036E-1,-1.2785175E0,-5.5247796E-1,4.9046472E-1,-7.2852933E-1,-9.8729587E-1,-1.5711513E0,-4.1269627E-1,-1.5881236E0,-1.4582651E0,5.602218E-1,5.579725E-1,-8.8365453E-1,-5.42945E-1,-1.3570694E0,-1.6699765E0,-9.44032E-1,-1.8716082E-1,-1.0433952E0,-1.7890005E0,-1.1034796E0,1.9033536E-1,6.807705E-1,1.7132542E-1,-9.8023355E-1,-8.1085384E-1,1.22494906E-1,-1.6051944E0,-8.50267E-1,-1.2364101E0,-1.7427434E0,6.537588E-1,-3.5181642E-1,-3.0173492E-1,-1.4125785E0,9.4887877E-1,4.4771075E-2,7.218622E-1,-6.4543146E-1,-2.2348824E-1,-1.061055E0,1.600265E-2,-1.2416768E0,-1.7727157E0,-1.1762896E0,-1.8187946E0,-1.3672935E0,-6.299839E-1,6.409449E-2,-1.652722E0,-9.9223554E-1,3.2024497E-1,1.2547182E0,2.6208085E-1,-4.4881412E-1,8.0247974E-1,9.530063E-2,-1.2104809E0,-7.6688536E-2,-3.85003E-1,-1.1526043E0,-1.5793648E-1,-9.272523E-1,-5.783194E-1,6.4027244E-1,8.510713E-1,1.5184044E0,-3.548319E-1,4.1729861E-1,-8.3701365E-2,-1.0692736E0,4.9415043E-1,9.2868876E-1,-9.9368477E-1,3.0320543E-1,-4.195112E-1,-1.2313663E0],"categories":[],"categories_nodes":[],"categories_segments":[],"categories_sizes":[],"default_left":[1,1,1,1,1,1,1,1,1,1,0,1,1,0,1,1,1,1,0,1,1,1,1,1,1,0,1,1,0,1,0,1,1,0,1,0,1,1,1,1,1,0,1,0,0,1,1,1,1,1,1,1,1,0,1,1,1,1,1,0,0,0,1,0,0,0,0,1,1,0,0,0,0,0,0,0,0,0,0],"id":2,"left_children":[1,3,5,7,9,11,13,15,17,19,-1,-1,23,-1,25,27,29,-1,-1,33,35,-1,-1,37,39,-1,41,43,-1,-1,-1,-1,-1,-1,49,-1,-1,53,55,57,59,-1,61,-1,-1,-1,-1,-1,-1,63,65,-1,-1,-1,-1,69,71,73,75,-1,-1,-1,77,-1,-1,-1,-1,-1,-1,-1,-1,-1,-1,-1,-1,-1,-1,-1,-1],"loss_changes":[7.69122E2,9.042651E1,4.138435E2,2.7200745E1,5.0809242E1,2.4901132E2,6.609558E1,2.7489761E1,8.748047E0,4.455228E1,0E0,5.4623566E0,7.850018E1,0E0,3.0096466E1,1.430681E1,1.0342026E1,2.344574E0,0E0,3.2483047E1,2.2202202E1,0E0,0E0,4.797072E1,7.292279E1,0E0,1.623053E1,2.030685E1,0E0,2.324356E0,0E0,0E0,9.3029785E-1,0E0,2.2652092E1,0E0,3.9024277E0,1.3048862E1,3.936175E1,6.5088806E1,1.2918194E1,0E0,1.4596161E1,0E0,0E0,0E0,0E0,0E0,0E0,1.6300869E1,2.9699446E1,0E0,0E0,0E0,3.6804962E0,2.453365E1,2.5330566E1,4.4015625E1,3.3855526E1,0E0,0E0,0E0,1.1811951E1,0E0,0E0,0E0,0E0,0E0,0E0,0E0,0E0,0E0,0E0,0E0,0E0,0E0,0E0,0E0,0E0],"parents":[2147483647,0,0,1,1,2,2,3,3,4,4,5,5,6,6,7,7,8,8,9,9,11,11,12,12,14,14,15,15,16,16,17,17,19,19,20,20,23,23,24,24,26,26,27,27,29,29,32,32,34,34,36,36,37,37,38,38,39,39,40,40,42,42,49,49,50,50,54,54,55,55,56,56,57,57,58,58,62,62],"right_children":[2,4,6,8,10,12,14,16,18,20,-1,-1,24,-1,26,28,30,-1,-1,34,36,-1,-1,38,40,-1,42,44,-1,-1,-1,-1,-1,-1,50,-1,-1,54,56,58,60,-1,62,-1,-1,-1,-1,-1,-1,64,66,-1,-1,-1,-1,70,72,74,76,-1,-1,-1,78,-1,-1,-1,-1,-1,-1,-1,-1,-1,-1,-1,-1,-1,-1,-1,-1],"split_conditions":[9.6170413E-1,9.436034E-1,5.139409E-4,-2.0836254E-3,7.28768E-4,-8.2050654E-4,3.157083E-5,-1.8618742E-3,-1.723022E-2,-1.3604012E-3,-4.7643706E-2,-4.374795E-2,9.733895E-1,1.6739175E-2,1.2236522E-4,-1.2677023E-7,-1.0544807E-6,-5.0099295E-2,-2.832096E-2,-2.341223E-5,-6.3307253E-3,-5.3670015E-2,-3.3104386E-2,-1.714005E-5,4.6336843E-4,5.1397625E-3,-9.098495E-6,-9.6444346E-5,3.674847E-3,-4.8155833E-2,-2.5508009E-2,-3.7092302E-2,-5.22823E-2,1.9612765E-2,-9.974842E-4,-9.0520475E-3,-4.2377353E-2,-9.059645E-3,-4.330269E-3,-2.7713336E-3,-2.150112E-3,-6.704647E-3,-2.7164017E-5,4.8007947E-4,-3.7250303E-2,-5.318147E-2,-3.5288688E-2,-5.4563835E-2,-4.1018803E-2,-5.1991647E-6,-5.5928804E-6,-4.9581658E-2,-2.9767066E-2,9.607349E-3,3.7641544E-2,-8.446393E-3,-1.6826494E-3,-2.1428356E-7,-7.9001016E-5,-3.6314428E-2,-2.300656E-3,-1.1550089E-2,-1.1407392E-2,-4.7380943E-3,-2.7817568E-2,-1.734958E-2,1.9208172E-2,2.5532138E-2,4.555213E-2,-1.06449565E-2,1.2518958E-2,-2.5110408E-3,-3.2078207E-2,1.4824512E-2,2.7860662E-2,-2.9810542E-2,9.096162E-3,-1.2585335E-2,-3.694099E-2],"split_indices":[1,1,72,52,48,72,103,94,71,52,0,22,1,0,43,109,59,126,0,75,39,2147483647,2147483647,31,103,0,75,87,0,127,0,2147483647,2147483647,0,21,0,17,29,39,47,55,0,17,0,0,2147483647,2147483647,2147483647,2147483647,31,133,2147483647,2147483647,0,63,104,52,20,48,0,0,0,13,0,0,0,0,2147483647,2147483647,0,0,0,0,0,0,0,0,0,0],"split_type":[0,0,0,0,0,0,0,0,0,0,0,0,0,0,0,0,0,0,0,0,0,0,0,0,0,0,0,0,0,0,0,0,0,0,0,0,0,0,0,0,0,0,0,0,0,0,0,0,0,0,0,0,0,0,0,0,0,0,0,0,0,0,0,0,0,0,0,0,0,0,0,0,0,0,0,0,0,0,0],"sum_hessian":[2.8434043E3,6.908872E2,2.152517E3,3.3638052E2,3.5450665E2,1.8247957E3,3.2772147E2,1.7078929E2,1.6559125E2,3.1358093E2,4.0925713E1,6.2375374E1,1.7624203E3,3.4984776E1,2.927367E2,7.869323E1,9.209606E1,1.4161221E2,2.3979025E1,2.3193768E2,8.164325E1,3.0189682E1,3.218569E1,4.338359E2,1.3285844E3,2.4486359E1,2.6825034E2,5.5949295E1,2.2743935E1,6.0371506E1,3.1724556E1,2.2937191E1,1.18675026E2,3.749171E1,1.9444598E2,2.7737694E1,5.3905556E1,6.896048E1,3.6487543E2,1.289098E3,3.9486378E1,2.6248257E1,2.4200206E2,1.9495476E1,3.645382E1,4.1161545E1,1.9209957E1,9.548852E1,2.3186508E1,1.1620896E2,7.8237015E1,3.2440388E1,2.1465166E1,2.3239742E1,4.5720734E1,2.5366422E2,1.1121121E2,1.1418937E3,1.472043E2,1.9241493E1,2.0244883E1,2.9483648E1,2.1251842E2,4.5495564E1,7.07134E1,3.6990486E1,4.124653E1,1.9736296E1,2.598444E1,5.07344E1,2.0292982E2,7.072664E1,4.0484573E1,3.3308377E2,8.0880994E2,2.2992464E1,1.2421183E2,2.123118E1,1.9128723E2],"tree_param":{"num_deleted":"12","num_feature":"134","num_nodes":"79","size_leaf_vector":"0"}},{"base_weights":[9.498472E-3,-8.8188726E-1,2.9562554E-1,-1.243466E0,-5.367045E-1,4.8754385E-1,-6.4890456E-1,-7.40164E-1,-1.40595E0,-3.778566E-1,-1.4005314E0,-1.0812633E0,5.726671E-1,6.2118334E-1,-7.933596E-1,-1.1004138E0,-3.2061707E-2,-4.844063E-1,-1.4794028E0,-1.3357956E0,-2.147843E-1,-1.0503064E0,-1.7647425E0,-1.5628098E0,6.898682E-1,1.5809962E-1,6.7533034E-1,4.9655277E-1,-8.823011E-1,-1.4717714E0,-4.2503634E-1,-1.573905E0,-8.4170043E-1,-7.759629E-1,-1.7655808E0,4.3755978E-1,-3.8280872E-1,-1.0781815E0,-1.7155485E0,4.254178E-1,-2.9745504E-1,7.0945215E-1,-7.19228E-1,-2.9636392E-1,-9.6275824E-1,-9.888901E-1,-1.642969E0,-2.9112393E-1,9.3615353E-1,-7.4959505E-1,-1.01416305E-1,1.8908174E-1,9.030879E-1,2.0193648E-1,-9.1805494E-1,7.859633E-1,9.703713E-2,-6.0139555E-1,-1.101002E0,-1.2905844E0,-1.7224041E0,-1.1399261E0,-3.804705E-1,5.0661916E-1,-4.198945E-1,9.6658236E-1,3.1726886E-2,1.5984571E-1,1.1841965E0,5.691803E-1,-3.7578782E-1,-1.3691678E0,-3.7868366E-1,4.8130468E-1,9.1214305E-1,-8.9387274E-1,2.6919976E-1,-5.4278813E-2,-8.726953E-1,-4.7086874E-1,-1.1906185E0],"categories":[],"categories_nodes":[],"categories_segments":[],"categories_sizes":[],"default_left":[1,1,1,1,1,1,1,1,1,1,1,1,1,0,1,1,0,0,1,1,1,1,1,1,0,1,1,0,1,0,0,1,0,0,0,1,1,1,1,1,1,1,0,0,1,1,1,0,0,1,1,1,1,1,1,1,1,1,1,1,1,0,0,0,0,0,0,0,0,0,0,0,0,0,0,0,0,0,0,0,0],"id":3,"left_children":[1,3,5,7,9,11,13,15,17,19,-1,23,25,-1,27,29,-1,-1,31,33,35,-1,-1,-1,-1,39,41,-1,43,-1,-1,-1,-1,-1,-1,47,49,-1,-1,51,53,55,-1,-1,57,-1,-1,-1,-1,61,63,65,67,69,71,73,75,77,79,-1,-1,-1,-1,-1,-1,-1,-1,-1,-1,-1,-1,-1,-1,-1,-1,-1,-1,-1,-1,-1,-1],"loss_changes":[7.251125E2,8.555652E1,3.904452E2,2.6489807E1,4.8209106E1,2.3956454E2,6.725357E1,2.146135E1,1.6434418E1,4.6794285E1,5.1366577E0,7.991523E1,7.215515E1,0E0,3.7971756E1,1.3375404E1,0E0,0E0,1.2788208E1,9.132835E0,2.8527817E1,0E0,0E0,3.552597E0,0E0,4.1324806E1,6.525165E1,0E0,1.4159927E1,0E0,0E0,6.569519E0,0E0,0E0,0E0,1.969564E1,2.1214178E1,0E0,0E0,2.3944065E1,3.9140778E1,6.2175354E1,0E0,0E0,1.277475E1,0E0,2.8123474E0,0E0,0E0,1.2446358E1,2.3040453E1,1.7607758E1,1.4528023E1,1.51648245E1,1.3162243E1,4.4955627E1,2.5606522E1,1.132708E1,1.035759E1,0E0,0E0,0E0,0E0,0E0,0E0,0E0,0E0,0E0,0E0,0E0,0E0,0E0,0E0,0E0,0E0,0E0,0E0,0E0,0E0,0E0,0E0],"parents":[2147483647,0,0,1,1,2,2,3,3,4,4,5,5,6,6,7,7,8,8,9,9,10,10,11,11,12,12,14,14,15,15,18,18,19,19,20,20,23,23,25,25,26,26,28,28,31,31,35,35,36,36,39,39,40,40,41,41,44,44,46,46,49,49,50,50,51,51,52,52,53,53,54,54,55,55,56,56,57,57,58,58],"right_children":[2,4,6,8,10,12,14,16,18,20,-1,24,26,-1,28,30,-1,-1,32,34,36,-1,-1,-1,-1,40,42,-1,44,-1,-1,-1,-1,-1,-1,48,50,-1,-1,52,54,56,-1,-1,58,-1,-1,-1,-1,62,64,66,68,70,72,74,76,78,80,-1,-1,-1,-1,-1,-1,-1,-1,-1,-1,-1,-1,-1,-1,-1,-1,-1,-1,-1,-1,-1,-1],"split_conditions":[9.6170413E-1,9.436034E-1,4.601578E-4,-5.211902E-3,1.0593244E-3,-6.903388E-4,-5.8158414E-5,-2.0292665E-1,-1.768058E-2,-7.5295067E-4,-4.201594E-2,-1.820834E-4,9.719634E-1,1.86355E-2,5.057955E-6,-1.4153018E-5,-9.618512E-4,-1.4532189E-2,-6.4271644E-2,-1.6479829E-3,-2.372234E-5,-3.150919E-2,-5.2942272E-2,-4.6884295E-2,2.0696046E-2,-5.272199E-3,4.8346657E-4,1.4896583E-2,-4.297072E-6,-4.415314E-2,-1.275109E-2,-4.721715E-2,-2.5251012E-2,-2.3278886E-2,-5.296742E-2,1.072403E-3,-3.447628E-10,-3.2345444E-2,-5.1466454E-2,-7.720144E-11,-3.7920722E-7,-2.7713336E-3,-2.157684E-2,-8.8909175E-3,3.2971748E-3,-2.9666703E-2,-4.928907E-2,-8.733718E-3,2.8084606E-2,9.5446E-1,-4.196213E-5,-7.656354E-6,-5.3917756E-8,-2.7512044E-3,6.369443E-4,-2.0886598E-7,-7.95869E-5,-9.817698E-4,-1.805471E-5,-3.871753E-2,-5.1672123E-2,-3.419778E-2,-1.1414115E-2,1.5198574E-2,-1.2596834E-2,2.899747E-2,9.5180655E-4,4.795371E-3,3.5525892E-2,1.7075408E-2,-1.1273635E-2,-4.1075032E-2,-1.1360509E-2,1.44391395E-2,2.7364291E-2,-2.6816182E-2,8.075993E-3,-1.6283643E-3,-2.618086E-2,-1.4126061E-2,-3.5718556E-2],"split_indices":[1,1,72,52,33,72,103,0,39,72,12,103,1,0,48,59,0,0,68,52,78,2147483647,2147483647,26,0,39,103,0,7,0,0,23,0,0,0,66,123,2147483647,2147483647,106,36,47,0,0,83,2147483647,2147483647,0,0,1,38,7,90,39,30,20,48,107,17,2147483647,2147483647,0,0,0,0,0,0,0,0,0,0,0,0,0,0,0,0,0,0,0,0],"split_type":[0,0,0,0,0,0,0,0,0,0,0,0,0,0,0,0,0,0,0,0,0,0,0,0,0,0,0,0,0,0,0,0,0,0,0,0,0,0,0,0,0,0,0,0,0,0,0,0,0,0,0,0,0,0,0,0,0,0,0,0,0,0,0,0,0,0,0,0,0,0,0,0,0,0,0,0,0,0,0,0,0],"sum_hessian":[2.8410034E3,6.898373E2,2.1511663E3,3.3564597E2,3.5419128E2,1.7882891E3,3.628772E2,8.3269554E1,2.523764E2,3.0039038E2,5.3800915E1,9.143608E1,1.6968529E3,3.6720486E1,3.261567E2,5.482373E1,2.8445826E1,1.919164E1,2.3318477E2,4.265134E1,2.5773904E2,2.940698E1,2.4393934E1,7.198261E1,1.945347E1,3.3730618E2,1.3595468E3,2.0742783E1,3.0541394E2,3.4612698E1,2.0211033E1,2.0181009E2,3.1374683E1,1.974162E1,2.2909721E1,5.246047E1,2.0527856E2,1.918118E1,5.2801434E1,2.1261214E2,1.24694046E2,1.3275557E3,3.1991106E1,3.743963E1,2.679743E2,2.2926552E1,1.7888353E2,2.1481638E1,3.097883E1,8.839479E1,1.1688377E2,1.4317133E2,6.94408E1,6.9468185E1,5.5225857E1,1.1798673E3,1.476884E2,7.563034E1,1.9234396E2,3.607909E1,1.4280444E2,4.1948322E1,4.6446472E1,3.997436E1,7.690942E1,2.3232979E1,1.19938354E2,1.948684E1,4.9953968E1,4.2479744E1,2.6988443E1,2.9235645E1,2.5990213E1,3.46958E2,8.3290924E2,2.1240904E1,1.26447495E2,2.5468786E1,5.0161556E1,2.4727592E1,1.6761636E2],"tree_param":{"num_deleted":"8","num_feature":"134","num_nodes":"81","size_leaf_vector":"0"}},{"base_weights":[9.09597E-3,-8.5743576E-1,2.869876E-1,-1.2099245E0,-5.2151984E-1,4.7331122E-1,-6.3035643E-1,-9.300785E-1,-1.4920945E0,-3.8765916E-1,-1.5170469E0,-1.0515894E0,5.559218E-1,6.0340613E-1,-7.707731E-1,-1.5596105E0,-6.782402E-1,-7.9993075E-1,-1.5768839E0,-1.289535E0,-2.3869112E-1,-1.521064E0,6.702153E-1,2.0238458E-1,6.7027813E-1,4.82485E-1,-8.5727644E-1,-1.2627751E0,-1.7319484E0,-1.5918885E0,-4.7540697E-1,-1.6616132E0,-1.2047112E0,-7.8458863E-1,-1.6814508E0,-7.060642E-1,1.9047642E-2,-1.0362953E0,-1.6746329E0,9.1441566E-1,6.1001677E-2,7.069521E-1,-6.470565E-1,-1.4792358E0,-7.776267E-1,3.112407E-1,-7.021945E-1,-1.2833384E0,-1.7223771E0,-1.103339E0,-3.4875703E-1,8.012777E-1,-1.5737592E-1,1.2299261E0,1.9660465E-1,1.7910226E-1,-8.6063075E-1,7.849594E-1,1.01042464E-1,1.1307014E-1,-8.501512E-1,-1.0732371E0,-1.7734067E-1,-6.105496E-1,-1.44508E0,-7.439313E-1,1.8588582E-1,-4.5422626E-1,3.5832652E-1,8.585771E-1,1.4777673E0,-4.645849E-1,3.2380065E-1,-1.3519901E0,-3.207239E-1,4.716194E-1,9.137035E-1,2.7887973E-1,-8.3076036E-1,-5.687537E-1,-1.0642244E0],"categories":[],"categories_nodes":[],"categories_segments":[],"categories_sizes":[],"default_left":[1,1,1,1,1,1,1,1,1,1,0,1,1,0,1,1,1,0,1,1,1,1,0,1,1,0,1,1,1,0,1,1,1,1,1,1,1,1,1,1,1,1,0,0,1,0,1,1,1,1,1,0,1,1,0,1,1,1,1,0,1,0,0,1,1,0,0,0,0,1,1,0,0,0,0,0,0,0,0,0,0],"id":4,"left_children":[1,3,5,7,9,11,13,15,17,19,-1,21,23,-1,25,-1,29,-1,-1,-1,35,-1,-1,39,41,-1,43,-1,-1,-1,45,-1,-1,-1,-1,49,51,-1,-1,53,55,57,-1,-1,59,-1,61,-1,-1,-1,65,-1,67,-1,-1,71,73,75,77,-1,79,-1,-1,-1,-1,-1,-1,-1,-1,-1,-1,-1,-1,-1,-1,-1,-1,-1,-1,-1,-1],"loss_changes":[6.838455E2,8.102054E1,3.678269E2,2.512326E1,4.6700058E1,2.2580133E2,6.342781E1,2.608693E1,8.452545E0,4.189655E1,0E0,7.5566895E1,6.845642E1,0E0,3.583609E1,2.7625275E-1,2.2234432E1,0E0,2.615631E0,7.448532E0,3.263778E1,3.6819763E0,0E0,4.1831818E1,6.2369324E1,0E0,1.4008942E1,0E0,0E0,0E0,1.8585104E1,4.7052002E-1,0E0,0E0,0E0,1.3283806E1,2.4351103E1,0E0,0E0,1.535371E1,3.8057434E1,5.8873474E1,0E0,0E0,1.7755432E1,0E0,1.5431812E1,0E0,0E0,6.7185287E0,1.1158172E1,0E0,2.2217865E1,3.1162872E0,0E0,2.8977776E1,1.0105459E1,4.4139893E1,2.3996231E1,0E0,1.4629898E1,0E0,0E0,0E0,0E0,0E0,0E0,0E0,0E0,0E0,0E0,0E0,0E0,0E0,0E0,0E0,0E0,0E0,0E0,0E0,0E0],"parents":[2147483647,0,0,1,1,2,2,3,3,4,4,5,5,6,6,7,7,8,8,9,9,11,11,12,12,14,14,15,15,16,16,18,18,19,19,20,20,21,21,23,23,24,24,26,26,30,30,31,31,35,35,36,36,39,39,40,40,41,41,44,44,46,46,49,49,50,50,52,52,53,53,55,55,56,56,57,57,58,58,60,60],"right_children":[2,4,6,8,10,12,14,16,18,20,-1,22,24,-1,26,-1,30,-1,-1,-1,36,-1,-1,40,42,-1,44,-1,-1,-1,46,-1,-1,-1,-1,50,52,-1,-1,54,56,58,-1,-1,60,-1,62,-1,-1,-1,66,-1,68,-1,-1,72,74,76,78,-1,80,-1,-1,-1,-1,-1,-1,-1,-1,-1,-1,-1,-1,-1,-1,-1,-1,-1,-1,-1,-1],"split_conditions":[9.6170413E-1,9.436034E-1,4.601578E-4,-2.0836254E-3,7.28768E-4,-6.903388E-4,-5.8158414E-5,-2.2611551E-2,-1.921775E-3,-7.173845E-4,-4.5511406E-2,-1.820834E-4,9.734472E-1,1.8102184E-2,5.057955E-6,-4.6788312E-2,-1.2235357E-3,-2.3997921E-2,-4.7306515E-2,-3.8686052E-2,-1.1081505E-5,-4.563192E-2,2.0106459E-2,-1.5563433E-5,4.6336843E-4,1.4474549E-2,-1.084962E-3,-3.7883252E-2,-5.195845E-2,-4.7756657E-2,-1.2387127E-4,-4.9848396E-2,-3.6141336E-2,-2.3537658E-2,-5.0443523E-2,-2.0602625E-3,-2.3313598E-5,-3.1088859E-2,-5.0238986E-2,1.0721781E-3,-2.335106E-3,-2.7713336E-3,-1.9411694E-2,-4.4377074E-2,-5.791835E-6,9.337221E-3,-3.0878726E-2,-3.8500153E-2,-5.167131E-2,-3.310017E-2,-1.1182049E-6,2.403833E-2,-9.4977015E-4,3.6897782E-2,5.8981394E-3,-4.4690743E-5,1.2481329E-4,-2.1428356E-7,-7.243142E-5,3.392104E-3,-7.659783E-4,-3.219711E-2,-5.3202203E-3,-1.8316489E-2,-4.33524E-2,-2.2317939E-2,5.5765742E-3,-1.3626788E-2,1.07497955E-2,2.575731E-2,4.433302E-2,-1.3937546E-2,9.7140195E-3,-4.05597E-2,-9.621716E-3,1.4148582E-2,2.7411105E-2,8.366392E-3,-2.492281E-2,-1.7062612E-2,-3.192673E-2],"split_indices":[1,1,72,52,48,72,103,58,88,72,0,103,1,0,48,129,119,0,68,52,133,26,0,75,103,0,63,2147483647,2147483647,0,84,2147483647,2147483647,2147483647,2147483647,55,75,2147483647,2147483647,122,39,47,0,0,7,0,71,2147483647,2147483647,91,112,0,21,83,0,133,45,20,18,0,67,0,0,2147483647,2147483647,0,0,0,0,2147483647,2147483647,0,0,0,0,0,0,0,0,0,0],"split_type":[0,0,0,0,0,0,0,0,0,0,0,0,0,0,0,0,0,0,0,0,0,0,0,0,0,0,0,0,0,0,0,0,0,0,0,0,0,0,0,0,0,0,0,0,0,0,0,0,0,0,0,0,0,0,0,0,0,0,0,0,0,0,0,0,0,0,0,0,0,0,0,0,0,0,0,0,0,0,0,0,0],"sum_hessian":[2.8378457E3,6.885861E2,2.1492598E3,3.3473486E2,3.5385126E2,1.7868192E3,3.624405E2,1.7021652E2,1.6451834E2,3.1313577E2,4.07155E1,9.122247E1,1.6955967E3,3.6698048E1,3.2574243E2,4.7153015E1,1.230635E2,1.9092697E1,1.4542564E2,4.330487E1,2.698309E2,7.176996E1,1.9452517E1,4.150922E2,1.2805045E3,2.0736395E1,3.0500604E2,2.0379171E1,2.6773844E1,2.1113028E1,1.0195047E2,1.15635345E2,2.97903E1,2.0235405E1,2.3069466E1,9.5292274E1,1.7453862E2,1.9130161E1,5.2639797E1,6.786144E1,3.4723074E2,1.2462722E3,3.423228E1,3.2630806E1,2.723752E2,2.2731241E1,7.921923E1,1.9065657E1,9.656969E1,4.413382E1,5.115845E1,3.1469002E1,1.4306963E2,4.6645287E1,2.1216158E1,3.0850388E2,3.872689E1,1.1038611E3,1.424111E2,2.0466051E1,2.5190918E2,4.5797855E1,3.342137E1,1.9213957E1,2.4919863E1,2.9190916E1,2.1967537E1,9.087759E1,5.219204E1,2.045743E1,2.6187857E1,5.6216312E1,2.5228755E2,1.948753E1,1.923936E1,3.228255E2,7.8103564E2,1.20175896E2,2.2235209E1,1.10419914E2,1.4148926E2],"tree_param":{"num_deleted":"14","num_feature":"134","num_nodes":"81","size_leaf_vector":"0"}},{"base_weights":[8.686252E-3,-8.3415055E-1,2.78649E-1,-1.1784072E0,-5.0683063E-1,4.4887638E-1,-6.6895133E-1,-6.9388473E-1,-1.3354218E0,-3.7656707E-1,-1.4788225E0,-1.3505799E0,5.128199E-1,5.2112484E-1,-8.1279933E-1,-1.0431772E0,-1.0446596E-2,-4.520799E-1,-1.4062102E0,-1.6173373E-1,-9.794704E-1,-1.6786901E0,-1.0015564E0,5.3594834E-1,-1.1861434E0,-2.4081647E-1,-9.767921E-1,-1.4019928E0,-3.942605E-1,-1.4987541E0,-7.84567E-1,6.282071E-1,-3.1655383E-1,-2.7233827E-1,-1.3332891E0,9.1583915E-2,6.249094E-1,3.177645E-1,-5.7276523E-1,-5.0393194E-1,-1.1443734E0,-9.179982E-1,-1.5677701E0,-7.418112E-1,-5.437316E-2,-1.5700095E0,-9.2192453E-1,1.1914659E0,-2.8654618E-2,6.559198E-1,-6.558195E-1,-9.957581E-1,-9.758414E-2,-8.2146955E-1,1.7090216E-1,-8.442305E-1,-1.37504E0,-1.2164495E0,-1.647413E0,-1.502908E-1,-1.0563223E0,2.5264308E-1,-7.7337396E-1,-1.9843195E-1,8.286285E-1,7.603238E-1,3.12416E-1,-3.6433944E-1,-1.2016246E0,-3.314652E-1,-1.0200318E0,-9.480719E-1,-1.5326823E0],"categories":[],"categories_nodes":[],"categories_segments":[],"categories_sizes":[],"default_left":[1,1,1,1,1,1,1,1,1,1,0,1,1,0,1,1,0,0,1,1,1,1,1,1,0,1,1,0,0,1,0,0,1,0,1,1,1,0,1,1,1,1,1,1,1,1,1,0,1,1,0,0,0,1,0,1,1,1,1,0,0,0,0,0,0,0,0,1,1,1,1,1,1],"id":5,"left_children":[1,3,5,7,9,11,13,15,17,19,-1,-1,23,-1,25,27,-1,-1,29,31,33,-1,-1,35,-1,37,39,-1,-1,-1,-1,-1,43,-1,-1,47,49,-1,51,53,55,-1,-1,59,61,-1,-1,-1,63,65,-1,-1,-1,-1,-1,-1,-1,-1,-1,-1,-1,-1,-1,-1,-1,-1,-1,-1,-1,-1,-1,-1,-1],"loss_changes":[6.4525793E2,7.692554E1,3.467676E2,2.4525665E1,4.43179E1,2.1026706E2,5.6486206E1,2.0032997E1,1.5096619E1,4.049592E1,0E0,5.507782E0,6.97782E1,0E0,2.7207474E1,1.2382862E1,0E0,0E0,1.21970825E1,2.8647118E1,2.0218735E1,0E0,0E0,6.859491E1,0E0,1.251562E1,1.7414978E1,0E0,0E0,6.6266174E0,0E0,0E0,2.1718779E1,0E0,3.8666992E0,3.8499096E1,5.789142E1,0E0,8.360714E0,1.3253961E1,1.039061E1,0E0,2.9890137E0,1.3673706E1,2.708362E1,0E0,0E0,0E0,3.8467834E1,5.0440796E1,0E0,0E0,0E0,6.8240204E0,0E0,6.431385E0,4.7899475E0,0E0,0E0,0E0,0E0,0E0,0E0,0E0,0E0,0E0,0E0,0E0,0E0,0E0,0E0,0E0,0E0],"parents":[2147483647,0,0,1,1,2,2,3,3,4,4,5,5,6,6,7,7,8,8,9,9,11,11,12,12,14,14,15,15,18,18,19,19,20,20,23,23,25,25,26,26,29,29,32,32,34,34,35,35,36,36,38,38,39,39,40,40,42,42,43,43,44,44,48,48,49,49,53,53,55,55,56,56],"right_children":[2,4,6,8,10,12,14,16,18,20,-1,-1,24,-1,26,28,-1,-1,30,32,34,-1,-1,36,-1,38,40,-1,-1,-1,-1,-1,44,-1,-1,48,50,-1,52,54,56,-1,-1,60,62,-1,-1,-1,64,66,-1,-1,-1,-1,-1,-1,-1,-1,-1,-1,-1,-1,-1,-1,-1,-1,-1,-1,-1,-1,-1,-1,-1],"split_conditions":[9.6170413E-1,9.436034E-1,5.139409E-4,-5.211902E-3,7.28768E-4,-8.2050654E-4,3.157083E-5,-2.0292665E-1,-1.768058E-2,-1.3604012E-3,-4.4364672E-2,-4.0517393E-2,-5.9001986E-4,1.5633745E-2,3.329091E-4,-1.4153018E-5,-3.1339788E-4,-1.3562396E-2,-6.4271644E-2,-2.341223E-5,-6.3307253E-3,-5.0360702E-2,-3.0046692E-2,-1.3502876E-1,-3.55843E-2,3.3808164E-3,-7.24939E-7,-4.2059783E-2,-1.1827814E-2,-4.4962622E-2,-2.353701E-2,1.8846212E-2,-5.1822553E-6,-8.170148E-3,-3.9998673E-2,-9.490953E-6,5.343272E-4,9.532934E-3,6.167027E-4,-1.5533926E-3,-5.748993E-3,-2.7539946E-2,-4.70331E-2,-1.7428481E-6,2.0271393E-3,-4.7100283E-2,-2.7657736E-2,3.5743974E-2,6.0844244E-3,-1.1139665E-3,-1.9674584E-2,-2.9872743E-2,-2.9275243E-3,-2.4644086E-2,5.127065E-3,-2.5326913E-2,-4.12512E-2,-3.6493484E-2,-4.942239E-2,-4.508724E-3,-3.168967E-2,7.579292E-3,-2.3201218E-2,-5.9529585E-3,2.4858855E-2,2.2809714E-2,9.372479E-3,-1.0930183E-2,-3.6048736E-2,-9.9439565E-3,-3.0600954E-2,-2.8442156E-2,-4.598047E-2],"split_indices":[1,1,72,52,48,72,103,0,39,52,0,22,49,0,48,59,0,0,68,75,39,2147483647,2147483647,0,0,83,46,0,0,23,0,0,51,0,17,7,103,0,127,80,39,2147483647,2147483647,36,58,2147483647,2147483647,0,129,52,0,0,0,81,0,119,17,2147483647,2147483647,0,0,0,0,0,0,0,0,2147483647,2147483647,2147483647,2147483647,2147483647,2147483647],"split_type":[0,0,0,0,0,0,0,0,0,0,0,0,0,0,0,0,0,0,0,0,0,0,0,0,0,0,0,0,0,0,0,0,0,0,0,0,0,0,0,0,0,0,0,0,0,0,0,0,0,0,0,0,0,0,0,0,0,0,0,0,0,0,0,0,0,0,0,0,0,0,0,0,0],"sum_hessian":[2.8338462E3,6.869779E2,2.1468682E3,3.335591E2,3.5341882E2,1.8203805E3,3.2648773E2,8.29641E1,2.50595E2,3.1287555E2,4.0543266E1,6.1776806E1,1.7586038E3,3.4925026E1,2.915627E2,5.4555458E1,2.8408648E1,1.9140036E1,2.3145496E2,2.3161288E2,8.1262665E1,2.9878727E1,3.189808E1,1.7356603E3,2.2943459E1,6.551709E1,2.2604561E2,3.4383015E1,2.0172443E1,2.0023508E2,3.1219893E1,3.7453857E1,1.9415903E2,2.7690643E1,5.357202E1,2.8985434E2,1.4458059E3,2.4437704E1,4.107939E1,6.0196796E1,1.6584882E2,2.278713E1,1.7744794E2,7.335223E1,1.208068E2,3.2216442E1,2.1355581E1,2.7686148E1,2.621682E2,1.4121024E3,3.3703495E1,2.1153553E1,1.9925837E1,4.078735E1,1.9409445E1,7.4095665E1,9.175314E1,3.5800186E1,1.4164775E2,2.5975798E1,4.737643E1,8.5112175E1,3.5694626E1,2.194722E2,4.2695995E1,1.0820211E3,3.300813E2,1.940798E1,2.1379372E1,1.9654432E1,5.444123E1,2.6632933E1,6.512022E1],"tree_param":{"num_deleted":"14","num_feature":"134","num_nodes":"73","size_leaf_vector":"0"}},{"base_weights":[8.297238E-3,-8.1175387E-1,2.7055424E-1,-1.3739059E0,-6.1904424E-1,4.465232E-1,-5.9664583E-1,-8.430824E-1,-1.4757901E0,-4.5575646E-1,-1.4019291E0,-1.0039062E0,5.247453E-1,5.7221466E-1,-7.299088E-1,-1.6038182E0,-1.0241172E0,-1.2832909E0,-2.5788605E-1,-1.5419255E0,-1.0170516E0,-1.4588534E0,6.542839E-1,-1.5672103E-2,5.954687E-1,3.459662E-1,-8.2228714E-1,-1.2837884E0,-1.6721268E0,-1.533464E0,-6.382721E-1,7.9899526E-1,-3.47257E-1,-1.158858E0,-1.7233683E0,-9.8460966E-1,-1.6124725E0,1.7539082E-1,-8.701718E-1,1.9284321E-2,6.650579E-1,-2.4432243E-1,-9.028584E-1,-1.1456589E0,-1.6922814E0,-7.4639404E-1,-5.0944783E-2,-1.0653941E-1,8.441437E-1,-8.7261325E-1,3.053062E-1,-7.554647E-1,6.8825746E-1,-4.6327215E-1,-1.0254753E0,-4.9730808E-2,-1.008153E0,1.24404036E-1,-8.8441837E-1,-5.135233E-1,3.3901295E-1,1.8025449E-1,1.2787207E0,-3.4680107E-1,-1.3498465E0,-2.743816E-1,5.6234866E-1,1.2115458E0,6.1792004E-1,1.7538777E-1,-7.8557575E-1,-6.2684447E-1,-1.1679823E0],"categories":[],"categories_nodes":[],"categories_segments":[],"categories_sizes":[],"default_left":[1,1,1,1,1,1,1,0,1,1,1,1,1,0,1,1,1,1,1,1,1,1,0,1,1,0,1,1,1,1,0,0,1,1,1,1,1,1,0,1,1,0,1,1,1,1,1,1,1,1,1,0,1,1,1,0,0,0,0,0,0,0,0,0,0,0,0,0,0,0,0,0,0],"id":6,"left_children":[1,3,5,7,9,11,13,-1,-1,17,-1,21,23,-1,25,-1,-1,29,31,-1,-1,-1,-1,37,39,-1,41,-1,-1,-1,-1,-1,45,-1,-1,-1,-1,47,-1,49,51,-1,53,-1,-1,55,57,59,61,63,65,-1,67,69,71,-1,-1,-1,-1,-1,-1,-1,-1,-1,-1,-1,-1,-1,-1,-1,-1,-1,-1],"loss_changes":[6.089614E2,7.347824E1,3.2765408E2,8.18457E0,6.4912476E1,2.0293896E2,5.6856018E1,0E0,6.7385864E0,6.9386024E1,3.1740265E0,7.008295E1,6.4732635E1,0E0,3.265355E1,2.833252E-1,0E0,1.2238419E1,3.2850914E1,2.3538208E0,0E0,3.6734924E0,0E0,3.2306377E1,6.003064E1,0E0,1.3760239E1,0E0,0E0,1.6522064E0,0E0,0E0,3.7650574E1,0E0,0E0,0E0,0E0,3.0593632E1,0E0,4.169513E1,4.455139E1,0E0,1.370755E1,0E0,0E0,2.469629E1,2.699631E1,2.0972311E1,1.3644299E1,9.492285E0,1.8587221E1,0E0,4.765735E1,1.2326075E1,1.0908508E1,0E0,0E0,0E0,0E0,0E0,0E0,0E0,0E0,0E0,0E0,0E0,0E0,0E0,0E0,0E0,0E0,0E0,0E0],"parents":[2147483647,0,0,1,1,2,2,3,3,4,4,5,5,6,6,8,8,9,9,10,10,11,11,12,12,14,14,15,15,17,17,18,18,19,19,21,21,23,23,24,24,26,26,29,29,32,32,37,37,39,39,40,40,42,42,45,45,46,46,47,47,48,48,49,49,50,50,52,52,53,53,54,54],"right_children":[2,4,6,8,10,12,14,-1,-1,18,-1,22,24,-1,26,-1,-1,30,32,-1,-1,-1,-1,38,40,-1,42,-1,-1,-1,-1,-1,46,-1,-1,-1,-1,48,-1,50,52,-1,54,-1,-1,56,58,60,62,64,66,-1,68,70,72,-1,-1,-1,-1,-1,-1,-1,-1,-1,-1,-1,-1,-1,-1,-1,-1,-1,-1],"split_conditions":[9.6170413E-1,9.204571E-1,4.601578E-4,-5.338786E-3,1.031291E-3,-6.903388E-4,-5.8158414E-5,-2.5292473E-2,-4.4273704E-2,-1.0761991E-3,-4.205787E-2,-1.820834E-4,-3.9348774E-7,1.716644E-2,6.8786205E-5,-4.8114546E-2,-3.0723516E-2,-3.3338257E-4,-1.7662816E-2,-4.6257764E-2,-3.0511547E-2,-4.37656E-2,1.9628515E-2,-1.7053884E-4,-4.096867E-2,1.0378986E-2,-4.297072E-6,-3.8513653E-2,-5.01638E-2,-4.600392E-2,-1.9148163E-2,2.3969857E-2,-6.322877E-10,-3.476574E-2,-5.1701047E-2,-2.9538289E-2,-4.8374176E-2,7.163396E-3,-2.6105152E-2,-5.055792E-5,-6.8933596E-3,-7.329673E-3,2.733055E-3,-3.4369763E-2,-5.076844E-2,-2.8894785E-6,-3.7256952E-3,4.4611606E-5,-1.2516961E-8,-4.3820525E-3,-4.2158075E-2,-2.266394E-2,-1.5171968E-5,7.5904E-4,-4.1413223E-4,-1.4919242E-3,-3.0244589E-2,3.732121E-3,-2.6532551E-2,-1.5405698E-2,1.0170388E-2,5.4076347E-3,3.836162E-2,-1.0404032E-2,-4.0495392E-2,-8.231448E-3,1.687046E-2,3.6346372E-2,1.8537601E-2,5.261633E-3,-2.3567272E-2,-1.8805334E-2,-3.503947E-2],"split_indices":[1,1,72,52,33,72,103,0,71,119,87,103,81,0,48,2147483647,2147483647,72,91,2147483647,2147483647,26,0,115,113,0,7,2147483647,2147483647,94,0,0,123,2147483647,2147483647,2147483647,2147483647,129,0,133,83,0,83,2147483647,2147483647,93,104,53,59,39,32,0,75,33,8,0,0,0,0,0,0,0,0,0,0,0,0,0,0,0,0,0,0],"split_type":[0,0,0,0,0,0,0,0,0,0,0,0,0,0,0,0,0,0,0,0,0,0,0,0,0,0,0,0,0,0,0,0,0,0,0,0,0,0,0,0,0,0,0,0,0,0,0,0,0,0,0,0,0,0,0,0,0,0,0,0,0,0,0,0,0,0,0,0,0,0,0,0,0],"sum_hessian":[2.8295127E3,6.851192E2,2.1443936E3,1.733402E2,5.11779E2,1.7830657E3,3.6132785E2,2.9406322E1,1.4393388E2,4.2476672E2,8.701227E1,9.063503E1,1.6924307E3,3.664222E1,3.246856E2,1.1015834E2,3.377553E1,8.090789E1,3.4385886E2,6.1599586E1,2.541268E1,7.121613E1,1.9418905E1,1.959443E2,1.4964863E3,2.5457077E1,2.9922855E2,2.2858585E1,8.729976E1,5.7304653E1,2.3603235E1,2.6190887E1,3.1766797E2,2.2173368E1,3.942622E1,1.923731E1,5.197882E1,1.6078757E2,3.515675E1,1.6140045E2,1.3350859E3,3.7103672E1,2.6212488E2,1.9035904E1,3.826875E1,1.3470259E2,1.8296536E2,1.1369651E2,4.7091045E1,3.86932E1,1.2270726E2,2.094667E1,1.3141393E3,5.821178E1,2.039131E2,3.7114216E1,9.758836E1,1.5186604E2,3.1099321E1,5.934033E1,5.4356186E1,1.9189957E1,2.790109E1,1.9231148E1,1.9462051E1,3.767479E1,8.503247E1,1.537871E2,1.1603522E3,1.9676897E1,3.853488E1,5.5121635E1,1.4879146E2],"tree_param":{"num_deleted":"12","num_feature":"134","num_nodes":"73","size_leaf_vector":"0"}},{"base_weights":[7.950072E-3,-7.900539E-1,2.627623E-1,-1.1211301E0,-4.7688395E-1,4.336606E-1,-5.8004475E-1,-8.54943E-1,-1.3916035E0,-3.5176894E-1,-1.4174899E0,-9.782816E-1,5.095659E-1,5.5605245E-1,-7.097105E-1,-4.3564987E-1,-1.2073599E0,-1.4889485E0,-7.852549E-1,-1.4415872E-1,-9.3669474E-1,-1.6124113E0,-1.1660496E0,-1.4232923E0,6.358723E-1,1.7474648E-1,6.180727E-1,4.561368E-1,-7.905752E-1,-9.7253406E-1,-1.310748E-1,-1.4451226E0,-7.2837126E-1,-1.0896075E0,-1.5663295E0,6.1643636E-1,-2.9339877E-1,-2.5502318E-1,-1.2796415E0,-9.476235E-1,-1.5780894E0,5.8778524E-1,-4.816943E-2,6.531373E-1,-6.3734525E-1,-1.4011214E0,-7.127182E-1,6.007204E-1,-8.348693E-1,-1.6118613E0,-1.0326161E0,-1.6354588E0,-1.2195226E0,-7.0407254E-1,-4.0692247E-2,-1.5162206E0,-8.711713E-1,1.0818905E0,2.9660767E-1,1.3754861E-1,-6.486785E-1,7.2850186E-1,6.9438E-2,1.3708831E-1,-7.823351E-1,-2.4749713E-2,-9.6197474E-1,2.5608918E-1,-7.369878E-1,1.4381369E0,8.2971513E-1,-4.2402747E-1,5.056833E-1,-5.7366572E-2,6.5866554E-1,-1.1656641E0,1.962329E-2,4.230447E-1,8.542709E-1,-6.3029194E-1,2.9679698E-1,-5.072387E-1,-9.92306E-1],"categories":[],"categories_nodes":[],"categories_segments":[],"categories_sizes":[],"default_left":[1,1,1,1,1,1,1,1,1,1,1,1,1,0,1,1,1,1,0,1,1,1,1,1,0,1,1,0,1,0,1,1,0,1,1,0,1,0,1,1,1,1,1,1,0,0,1,0,0,1,1,1,1,1,1,1,1,1,1,1,1,1,1,0,1,0,0,0,0,1,1,0,0,0,0,0,0,0,0,0,0,0,0],"id":7,"left_children":[1,3,5,7,9,11,13,15,17,19,-1,23,25,-1,27,29,31,-1,-1,35,37,-1,-1,-1,-1,41,43,-1,45,-1,47,-1,-1,-1,-1,-1,53,-1,-1,-1,-1,57,59,61,-1,-1,63,-1,-1,-1,-1,-1,-1,65,67,-1,-1,-1,71,73,75,77,79,-1,81,-1,-1,-1,-1,-1,-1,-1,-1,-1,-1,-1,-1,-1,-1,-1,-1,-1,-1],"loss_changes":[5.7476965E2,7.039798E1,3.0884174E2,2.269992E1,4.1080513E1,1.9146674E2,5.366638E1,2.4568611E1,8.451263E0,3.789446E1,1.3658142E-1,6.644925E1,6.134842E1,0E0,3.1001953E1,1.2810225E1,9.391556E0,2.5987244E0,0E0,2.655066E1,1.8809105E1,0E0,0E0,3.7940216E0,0E0,3.827774E1,5.6638824E1,0E0,1.3466492E1,0E0,2.709629E1,2.480957E0,0E0,0E0,7.4884033E-1,0E0,2.0196169E1,0E0,3.917488E0,0E0,0E0,2.064006E1,3.0282936E1,5.4628113E1,0E0,0E0,1.6194351E1,0E0,0E0,0E0,0E0,0E0,0E0,1.2971821E1,2.5338844E1,0E0,0E0,3.6259232E0,1.4233659E1,2.1125265E1,2.2178627E1,4.1925415E1,2.2975166E1,0E0,1.4022797E1,0E0,0E0,0E0,0E0,0E0,0E0,0E0,0E0,0E0,0E0,0E0,0E0,0E0,0E0,0E0,0E0,0E0,0E0],"parents":[2147483647,0,0,1,1,2,2,3,3,4,4,5,5,6,6,7,7,8,8,9,9,10,10,11,11,12,12,14,14,15,15,16,16,17,17,19,19,20,20,23,23,25,25,26,26,28,28,30,30,31,31,34,34,36,36,38,38,41,41,42,42,43,43,46,46,53,53,54,54,57,57,58,58,59,59,60,60,61,61,62,62,64,64],"right_children":[2,4,6,8,10,12,14,16,18,20,-1,24,26,-1,28,30,32,-1,-1,36,38,-1,-1,-1,-1,42,44,-1,46,-1,48,-1,-1,-1,-1,-1,54,-1,-1,-1,-1,58,60,62,-1,-1,64,-1,-1,-1,-1,-1,-1,66,68,-1,-1,-1,72,74,76,78,80,-1,82,-1,-1,-1,-1,-1,-1,-1,-1,-1,-1,-1,-1,-1,-1,-1,-1,-1,-1],"split_conditions":[9.6170413E-1,9.436034E-1,4.601578E-4,-2.0836254E-3,7.28768E-4,-6.903388E-4,-5.8158414E-5,-1.8618742E-3,-1.723022E-2,-1.3604012E-3,-4.2524695E-2,-1.820834E-4,9.734472E-1,1.6681572E-2,5.057955E-6,-3.2501353E-4,-1.0544807E-6,-4.4668455E-2,-2.3557646E-2,-2.341223E-5,-6.3307253E-3,-4.8372336E-2,-3.4981485E-2,-4.2698767E-2,1.9076169E-2,-6.8416234E-6,4.6336843E-4,1.3684103E-2,-1.084962E-3,-2.9176021E-2,2.5330333E-4,-4.3353677E-2,-2.1851137E-2,-3.2688223E-2,-4.6989884E-2,1.849309E-2,-5.1822553E-6,-7.6506953E-3,-3.8389243E-2,-2.8428704E-2,-4.734268E-2,-1.2789178E-5,-1.3916446E-3,-2.7713336E-3,-1.9120358E-2,-4.203364E-2,-5.791835E-6,1.8021611E-2,-2.5046078E-2,-4.835584E-2,-3.0978484E-2,-4.9063765E-2,-3.6585677E-2,-2.1211933E-3,2.0271393E-3,-4.5486618E-2,-2.613514E-2,3.2456715E-2,-5.788236E-4,-1.2676889E-1,-1.4128402E-1,-2.1428356E-7,9.814175E-1,4.1126492E-3,-7.659783E-4,-7.424914E-4,-2.8859241E-2,7.682675E-3,-2.2109635E-2,4.3144107E-2,2.4891453E-2,-1.2720824E-2,1.5170499E-2,-1.7209972E-3,1.9759966E-2,-3.4969922E-2,5.886987E-4,1.2691341E-2,2.5628125E-2,-1.8908758E-2,8.9039095E-3,-1.521716E-2,-2.9769178E-2],"split_indices":[1,1,72,52,48,72,103,94,71,52,11,103,1,0,48,72,59,126,0,75,39,2147483647,2147483647,26,0,31,103,0,63,0,86,127,0,2147483647,2147483647,0,51,0,17,2147483647,2147483647,75,52,47,0,0,7,0,0,2147483647,2147483647,2147483647,2147483647,107,58,2147483647,2147483647,43,56,0,131,20,1,0,67,0,0,0,0,2147483647,2147483647,0,0,0,0,0,0,0,0,0,0,0,0],"split_type":[0,0,0,0,0,0,0,0,0,0,0,0,0,0,0,0,0,0,0,0,0,0,0,0,0,0,0,0,0,0,0,0,0,0,0,0,0,0,0,0,0,0,0,0,0,0,0,0,0,0,0,0,0,0,0,0,0,0,0,0,0,0,0,0,0,0,0,0,0,0,0,0,0,0,0,0,0,0,0,0,0,0,0],"sum_hessian":[2.8246062E3,6.831287E2,2.1414775E3,3.3081677E2,3.5231192E2,1.7808542E3,3.6062323E2,1.6882657E2,1.6199022E2,3.121634E2,4.014854E1,9.024707E1,1.6906072E3,3.6605656E1,3.2401758E2,7.811925E1,9.070732E1,1.3832715E2,2.3663065E1,2.3131001E2,8.0853386E1,1.9567068E1,2.0581472E1,7.083626E1,1.941081E1,4.144254E2,1.2761818E3,2.0715553E1,3.0330203E2,2.7482279E1,5.063697E1,5.9269714E1,3.1437605E1,2.4901045E1,1.134261E2,3.7428226E1,1.9388177E2,2.7645784E1,5.3207603E1,1.9140871E1,5.169539E1,1.4469136E2,2.6973404E2,1.2419724E3,3.4209354E1,3.2380627E1,2.709214E2,2.4896456E1,2.5740513E1,4.0138065E1,1.9131649E1,9.147628E1,2.1949825E1,7.317646E1,1.20705315E2,3.197581E1,2.1231794E1,5.2643673E1,9.204769E1,2.0660786E2,6.312619E1,1.099732E3,1.4224039E2,2.044024E1,2.5048116E2,2.0438019E1,5.273844E1,8.507577E1,3.5629555E1,1.9870213E1,3.277346E1,2.0468704E1,7.157899E1,1.5101363E2,5.5594234E1,3.517289E1,2.7953299E1,3.220143E2,7.777178E2,3.444836E1,1.07792015E2,1.0990427E2,1.4057689E2],"tree_param":{"num_deleted":"14","num_feature":"134","num_nodes":"83","size_leaf_vector":"0"}},{"base_weights":[7.5958814E-3,-7.694982E-1,2.552781E-1,-1.3116813E0,-5.8495367E-1,4.2130744E-1,-5.640345E-1,-7.959788E-1,-1.4113775E0,-4.2819497E-1,-1.3417832E0,-9.5392686E-1,4.9497876E-1,2.437971E-1,-7.386318E-1,-1.5779073E0,-1.0512284E0,-1.2312928E0,-2.3717543E-1,-1.4833208E0,-9.55372E-1,-1.3896737E0,6.180811E-1,-2.8544782E-2,5.635919E-1,-5.3258132E-2,8.600646E-1,2.0680292E-2,-8.489753E-1,-7.256241E-1,-1.3061953E0,-1.474313E0,-6.086709E-1,7.803412E-1,-3.234259E-1,-1.1004932E0,-1.665858E0,-9.1217667E-1,-1.5457556E0,1.5731728E-1,-8.580514E-1,6.287495E-1,-3.3755362E-2,3.9861155E-1,-4.6630654E-1,-1.8370655E-1,-9.495457E-1,-1.0940193E0,-1.6340704E0,-7.099283E-1,-3.7189715E-2,-1.1563044E-1,8.062713E-1,3.1424004E-1,7.4736553E-1,-1.2705277E0,2.3953518E-1,-6.096152E-1,-1.121104E0,-3.6681164E-2,-9.638409E-1,1.3223357E-1,-8.4458846E-1,-5.806734E-1,2.678676E-1,1.8607147E-1,1.2486573E0,-8.04628E-3,6.140071E-1,7.758598E-1,-5.741395E-1,-6.9365233E-1,4.2032152E-1,-1.8330346E-1,-1.031964E0,-4.0725914E-1,-1.2233067E0],"categories":[],"categories_nodes":[],"categories_segments":[],"categories_sizes":[],"default_left":[1,1,1,1,1,1,1,1,1,1,1,1,1,1,1,1,1,1,1,1,1,1,0,1,1,1,0,0,1,1,1,1,0,0,1,1,1,1,1,1,0,1,1,0,0,0,1,1,1,1,1,1,1,1,1,0,1,1,1,0,0,0,0,0,0,0,0,0,0,0,0,0,0,0,0,0,0],"id":8,"left_children":[1,3,5,-1,9,11,13,-1,-1,17,-1,21,23,25,27,-1,-1,31,33,-1,-1,-1,-1,39,41,43,-1,-1,45,-1,-1,-1,-1,-1,49,-1,-1,-1,-1,51,-1,53,55,-1,-1,-1,57,-1,-1,59,61,63,65,67,69,-1,71,73,75,-1,-1,-1,-1,-1,-1,-1,-1,-1,-1,-1,-1,-1,-1,-1,-1,-1,-1],"loss_changes":[5.42917E2,6.744766E1,2.9120166E2,7.7362366E0,5.9983887E1,1.8072513E2,5.1075165E1,0E0,6.924408E0,6.480251E1,3.3473816E0,6.3059097E1,6.0697662E1,1.1923233E1,2.489853E1,0E0,3.057499E0,1.1403397E1,3.044484E1,2.4958954E0,0E0,3.9116516E0,0E0,3.0461014E1,5.815564E1,8.532634E0,0E0,0E0,1.7174805E1,0E0,0E0,1.7220688E0,0E0,0E0,3.513801E1,0E0,0E0,0E0,0E0,2.8706821E1,0E0,5.0007812E1,5.027655E1,0E0,0E0,0E0,1.2438919E1,0E0,0E0,2.3073906E1,2.5236103E1,2.0591356E1,1.292428E1,3.580454E1,3.724298E1,0E0,2.0862333E1,1.3794384E1,1.0324982E1,0E0,0E0,0E0,0E0,0E0,0E0,0E0,0E0,0E0,0E0,0E0,0E0,0E0,0E0,0E0,0E0,0E0,0E0],"parents":[2147483647,0,0,1,1,2,2,3,3,4,4,5,5,6,6,8,8,9,9,10,10,11,11,12,12,13,13,14,14,16,16,17,17,18,18,19,19,21,21,23,23,24,24,25,25,28,28,31,31,34,34,39,39,41,41,42,42,46,46,49,49,50,50,51,51,52,52,53,53,54,54,56,56,57,57,58,58],"right_children":[2,4,6,-1,10,12,14,-1,-1,18,-1,22,24,26,28,-1,-1,32,34,-1,-1,-1,-1,40,42,44,-1,-1,46,-1,-1,-1,-1,-1,50,-1,-1,-1,-1,52,-1,54,56,-1,-1,-1,58,-1,-1,60,62,64,66,68,70,-1,72,74,76,-1,-1,-1,-1,-1,-1,-1,-1,-1,-1,-1,-1,-1,-1,-1,-1,-1,-1],"split_conditions":[9.6170413E-1,9.204571E-1,4.601578E-4,-3.935044E-2,1.031291E-3,-6.903388E-4,2.0135604E-4,-2.3879362E-2,-4.2341325E-2,-1.0761991E-3,-4.0253494E-2,-1.820834E-4,-3.9348774E-7,1.0965941E-3,-1.1672658E-4,-4.733722E-2,-3.153685E-2,-3.3338257E-4,-1.7662816E-2,-4.4499625E-2,-2.8661158E-2,-4.169021E-2,1.8542433E-2,-1.7053884E-4,-2.0635887E-3,3.409719E-5,2.5801938E-2,6.2040874E-4,-2.2462918E-5,-2.1768723E-2,-3.9185856E-2,-4.422939E-2,-1.8260127E-2,2.3410236E-2,-6.322877E-10,-3.3014797E-2,-4.997574E-2,-2.7365299E-2,-4.6372667E-2,7.163396E-3,-2.5741542E-2,-5.0487715E-6,-2.3737185E-2,1.1958346E-2,-1.3989196E-2,-5.5111963E-3,-6.447072E-3,-3.282058E-2,-4.9022112E-2,-2.8894785E-6,-3.7256952E-3,-1.156865E-3,-4.3214606E-3,-8.0929595E-7,5.3884997E-4,-3.811583E-2,-8.686898E-5,-1.5493029E-7,-1.9039519E-4,-1.1004349E-3,-2.8915226E-2,3.967007E-3,-2.5337653E-2,-1.74202E-2,8.036028E-3,5.582144E-3,3.745972E-2,-2.4138838E-4,1.8420214E-2,2.3275793E-2,-1.7224183E-2,-2.080957E-2,1.2609646E-2,-5.4991036E-3,-3.0958917E-2,-1.2217774E-2,-3.66992E-2],"split_indices":[1,1,72,52,33,72,43,2147483647,2147483647,119,87,103,81,69,119,2147483647,2147483647,72,91,2147483647,2147483647,26,0,115,39,14,0,0,17,2147483647,2147483647,94,0,0,123,2147483647,2147483647,2147483647,2147483647,129,0,133,102,0,0,0,16,2147483647,2147483647,93,104,34,99,112,103,0,48,7,84,0,0,0,0,0,0,0,0,0,0,0,0,0,0,0,0,0,0],"split_type":[0,0,0,0,0,0,0,0,0,0,0,0,0,0,0,0,0,0,0,0,0,0,0,0,0,0,0,0,0,0,0,0,0,0,0,0,0,0,0,0,0,0,0,0,0,0,0,0,0,0,0,0,0,0,0,0,0,0,0,0,0,0,0,0,0,0,0,0,0,0,0,0,0,0,0,0,0],"sum_hessian":[2.818732E3,6.807612E2,2.1379707E3,1.7132092E2,5.094403E2,1.7781283E3,3.5984244E2,2.9209906E1,1.4211101E2,4.233247E2,8.611559E1,8.9803505E1,1.6883248E3,6.3880756E1,2.959617E2,9.4865E1,4.7246014E1,8.029536E1,3.4302936E2,6.0951202E1,2.516439E1,7.04041E1,1.939941E1,1.9570027E2,1.4926245E3,4.3720192E1,2.0160566E1,3.765527E1,2.5830643E2,2.2437826E1,2.4808186E1,5.676937E1,2.352599E1,2.6176128E1,3.168532E2,2.1948479E1,3.9002724E1,1.9030088E1,5.1374004E1,1.6053958E2,3.5160694E1,1.345777E3,1.4684758E2,2.0895613E1,2.282458E1,3.429213E1,2.240143E2,1.9115038E1,3.765433E1,1.3418462E2,1.8266861E2,1.1358709E2,4.6952496E1,3.695547E2,9.762222E2,2.591602E1,1.20931564E2,7.6663826E1,1.4735046E2,3.706132E1,9.71233E1,1.5167714E2,3.0991468E1,5.1103306E1,6.2483784E1,2.0139158E1,2.6813335E1,1.7855711E2,1.9099759E2,9.560214E2,2.0200792E1,1.916554E1,1.0176603E2,3.8866573E1,3.7797253E1,1.9078636E1,1.2827184E2],"tree_param":{"num_deleted":"14","num_feature":"134","num_nodes":"77","size_leaf_vector":"0"}},{"base_weights":[7.271465E-3,-8.87927E-1,2.1100505E-1,-4.1648006E-1,-1.0984125E0,3.9672443E-1,-4.7355208E-1,9.145645E-2,-8.208595E-1,-7.6319057E-1,-1.2988154E0,-1.0851643E0,4.719255E-1,4.115333E-1,-7.5407517E-1,-2.0749009E-1,8.269326E-1,-3.8348022E-1,-1.0787704E0,-1.2192347E0,-3.2276747E-1,-1.5324756E0,-1.0990577E0,-1.384401E0,-7.422421E-3,7.9666525E-2,6.003358E-1,6.3161093E-1,-6.313161E-1,-4.8608646E-2,-8.728847E-1,4.6837318E-1,-6.317544E-1,-1.3820688E0,-6.8205804E-1,-7.189257E-1,-1.41012E0,4.1424933E-1,-6.670545E-1,-4.201738E-1,-1.2191232E0,-9.386558E-1,-1.538509E0,9.545175E-1,-4.185231E-2,6.742844E-1,-1.1011022E-2,8.9491315E-2,9.979975E-1,-7.4422204E-1,4.519303E-1,-1.296725E-1,-9.655864E-1,-1.5948069E0,-1.1126877E0,-1.2271495E0,-1.7312843E-1,-1.3557462E0,-7.070594E-1,2.8550535E-1,1.337733E0,-4.5395455E-1,2.0257245E-1,2.8416717E-1,7.603663E-1,-1.1298883E0,1.9154088E-1,6.4017844E-1,-5.0589913E-1,5.52868E-1,1.287272E0,-1.0768522E0,-3.8662183E-1,-9.190154E-1,-1.4746361E0,1.9795495E-1,-6.9428843E-1,1.2368064E0,9.846095E-2,-4.6661797E-1,6.104903E-1,-2.5561005E-1,7.9366636E-1,4.2174324E-1,-5.992426E-1,-4.3366897E-1,-1.1414632E0,-7.554653E-1,1.1691216E-1],"categories":[],"categories_nodes":[],"categories_segments":[],"categories_sizes":[],"default_left":[1,1,1,1,1,1,1,1,1,1,1,1,1,1,1,1,0,0,1,1,1,0,1,1,0,1,1,1,0,1,1,0,0,1,1,1,1,0,1,0,1,1,1,1,1,1,1,1,1,0,0,0,1,1,1,0,0,1,1,0,0,1,1,1,1,0,1,0,0,1,1,1,1,1,1,0,0,0,0,0,0,0,0,0,0,0,0,0,0],"id":9,"left_children":[1,3,5,7,9,11,13,15,17,19,21,23,25,27,29,31,-1,-1,-1,-1,37,-1,39,-1,-1,43,45,47,-1,49,51,-1,-1,-1,-1,-1,-1,-1,55,-1,-1,-1,-1,59,61,63,65,67,-1,-1,-1,-1,71,-1,-1,-1,-1,-1,-1,-1,-1,75,77,79,81,-1,83,-1,-1,-1,-1,85,87,-1,-1,-1,-1,-1,-1,-1,-1,-1,-1,-1,-1,-1,-1,-1,-1],"loss_changes":[5.1337805E2,5.1327515E1,2.9170578E2,3.349066E1,2.320459E1,2.0157016E2,1.21916756E2,1.6224056E1,9.815075E0,2.7159515E1,8.770355E0,2.8188484E1,8.64754E1,2.760027E1,3.1159027E1,1.541002E1,0E0,0E0,5.854294E0,5.3881836E0,1.8329172E1,0E0,9.618652E0,3.2565918E0,0E0,4.520016E1,5.8504883E1,1.9448967E1,0E0,1.9387411E1,2.1821594E1,0E0,0E0,0E0,0E0,0E0,8.337555E-1,0E0,1.33088455E1,0E0,6.3931274E0,0E0,0E0,1.2911297E1,3.775852E1,3.8549194E1,3.2083363E1,1.3690826E1,6.833767E0,0E0,0E0,0E0,1.7818329E1,0E0,0E0,0E0,0E0,2.89534E0,0E0,0E0,0E0,2.1998049E1,2.5226772E1,5.179976E1,3.217682E1,0E0,2.2081802E1,0E0,0E0,0E0,0E0,9.348663E0,8.852743E0,0E0,0E0,0E0,0E0,0E0,0E0,0E0,0E0,0E0,0E0,0E0,0E0,0E0,0E0,0E0,0E0],"parents":[2147483647,0,0,1,1,2,2,3,3,4,4,5,5,6,6,7,7,8,8,9,9,10,10,11,11,12,12,13,13,14,14,15,15,18,18,19,19,20,20,22,22,23,23,25,25,26,26,27,27,29,29,30,30,36,36,38,38,40,40,43,43,44,44,45,45,46,46,47,47,48,48,52,52,57,57,61,61,62,62,63,63,64,64,66,66,71,71,72,72],"right_children":[2,4,6,8,10,12,14,16,18,20,22,24,26,28,30,32,-1,-1,-1,-1,38,-1,40,-1,-1,44,46,48,-1,50,52,-1,-1,-1,-1,-1,-1,-1,56,-1,-1,-1,-1,60,62,64,66,68,-1,-1,-1,-1,72,-1,-1,-1,-1,-1,-1,-1,-1,76,78,80,82,-1,84,-1,-1,-1,-1,86,88,-1,-1,-1,-1,-1,-1,-1,-1,-1,-1,-1,-1,-1,-1,-1,-1],"split_conditions":[9.556382E-1,-8.093055E-3,3.6934396E-4,-4.5279018E-3,-1.6477899E-4,-7.5354043E-4,1.5067766E-4,-1.1332363E-2,-8.095872E-5,-4.5832976E-6,-1.0609249E-2,-6.675141E-5,9.719842E-1,-1.1045209E-3,-1.1672658E-4,-2.0580793E-2,2.4807978E-2,-1.1504406E-2,-3.2363113E-2,-3.6577042E-2,-1.553402E-5,-4.5974266E-2,-5.9669037E-6,-4.153203E-2,-2.2267264E-4,-2.5100871E-5,-2.7489797E-3,-7.46621E-3,-1.8939484E-2,-1.8956768E-3,-2.696878E-5,1.4051195E-2,-1.8952632E-2,-4.146206E-2,-2.046174E-2,-2.1567771E-2,-4.23036E-2,1.242748E-2,-9.3496917E-4,-1.2605214E-2,-3.6573697E-2,-2.8159672E-2,-4.615527E-2,-9.143483E-3,-3.8181784E-6,-1.9778619E-3,-7.95869E-5,-1.4010311E-6,2.9939925E-2,-2.2326661E-2,1.3557909E-2,-3.890175E-3,-1.881956E-2,-4.7844205E-2,-3.338063E-2,-3.6814485E-2,-5.193853E-3,-4.0672384E-2,-2.121178E-2,8.56516E-3,4.013199E-2,-7.1166414E-6,-2.9878995E-6,-1.5156815E-4,-1.0603869E-3,-3.3896647E-2,-9.5305535E-5,1.9205352E-2,-1.5176973E-2,1.658604E-2,3.861816E-2,-4.6667596E-3,-1.2753679E-2,-2.7570462E-2,-4.423908E-2,5.9386482E-3,-2.0828653E-2,3.710419E-2,2.9538285E-3,-1.3998539E-2,1.831471E-2,-7.6683015E-3,2.380999E-2,1.2652297E-2,-1.7977279E-2,-1.3010069E-2,-3.4243893E-2,-2.266396E-2,3.5073645E-3],"split_indices":[1,39,33,99,23,72,43,47,92,59,73,48,1,52,119,39,0,0,59,41,75,0,101,26,0,31,47,29,0,34,17,0,0,2147483647,2147483647,2147483647,2147483647,0,83,0,133,2147483647,2147483647,29,133,83,48,31,28,0,0,0,113,2147483647,2147483647,0,0,2147483647,2147483647,0,0,31,101,33,51,0,18,0,0,2147483647,2147483647,23,71,2147483647,2147483647,0,0,0,0,0,0,0,0,0,0,0,0,0,0],"split_type":[0,0,0,0,0,0,0,0,0,0,0,0,0,0,0,0,0,0,0,0,0,0,0,0,0,0,0,0,0,0,0,0,0,0,0,0,0,0,0,0,0,0,0,0,0,0,0,0,0,0,0,0,0,0,0,0,0,0,0,0,0,0,0,0,0,0,0,0,0,0,0,0,0,0,0,0,0,0,0,0,0,0,0,0,0,0,0,0,0],"sum_hessian":[2.8128232E3,5.2085333E2,2.29197E3,1.6168619E2,3.591671E2,1.8031881E3,4.887819E2,7.200958E1,8.9676605E1,1.361806E2,2.2298653E2,8.6437996E1,1.7167501E3,1.1752111E2,3.7126077E2,5.1709343E1,2.0300241E1,3.4187115E1,5.548949E1,6.603506E1,7.0145546E1,9.969722E1,1.2328931E2,6.743111E1,1.9006887E1,4.2379388E2,1.2929562E3,9.736751E1,2.0153603E1,5.3715908E1,3.1754486E2,1.9901619E1,3.1807726E1,3.003955E1,2.5449938E1,1.9553015E1,4.648204E1,2.226963E1,4.787591E1,1.9204014E1,1.0408529E2,1.914542E1,4.828569E1,5.085054E1,3.7294336E2,1.1533445E3,1.3961174E2,3.976861E1,5.7598896E1,2.2274103E1,3.1441805E1,3.548131E1,2.8206357E2,2.5985039E1,2.0497002E1,2.1739542E1,2.6136372E1,8.086279E1,2.3222494E1,1.9155018E1,3.1695524E1,1.3852753E2,2.3441583E2,2.092661E2,9.4407837E2,2.0698261E1,1.18913475E2,2.0620821E1,1.9147787E1,2.383434E1,3.376456E1,2.358733E2,4.6190247E1,1.9170763E1,6.169203E1,3.736115E1,1.01166374E2,2.0444311E1,2.1397153E2,6.3269474E1,1.4599663E2,2.9749586E1,9.143288E2,9.246343E1,2.6450047E1,2.2235666E1,2.1363763E2,2.6372103E1,1.9818144E1],"tree_param":{"num_deleted":"14","num_feature":"134","num_nodes":"89","size_leaf_vector":"0"}},{"base_weights":[6.971642E-3,-8.654849E-1,2.0502491E-1,-4.048781E-1,-1.0719006E0,3.5457376E-1,-5.995994E-1,8.900869E-2,-7.990489E-1,-7.4327576E-1,-1.269065E0,-1.0210314E0,4.2309275E-1,6.238252E-2,-8.1524223E-1,8.295946E-1,-1.930204E-1,-3.7273598E-1,-1.051129E0,-1.1898793E0,-3.1387344E-1,-1.5005842E0,-1.0719668E0,-1.4834551E0,4.1836134E-1,6.2267233E-2,5.426473E-1,5.1126945E-1,-3.8547134E-1,-8.31375E-2,-9.353613E-1,-7.3704886E-1,4.690984E-1,-1.3570493E0,-6.5287E-1,-6.875156E-1,-1.3823298E0,4.0208986E-1,-6.4919084E-1,-4.089592E-1,-1.1896615E0,-1.6017641E0,-1.1112647E0,2.5315636E-1,-3.791223E-1,5.7207143E-1,-6.731321E-1,9.077764E-1,2.0388043E-2,-9.3667597E-1,2.773378E-1,5.0443786E-1,-6.6207856E-1,-5.6841195E-1,-1.1345463E0,-1.5688467E0,-1.0836712E0,-1.196283E0,-1.6821186E-1,-1.3273128E0,-6.7544264E-1,4.5908738E-2,7.1411467E-1,-2.0569022E-1,-1.3670406E0,6.1097664E-1,-2.7695334E-1,-5.8932625E-2,-8.7068206E-1,-1.3624691E0,-8.5159713E-1,-8.881046E-1,-1.4475867E0,1.0522368E0,-5.537068E-2,-2.1575858E-1,9.3820673E-1,-9.107126E-1,3.1240063E-2,1.2547375E-1,6.8613446E-1,-1.1125252E0,4.6270615E-1,-4.3234143E-1,-1.3173554E0,-1.4807745E0,-9.9438566E-1,-2.0822805E-1,-1.0924507E0],"categories":[],"categories_nodes":[],"categories_segments":[],"categories_sizes":[],"default_left":[1,1,1,1,1,1,1,1,1,1,1,1,1,1,1,0,1,0,1,1,1,0,1,1,0,1,1,1,1,1,1,0,0,1,1,1,1,0,1,0,1,1,1,1,1,1,0,0,0,0,0,0,0,1,1,1,1,0,0,1,1,1,1,1,0,1,1,0,1,1,1,1,1,0,0,0,0,0,0,0,0,0,0,0,0,1,1,0,0],"id":10,"left_children":[1,3,5,7,9,11,13,15,17,19,21,23,25,27,29,-1,31,-1,-1,-1,37,-1,39,-1,-1,43,45,47,49,51,53,-1,-1,-1,-1,-1,-1,-1,57,-1,-1,-1,-1,61,63,65,-1,-1,-1,-1,-1,-1,-1,67,69,-1,-1,-1,-1,-1,-1,73,75,77,-1,79,81,-1,83,-1,87,-1,-1,-1,-1,-1,-1,-1,-1,-1,-1,-1,-1,-1,-1,-1,-1,-1,-1],"loss_changes":[4.8528015E2,4.8966644E1,2.7562955E2,3.1686071E1,2.2264984E1,1.8241318E2,5.1313507E1,1.5403493E1,9.324833E0,2.5847702E1,8.542725E0,6.1790024E1,7.9333435E1,1.8122429E1,2.3748535E1,0E0,1.9676449E1,0E0,5.9696884E0,5.494766E0,1.7322193E1,0E0,9.163254E0,1.2924347E0,0E0,3.8771168E1,4.9817047E1,8.732604E0,1.677476E1,1.3697887E1,1.635991E1,0E0,0E0,0E0,0E0,0E0,9.297333E-1,0E0,1.2635044E1,0E0,6.500061E0,0E0,0E0,3.0636654E1,2.353133E1,4.47518E1,0E0,0E0,0E0,0E0,0E0,0E0,0E0,1.2863016E1,8.500015E0,0E0,0E0,0E0,0E0,3.0140686E0,0E0,2.2739017E1,2.0936497E1,1.9973671E1,0E0,4.701718E1,3.7489616E1,0E0,9.721439E0,2.0677338E0,1.0541576E1,0E0,0E0,0E0,0E0,0E0,0E0,0E0,0E0,0E0,0E0,0E0,0E0,0E0,0E0,0E0,0E0,0E0,0E0],"parents":[2147483647,0,0,1,1,2,2,3,3,4,4,5,5,6,6,7,7,8,8,9,9,10,10,11,11,12,12,13,13,14,14,16,16,18,18,19,19,20,20,22,22,23,23,25,25,26,26,27,27,28,28,29,29,30,30,36,36,38,38,40,40,43,43,44,44,45,45,53,53,54,54,59,59,61,61,62,62,63,63,65,65,66,66,68,68,69,69,70,70],"right_children":[2,4,6,8,10,12,14,16,18,20,22,24,26,28,30,-1,32,-1,-1,-1,38,-1,40,-1,-1,44,46,48,50,52,54,-1,-1,-1,-1,-1,-1,-1,58,-1,-1,-1,-1,62,64,66,-1,-1,-1,-1,-1,-1,-1,68,70,-1,-1,-1,-1,-1,-1,74,76,78,-1,80,82,-1,84,-1,88,-1,-1,-1,-1,-1,-1,-1,-1,-1,-1,-1,-1,-1,-1,-1,-1,-1,-1],"split_conditions":[9.556382E-1,-8.093055E-3,5.139409E-4,-4.5279018E-3,-1.6477899E-4,-6.4421175E-3,3.329091E-4,-3.0503207E-4,-8.095872E-5,-4.5832976E-6,-1.0609249E-2,2.3655924E-5,9.7197235E-1,2.158111E-4,-4.979477E-5,2.4887837E-2,-7.916055E-13,-1.1182079E-2,-3.1533867E-2,-3.569638E-2,-1.553402E-5,-4.5017526E-2,-5.9669037E-6,-4.450365E-2,1.255084E-2,-4.330269E-3,5.125525E-4,3.3628612E-4,-3.8527432E-6,-5.827884E-3,-2.1649033E-7,-2.2111466E-2,1.4072951E-2,-4.071148E-2,-1.95861E-2,-2.0625468E-2,-4.1469894E-2,1.2062696E-2,-9.3496917E-4,-1.2268776E-2,-3.5689846E-2,-4.8052922E-2,-3.333794E-2,-6.563938E-11,-4.7334033E-5,1.0376894E-2,-2.0193962E-2,2.7233291E-2,6.1164127E-4,-2.8100278E-2,8.320133E-3,1.5133136E-2,-1.9862356E-2,-1.1251713E-3,1.6196104E-3,-4.70654E-2,-3.2510135E-2,-3.588849E-2,-5.0463555E-3,-3.9819382E-2,-2.0263279E-2,-4.781953E-6,-1.3539278E-7,-7.969797E-5,-4.1011218E-2,-2.409124E-7,8.221215E-5,-1.7679787E-3,-3.4684167E-6,-4.087407E-2,8.164678E-5,-2.6643138E-2,-4.3427598E-2,3.1567104E-2,-1.6611204E-3,-6.472757E-3,2.8146202E-2,-2.7321378E-2,9.3720184E-4,3.7642126E-3,2.0584034E-2,-3.3375755E-2,1.3881184E-2,-1.2970243E-2,-3.9520662E-2,-4.4423234E-2,-2.983157E-2,-6.2468415E-3,-3.277352E-2],"split_indices":[1,39,72,99,23,83,48,84,92,59,73,53,1,98,119,0,123,0,59,41,75,0,101,129,0,39,103,119,62,39,46,0,0,2147483647,2147483647,2147483647,2147483647,0,83,0,133,2147483647,2147483647,106,16,132,0,0,0,0,0,0,0,67,105,2147483647,2147483647,0,0,2147483647,2147483647,101,81,133,0,81,43,0,87,127,17,2147483647,2147483647,0,0,0,0,0,0,0,0,0,0,0,0,2147483647,2147483647,0,0],"split_type":[0,0,0,0,0,0,0,0,0,0,0,0,0,0,0,0,0,0,0,0,0,0,0,0,0,0,0,0,0,0,0,0,0,0,0,0,0,0,0,0,0,0,0,0,0,0,0,0,0,0,0,0,0,0,0,0,0,0,0,0,0,0,0,0,0,0,0,0,0,0,0,0,0,0,0,0,0,0,0,0,0,0,0,0,0,0,0,0,0],"sum_hessian":[2.806423E3,5.1858826E2,2.2878347E3,1.6139795E2,3.571903E2,1.9297311E3,3.581038E2,7.198128E1,8.941667E1,1.3573051E2,2.214598E2,9.089987E1,1.8388312E3,8.8164986E1,2.699388E2,1.9316408E1,5.266487E1,3.414684E1,5.5269836E1,6.5664536E1,7.006597E1,9.879639E1,1.2266341E2,6.877454E1,2.2125332E1,4.5801752E2,1.3808137E3,4.396099E1,4.4203995E1,3.82858E1,2.31653E2,2.8848442E1,2.381643E1,2.9897099E1,2.5372738E1,1.9454325E1,4.6210213E1,2.228479E1,4.7781185E1,1.9166706E1,1.034967E2,4.967927E1,1.909527E1,3.2003668E2,1.3798083E2,1.348702E3,3.2111637E1,2.3848337E1,2.0112654E1,2.3908249E1,2.0295744E1,1.9065077E1,1.9220724E1,8.2859085E1,1.4879391E2,2.5827543E1,2.0382668E1,2.1658464E1,2.6122719E1,8.039462E1,2.3102074E1,2.2153415E2,9.850253E1,1.1840302E2,1.9577803E1,1.289876E3,5.88261E1,3.1299103E1,5.1559986E1,8.029718E1,6.8496735E1,1.908505E1,6.1309574E1,1.939847E1,2.0213568E2,1.9135733E1,7.93668E1,2.9066727E1,8.9336296E1,1.7326863E2,1.1166073E3,2.7385447E1,3.1440653E1,2.7015942E1,2.4544043E1,5.8478672E1,2.1818512E1,1.9165718E1,4.9331013E1],"tree_param":{"num_deleted":"14","num_feature":"134","num_nodes":"89","size_leaf_vector":"0"}},{"base_weights":[6.625916E-3,-8.4395045E-1,1.9915318E-1,-3.9369604E-1,-1.0465385E0,3.7540907E-1,-4.5129612E-1,8.6602494E-2,-7.780138E-1,-7.241251E-1,-1.2407179E0,-1.0421481E0,4.4674847E-1,3.9245316E-1,-7.195421E-1,-2.013422E-1,7.937541E-1,-1.2187706E0,-5.3299683E-1,-1.3405994E0,-4.2166334E-1,-1.4705192E0,-1.0459775E0,-1.3320426E0,-2.6309324E-2,7.644761E-2,5.682693E-1,6.059843E-1,-6.167438E-1,-5.020311E-2,-8.327882E-1,4.4983342E-1,-6.113948E-1,-6.9235E-2,-1.0191708E0,-9.9101496E-1,-1.5670271E0,-1.243236E0,-1.9161373E-1,-3.980532E-1,-1.1614786E0,-8.999624E-1,-1.4855149E0,1.1128439E0,-2.2940071E-2,6.403012E-1,-2.5760785E-2,-2.611198E-2,9.119844E-1,-6.2159276E-1,5.3579175E-1,-1.16585515E-1,-9.226008E-1,3.9695802E-1,-6.749141E-1,-1.300219E0,-6.448392E-1,-4.444693E-1,2.0977575E-1,2.6556388E-1,7.2315204E-1,-1.105414E0,1.6978776E-1,1.1959409E0,2.0073481E-1,-1.0304731E0,-3.6343232E-1,-1.0825945E0,-2.046532E-1,-8.673051E-1,-1.4211339E0,2.3278415E-1,-7.156258E-1,-7.222725E-1,3.157614E-1,-4.5715672E-1,5.806874E-1,-2.6541206E-1,7.5567687E-1,3.9298958E-1,-5.9522325E-1,8.105593E-1,1.4413668E0,-4.040636E-1,-1.093706E0,1.2915494E-1,-7.176511E-1],"categories":[],"categories_nodes":[],"categories_segments":[],"categories_sizes":[],"default_left":[1,1,1,1,1,1,1,1,1,1,1,1,1,1,1,1,0,0,1,1,1,0,1,1,0,1,1,1,0,1,1,0,0,0,0,1,1,0,1,0,1,1,1,0,1,1,1,0,1,0,0,0,1,0,1,1,1,1,1,1,1,0,1,1,0,1,1,1,1,1,1,0,0,0,0,0,0,0,0,0,0,1,1,0,0,0,0],"id":11,"left_children":[1,3,5,7,9,11,13,15,17,19,21,23,25,27,29,31,-1,-1,33,-1,37,-1,39,-1,-1,43,45,47,-1,49,51,-1,-1,-1,-1,-1,-1,-1,53,-1,-1,-1,-1,-1,57,59,61,-1,63,-1,-1,-1,65,-1,-1,-1,-1,71,73,75,77,-1,79,-1,-1,83,85,-1,-1,-1,-1,-1,-1,-1,-1,-1,-1,-1,-1,-1,-1,-1,-1,-1,-1,-1,-1],"loss_changes":[4.5881967E2,4.675888E1,2.620927E2,2.9984955E1,2.1392761E1,1.823023E2,1.1062957E2,1.5012477E1,9.084385E0,2.4837547E1,8.3437805E0,2.542453E1,7.702399E1,2.5857576E1,2.8026001E1,1.4329022E1,0E0,0E0,1.3391863E1,1.9601898E0,1.731154E1,0E0,8.741791E0,3.1219177E0,0E0,4.3732525E1,5.5185303E1,1.9000359E1,0E0,1.86308E1,2.026001E1,0E0,0E0,0E0,0E0,0E0,0E0,0E0,2.1239292E1,0E0,6.606247E0,0E0,0E0,0E0,3.817121E1,3.550992E1,2.9828707E1,0E0,1.3116802E1,0E0,0E0,0E0,1.658789E1,0E0,7.610588E0,3.0017395E0,0E0,2.5581251E1,2.500063E1,4.804319E1,3.0460785E1,0E0,2.0678617E1,3.2830658E0,0E0,8.873932E0,8.297245E0,0E0,0E0,0E0,0E0,0E0,0E0,0E0,0E0,0E0,0E0,0E0,0E0,0E0,0E0,0E0,0E0,0E0,0E0,0E0,0E0],"parents":[2147483647,0,0,1,1,2,2,3,3,4,4,5,5,6,6,7,7,8,8,9,9,10,10,11,11,12,12,13,13,14,14,15,15,18,18,19,19,20,20,22,22,23,23,25,25,26,26,27,27,29,29,30,30,38,38,40,40,44,44,45,45,46,46,48,48,52,52,54,54,55,55,57,57,58,58,59,59,60,60,62,62,63,63,65,65,66,66],"right_children":[2,4,6,8,10,12,14,16,18,20,22,24,26,28,30,32,-1,-1,34,-1,38,-1,40,-1,-1,44,46,48,-1,50,52,-1,-1,-1,-1,-1,-1,-1,54,-1,-1,-1,-1,-1,58,60,62,-1,64,-1,-1,-1,66,-1,-1,-1,-1,72,74,76,78,-1,80,-1,-1,84,86,-1,-1,-1,-1,-1,-1,-1,-1,-1,-1,-1,-1,-1,-1,-1,-1,-1,-1,-1,-1],"split_conditions":[9.556382E-1,-8.093055E-3,3.6934396E-4,-4.5279018E-3,-1.6477899E-4,-7.5354043E-4,1.5067766E-4,-1.1332363E-2,-9.071434E-9,-2.1079108E-2,-1.0609249E-2,-7.336707E-5,9.719842E-1,-1.1045209E-3,-1.1672658E-4,-2.0580793E-2,2.3812622E-2,-3.6563117E-2,5.6408194E-4,-4.021798E-2,-1.0045633E-3,-4.4115573E-2,-5.9669037E-6,-3.9961275E-2,-7.892797E-4,-1.1885353E-5,-2.7489797E-3,-3.5261385E-9,-1.8502314E-2,-1.7429799E-2,-2.696878E-5,1.3495002E-2,-1.8341845E-2,-2.0770498E-3,-3.0575123E-2,-2.9730448E-2,-4.7010813E-2,-3.7297077E-2,-5.774409E-5,-1.1941596E-2,-3.4844358E-2,-2.6998872E-2,-4.4565447E-2,3.3385314E-2,-3.8181784E-6,-1.9778619E-3,-7.95869E-5,-7.833594E-4,-4.0114417E-10,-1.8647783E-2,1.6073752E-2,-3.4975654E-3,-1.881956E-2,1.1908741E-2,-2.0247424E-2,-3.9006572E-2,-1.9345175E-2,-7.1166414E-6,-8.140991E-3,-1.5156815E-4,-1.0603869E-3,-3.316242E-2,-9.5305535E-5,3.5878226E-2,6.022044E-3,-4.6667596E-3,4.4118136E-4,-3.2477833E-2,-6.139596E-3,-2.6019152E-2,-4.2634014E-2,6.983524E-3,-2.1468773E-2,-2.1668175E-2,9.472841E-3,-1.3714701E-2,1.7420622E-2,-7.962362E-3,2.2670306E-2,1.1789687E-2,-1.7856697E-2,2.4316778E-2,4.3241E-2,-1.2121908E-2,-3.281118E-2,3.874648E-3,-2.1529533E-2],"split_indices":[1,39,33,99,23,72,43,47,123,58,73,48,1,52,119,39,0,0,111,67,119,0,101,26,0,7,47,15,0,58,17,0,0,0,0,2147483647,2147483647,0,87,0,133,2147483647,2147483647,0,133,83,48,0,36,0,0,0,113,0,74,2147483647,2147483647,31,129,33,51,0,18,133,0,23,43,2147483647,2147483647,2147483647,2147483647,0,0,0,0,0,0,0,0,0,0,2147483647,2147483647,0,0,0,0],"split_type":[0,0,0,0,0,0,0,0,0,0,0,0,0,0,0,0,0,0,0,0,0,0,0,0,0,0,0,0,0,0,0,0,0,0,0,0,0,0,0,0,0,0,0,0,0,0,0,0,0,0,0,0,0,0,0,0,0,0,0,0,0,0,0,0,0,0,0,0,0,0,0,0,0,0,0,0,0,0,0,0,0,0,0,0,0,0,0],"sum_hessian":[2.799769E3,5.1613324E2,2.283636E3,1.6107823E2,3.5505502E2,1.797091E3,4.8654495E2,7.1942825E1,8.91354E1,1.3523746E2,2.1981758E2,8.545426E1,1.7116367E3,1.1725725E2,3.692877E2,5.163349E1,2.0309336E1,3.0426847E1,5.8708553E1,4.338279E1,9.185466E1,9.782688E1,1.2199071E2,6.623983E1,1.9214434E1,4.2331903E2,1.2883176E3,9.7109795E1,2.0147455E1,5.364767E1,3.1564005E2,1.9913404E1,3.1720087E1,3.0631525E1,2.807703E1,1.916714E1,2.4215652E1,1.913039E1,7.272427E1,1.912906E1,1.0286164E2,1.9160393E1,4.7079437E1,3.6150574E1,3.8716846E2,1.1489218E3,1.3939586E2,3.1974854E1,6.513494E1,2.713157E1,2.6516098E1,3.542717E1,2.8021286E2,3.2871468E1,3.9852806E1,7.989077E1,2.2970873E1,1.3739267E2,2.4977579E2,2.0878491E2,9.4013684E2,2.0662449E1,1.18733406E2,4.6063335E1,1.9071606E1,2.3419095E2,4.6021923E1,2.064931E1,1.9203495E1,1.922652E1,6.066425E1,3.932191E1,9.8070755E1,2.4908972E1,2.2486682E2,6.325709E1,1.4552782E2,2.9718153E1,9.104187E2,9.229225E1,2.6441158E1,1.9595715E1,2.646762E1,2.2150444E1,2.120405E2,1.951674E1,2.6505182E1],"tree_param":{"num_deleted":"12","num_feature":"134","num_nodes":"87","size_leaf_vector":"0"}},{"base_weights":[6.3102823E-3,-6.949773E-1,2.2803721E-1,-1.2124861E0,-5.217112E-1,-5.191247E-1,3.753884E-1,-7.013226E-1,-1.3127817E0,-3.74148E-1,-1.2450794E0,1.2878667E-1,-7.3010767E-1,-1.1777635E0,4.293815E-1,-1.4839914E0,-9.4638026E-1,-1.1387931E0,-1.9469638E-1,-1.3892708E0,-8.5615736E-1,-3.685802E-1,4.9567455E-1,-1.325257E-1,-8.721709E-1,-1.4913319E0,-8.459306E-1,4.8775992E-1,-3.2063976E-1,-6.1849207E-1,-1.2073282E0,-1.3744007E0,-5.4555416E-1,7.558353E-1,-2.7567598E-1,-1.0014412E0,-1.5764315E0,8.485681E-1,2.9651996E-2,5.0762284E-1,-5.3575194E-1,-5.9062344E-1,-1.0954775E0,9.242707E-2,5.6552786E-1,1.5602972E-1,-1.1219486E0,-1.0981953E0,-1.6107914E0,-6.467443E-1,-2.476025E-3,-8.344335E-1,1.637773E-1,-6.7581236E-1,-1.250427E0,-7.9244083E-1,2.469952E-1,9.423882E-1,4.7961897E-1,8.6845547E-1,-2.7339852E-1,-1.6028976E0,-5.131945E-1,-6.8177083E-3,-8.9003885E-1,1.6014174E-1,-7.8206515E-1,-2.2431493E-1,-1.0576222E0,-8.7400514E-1,-1.4219452E0,-1.1702442E0,-3.7538156E-1,5.077483E-1,-1.8130764E-1,1.0884992E0,2.5526455E-1,5.285289E-1,-3.0830592E-1,2.1153182E-1,-8.8403356E-1],"categories":[],"categories_nodes":[],"categories_segments":[],"categories_sizes":[],"default_left":[1,1,1,1,1,1,1,1,1,1,1,1,1,1,1,1,1,1,1,1,1,0,1,1,1,1,1,1,1,1,1,1,0,0,1,1,1,0,0,0,0,1,1,1,1,1,1,1,1,1,1,1,0,1,1,1,1,1,1,0,1,0,0,0,0,0,0,0,0,1,1,1,1,0,0,0,0,0,0,0,0],"id":12,"left_children":[1,3,5,-1,9,11,13,-1,-1,17,-1,21,23,-1,27,-1,-1,31,33,-1,-1,-1,37,39,41,-1,-1,43,45,-1,-1,-1,-1,-1,49,-1,-1,-1,-1,-1,-1,51,-1,55,57,59,61,-1,-1,63,65,67,-1,-1,-1,-1,73,75,77,-1,79,-1,-1,-1,-1,-1,-1,-1,-1,-1,-1,-1,-1,-1,-1,-1,-1,-1,-1,-1,-1],"loss_changes":[4.3450882E2,5.955777E1,2.3393628E2,7.672653E0,5.3401688E1,4.7959038E1,1.4926685E2,0E0,7.3138275E0,5.7488304E1,3.5814514E0,1.6033232E1,2.2321E1,4.967392E0,7.525079E1,0E0,3.276348E0,1.0394989E1,2.6521023E1,2.809723E0,0E0,0E0,8.265876E0,1.3679171E1,1.2766403E1,0E0,0E0,4.8880676E1,4.7712505E1,0E0,0E0,1.914299E0,0E0,0E0,3.2006416E1,0E0,0E0,0E0,0E0,0E0,0E0,1.7892834E1,6.8157654E0,3.6142727E1,4.26008E1,2.438002E1,1.2804207E1,0E0,0E0,2.0838268E1,2.330644E1,9.719955E0,0E0,0E0,4.236389E0,5.7563E0,2.5164845E1,2.4402237E1,4.1974594E1,0E0,1.4991754E1,0E0,0E0,0E0,0E0,0E0,0E0,0E0,0E0,0E0,0E0,0E0,0E0,0E0,0E0,0E0,0E0,0E0,0E0,0E0,0E0],"parents":[2147483647,0,0,1,1,2,2,3,3,4,4,5,5,6,6,8,8,9,9,10,10,11,11,12,12,13,13,14,14,16,16,17,17,18,18,19,19,22,22,23,23,24,24,27,27,28,28,31,31,34,34,41,41,42,42,43,43,44,44,45,45,46,46,49,49,50,50,51,51,54,54,55,55,56,56,57,57,58,58,60,60],"right_children":[2,4,6,-1,10,12,14,-1,-1,18,-1,22,24,-1,28,-1,-1,32,34,-1,-1,-1,38,40,42,-1,-1,44,46,-1,-1,-1,-1,-1,50,-1,-1,-1,-1,-1,-1,52,-1,56,58,60,62,-1,-1,64,66,68,-1,-1,-1,-1,74,76,78,-1,80,-1,-1,-1,-1,-1,-1,-1,-1,-1,-1,-1,-1,-1,-1,-1,-1,-1,-1,-1,-1],"split_conditions":[9.6170413E-1,9.204571E-1,-1.0126194E-2,-3.6374584E-2,1.031291E-3,2.0135604E-4,-8.2050654E-4,-2.1039678E-2,-3.938345E-2,-1.0761991E-3,-3.735238E-2,-7.6835714E-3,-4.979477E-5,-3.5332903E-2,-3.1749962E-4,-4.451974E-2,-2.8391408E-2,-3.3338257E-4,-1.7662816E-2,-4.1678123E-2,-2.568472E-2,-1.1057406E-2,2.1736676E-4,-1.267908E-3,-6.903396E-4,-4.4739958E-2,-2.5377916E-2,-1.3503933E-1,-6.3730386E-4,-1.8554762E-2,-3.6219846E-2,-4.123202E-2,-1.6366625E-2,2.2675058E-2,-6.322877E-10,-3.0043237E-2,-4.7292944E-2,2.5457041E-2,8.8955986E-4,1.5228685E-2,-1.6072558E-2,-4.82465E-3,-3.2864325E-2,-6.761344E-3,-9.426818E-6,-1.791365E-4,-1.9797975E-4,-3.294586E-2,-4.8323743E-2,-2.8894785E-6,-3.7256952E-3,-3.8262126E-3,4.913319E-3,-2.027437E-2,-3.751281E-2,-2.3773225E-2,-1.1778558E-5,-1.0866427E-3,4.3725397E-4,2.6053663E-2,1.1515238E-5,-4.808693E-2,-1.5395835E-2,-2.0453124E-4,-2.6701165E-2,4.804252E-3,-2.3461955E-2,-6.7294477E-3,-3.1728666E-2,-2.6220154E-2,-4.2658355E-2,-3.5107326E-2,-1.1261446E-2,1.52324485E-2,-5.4392293E-3,3.2654975E-2,7.6579363E-3,1.5855867E-2,-9.249178E-3,6.3459543E-3,-2.6521007E-2],"split_indices":[1,1,58,52,33,43,72,2147483647,2147483647,119,87,29,119,22,52,2147483647,2147483647,72,91,2147483647,2147483647,0,114,105,67,2147483647,2147483647,0,44,2147483647,2147483647,6,0,0,123,2147483647,2147483647,0,0,0,0,73,87,110,75,119,66,2147483647,2147483647,93,104,99,0,2147483647,2147483647,129,87,52,48,0,12,0,0,0,0,0,0,0,0,2147483647,2147483647,2147483647,2147483647,0,0,0,0,0,0,0,0],"split_type":[0,0,0,0,0,0,0,0,0,0,0,0,0,0,0,0,0,0,0,0,0,0,0,0,0,0,0,0,0,0,0,0,0,0,0,0,0,0,0,0,0,0,0,0,0,0,0,0,0,0,0,0,0,0,0,0,0,0,0,0,0,0,0,0,0,0,0,0,0,0,0,0,0,0,0,0,0,0,0,0,0],"sum_hessian":[2.7923516E3,6.702671E2,2.1220845E3,1.6661774E2,5.0364935E2,3.4915076E2,1.7729337E3,2.8640747E1,1.3797699E2,4.1957547E2,8.407388E1,8.5862785E1,2.6328796E2,5.886364E1,1.7140701E3,9.195751E1,4.6019474E1,7.8735756E1,3.4083972E2,5.945796E1,2.4615927E1,3.644796E1,4.9414825E1,5.0940838E1,2.1234714E2,2.8468164E1,3.0395473E1,1.5906133E3,1.2345678E2,2.1887457E1,2.4132015E1,5.5411884E1,2.3323872E1,2.610365E1,3.1473608E2,2.142087E1,3.8037086E1,2.7653477E1,2.1761347E1,1.9586718E1,3.1354122E1,9.5537384E1,1.1680975E2,2.6182352E2,1.3287897E3,7.791391E1,4.5542866E1,2.815753E1,2.7254354E1,1.3288306E2,1.8185303E2,7.212248E1,2.3414902E1,3.2944473E1,8.386528E1,3.832049E1,2.2350302E2,2.4482689E2,1.0839629E3,2.8917362E1,4.8996548E1,2.4529858E1,2.1013008E1,3.6887516E1,9.599554E1,1.5112401E2,3.072901E1,1.9853931E1,5.2268555E1,2.8159908E1,5.5705368E1,1.9158947E1,1.9161545E1,1.3880954E2,8.469349E1,2.0141382E2,4.341307E1,1.02091907E3,6.304375E1,2.7673485E1,2.1323061E1],"tree_param":{"num_deleted":"20","num_feature":"134","num_nodes":"81","size_leaf_vector":"0"}},{"base_weights":[6.0245413E-3,-8.26726E-1,1.836693E-1,-5.80644E-1,-1.142304E0,3.5197225E-1,-4.3678185E-1,-1.3214251E0,-3.5567066E-1,-4.9621783E-2,-1.2502443E0,-1.0226179E0,4.227599E-1,3.6352915E-1,-6.9396615E-1,-9.8620945E-1,-1.4627603E0,-1.1141007E0,-1.7462343E-1,-1.5216461E0,-1.097051E0,-1.4363368E0,4.6770626E-1,-1.904109E-2,5.203598E-1,5.60511E-1,-5.7083046E-1,-6.5820016E-2,-8.011703E-1,-1.4499911E0,-6.909999E-1,-1.0640405E0,-3.5348397E-2,-8.554485E-1,-1.4771699E0,-1.1107537E0,-1.5763458E0,9.820144E-1,-1.6018684E-1,1.2541392E-1,6.114007E-1,4.7668003E-2,9.2064786E-1,-7.870884E-1,4.0500376E-1,-1.3114704E-1,-8.866373E-1,-6.545373E-1,2.4799575E-1,-2.738848E-1,-1.0325081E0,9.564858E-2,-6.649162E-1,3.0140796E-1,-5.293566E-1,-5.6393576E-1,6.3711184E-1,5.5289215E-1,-5.198909E-1,4.8792982E-1,1.2014295E0,-9.9056643E-1,-3.5201433E-1,5.541098E-2,-1.1274078E0,4.8730436E-1,-7.234863E-1,-6.75088E-1,-1.360586E0,-4.6231243E-1,3.2722396E-1,2.3266432E-1,-9.2428315E-1,-6.5376085E-1,4.3021262E-1,-1.0419213E0,3.8075325E-1,1.8469891E-1,6.960373E-1,-3.8688174E-1,-1.0520481E0,-7.102325E-1,1.4151475E-1],"categories":[],"categories_nodes":[],"categories_segments":[],"categories_sizes":[],"default_left":[1,1,1,1,1,1,1,1,1,0,1,1,1,1,1,1,1,1,1,0,1,1,0,1,1,1,0,1,1,1,1,0,1,1,0,1,1,0,1,1,1,1,1,0,0,0,1,1,1,0,1,1,1,1,1,0,1,0,0,1,1,1,1,0,0,0,0,1,1,0,0,0,0,0,0,0,0,0,0,0,0,0,0],"id":13,"left_children":[1,3,5,7,9,11,13,-1,17,-1,19,21,23,25,27,-1,-1,-1,31,-1,33,-1,-1,37,39,41,-1,43,45,-1,-1,-1,47,49,-1,-1,-1,-1,51,53,55,57,-1,-1,-1,-1,61,63,65,-1,-1,69,71,73,75,-1,77,-1,-1,-1,-1,79,81,-1,-1,-1,-1,-1,-1,-1,-1,-1,-1,-1,-1,-1,-1,-1,-1,-1,-1,-1,-1],"loss_changes":[4.1230878E2,3.739102E1,2.4002208E2,4.5754044E1,2.5138214E1,1.7630696E2,1.0122922E2,1.6011276E0,2.9206425E1,0E0,6.4137573E0,5.543226E1,7.4161285E1,2.2400372E1,2.4972229E1,0E0,0E0,4.8357315E0,2.1521534E1,0E0,1.0477982E1,1.4291382E0,0E0,4.4258595E1,5.0569122E1,1.8348818E1,0E0,1.9086893E1,1.8056992E1,0E0,0E0,0E0,2.6744183E1,8.01099E0,0E0,0E0,0E0,0E0,3.5497818E1,3.0711168E1,3.4942688E1,1.2370024E1,6.5151443E0,0E0,0E0,0E0,1.5280045E1,1.6123356E1,2.4686958E1,0E0,6.279541E0,2.379426E1,2.1733322E1,2.6067745E1,2.676646E1,0E0,2.973944E1,0E0,0E0,0E0,0E0,8.313187E0,8.468322E0,0E0,0E0,0E0,0E0,0E0,0E0,0E0,0E0,0E0,0E0,0E0,0E0,0E0,0E0,0E0,0E0,0E0,0E0,0E0,0E0],"parents":[2147483647,0,0,1,1,2,2,3,3,4,4,5,5,6,6,7,7,8,8,10,10,11,11,12,12,13,13,14,14,17,17,18,18,20,20,21,21,23,23,24,24,25,25,27,27,28,28,32,32,33,33,38,38,39,39,40,40,41,41,42,42,46,46,47,47,48,48,50,50,51,51,52,52,53,53,54,54,56,56,61,61,62,62],"right_children":[2,4,6,8,10,12,14,-1,18,-1,20,22,24,26,28,-1,-1,-1,32,-1,34,-1,-1,38,40,42,-1,44,46,-1,-1,-1,48,50,-1,-1,-1,-1,52,54,56,58,-1,-1,-1,-1,62,64,66,-1,-1,70,72,74,76,-1,78,-1,-1,-1,-1,80,82,-1,-1,-1,-1,-1,-1,-1,-1,-1,-1,-1,-1,-1,-1,-1,-1,-1,-1,-1,-1],"split_conditions":[9.545227E-1,-2.0396232E-3,3.6934396E-4,-2.1090373E-2,-1.3805047E-2,-6.386121E-3,1.5067766E-4,-3.964275E-2,-1.0319718E-3,-1.4886535E-3,-4.971486E-4,2.0505144E-5,-1.3476795E-1,-1.1045209E-3,-1.1672658E-4,-2.9586283E-2,-4.388281E-2,-3.342302E-2,-1.6119096E-3,-4.5649383E-2,5.170947E-3,-4.30901E-2,1.4031188E-2,-2.0542077E-5,-1.3034276E-7,-7.46621E-3,-1.7124914E-2,-1.9912827E-3,-2.696878E-5,-4.349973E-2,-2.0729998E-2,-3.1921215E-2,-6.713043E-8,-2.5512601E-5,-4.4315096E-2,-3.332261E-2,-4.7290374E-2,2.9460432E-2,-1.1567296E-3,-2.5291613E-4,-8.5664087E-4,-1.4010311E-6,2.7619435E-2,-2.3612652E-2,1.2150113E-2,-3.9344113E-3,-1.881956E-2,-1.737061E-6,-9.598126E-7,-8.216544E-3,-3.0975243E-2,-2.1773399E-6,-1.6687993E-2,-2.334268E-2,1.3759523E-4,-1.6918072E-2,-8.499421E-3,1.6586764E-2,-1.5596727E-2,1.4637894E-2,3.6042884E-2,-4.6667596E-3,-1.2753679E-2,1.6623294E-3,-3.3822235E-2,1.4619131E-2,-2.1704588E-2,-2.025264E-2,-4.081758E-2,-1.3869372E-2,9.816718E-3,6.9799293E-3,-2.7728494E-2,-1.9612825E-2,1.2906378E-2,-3.1257637E-2,1.1422597E-2,5.540967E-3,2.0881118E-2,-1.1606452E-2,-3.156144E-2,-2.1306975E-2,4.2454423E-3],"split_indices":[1,52,33,58,91,83,43,41,119,0,72,53,131,52,119,2147483647,2147483647,22,63,0,83,75,0,31,81,29,0,34,17,2147483647,2147483647,0,123,64,0,2147483647,2147483647,0,52,115,33,31,28,0,0,0,113,93,7,0,21,59,47,71,48,0,29,0,0,2147483647,2147483647,23,71,0,0,0,0,2147483647,2147483647,0,0,0,0,0,0,0,0,0,0,0,0,0,0],"split_type":[0,0,0,0,0,0,0,0,0,0,0,0,0,0,0,0,0,0,0,0,0,0,0,0,0,0,0,0,0,0,0,0,0,0,0,0,0,0,0,0,0,0,0,0,0,0,0,0,0,0,0,0,0,0,0,0,0,0,0,0,0,0,0,0,0,0,0,0,0,0,0,0,0,0,0,0,0,0,0,0,0,0,0],"sum_hessian":[2.7850908E3,4.8902414E2,2.2960667E3,2.7636197E2,2.1266216E2,1.8064764E3,4.8959027E2,6.3243446E1,2.1311853E2,1.9250341E1,1.9341182E2,8.781396E1,1.7186625E3,1.1896845E2,3.706218E2,2.1122768E1,4.2120678E1,4.007703E1,1.7304149E2,6.6559715E1,1.26852104E2,6.876171E1,1.9052246E1,3.1112268E2,1.4075398E3,9.858489E1,2.0383566E1,5.4266945E1,3.1635486E2,2.0988039E1,1.9088993E1,2.2529184E1,1.5051231E2,7.954437E1,4.730773E1,2.3363852E1,4.5397858E1,3.771032E1,2.7341235E2,2.641228E2,1.143417E3,4.11371E1,5.744779E1,2.1167746E1,3.30992E1,3.607526E1,2.802796E2,4.684104E1,1.0367127E2,1.9159761E1,6.038461E1,1.8198099E2,9.1431366E1,2.085948E2,5.552798E1,2.4029284E1,1.1193877E3,2.177737E1,1.935973E1,2.368466E1,3.376313E1,2.3394795E2,4.633165E1,1.9079174E1,2.7761868E1,8.358089E1,2.0090385E1,3.0363356E1,3.0021254E1,5.3083786E1,1.288972E2,2.0520355E1,7.091101E1,2.4302277E1,1.8429253E2,3.5429573E1,2.009841E1,1.2947208E2,9.899156E2,2.2297974E1,2.1164998E2,2.659159E1,1.9740059E1],"tree_param":{"num_deleted":"10","num_feature":"134","num_nodes":"83","size_leaf_vector":"0"}},{"base_weights":[5.7026274E-3,-8.073864E-1,1.7850052E-1,-5.660593E-1,-1.1182728E0,-5.135966E-1,3.2125294E-1,-1.2946774E0,-3.4633678E-1,-4.8216853E-2,-1.2249457E0,1.2907661E-1,-7.2673345E-1,-1.0063947E0,3.8429123E-1,-9.5666003E-1,-1.4379649E0,-9.494159E-1,-1.2976457E-1,-1.4949856E0,-1.0732207E0,-2.9428938E-1,4.8074976E-1,-1.9676535E-1,-8.5483223E-1,-1.2739583E0,-6.194536E-2,4.3948573E-1,-3.1758097E-1,-1.4118414E0,-6.450805E-1,3.064045E-1,-4.9120834E-1,-8.348084E-1,-1.4507405E0,1.6470817E-1,-7.095054E-1,9.272174E-2,8.39261E-1,-6.0946655E-1,4.8236293E-1,-1.8904005E-1,-9.514868E-1,-8.4666085E-1,-1.4247676E0,1.0635614E-1,5.5245966E-1,1.1454065E-1,-1.0871809E0,9.082254E-1,-2.5909036E-2,-2.6231173E-1,-1.1598926E0,-1.0693009E0,-3.9180496E-1,-1.1742281E0,-7.0632744E-1,1.0798588E0,1.29033085E-2,5.9281456E-1,-1.2695926E-1,4.216141E-1,-9.2011386E-1,-1.5264851E0,-5.1152E-1,6.5053236E-1,-6.4207476E-1,-6.0653126E-1,2.9109854E-1,-6.391598E-1,-1.3274784E0,-1.5861868E0,-1.0122149E0,-4.9914572E-1,-1.5195762E0,5.5463505E-1,-1.5027568E-1,-5.294726E-1,6.175991E-1,3.4807727E-1,-6.5242773E-1,1.0848888E0,6.5960884E-2],"categories":[],"categories_nodes":[],"categories_segments":[],"categories_sizes":[],"default_left":[1,1,1,1,1,1,1,1,1,0,1,1,1,1,1,1,1,1,1,0,1,1,1,1,1,1,0,1,1,1,1,1,1,1,0,0,0,1,1,0,0,0,1,1,1,1,1,1,1,0,1,1,0,1,1,1,1,0,1,1,1,1,0,0,0,0,0,0,0,1,1,1,1,0,0,0,0,0,0,0,0,0,0],"id":14,"left_children":[1,3,5,7,9,11,13,-1,17,-1,19,21,23,25,27,-1,-1,-1,31,-1,33,35,-1,39,41,-1,-1,45,47,-1,-1,49,51,-1,-1,-1,-1,-1,-1,-1,-1,-1,55,-1,-1,57,59,61,63,-1,65,67,-1,-1,-1,-1,73,-1,75,77,79,81,-1,-1,-1,-1,-1,-1,-1,-1,-1,-1,-1,-1,-1,-1,-1,-1,-1,-1,-1,-1,-1],"loss_changes":[3.904826E2,3.5913483E1,2.2661981E2,4.3780067E1,2.4123383E1,5.383177E1,1.5946748E2,1.7068329E0,2.77781E1,0E0,6.2871094E0,1.48147545E1,1.9842499E1,2.176358E1,7.046478E1,0E0,0E0,7.0105286E0,2.5112366E1,0E0,1.02074585E1,8.757674E0,7.464113E0,1.6739698E1,1.50768585E1,3.1307678E0,0E0,6.3296234E1,4.4331482E1,0E0,0E0,1.4496476E1,1.3007246E1,7.9033737E0,0E0,0E0,0E0,0E0,0E0,0E0,0E0,0E0,1.0462265E1,0E0,0E0,3.888354E1,3.4535553E1,2.7722326E1,1.1331253E1,0E0,2.0255365E1,1.2765047E1,0E0,4.9048347E0,0E0,5.5248566E0,1.6249916E1,0E0,3.4657887E1,3.3331757E1,1.8022392E1,1.5740516E1,0E0,0E0,0E0,0E0,0E0,0E0,0E0,0E0,0E0,0E0,0E0,0E0,0E0,0E0,0E0,0E0,0E0,0E0,0E0,0E0,0E0],"parents":[2147483647,0,0,1,1,2,2,3,3,4,4,5,5,6,6,7,7,8,8,10,10,11,11,12,12,13,13,14,14,17,17,18,18,20,20,21,21,22,22,23,23,24,24,25,25,27,27,28,28,31,31,32,32,33,33,42,42,45,45,46,46,47,47,48,48,50,50,51,51,53,53,55,55,56,56,58,58,59,59,60,60,61,61],"right_children":[2,4,6,8,10,12,14,-1,18,-1,20,22,24,26,28,-1,-1,-1,32,-1,34,36,-1,40,42,-1,-1,46,48,-1,-1,50,52,-1,-1,-1,-1,-1,-1,-1,-1,-1,56,-1,-1,58,60,62,64,-1,66,68,-1,-1,-1,-1,74,-1,76,78,80,82,-1,-1,-1,-1,-1,-1,-1,-1,-1,-1,-1,-1,-1,-1,-1,-1,-1,-1,-1,-1,-1],"split_conditions":[9.545227E-1,-2.0396232E-3,-1.0188535E-2,-2.1090373E-2,-1.3805047E-2,2.0135604E-4,-7.5354043E-4,-3.884032E-2,-5.7225585E-2,-1.4465055E-3,-4.971486E-4,-7.6703E-3,-4.979477E-5,-7.336707E-5,-3.1749962E-4,-2.86998E-2,-4.3138947E-2,-2.8482476E-2,-4.55461E-3,-4.4849567E-2,5.170947E-3,-9.2563187E-7,1.4422492E-2,-7.5361177E-6,-4.232029E-6,-3.8218748E-2,-1.8583607E-3,9.719842E-1,-6.3730386E-4,-4.235524E-2,-1.9352416E-2,-5.06564E-4,-7.7594893E-7,-2.5044251E-2,-4.3522213E-2,4.941245E-3,-2.1285161E-2,2.7816521E-3,2.5177829E-2,-1.8283997E-2,1.4470887E-2,-5.6712013E-3,-7.5107487E-4,-2.5399825E-2,-4.2743027E-2,-1.1899483E-5,2.6092507E-4,3.4500484E-4,-1.9797975E-4,2.7246762E-2,-4.6168818E-5,-5.3248435E-2,-3.4796774E-2,-3.2079026E-2,-1.1754149E-2,-3.522684E-2,-1.1702916E-3,3.239576E-2,-9.750366E-2,-1.0364203E-2,-1.4898453E-2,-1.1708376E-3,-2.7603416E-2,-4.579455E-2,-1.53456E-2,1.951597E-2,-1.9262243E-2,-1.8195938E-2,8.732956E-3,-1.9174794E-2,-3.982435E-2,-4.7585603E-2,-3.0366447E-2,-1.49743715E-2,-4.5587286E-2,1.6639052E-2,-4.5082704E-3,-1.5884178E-2,1.8527973E-2,1.0442317E-2,-1.9572832E-2,3.2546666E-2,1.9788265E-3],"split_indices":[1,52,58,58,91,43,72,41,113,0,72,29,119,48,52,2147483647,2147483647,33,99,0,83,7,58,59,7,26,0,1,44,2147483647,2147483647,19,7,55,0,0,0,2147483647,2147483647,0,0,0,63,2147483647,2147483647,7,22,114,66,0,87,54,0,2147483647,2147483647,75,52,0,65,44,49,80,0,0,0,0,0,0,0,2147483647,2147483647,2147483647,2147483647,0,0,0,0,0,0,0,0,0,0],"split_type":[0,0,0,0,0,0,0,0,0,0,0,0,0,0,0,0,0,0,0,0,0,0,0,0,0,0,0,0,0,0,0,0,0,0,0,0,0,0,0,0,0,0,0,0,0,0,0,0,0,0,0,0,0,0,0,0,0,0,0,0,0,0,0,0,0,0,0,0,0,0,0,0,0,0,0,0,0,0,0,0,0,0,0],"sum_hessian":[2.7772083E3,4.8612183E2,2.2910864E3,2.75266E2,2.1085583E2,3.9131284E2,1.8997737E3,6.2643284E1,2.126227E2,1.924613E1,1.9160971E2,9.755347E1,2.9375937E2,8.543634E1,1.8143373E3,2.093465E1,4.1708633E1,5.52861E1,1.573366E2,6.574444E1,1.25865265E2,4.4338814E1,5.321465E1,5.7676632E1,2.3608273E2,6.6303566E1,1.913277E1,1.6824083E3,1.3192897E2,2.0499233E1,3.4786865E1,7.136717E1,8.596943E1,7.911415E1,4.6751114E1,2.1345692E1,2.2993122E1,2.6159752E1,2.7054895E1,3.5939213E1,2.1737417E1,3.0302683E1,2.0578004E2,1.9021849E1,4.728172E1,4.265548E2,1.2558535E3,8.503433E1,4.6894638E1,2.4771984E1,4.659519E1,6.508316E1,2.0886269E1,5.0807007E1,2.8307146E1,1.0583409E2,9.994595E1,3.643671E1,3.901181E2,1.185563E3,7.029049E1,6.602992E1,1.9004408E1,2.5660574E1,2.1234066E1,2.2184614E1,2.4410572E1,4.0066147E1,2.5017012E1,2.0360573E1,3.0446436E1,2.7392199E1,7.8441895E1,8.093968E1,1.9006273E1,8.975267E1,3.0036545E2,2.5176287E1,1.1603867E3,3.7094097E1,3.3196396E1,2.2331821E1,4.3698097E1],"tree_param":{"num_deleted":"14","num_feature":"134","num_nodes":"83","size_leaf_vector":"0"}},{"base_weights":[5.394779E-3,-7.6761615E-1,1.7800479E-1,-3.410339E-1,-9.623941E-1,3.3623144E-1,-4.0753728E-1,4.0916488E-2,-7.764029E-1,-6.5366715E-1,-1.1510257E0,-9.690847E-1,4.0221778E-1,3.5914493E-1,-6.5314835E-1,-6.771855E-1,3.008533E-1,-3.561341E-1,-1.2052592E0,-1.0821792E0,-2.5037092E-1,-1.3795874E0,-9.605639E-1,-1.3989261E0,4.7463107E-1,-3.5246793E-2,4.957316E-1,5.595724E-1,-5.835581E-1,-4.062514E-2,-7.579448E-1,6.698108E-1,-4.8800403E-1,6.5897785E-2,-7.617556E-1,-5.9124523E-1,-1.2760338E0,4.3164203E-1,-5.733082E-1,-3.8821954E-1,-1.0883583E0,-1.0403605E0,-1.5531924E0,1.0698092E0,-1.5689264E-1,1.09869584E-1,5.84729E-1,-4.8520308E-2,8.552771E-1,-5.963666E-1,5.076094E-1,-8.638403E-2,-8.432058E-1,1.9904594E-1,1.111915E0,-1.4741015E0,-9.6341443E-1,-1.1108855E0,-1.0489555E-1,-1.2410934E0,-5.396306E-1,-5.9205556E-1,1.3714239E-1,2.817388E-1,-5.249441E-1,2.2670257E-1,6.6421896E-1,1.1252769E0,1.929073E-1,-9.460015E-1,-3.158287E-1,-8.030026E-1,-1.37516E0,-2.0414221E-1,-1.027294E0,4.4410285E-1,-4.2524573E-1,4.1717026E-1,-6.2270796E-1,-1.0216928E0,3.5969338E-1,3.9150277E-1,-4.6192032E-1,-2.0733488E-1,6.9628686E-1,7.430336E-1,1.3733509E0,-6.060994E-1,-1.061738E0,1.5289232E-1,-6.561736E-1],"categories":[],"categories_nodes":[],"categories_segments":[],"categories_sizes":[],"default_left":[1,1,1,1,1,1,1,1,1,1,1,1,1,1,1,0,1,1,0,1,1,0,1,1,0,1,1,1,0,1,1,1,0,1,1,1,1,0,1,0,1,1,1,0,1,1,1,0,1,0,0,0,1,0,0,1,1,0,0,1,1,1,1,1,1,1,1,1,0,1,1,1,1,0,0,0,0,0,0,0,0,0,0,0,0,1,1,0,0,1,1],"id":15,"left_children":[1,3,5,7,9,11,13,15,17,19,21,23,25,27,29,-1,31,-1,-1,-1,37,-1,39,-1,-1,43,45,47,-1,49,51,53,-1,-1,-1,-1,-1,-1,57,-1,-1,-1,-1,-1,61,63,65,-1,67,-1,-1,-1,69,-1,-1,-1,-1,-1,-1,-1,-1,73,75,77,79,81,83,-1,-1,87,-1,-1,-1,-1,-1,-1,-1,-1,-1,-1,-1,-1,-1,-1,-1,-1,-1,-1,-1,-1,-1],"loss_changes":[3.6977963E2,4.1704193E1,2.1002759E2,2.6658836E1,1.9440704E1,1.54056E2,9.1072525E1,1.6302351E1,1.3066719E1,2.2856194E1,7.9873962E0,5.41205E1,6.951834E1,2.2562983E1,2.3444092E1,0E0,1.8958996E1,6.767155E0,0E0,5.391876E0,1.5717978E1,0E0,8.353088E0,2.0698242E0,0E0,4.0514297E1,4.8005096E1,1.7585098E1,0E0,1.6902895E1,1.7804428E1,8.9440975E0,0E0,0E0,0E0,0E0,1.3932724E0,0E0,1.1995228E1,0E0,7.5038986E0,0E0,0E0,0E0,3.4788315E1,2.8905243E1,3.2213562E1,0E0,1.1532124E1,0E0,0E0,0E0,1.4714493E1,0E0,0E0,0E0,0E0,0E0,0E0,3.3313599E0,0E0,1.8288479E1,2.827328E1,2.5746311E1,2.5198503E1,2.3800499E1,2.6138794E1,3.3855896E0,0E0,8.454025E0,7.546355E0,0E0,0E0,0E0,0E0,0E0,0E0,0E0,0E0,0E0,0E0,0E0,0E0,0E0,0E0,0E0,0E0,0E0,0E0,0E0,0E0],"parents":[2147483647,0,0,1,1,2,2,3,3,4,4,5,5,6,6,7,7,8,8,9,9,10,10,11,11,12,12,13,13,14,14,16,16,17,17,19,19,20,20,22,22,23,23,25,25,26,26,27,27,29,29,30,30,31,31,36,36,38,38,40,40,44,44,45,45,46,46,48,48,52,52,59,59,61,61,62,62,63,63,64,64,65,65,66,66,67,67,69,69,70,70],"right_children":[2,4,6,8,10,12,14,16,18,20,22,24,26,28,30,-1,32,-1,-1,-1,38,-1,40,-1,-1,44,46,48,-1,50,52,54,-1,-1,-1,-1,-1,-1,58,-1,-1,-1,-1,-1,62,64,66,-1,68,-1,-1,-1,70,-1,-1,-1,-1,-1,-1,-1,-1,74,76,78,80,82,84,-1,-1,88,-1,-1,-1,-1,-1,-1,-1,-1,-1,-1,-1,-1,-1,-1,-1,-1,-1,-1,-1,-1,-1],"split_conditions":[9.556382E-1,-8.093055E-3,3.6934396E-4,-3.9646644E-3,-1.6477899E-4,-6.3560572E-3,1.5067766E-4,-2.2879937E-3,5.6408194E-4,-4.5832976E-6,-1.0609249E-2,8.71484E-6,-1.3476795E-1,-1.1045209E-3,-1.1672658E-4,-2.0315563E-2,2.5649273E-4,-1.0684023E-2,-3.6157776E-2,-3.2465376E-2,-1.553402E-5,-4.138762E-2,-5.195053E-6,-4.1967783E-2,1.4238932E-2,-2.5645435E-5,-1.3034276E-7,-3.5261385E-9,-1.7506743E-2,-1.7597435E-2,-2.696878E-5,-6.499262E-7,-1.4640121E-2,1.9769336E-3,-2.2852667E-2,-1.7737357E-2,-3.8281012E-2,1.2949261E-2,-9.3496917E-4,-1.1646586E-2,-3.2650746E-2,-3.1210814E-2,-4.659577E-2,3.2094274E-2,-3.2598796E-10,-2.5291613E-4,-8.780854E-8,-1.4556092E-3,-4.5336143E-10,-1.7890997E-2,1.5228283E-2,-2.5915208E-3,-1.881956E-2,5.971378E-3,3.335745E-2,-4.4223044E-2,-2.8902432E-2,-3.3326562E-2,-3.1468663E-3,-3.72328E-2,-1.6188918E-2,-4.4988925E-3,-2.8735602E-3,-3.376658E-3,1.3759523E-4,7.110975E-4,-1.018783E-3,3.375831E-2,5.787219E-3,-2.5450606E-3,-9.474861E-3,-2.4090078E-2,-4.12548E-2,-6.1242664E-3,-3.081882E-2,1.3323085E-2,-1.2757372E-2,1.2515107E-2,-1.868124E-2,-3.0650781E-2,1.0790801E-2,1.1745083E-2,-1.385761E-2,-6.220046E-3,2.0888606E-2,2.2291007E-2,4.1200526E-2,-1.8182982E-2,-3.185214E-2,4.5867697E-3,-1.9685207E-2],"split_indices":[1,39,33,99,23,83,43,105,111,59,73,53,131,52,119,0,48,41,0,41,75,0,101,75,0,31,81,15,0,58,17,46,0,2147483647,2147483647,2147483647,2147483647,0,83,0,133,2147483647,2147483647,0,123,115,15,0,36,0,0,0,113,0,0,2147483647,2147483647,0,0,2147483647,2147483647,39,39,39,48,100,51,133,0,69,43,2147483647,2147483647,0,0,0,0,0,0,0,0,0,0,0,0,2147483647,2147483647,0,0,2147483647,2147483647],"split_type":[0,0,0,0,0,0,0,0,0,0,0,0,0,0,0,0,0,0,0,0,0,0,0,0,0,0,0,0,0,0,0,0,0,0,0,0,0,0,0,0,0,0,0,0,0,0,0,0,0,0,0,0,0,0,0,0,0,0,0,0,0,0,0,0,0,0,0,0,0,0,0,0,0,0,0,0,0,0,0,0,0,0,0,0,0,0,0,0,0,0,0],"sum_hessian":[2.769326E3,5.0487286E2,2.2644531E3,1.5912494E2,3.4574792E2,1.7830568E3,4.8139633E2,8.5245155E1,7.387979E1,1.3282425E2,2.1292368E2,8.5141174E1,1.6979156E3,1.16688255E2,3.6470807E2,2.2229288E1,6.301587E1,3.8237957E1,3.5641834E1,6.3582733E1,6.924152E1,9.394387E1,1.18979805E2,6.563154E1,1.9509634E1,2.9913992E2,1.3987758E3,9.656422E1,2.0124037E1,5.348456E1,3.112235E2,4.3037605E1,1.9978262E1,1.915036E1,1.9087597E1,1.9145912E1,4.443682E1,2.2142357E1,4.7099167E1,2.2454071E1,9.6525734E1,2.2072254E1,4.3559284E1,2.8891266E1,2.7024866E2,2.6257513E2,1.1362006E3,3.1867407E1,6.469681E1,2.6516836E1,2.6967722E1,3.5288185E1,2.7593533E2,2.1545542E1,2.1492064E1,2.4927835E1,1.9508984E1,2.1291838E1,2.580733E1,7.4521385E1,2.200435E1,1.0856387E2,1.6168478E2,2.0706943E2,5.5505703E1,2.0712987E2,9.290707E2,4.546513E1,1.9231682E1,2.3025958E2,4.5675735E1,1.9099455E1,5.5421932E1,5.8179485E1,5.0384388E1,1.0473116E2,5.6953625E1,1.8056975E2,2.6499678E1,3.544655E1,2.0059155E1,1.6748022E2,3.9649643E1,3.277707E1,8.9629364E2,1.9466105E1,2.5999025E1,6.0072292E1,1.7018729E2,1.9445826E1,2.622991E1],"tree_param":{"num_deleted":"16","num_feature":"134","num_nodes":"91","size_leaf_vector":"0"}},{"base_weights":[5.131593E-3,-7.7042705E-1,1.686797E-1,-1.2932118E0,-6.2731415E-1,-4.897206E-1,3.042207E-1,-1.4151707E0,-8.372217E-1,-4.1344512E-1,-1.2510014E0,1.1853471E-1,-6.925347E-1,-9.734444E-1,3.642808E-1,-1.1485586E0,-1.4972363E0,-7.695604E-1,-2.0347072E-1,-8.2139486E-1,-1.3472168E0,-2.9480085E-1,4.5576012E-1,-1.8714952E-1,-8.155487E-1,-1.2349749E0,-6.451995E-2,4.1728005E-1,-3.0982435E-1,-1.0399079E0,-3.6063772E-1,9.483093E-1,-3.6158818E-1,1.5143783E-1,-7.066476E-1,7.396202E-2,8.0368793E-1,-5.8530957E-1,4.6659794E-1,-1.6357134E-1,-9.1080946E-1,-8.233055E-1,-1.3837157E0,9.827071E-2,5.2578074E-1,1.07527055E-1,-1.0534033E0,-6.4964044E-1,-1.3220155E0,-8.537116E-1,1.5839723E-1,-1.4577751E-1,-9.319473E-1,-6.184376E-1,-1.092873E0,1.0421087E0,8.079223E-3,8.544736E-1,4.4571936E-1,3.959754E-1,-8.516115E-1,-4.3457434E-1,-1.4495955E0,4.2229436E-2,-1.0438554E0,-1.3311412E0,-4.205151E-1,-8.609866E-1,1.6163526E-1,-7.1133596E-1,-1.2304683E0,5.2984E-1,-1.488691E-1,9.851062E-1,2.7256623E-1,4.911517E-1,-3.567108E-1,6.17497E-3,9.867179E-1],"categories":[],"categories_nodes":[],"categories_segments":[],"categories_sizes":[],"default_left":[1,1,1,1,1,1,1,1,1,1,1,1,1,1,1,1,1,1,1,1,1,1,1,1,1,1,0,1,1,1,1,0,1,0,0,1,1,0,0,0,1,1,1,1,1,1,1,1,1,0,0,1,1,1,1,0,1,1,1,1,0,0,0,0,0,0,0,0,0,1,1,0,0,0,0,0,0,0,0],"id":16,"left_children":[1,3,5,-1,9,11,13,-1,-1,17,-1,21,23,25,27,-1,-1,29,31,-1,-1,33,-1,37,39,-1,-1,43,45,-1,49,-1,51,-1,-1,-1,-1,-1,-1,-1,53,-1,-1,55,57,59,61,-1,-1,-1,-1,63,65,67,-1,-1,71,73,75,77,-1,-1,-1,-1,-1,-1,-1,-1,-1,-1,-1,-1,-1,-1,-1,-1,-1,-1,-1],"loss_changes":[3.5047177E2,3.5190704E1,2.037821E2,4.514084E0,5.013304E1,4.8186058E1,1.4561053E2,1.763916E-2,0E0,2.1098587E1,2.88089E0,1.3844646E1,1.8036789E1,2.0187325E1,6.474724E1,0E0,0E0,1.1241314E1,3.3156334E1,0E0,0E0,8.340567E0,7.1882706E0,1.5519231E1,1.4446732E1,2.9114761E0,0E0,5.800238E1,4.1204033E1,6.0470734E0,1.1229746E1,0E0,1.9454208E1,0E0,0E0,0E0,0E0,0E0,0E0,0E0,1.0227142E1,0E0,0E0,3.6332756E1,3.254883E1,2.4051363E1,1.1063198E1,0E0,0E0,0E0,0E0,1.9739738E1,8.32193E0,1.54469795E1,5.682846E0,0E0,3.207154E1,1.82798E1,3.693524E1,1.5325407E1,0E0,0E0,0E0,0E0,0E0,0E0,0E0,0E0,0E0,0E0,0E0,0E0,0E0,0E0,0E0,0E0,0E0,0E0,0E0],"parents":[2147483647,0,0,1,1,2,2,3,3,4,4,5,5,6,6,7,7,9,9,10,10,11,11,12,12,13,13,14,14,17,17,18,18,21,21,22,22,23,23,24,24,25,25,27,27,28,28,29,29,30,30,32,32,40,40,43,43,44,44,45,45,46,46,51,51,52,52,53,53,54,54,56,56,57,57,58,58,59,59],"right_children":[2,4,6,-1,10,12,14,-1,-1,18,-1,22,24,26,28,-1,-1,30,32,-1,-1,34,-1,38,40,-1,-1,44,46,-1,50,-1,52,-1,-1,-1,-1,-1,-1,-1,54,-1,-1,56,58,60,62,-1,-1,-1,-1,64,66,68,-1,-1,72,74,76,78,-1,-1,-1,-1,-1,-1,-1,-1,-1,-1,-1,-1,-1,-1,-1,-1,-1,-1,-1],"split_conditions":[9.545227E-1,-1.2807159E-3,-1.0188535E-2,-3.8796354E-2,1.0584043E-3,2.0135604E-4,-7.5354043E-4,-4.245512E-2,-2.511665E-2,-6.414976E-5,-3.753004E-2,-7.6835714E-3,-4.979477E-5,-7.336707E-5,-3.1749962E-4,-3.4456756E-2,-4.4917088E-2,-3.1627887E-9,-4.2807997E-6,-2.4641845E-2,-4.0416505E-2,-9.2563187E-7,1.36728035E-2,-7.5361177E-6,-4.232029E-6,-3.7049245E-2,-1.9355984E-3,9.719842E-1,-6.3730386E-4,-3.1197237E-2,-4.3394283E-7,2.8449278E-2,-6.3882666E-3,4.543135E-3,-2.1199428E-2,2.2188604E-3,2.4110638E-2,-1.7559286E-2,1.39979385E-2,-4.90714E-3,-1.3083117E-3,-2.4699165E-2,-4.1511472E-2,-1.1899483E-5,-8.312869E-6,3.372162E-4,-5.1901815E-3,-1.9489212E-2,-3.9660465E-2,-2.5611348E-2,4.7519165E-3,-6.184297E-7,-8.403836E-3,-4.835652E-3,-3.2786187E-2,3.126326E-2,-9.750366E-2,-1.0866427E-3,4.3725397E-4,1.1811036E-4,-2.5548344E-2,-1.303723E-2,-4.348786E-2,1.2668831E-3,-3.1315662E-2,-3.9934237E-2,-1.26154525E-2,-2.5829596E-2,4.8490576E-3,-2.1340078E-2,-3.6914047E-2,1.5895199E-2,-4.4660727E-3,2.9553186E-2,8.176987E-3,1.473455E-2,-1.0701324E-2,1.852491E-4,2.9601535E-2],"split_indices":[1,119,58,110,72,43,72,2147483647,2147483647,133,41,29,119,48,52,2147483647,2147483647,123,101,2147483647,2147483647,7,58,59,7,26,0,1,44,91,59,0,47,0,0,2147483647,2147483647,0,0,0,67,2147483647,2147483647,7,75,114,57,2147483647,2147483647,0,0,7,73,73,61,0,65,52,48,43,0,0,0,0,0,0,0,0,0,2147483647,2147483647,0,0,0,0,0,0,0,0],"split_type":[0,0,0,0,0,0,0,0,0,0,0,0,0,0,0,0,0,0,0,0,0,0,0,0,0,0,0,0,0,0,0,0,0,0,0,0,0,0,0,0,0,0,0,0,0,0,0,0,0,0,0,0,0,0,0,0,0,0,0,0,0,0,0,0,0,0,0,0,0,0,0,0,0,0,0,0,0,0,0],"sum_hessian":[2.761052E3,4.8019882E2,2.280853E3,1.0147585E2,3.7872296E2,3.8893924E2,1.8919138E3,7.840279E1,2.3073063E1,2.8325476E2,9.546819E1,9.736113E1,2.915781E2,8.425883E1,1.807655E3,2.1982473E1,5.642031E1,1.0407656E2,1.7917822E2,1.9213964E1,7.6254234E1,4.380067E1,5.3560463E1,5.7572243E1,2.3400586E2,6.5153175E1,1.9105646E1,1.6762467E3,1.314083E2,6.172547E1,4.2351086E1,2.102532E1,1.581529E2,2.132605E1,2.247462E1,2.6115372E1,2.744509E1,3.5845497E1,2.1726748E1,3.0178352E1,2.0382751E2,1.9027111E1,4.6126064E1,4.2590967E2,1.250337E3,8.471524E1,4.6693054E1,2.728383E1,3.444164E1,2.1388035E1,2.0963053E1,1.1564942E2,4.2503475E1,7.99056E1,1.23921906E2,3.6228664E1,3.89681E2,2.4300487E2,1.0073322E3,6.5580055E1,1.913519E1,1.9044125E1,2.7648932E1,9.6417915E1,1.9231503E1,2.297094E1,1.9532537E1,6.087419E1,1.9031412E1,3.4480637E1,8.944127E1,8.9562515E1,3.001185E2,1.97888E2,4.5116863E1,9.537219E2,5.3610313E1,4.0118427E1,2.5461628E1],"tree_param":{"num_deleted":"14","num_feature":"134","num_nodes":"79","size_leaf_vector":"0"}},{"base_weights":[4.879332E-3,-6.113467E-1,2.0090972E-1,-3.9119953E-1,-9.64836E-1,-4.547891E-1,3.29773E-1,-1.1285053E0,-1.9883013E-1,1.2114294E-1,-1.0923923E0,1.8571335E-1,-6.275192E-1,-1.0740834E0,3.767415E-1,-6.318279E-1,-1.2846743E0,-8.5659605E-1,-3.3646394E-2,-8.816818E-1,-1.4220006E0,6.043829E-1,-3.6406705E-1,-1.9805133E-1,-7.9391223E-1,-1.3989967E0,-7.3306763E-1,4.8793665E-1,5.298196E-2,-1.4447421E0,-9.2046064E-1,-2.83012E-1,-1.1521167E0,1.5455312E-1,-7.709489E-1,-5.8161235E-1,-1.2576594E0,1.03627846E-1,1.035909E0,4.4037682E-1,-4.8333046E-1,2.6296936E-2,-8.832327E-1,1.668539E-1,6.0413843E-1,1.2959956E-1,-1.0794288E0,-1.5101476E0,-7.9085475E-1,1.0864985E0,4.4665616E-2,-1.1446351E0,-2.0428914E-1,-8.586914E-1,-2.1270546E-1,-9.0578204E-1,-1.460278E0,-3.2336492E-2,-8.6712694E-1,-1.8261932E-1,-1.0091983E0,-6.6946095E-1,2.9794067E-1,9.932206E-1,5.0590706E-1,2.3291752E-1,-5.6534296E-1,-3.4028047E-1,2.9348922E-1,-1.1723863E0,-4.614655E-1,-5.6661886E-1,-1.1367533E0,-1.540202E-1,-1.2781911E0,-2.709814E-1,4.2876193E-1,1.101476E0,1.12616874E-1,6.1710846E-2,6.064586E-1,5.3155947E-1,-3.7513554E-2,-9.7492075E-1,1.1921945E-1],"categories":[],"categories_nodes":[],"categories_segments":[],"categories_sizes":[],"default_left":[1,1,1,1,1,1,1,1,1,0,1,1,1,1,1,1,1,1,1,1,0,1,0,1,1,1,1,1,1,1,1,0,1,1,1,1,1,0,0,0,1,0,1,1,1,1,0,1,1,0,1,0,0,1,0,1,1,0,0,0,1,1,1,1,1,1,1,0,0,1,1,1,1,0,0,0,0,0,0,0,0,0,0,0,0],"id":17,"left_children":[1,3,5,7,9,11,13,-1,17,-1,19,21,23,-1,27,-1,-1,31,33,35,-1,37,-1,39,41,-1,-1,43,45,-1,-1,-1,-1,49,51,53,-1,-1,-1,-1,57,-1,59,61,63,65,-1,-1,-1,-1,67,-1,-1,-1,-1,-1,-1,-1,-1,-1,-1,73,75,77,79,81,83,-1,-1,-1,-1,-1,-1,-1,-1,-1,-1,-1,-1,-1,-1,-1,-1,-1,-1],"loss_changes":[3.3275873E2,5.1357834E1,1.7673041E2,5.8120132E1,3.53804E1,3.81382E1,1.1560651E2,5.7739334E0,3.5549408E1,0E0,1.4568024E1,1.719946E1,1.9201653E1,5.2702713E0,6.086284E1,0E0,2.379509E0,1.0808014E1,3.658042E1,1.5243874E1,0E0,9.023018E0,0E0,1.4233541E1,1.4303497E1,0E0,0E0,4.6866333E1,3.7752003E1,0E0,0E0,0E0,4.370659E0,2.1474302E1,1.11160965E1,8.05707E0,3.0970383E0,0E0,0E0,0E0,9.263994E0,0E0,1.5331345E1,3.7023533E1,3.481012E1,2.9349056E1,0E0,0E0,0E0,0E0,1.8206894E1,0E0,0E0,5.154232E0,0E0,0E0,0E0,0E0,0E0,0E0,7.75589E0,1.4180771E1,2.1779808E1,1.753154E1,3.3002045E1,2.8687815E1,1.4965204E1,0E0,0E0,0E0,0E0,0E0,0E0,0E0,0E0,0E0,0E0,0E0,0E0,0E0,0E0,0E0,0E0,0E0,0E0],"parents":[2147483647,0,0,1,1,2,2,3,3,4,4,5,5,6,6,7,7,8,8,10,10,11,11,12,12,13,13,14,14,16,16,17,17,18,18,19,19,21,21,23,23,24,24,27,27,28,28,32,32,33,33,34,34,35,35,36,36,40,40,42,42,43,43,44,44,45,45,50,50,53,53,60,60,61,61,62,62,63,63,64,64,65,65,66,66],"right_children":[2,4,6,8,10,12,14,-1,18,-1,20,22,24,-1,28,-1,-1,32,34,36,-1,38,-1,40,42,-1,-1,44,46,-1,-1,-1,-1,50,52,54,-1,-1,-1,-1,58,-1,60,62,64,66,-1,-1,-1,-1,68,-1,-1,-1,-1,-1,-1,-1,-1,-1,-1,74,76,78,80,82,84,-1,-1,-1,-1,-1,-1,-1,-1,-1,-1,-1,-1,-1,-1,-1,-1,-1,-1],"split_conditions":[9.6193916E-1,-1.9131716E-3,-1.0126194E-2,-2.0853158E-2,-1.2213746E-2,1.1091983E-4,-8.2050654E-4,-3.385516E-2,-5.7225585E-2,3.634288E-3,1.13796E-2,6.699889E-5,-4.3198222E-4,-3.2222502E-2,-8.434631E-3,-1.8954836E-2,-3.854023E-2,-5.5302833E-3,-2.2028657E-3,3.2625665E-4,-4.266002E-2,-2.1597462E-11,-1.0922011E-2,3.1622726E-4,-5.9016156E-6,-4.19699E-2,-2.1992028E-2,-1.2648666E-1,-1.7178766E-4,-4.3342263E-2,-2.7613819E-2,-8.49036E-3,-3.45635E-2,-1.6330858E-5,-1.7235667E-4,-6.1225016E-3,-3.772978E-2,3.1088353E-3,3.1077271E-2,1.3211304E-2,-1.6528402E-2,7.8890804E-4,-1.4770789E-5,-6.761344E-3,-8.909151E-6,1.8817286E-3,-3.2382865E-2,-4.5304425E-2,-2.3725642E-2,3.2594953E-2,-1.4992123E-9,-3.433905E-2,-6.128674E-3,-2.5760742E-2,-6.381164E-3,-2.7173461E-2,-4.380834E-2,-9.7009476E-4,-2.6013808E-2,-5.4785796E-3,-3.0275948E-2,-6.296196E-5,-3.4078294E-5,-1.352682E-4,-1.5546283E-7,-2.4014467E-3,-1.3718328E-3,-1.0208414E-2,8.804676E-3,-3.5171587E-2,-1.3843965E-2,-1.6998565E-2,-3.41026E-2,-4.620606E-3,-3.834573E-2,-8.129442E-3,1.2862857E-2,3.304428E-2,3.378506E-3,1.8513253E-3,1.8193757E-2,1.5946783E-2,-1.1254066E-3,-2.9247621E-2,3.5765835E-3],"split_indices":[1,52,58,58,91,103,72,41,113,0,132,24,8,22,49,2147483647,2147483647,52,99,72,0,106,0,43,7,2147483647,2147483647,0,44,2147483647,2147483647,0,30,7,67,110,100,0,0,0,71,0,17,110,75,6,0,2147483647,2147483647,0,96,0,0,120,0,2147483647,2147483647,0,0,0,38,70,51,16,123,44,5,0,0,2147483647,2147483647,2147483647,2147483647,0,0,0,0,0,0,0,0,0,0,0,0],"split_type":[0,0,0,0,0,0,0,0,0,0,0,0,0,0,0,0,0,0,0,0,0,0,0,0,0,0,0,0,0,0,0,0,0,0,0,0,0,0,0,0,0,0,0,0,0,0,0,0,0,0,0,0,0,0,0,0,0,0,0,0,0,0,0,0,0,0,0,0,0,0,0,0,0,0,0,0,0,0,0,0,0,0,0,0,0],"sum_hessian":[2.7526304E3,6.6380994E2,2.0888203E3,4.103546E2,2.534553E2,3.4267056E2,1.7461499E3,8.390407E1,3.2645053E2,2.6646324E1,2.2680899E2,7.276705E1,2.699035E2,5.5821297E1,1.6903286E3,2.1277914E1,6.2626156E1,6.46855E1,2.6176505E2,1.4060107E2,8.620791E1,4.1252827E1,3.1514223E1,7.598169E1,1.9392183E2,2.6996813E1,2.8824482E1,1.2578225E3,4.32506E2,4.1444855E1,2.11813E1,2.2660595E1,4.2024902E1,2.0916515E2,5.2599888E1,7.961051E1,6.0990566E1,1.9668776E1,2.1584051E1,2.329839E1,5.2683296E1,1.9113407E1,1.7480841E2,3.348947E2,9.2292786E2,4.0592703E2,2.6578997E1,1.9509592E1,2.251531E1,2.1124334E1,1.8804082E2,3.108246E1,2.1517427E1,4.4705433E1,3.490508E1,2.4285519E1,3.6705048E1,2.4719732E1,2.7963564E1,2.7013067E1,1.4779535E2,4.4823048E1,2.9007166E2,1.8420479E2,7.387231E2,3.5396713E2,5.195989E1,7.368218E1,1.1435863E2,2.3888731E1,2.0816704E1,3.428352E1,1.1351183E2,2.4949846E1,1.9873201E1,5.403036E1,2.360413E2,1.6381561E2,2.0389174E1,1.3665411E2,6.02069E2,1.6775104E2,1.8621611E2,3.2243973E1,1.9715914E1],"tree_param":{"num_deleted":"14","num_feature":"134","num_nodes":"85","size_leaf_vector":"0"}},{"base_weights":[4.6272324E-3,-7.367368E-1,1.5973705E-1,-1.2523868E0,-5.9708565E-1,3.0760735E-1,-3.8759443E-1,-1.3762302E0,-7.938106E-1,-3.9094082E-1,-1.2073916E0,-9.4854134E-1,3.7135816E-1,3.2963106E-1,-6.2042755E-1,-1.1037306E0,-1.4604453E0,-2.8973988E-1,