{"learner":{"attributes":{"best_iteration":"257","best_ntree_limit":"258","scikit_learn":"{\"use_label_encoder\": false, \"n_estimators\": 258, \"objective\": \"binary:logistic\", \"max_depth\": 16, \"max_leaves\": null, \"max_bin\": null, \"grow_policy\": null, \"learning_rate\": 0.03, \"verbosity\": null, \"booster\": null, \"tree_method\": null, \"gamma\": 8, \"min_child_weight\": 14, \"max_delta_step\": null, \"subsample\": null, \"sampling_method\": null, \"colsample_bytree\": null, \"colsample_bylevel\": null, \"colsample_bynode\": null, \"reg_alpha\": null, \"reg_lambda\": null, \"scale_pos_weight\": null, \"base_score\": null, \"missing\": NaN, \"num_parallel_tree\": null, \"random_state\": 1, \"n_jobs\": null, \"monotone_constraints\": null, \"interaction_constraints\": null, \"importance_type\": null, \"gpu_id\": null, \"validate_parameters\": null, \"predictor\": null, \"enable_categorical\": false, \"max_cat_to_onehot\": null, \"eval_metric\": null, \"early_stopping_rounds\": null, \"callbacks\": null, \"classes_\": [0.0, 1.0], \"n_classes_\": 2, \"_estimator_type\": \"classifier\"}"},"feature_names":[],"feature_types":[],"gradient_booster":{"model":{"gbtree_model_param":{"num_parallel_tree":"1","num_trees":"258","size_leaf_vector":"0"},"tree_info":[0,0,0,0,0,0,0,0,0,0,0,0,0,0,0,0,0,0,0,0,0,0,0,0,0,0,0,0,0,0,0,0,0,0,0,0,0,0,0,0,0,0,0,0,0,0,0,0,0,0,0,0,0,0,0,0,0,0,0,0,0,0,0,0,0,0,0,0,0,0,0,0,0,0,0,0,0,0,0,0,0,0,0,0,0,0,0,0,0,0,0,0,0,0,0,0,0,0,0,0,0,0,0,0,0,0,0,0,0,0,0,0,0,0,0,0,0,0,0,0,0,0,0,0,0,0,0,0,0,0,0,0,0,0,0,0,0,0,0,0,0,0,0,0,0,0,0,0,0,0,0,0,0,0,0,0,0,0,0,0,0,0,0,0,0,0,0,0,0,0,0,0,0,0,0,0,0,0,0,0,0,0,0,0,0,0,0,0,0,0,0,0,0,0,0,0,0,0,0,0,0,0,0,0,0,0,0,0,0,0,0,0,0,0,0,0,0,0,0,0,0,0,0,0,0,0,0,0,0,0,0,0,0,0,0,0,0,0,0,0,0,0,0,0,0,0,0,0,0,0,0,0,0,0,0,0,0,0],"trees":[{"base_weights":[-0E0,-9.5151705E-1,7.346052E-1,-1.3692946E0,-5.49464E-1,-2.1788284E-1,1.0264984E0,-1.1643507E0,-1.7714286E0,-9.170306E-2,-1.131524E0,2.2222222E-1,-8.057554E-1,2.3897912E-1,1.3194805E0,-1.6431655E0,-9.226361E-1,-1.5890986E0,-1.9098787E0,-1.34375E0,1.1139241E-1,-1.5529412E0,-7.4901444E-1,-1.503876E0,4.4601414E-1,-1.2881356E0,-4.46281E-1,3.9089185E-1,-1.4013605E0,-6.009852E-1,1.4064691E0,-1.76E0,-8.6868685E-1,-1.6333333E0,-7.724138E-1,-1.2421052E0,-1.7938144E0,-1.2666667E0,-1.9692898E0,-1.7E0,-6.666667E-2,3.5775128E-1,-5.95122E-1,-1.1780822E0,-1.7161291E0,-5.0498337E-1,-1.6319019E0,-1.0447761E0,-1.8787879E0,-7.586207E-1,6.991474E-1,-1.65E0,-9.69697E-1,-0E0,-1E0,-1.4509804E0,5.1652056E-1,-1.7802198E0,-7.3333335E-1,-1.1532847E0,5.1428574E-1,1.5377141E0,3.9688715E-1,-1.2E0,-1.8088236E0,-1.826087E0,-9.3333334E-1,-5.6297916E-1,-1.5219123E0,-7.058824E-1,-1.7826087E0,-1.2615385E0,-1.9130435E0,-1.8321679E0,-1.2786885E0,5.013876E-1,-1.2577319E0,-1.2941177E0,-1.7624521E-1,-1.5384616E0,-2.6865673E-1,-1.3274336E0,-1.8202248E0,-7.24234E-2,-1.125506E0,-1.0476191E0,-1.9230769E0,-1.8947369E-1,-1.373494E0,9.6585363E-1,-9.52381E-2,-1.2380953E0,-1.8415842E0,-1.5E0,-4.528302E-1,-5.945946E-1,6.875E-1,-2.7160493E-1,-1.3956834E0,1.0043924E0,9.950249E-2,-1.6619718E0,-5.714286E-1,1.6185626E0,7.7165353E-1,-8.3870965E-1,7.817259E-1,-1.8841871E0,-1.3939394E0,-1.2E0,-3.338257E-1,-1.7128205E0,-8E-1,-2.007435E-1,7.3039216E-1,-8.5714287E-1,-1.7260274E0,4.642857E-1,-6.405229E-1,-1.84E0,-9.3333334E-1,2.6277372E-1,-1.1011236E0,-2.580645E-1,-1.3862433E0,-4.6666667E-1,1.1127013E0,-7.809524E-1,5.6880736E-1,-1.5625E0,1.3636364E-1,-6.666667E-2,1.2777778E0,-1.7108433E0,-8.666667E-1,1.3017751E-1,1.2818533E0,-4.735376E-1,5.5679286E-1,1.6564132E0,1.3043478E-1,1.1610487E0,-1.3559322E-1,-2.1538462E-1,-1.4285715E0,-1.6393442E-1,1.1884058E0,-4.6575344E-1,-1.4853802E0,1.3545817E-1,-6.0465115E-1,-1.9136691E0,-1.1333333E0,9.615385E-2,-1.1384616E0,-3.2432433E-2,9.480315E-1,1.8181819E-1,-1.2087913E0,-7.906977E-1,7.291667E-1,-8E-1,-1.6090225E0,5.87234E-1,1.4756098E0,9.130435E-1,-7.654321E-1,1.4083885E0,3.768116E-1,-3.846154E-2,-1.0451612E0,6.97201E-1,-4E-1,1.25E0,1.7198653E0,6.451613E-2,1.4641148E0,-8.3870965E-1,6E-1,-8.852459E-1,5.2307695E-1,1.5272727E0,-1.3333334E-1,-9.866667E-1,-1.8E0,-8.666667E-1,4.4102564E-1,-1.5897436E0,-3.8202247E-1,-4E-1,6.8041235E-1,1.1333333E0,-5.736434E-1,1.13371E0,-0E0,4.761905E-2,1.2142857E0,-1.8441558E0,-1.2E0,9.4382024E-1,-4.918033E-1,1.617647E0,7.3333335E-1,7.692308E-1,1.525066E0,-5.2459013E-1,6.2222224E-1,-5.365854E-1,-1.5324675E0,8.9096576E-1,-1.5789473E-1,5.1724136E-1,1.4673913E0,9.1358024E-1,1.7400622E0,1.6923077E0,9.142857E-1,9.2537314E-1,1.7452229E0,9.361702E-1,-1.904762E-2,4.5544556E-1,-7.027027E-1,9.2307694E-2,-1.1764706E0,1.4920635E0,7.9858655E-1,1.4E0,3.4146342E-1,1.0666667E0,1.7407408E0,1.7304964E0,8.910891E-1,-1.030303E0,6.666667E-2,2.6804122E-1,1.1403508E0,-0E0,1E0,1.5897436E0,7.3333335E-1,1.7574903E0,8E-1,1.3125E0,1.9036144E0,-1.1052631E0,-1.2612613E-1,1.6972973E0,8.7323946E-1,1.1219512E0,-4.8780486E-2,1.8888888E0,1.3684211E0,1.8938053E0,1E0,2.580645E-1,1.4352942E0,1.71875E0,9.3333334E-1,1.1619048E0,1.7777778E0,-1.4893616E0,-4.516129E-1,1.8699187E0,1.2727273E0,1.4529915E0,6.5217394E-1,1E0,1.8139535E0,1.1904762E0,1.9318181E0,1.8227957E0,1.5084337E0,1E0,1.8032787E0,1.841848E0,1.1794872E0,7.894737E-1,1.6501458E0,1.6040609E0,1.8882321E0,1.7909408E0,8.666667E-1,1.772242E0,1.1452992E0,1.9104644E0,1.2820513E0,1.3125E0,1.8942732E0,1.8846154E0,1.3766234E0,1.7377049E0,4.6666667E-1,1.9237435E0,1.4E0],"categories":[],"categories_nodes":[],"categories_segments":[],"categories_sizes":[],"default_left":[1,1,1,1,1,1,1,1,1,1,1,1,1,1,1,1,1,1,1,1,1,1,1,1,1,1,1,1,1,1,1,1,0,1,1,1,1,1,1,1,0,1,1,1,1,1,1,1,1,1,1,1,1,1,1,0,1,1,1,1,0,1,1,1,1,1,1,1,1,0,0,1,1,1,1,1,0,1,1,1,0,1,1,1,1,1,1,0,0,1,1,1,1,0,0,1,1,0,1,1,1,0,0,1,1,1,1,1,1,1,1,1,1,1,1,1,1,0,1,1,1,1,0,0,1,0,1,0,0,0,0,0,0,1,1,1,1,1,1,1,0,1,1,0,0,1,1,0,1,1,1,1,1,1,0,1,1,0,0,0,1,1,1,1,1,0,0,1,0,1,1,1,0,1,1,0,1,0,0,0,0,1,0,1,1,0,1,0,1,0,0,0,1,1,0,0,0,1,1,1,0,1,1,0,1,1,0,0,0,1,0,1,1,0,1,1,1,1,1,0,0,0,1,0,0,1,1,0,0,1,1,1,0,0,0,0,1,1,1,1,1,1,0,1,1,1,0,1,1,1,0,1,1,1,1,0,1,1,1,0,1,0,0,1,1,1,1,1,1,1,1,1,1,1,1,1,0,0,1,1,1,1,1,1,1,1,1,1,1,1,1,0,0,1,1],"id":0,"left_children":[1,3,5,7,9,11,13,15,17,19,21,23,25,27,29,31,33,35,-1,39,41,43,45,-1,49,51,53,55,-1,59,61,-1,-1,-1,67,69,-1,-1,-1,-1,-1,75,77,79,-1,83,-1,-1,-1,87,89,-1,93,95,97,-1,99,-1,-1,101,-1,103,105,-1,-1,-1,-1,109,-1,-1,-1,-1,-1,-1,-1,113,-1,-1,117,-1,-1,-1,-1,121,123,-1,-1,-1,-1,125,127,-1,-1,-1,-1,129,131,-1,-1,135,137,-1,-1,139,141,143,145,-1,-1,147,149,-1,-1,153,155,-1,-1,-1,157,-1,-1,159,-1,-1,-1,-1,163,-1,-1,-1,-1,-1,-1,-1,-1,165,167,169,171,173,-1,175,177,-1,-1,179,181,-1,-1,185,187,-1,-1,189,-1,191,193,-1,-1,-1,195,-1,-1,199,-1,-1,-1,203,-1,205,207,209,-1,211,213,-1,-1,-1,-1,-1,-1,-1,-1,-1,-1,-1,219,-1,221,-1,-1,-1,223,225,-1,-1,-1,-1,-1,227,-1,-1,-1,-1,231,233,-1,-1,-1,235,-1,-1,-1,-1,241,-1,-1,-1,-1,-1,-1,-1,245,-1,-1,-1,249,-1,-1,-1,-1,-1,-1,-1,-1,-1,255,-1,-1,-1,-1,259,-1,-1,-1,261,-1,-1,-1,-1,-1,-1,-1,-1,-1,-1,-1,-1,-1,-1,271,-1,-1,-1,-1,-1,-1,-1,-1,-1,-1,275,277,-1,-1,279,-1,-1,-1,283,-1,-1,-1,-1,291,-1,-1,-1,-1,-1,-1,-1,-1,-1,-1],"loss_changes":[2.5645918E3,2.677456E2,5.75874E2,6.248889E1,2.1738142E2,1.260491E2,3.6539026E2,5.8869507E1,3.5914917E0,1.16612236E2,5.674655E1,1.0844477E2,3.5579712E1,1.07948E2,1.9379797E2,1.4193024E1,3.5998505E1,6.2428284E0,3.0179443E0,2.9004166E1,6.896506E1,8.377563E0,4.016565E1,3.5880203E0,7.6077576E1,8.598007E0,2.9900826E1,9.220717E1,7.9954987E0,3.1853266E1,1.4583813E2,1.9305725E0,0E0,6.3913116E0,4.4664764E1,1.2508629E1,2.203537E0,0E0,0E0,4.414215E-1,0E0,6.8734955E1,2.97832E1,1.753035E1,2.2874146E0,4.0314682E1,4.918091E0,0E0,0E0,1.4962725E1,4.357782E1,8.7651825E-1,1.2888508E1,2.8206081E1,1.5184479E1,0E0,7.532966E1,0E0,0E0,9.18771E0,0E0,5.930786E1,6.17581E1,0E0,1.625885E0,0E0,0E0,3.2918327E1,7.277878E0,0E0,0E0,0E0,0E0,0E0,0E0,4.360045E1,0E0,5.739609E0,1.9701704E1,5.3989716E0,0E0,0E0,0E0,3.1236702E1,1.3608528E1,0E0,0E0,0E0,0E0,3.2862427E1,2.4349848E1,0E0,0E0,0E0,0E0,2.639051E1,1.4330557E1,0E0,4.310951E0,4.125032E1,5.2934853E1,0E0,0E0,4.9548584E1,3.380711E1,1.109025E1,3.807605E1,0E0,0E0,1.1880539E1,2.1592567E1,3.5051575E0,0E0,1.8832272E1,3.3898956E1,0E0,0E0,0E0,1.8094402E1,0E0,0E0,3.4232765E1,0E0,0E0,4.883766E0,0E0,2.578331E1,0E0,0E0,0E0,0E0,0E0,0E0,0E0,0E0,3.0322136E1,1.4299606E1,2.2280607E1,1.5358719E1,2.0066406E1,0E0,2.2088028E1,1.5760854E1,0E0,0E0,1.5577301E1,3.11083E1,0E0,4.931694E0,1.9597324E1,2.2968487E1,0E0,0E0,1.5346034E1,0E0,2.9830421E1,2.794461E1,0E0,0E0,0E0,1.5812498E1,0E0,9.848175E-1,2.30694E1,7.4590607E0,0E0,0E0,7.272522E0,0E0,1.702763E1,8.781197E0,1.6419464E1,0E0,1.8356445E1,1.0501465E1,0E0,5.0084E0,0E0,0E0,0E0,0E0,5.6001434E0,0E0,0E0,0E0,0E0,1.1123218E1,0E0,2.4221834E1,0E0,0E0,0E0,1.305547E1,1.4750763E1,0E0,0E0,0E0,0E0,0E0,1.1749794E1,0E0,2.7551117E0,0E0,0E0,1.079805E1,9.188377E0,0E0,0E0,0E0,1.2161034E1,0E0,7.2413793E0,7.097046E0,0E0,1.0443359E1,3.7065887E-1,0E0,0E0,0E0,0E0,0E0,0E0,1.4889519E1,0E0,0E0,6.5190887E0,1.9440834E1,0E0,0E0,0E0,3.937683E-1,6.5165863E0,0E0,0E0,0E0,0E0,1.4462387E1,0E0,0E0,5.0009613E0,0E0,6.5041504E0,0E0,0E0,0E0,8.867897E0,0E0,1.0097504E0,0E0,7.0225525E0,0E0,0E0,0E0,0E0,0E0,0E0,5.191246E0,4.903946E0,0E0,0E0,5.5441895E0,0E0,0E0,0E0,0E0,2.838028E0,0E0,0E0,0E0,0E0,0E0,4.95166E0,9.267838E0,0E0,0E0,3.1779785E0,0E0,0E0,7.9069366E0,5.570038E0,3.8208008E0,1.0609589E0,0E0,5.286865E-1,1.0948322E1,3.35083E-1,0E0,0E0,0E0,0E0,0E0,0E0,0E0,0E0,0E0],"parents":[2147483647,0,0,1,1,2,2,3,3,4,4,5,5,6,6,7,7,8,8,9,9,10,10,11,11,12,12,13,13,14,14,15,15,16,16,17,17,18,18,19,19,20,20,21,21,22,22,23,23,24,24,25,25,26,26,27,27,28,28,29,29,30,30,31,31,33,33,34,34,35,35,36,36,39,39,41,41,42,42,43,43,44,44,45,45,46,46,49,49,50,50,51,51,52,52,53,53,54,54,56,56,59,59,61,61,62,62,64,64,67,67,68,68,75,75,77,77,78,78,79,79,83,83,84,84,89,89,90,90,95,95,96,96,98,98,99,99,100,100,103,103,104,104,105,105,106,106,109,109,110,110,111,111,113,113,114,114,118,118,121,121,124,124,126,126,135,135,136,136,137,137,138,138,139,139,141,141,142,142,145,145,146,146,148,148,149,149,150,150,153,153,155,155,156,156,160,160,162,162,163,163,164,164,167,167,169,169,170,170,171,171,173,173,174,174,176,176,181,181,186,186,188,188,192,192,193,193,199,199,201,201,204,204,205,205,209,209,211,211,212,212,214,214,215,215,222,222,225,225,226,226,230,230,231,231,236,236,239,239,241,241,245,245,247,247,249,249,256,256,257,257,260,260,265,265,271,271,272,272,275,275,278,278,279,279,280,280,281,281,283,283,284,284,285,285],"right_children":[2,4,6,8,10,12,14,16,18,20,22,24,26,28,30,32,34,36,-1,40,42,44,46,-1,50,52,54,56,-1,60,62,-1,-1,-1,68,70,-1,-1,-1,-1,-1,76,78,80,-1,84,-1,-1,-1,88,90,-1,94,96,98,-1,100,-1,-1,102,-1,104,106,-1,-1,-1,-1,110,-1,-1,-1,-1,-1,-1,-1,114,-1,-1,118,-1,-1,-1,-1,122,124,-1,-1,-1,-1,126,128,-1,-1,-1,-1,130,132,-1,-1,136,138,-1,-1,140,142,144,146,-1,-1,148,150,-1,-1,154,156,-1,-1,-1,158,-1,-1,160,-1,-1,-1,-1,164,-1,-1,-1,-1,-1,-1,-1,-1,166,168,170,172,174,-1,176,178,-1,-1,180,182,-1,-1,186,188,-1,-1,190,-1,192,194,-1,-1,-1,196,-1,-1,200,-1,-1,-1,204,-1,206,208,210,-1,212,214,-1,-1,-1,-1,-1,-1,-1,-1,-1,-1,-1,220,-1,222,-1,-1,-1,224,226,-1,-1,-1,-1,-1,228,-1,-1,-1,-1,232,234,-1,-1,-1,236,-1,-1,-1,-1,242,-1,-1,-1,-1,-1,-1,-1,246,-1,-1,-1,250,-1,-1,-1,-1,-1,-1,-1,-1,-1,256,-1,-1,-1,-1,260,-1,-1,-1,262,-1,-1,-1,-1,-1,-1,-1,-1,-1,-1,-1,-1,-1,-1,272,-1,-1,-1,-1,-1,-1,-1,-1,-1,-1,276,278,-1,-1,280,-1,-1,-1,284,-1,-1,-1,-1,292,-1,-1,-1,-1,-1,-1,-1,-1,-1,-1],"split_conditions":[-2.1144631E-3,-2.5352538E-3,-6.8069743E-3,-6.6610694E-2,-7.257473E-2,-5.9642065E-2,-6.859541E-3,-3.2636812E-3,-3.2047138E-2,-5.618026E-4,-9.572888E-3,-5.505403E-4,-7.94832E-3,-6.7998044E-2,-4.4781715E-4,-4.9716594E-8,-6.663943E-3,-1.0575056E-6,-5.729636E-2,-2.4195349E-4,4.519429E-4,-8.2406524E-4,-1.9742486E-6,-4.511628E-2,-8.915595E-3,-2.5889801E-3,-2.6379097E-2,-6.9832127E-4,-4.2040814E-2,-9.57258E-4,-7.5069174E-2,-5.28E-2,-2.6060605E-2,-4.9E-2,-1.0859158E-4,6.776281E-4,-5.381443E-2,-3.8E-2,-5.9078693E-2,-5.1E-2,-2E-3,1.47186965E-2,-2.5642007E-6,1.5413609E-3,-5.148387E-2,-2.7020682E-2,-4.8957054E-2,-3.134328E-2,-5.6363635E-2,-7.0807645E-3,-5.171455E-6,-4.95E-2,-1.0568951E-2,-3.080435E-8,-1.7469765E-4,-4.352941E-2,-7.006587E-2,-5.3406592E-2,-2.2E-2,-2.2619017E-6,1.5428572E-2,4.99428E-4,-2.9578658E-3,-3.6000002E-2,-5.4264706E-2,-5.478261E-2,-2.7999999E-2,-2.6097596E-2,-4.565737E-2,-2.117647E-2,-5.347826E-2,-3.7846155E-2,-5.7391305E-2,-5.4965034E-2,-3.8360655E-2,-1.4465144E-2,-3.7731957E-2,-3.882353E-2,-7.5112195E-3,-4.6153847E-2,-8.059702E-3,-3.9823007E-2,-5.4606743E-2,-2.3985215E-2,-4.087192E-3,-3.142857E-2,-5.7692304E-2,-5.6842105E-3,-4.120482E-2,-9.197886E-3,-2.1470818E-3,-3.7142858E-2,-5.5247527E-2,-4.4999998E-2,-1.3584905E-2,-2.379688E-3,-6.240227E-3,-8.148148E-3,-4.18705E-2,-8.6023435E-3,-7.6563195E-3,-4.9859155E-2,-1.7142858E-2,-4.1410677E-2,-5.645677E-3,-6.496617E-2,-1.731992E-3,-5.652561E-2,-4.181818E-2,-2.6239123E-2,-1.0764259E-2,-5.1384613E-2,-2.4E-2,-2.9130757E-2,-8.240117E-3,-2.5714286E-2,-5.178082E-2,1.3928571E-2,1.0286947E-3,-5.52E-2,-2.7999999E-2,-1.3750425E-2,-3.3033706E-2,-7.741935E-3,-4.15873E-2,-1.39999995E-2,-2.6473308E-3,-2.342857E-2,1.7064221E-2,-4.6875E-2,4.090909E-3,-2E-3,3.8333334E-2,-5.13253E-2,-2.6E-2,-3.048243E-2,-6.325714E-2,-1.4737391E-4,-4.1257955E-2,-6.0399445E-3,3.9130435E-3,2.1323739E-3,-2.918082E-6,-6.4615384E-3,-4.2857144E-2,3.449767E-4,-3.6415957E-2,-1.3972603E-2,-4.4561405E-2,-1.7482019E-3,-1.7272313E-4,-5.7410073E-2,-3.3999998E-2,2.3261199E-4,-3.4153845E-2,-1.1147676E-2,-8.246847E-5,5.4545454E-3,-3.6263738E-2,-2.372093E-2,-2.4876447E-2,-2.4E-2,-4.8270673E-2,-7.426195E-3,4.426829E-2,2.7391305E-2,-2.2962963E-2,-1.136779E-3,1.1304348E-2,-3.065744E-3,-6.2689905E-5,8.742054E-4,-1.2E-2,-7.752552E-3,9.687276E-1,1.9354838E-3,4.392344E-2,-2.5161289E-2,1.8000001E-2,-2.6557377E-2,1.5692309E-2,4.581818E-2,-4E-3,-2.96E-2,-5.3999998E-2,-2.6E-2,-1.0163291E-5,-4.7692306E-2,-5.3423684E-2,-1.2E-2,2.041237E-2,3.3999998E-2,-2.6933436E-4,-2.4864394E-2,-0E0,1.4285714E-3,3.642857E-2,-5.5324674E-2,-3.6000002E-2,4.8518297E-5,-1.4754098E-2,4.852941E-2,2.2E-2,2.3076924E-2,-7.750053E-3,5.3202873E-4,1.8666666E-2,-1.609756E-2,-4.5974024E-2,-5.826828E-4,-4.7368417E-3,1.551724E-2,4.4021737E-2,2.7407406E-2,-2.5192978E-2,5.076923E-2,2.7428571E-2,2.7761193E-2,5.2356686E-2,2.8085105E-2,-5.7142857E-4,1.3663366E-2,6.2849105E-4,2.7692309E-3,-3.529412E-2,4.4761904E-2,-7.733926E-3,4.2E-2,1.0243902E-2,3.2E-2,5.2222222E-2,5.191489E-2,2.6732672E-2,-3.090909E-2,2E-3,8.041237E-3,-8.272149E-3,-0E0,3E-2,4.7692306E-2,2.2E-2,-2.779021E-2,2.4E-2,3.9375E-2,5.7108432E-2,-7.5271963E-3,-3.7837836E-3,5.0918918E-2,2.6197184E-2,3.3658534E-2,-1.4634145E-3,5.6666665E-2,4.1052632E-2,5.6814156E-2,3E-2,7.741935E-3,4.3058824E-2,5.15625E-2,2.7999999E-2,3.4857143E-2,-2.3851044E-2,-4.468085E-2,-1.3548386E-2,5.609756E-2,3.8181815E-2,4.3589745E-2,1.9565217E-2,3E-2,5.4418605E-2,3.5714284E-2,5.7954542E-2,-2.4043117E-3,-8.841813E-4,3E-2,5.409836E-2,-1.5016263E-3,3.5384618E-2,2.3684211E-2,4.9504373E-2,5.286598E-4,5.664696E-2,5.3728223E-2,2.6E-2,5.3167257E-2,-8.702485E-3,5.731393E-2,3.846154E-2,3.9375E-2,5.6828193E-2,5.6538463E-2,4.1298702E-2,5.2131146E-2,1.39999995E-2,5.77123E-2,4.2E-2],"split_indices":[32,32,55,27,27,27,68,32,27,67,57,67,55,0,67,22,18,54,63,90,67,26,80,57,55,59,89,67,30,21,0,22,0,8,65,90,22,2147483647,2147483647,15,0,66,22,11,20,43,10,2147483647,2147483647,9,80,79,11,77,16,0,60,2147483647,2147483647,22,0,67,94,2147483647,2147483647,2147483647,2147483647,73,88,0,0,2147483647,2147483647,2147483647,2147483647,78,0,53,25,30,0,2147483647,2147483647,20,17,2147483647,2147483647,0,0,68,85,2147483647,2147483647,0,0,94,68,0,75,68,68,0,0,63,23,0,32,2147483647,2147483647,29,25,2147483647,2147483647,20,55,2147483647,2147483647,0,92,2147483647,2147483647,78,0,0,58,0,59,0,0,0,0,0,0,2147483647,2147483647,20,63,45,27,55,0,5,77,0,0,26,60,0,60,5,46,2147483647,2147483647,56,0,78,65,0,0,0,52,2147483647,2147483647,29,65,0,0,48,0,38,92,42,0,38,1,0,88,0,0,0,0,68,0,2147483647,2147483647,0,8,0,89,0,0,0,69,66,0,0,0,2147483647,2147483647,92,0,2147483647,2147483647,0,81,84,0,0,0,90,0,53,0,0,60,2147483647,2147483647,2147483647,2147483647,0,0,0,12,0,0,82,25,0,0,2147483647,2147483647,62,0,0,0,0,28,2147483647,2147483647,2147483647,2147483647,62,0,2147483647,2147483647,55,0,2147483647,2147483647,20,0,2147483647,2147483647,2147483647,2147483647,0,67,2147483647,2147483647,0,89,0,0,2147483647,2147483647,2147483647,2147483647,2147483647,2147483647,2147483647,2147483647,3,2,2147483647,2147483647,30,0,0,20,19,10,2147483647,2147483647,62,25,2147483647,2147483647,2147483647,2147483647,2147483647,2147483647,0,0,2147483647,2147483647],"split_type":[0,0,0,0,0,0,0,0,0,0,0,0,0,0,0,0,0,0,0,0,0,0,0,0,0,0,0,0,0,0,0,0,0,0,0,0,0,0,0,0,0,0,0,0,0,0,0,0,0,0,0,0,0,0,0,0,0,0,0,0,0,0,0,0,0,0,0,0,0,0,0,0,0,0,0,0,0,0,0,0,0,0,0,0,0,0,0,0,0,0,0,0,0,0,0,0,0,0,0,0,0,0,0,0,0,0,0,0,0,0,0,0,0,0,0,0,0,0,0,0,0,0,0,0,0,0,0,0,0,0,0,0,0,0,0,0,0,0,0,0,0,0,0,0,0,0,0,0,0,0,0,0,0,0,0,0,0,0,0,0,0,0,0,0,0,0,0,0,0,0,0,0,0,0,0,0,0,0,0,0,0,0,0,0,0,0,0,0,0,0,0,0,0,0,0,0,0,0,0,0,0,0,0,0,0,0,0,0,0,0,0,0,0,0,0,0,0,0,0,0,0,0,0,0,0,0,0,0,0,0,0,0,0,0,0,0,0,0,0,0,0,0,0,0,0,0,0,0,0,0,0,0,0,0,0,0,0,0,0,0,0,0,0,0,0,0,0,0,0,0,0,0,0,0,0,0,0,0,0,0,0,0,0,0,0,0,0,0,0,0,0,0,0,0,0],"sum_hessian":[3.667E3,1.5975E3,2.0695E3,7.8225E2,8.1525E2,4.855E2,1.584E3,5.2075E2,2.615E2,4.57E2,3.5825E2,2.78E2,2.075E2,4.3E2,1.154E3,1.7275E2,3.48E2,1.1825E2,1.4325E2,6.3E1,3.94E2,1.69E2,1.8925E2,3.125E1,2.4675E2,8.75E1,1.2E2,3.9425E2,3.575E1,4.975E1,1.10425E3,1.49E2,2.375E1,5.9E1,2.89E2,4.65E1,7.175E1,1.4E1,1.2925E2,4.9E1,1.4E1,2.925E2,1.015E2,5.375E1,1.1525E2,1.495E2,3.975E1,1.575E1,1.55E1,4.25E1,2.0425E2,3.9E1,4.85E1,6.7E1,5.3E1,2.45E1,3.6975E2,2.175E1,1.4E1,3.325E1,1.65E1,9.7675E2,1.275E2,1.4E1,1.35E2,4.5E1,1.4E1,2.2725E2,6.175E1,2.45E1,2.2E1,1.525E1,5.65E1,3.475E1,1.425E1,2.6925E2,2.325E1,3.725E1,6.425E1,3.8E1,1.575E1,2.725E1,8.8E1,8.875E1,6.075E1,1.475E1,2.5E1,2.275E1,1.975E1,1.5275E2,5.15E1,1.475E1,2.425E1,2.3E1,2.55E1,3.6E1,3.1E1,1.925E1,3.375E1,1.6975E2,2E2,1.675E1,1.65E1,8.825E2,9.425E1,3E1,9.75E1,1.1125E2,2.375E1,5.9E1,1.6825E2,4.775E1,1.4E1,6.625E1,2.03E2,2E1,1.725E1,2.7E1,3.725E1,2.4E1,1.4E1,6.75E1,2.125E1,1.45E1,4.625E1,1.4E1,1.3875E2,2.525E1,2.625E1,1.5E1,2.1E1,1.4E1,1.7E1,1.975E1,1.4E1,4.125E1,1.285E2,8.875E1,1.1125E2,8.605E2,2.2E1,6.575E1,2.85E1,1.525E1,1.475E1,2.95E1,6.8E1,1.725E1,4.175E1,6.175E1,1.065E2,3.375E1,1.4E1,5.1E1,1.525E1,4.525E1,1.5775E2,1.55E1,2.175E1,2.05E1,4.7E1,1.4E1,3.225E1,5.775E1,8.1E1,2.2E1,1.925E1,1.1225E2,1.625E1,5.1E1,3.775E1,9.725E1,1.4E1,1.19E2,7.415E2,1.45E1,5.125E1,1.45E1,1.4E1,1.425E1,1.525E1,5.4E1,1.4E1,1.775E1,2.4E1,1.4E1,4.775E1,1.85E1,8.8E1,2.775E1,2.325E1,1.4E1,3.125E1,1.3175E2,2.6E1,2E1,2.7E1,1.825E1,1.4E1,4.35E1,1.425E1,6.7E1,1.4E1,1.85E1,9.375E1,2.95E1,2.15E1,1.95E1,1.825E1,7.925E1,1.8E1,2.8E1,9.1E1,1.925E1,7.2225E2,3.475E1,1.65E1,1.575E1,3.825E1,2.25E1,2.525E1,2.425E1,6.375E1,1.525E1,1.6E1,6.2E1,6.975E1,2.4E1,1.95E1,1.4E1,5.3E1,6.95E1,2.425E1,1.55E1,1.4E1,2.325E1,5.6E1,1.4E1,1.4E1,7.7E1,1.4E1,7.0825E2,1.4E1,1.5E1,1.975E1,3.7E1,2.675E1,4.525E1,1.675E1,5.025E1,1.95E1,3.5E1,1.8E1,5.55E1,1.4E1,1.45E1,4.15E1,6.3E1,1.4E1,2.525E1,6.83E2,2.25E1,1.45E1,2.975E1,1.55E1,2.825E1,2.2E1,2.1E1,2.05E1,2E1,4.3E1,5.8025E2,1.0275E2,1.4E1,1.425E1,5.6175E2,1.85E1,1.8E1,8.475E1,9.75E1,4.6425E2,7.075E1,1.4E1,6.925E1,2.825E1,4.4575E2,1.85E1,1.5E1,5.575E1,5.1E1,1.825E1,1.425E1,1.4E1,4.3175E2,1.4E1],"tree_param":{"num_deleted":"80","num_feature":"95","num_nodes":"295","size_leaf_vector":"0"}},{"base_weights":[-1.6874316E-4,-9.239E-1,7.129845E-1,-1.3928057E0,-5.8583975E-1,-2.118131E-1,9.964406E-1,-1.1916794E0,-1.7641006E0,-1.5982692E-1,-1.1317106E0,2.1551053E-1,-7.826252E-1,2.3188233E-1,1.280953E0,-1.7507027E0,-1.0254694E0,-1.6334704E0,-1.9001942E0,-1.3349906E0,3.6451247E-2,-1.5321281E0,-7.370396E-1,-1.460886E0,4.3281028E-1,-1.2512382E0,-4.3346775E-1,3.793827E-1,-1.3610545E0,-5.841204E-1,1.3654591E0,-1.5196505E0,-7.752437E-1,-1.7752461E0,-1.1976222E0,-1.6420952E0,-2.4678327E-2,2.8285664E-1,-6.7699736E-1,-1.2018656E0,-1.6703252E0,-4.9576682E-1,-1.6148554E0,-1.0028402E0,-1.837291E0,-3.655752E-1,7.984147E-1,-6.388894E-1,-1.4207261E0,-9.5659234E-5,-9.712018E-1,-1.409806E0,5.0139505E-1,-1.7383451E0,-7.1511525E-1,-1.121028E0,4.9976707E-1,1.4929609E0,3.8495636E-1,-1.6973878E0,-1.0472419E0,-1.8404136E0,-6.433583E-1,-1.8714373E0,-1.4387155E0,-1.7643169E0,-6.85772E-1,-1.2510024E0,-1.7539546E0,4.2781535E-1,-1.2471908E0,-1.0231E0,2.3585206E-2,-1.5279452E0,-3.9641297E-1,-1.308814E0,-1.7711308E0,-8.469538E-2,-1.0570568E0,-1.0733144E0,-1.883552E0,2.634831E-1,-9.327561E-1,2.1583556E-1,1.203133E0,-8.567221E-1,-1.59028E0,-5.780467E-1,6.681436E-1,-1.3774325E0,-2.8033483E-1,9.753009E-1,9.63853E-2,-1.5618378E0,-4.8704556E-1,1.5714881E0,7.4913526E-1,-8.153246E-1,7.5883794E-1,-1.3749275E0,-1.856951E0,-4.245369E-1,-1.6631413E0,-1.15996815E-1,-1.0086262E0,-2.5688168E-1,6.624358E-1,-1.2695491E0,-2.1138418E-1,8.57451E-1,-8.874626E-1,-1.7900953E0,-9.0771276E-1,-1.6021658E0,-8.3822256E-1,-1.40039E0,-1.8447169E0,2.4481392E-1,-1.0399268E0,-2.1229817E-1,-1.3279479E0,9.6051633E-1,-7.8220767E-1,-3.4616923E-1,-1.6610954E0,6.624829E-1,-7.6044667E-1,1.4745435E0,2.4115285E-1,-1.7453932E0,-1.1070591E0,-1.5193449E0,1.3245909E-1,-3.179409E-2,1.2686801E0,-9.309912E-1,-1.7388002E0,1.2639743E-1,1.2447975E0,-4.6022376E-1,5.40565E-1,1.6082599E0,1.2669222E-1,1.1583984E0,-7.6632634E-2,-2.0932268E-1,-1.3890386E0,1.1716092E0,-1.3545899E-1,-1.719117E0,-9.179694E-1,-8.6719066E-1,3.1871107E-1,-5.2492046E-1,-1.3483683E0,-6.413867E-1,3.3550197E-1,-3.9795943E-2,8.809893E-1,-1.0152755E0,-1.8541256E0,-6.680657E-1,7.832081E-1,-6.0783184E-1,-1.588444E0,1.1700279E0,1.3387804E-1,1.6317505E0,7.206687E-1,7.87303E-1,-8.770287E-1,1.3676901E0,3.6617377E-1,-3.7509136E-2,-1.0156982E0,6.737091E-1,-3.503595E-1,1.6354214E0,7.251986E-1,1.4317386E0,2.5338492E-1,-1.0477582E0,7.8959006E-1,7.1791965E-1,1.8154663E0,-8.595213E-1,5.3353983E-1,-2.5376856E-1,-1.3664743E0,-7.5811154E-1,7.305608E-1,-1.0629919E0,5.280609E-1,-1.6336218E0,-8.7565774E-1,-1.0049634E0,3.997755E-2,-4.215212E-1,9.760388E-1,9.906007E-1,-4.9448833E-1,1.0744479E0,-1.1615128E-1,-4.311689E-1,-1.4204149E0,1.2114654E0,-1.2280827E-2,-1.7893035E0,-1.1747345E0,1.7592338E0,1.1109173E0,1.6387779E0,1.0812004E0,-5.098636E-1,6.044361E-1,-5.213056E-1,-1.4896355E0,8.617733E-1,-1.5340796E-1,1.3938133E0,1.7154127E0,8.0907863E-1,1.7699031E0,4.2285237E-2,1.1666608E0,1.3547089E0,2.64472E-1,-1.7648228E0,-4.747618E-1,-1.8381801E0,-1.2764794E0,-3.3400515E-1,-1.6141138E0,4.3980432E-1,-1.0502032E0,1.2428821E0,3.87491E-1,-8.129994E-1,6E-1,1.5935881E0,7.4362886E-1,1.7916416E0,1.110304E0,3.919742E-1,1.2967473E0,-1.0162169E0,1.25230225E-2,6.871891E-2,1.0474954E0,7.3917913E-1,1.6101472E0,1.0995692E0,1.7398648E0,1.4827157E0,6.073917E-1,-1.4730868E-1,9.2319673E-1,1.5699162E0,7.50455E-1,5.0791484E-1,1.3965415E0,1.8034846E-1,1.2114748E0,1.0986058E0,1.679908E0,1.7862928E0,1.4369177E0,6.6269743E-1,1.650769E0,-2.690132E-1,1.3665137E0,7.941123E-1,1.7145691E0,7.146598E-1,1.6288414E0,1.7916526E0,1.3025334E0,1.8080245E0,1.3445065E0,6.472353E-1,1.58788E0,1.7489692E0,1.1883533E0,5.810453E-1,1.7644408E0,1.1901991E0,1.8264859E0,8.618881E-1,1.7572951E0,1.86884E0,1.313954E0,1.23192E0,1.8423377E0,1.8740057E0,1.6125762E0,1.7520857E0,1.1620957E0],"categories":[],"categories_nodes":[],"categories_segments":[],"categories_sizes":[],"default_left":[1,1,1,1,1,1,1,1,1,1,1,1,1,1,1,0,1,1,0,1,1,1,1,1,1,1,1,1,1,1,1,1,1,1,1,1,0,1,1,1,1,1,1,1,1,1,1,0,1,1,1,0,1,1,1,1,0,1,1,1,1,0,1,1,1,0,0,1,1,1,0,1,1,1,0,1,1,1,1,1,1,1,1,1,1,1,1,1,1,1,0,1,1,0,0,1,1,1,1,1,1,0,0,1,1,1,1,1,0,0,0,1,1,1,1,1,1,1,0,0,1,0,0,0,0,1,0,1,0,1,1,0,0,0,0,1,1,1,1,1,1,1,0,1,1,0,0,1,1,1,1,1,1,1,1,1,1,1,1,1,0,0,1,0,1,0,0,1,0,0,0,1,0,1,1,1,0,1,0,1,0,0,0,1,0,0,0,0,0,0,1,1,0,1,0,1,0,0,0,0,1,1,1,0,0,1,0,1,1,1,1,1,1,1,0,0,0,1,0,1,1,0,0,0,0,0,0,0,0,1,1,0,0,0,0,1,1,0,0,1,1,1,1,0,1,0,0,0,1,1,1,0,1,1,1,0,0,1,1,0,1,0,1,0,1,1,1,0,1,0,0,1,1,1,1,0,1,1,1,0,1,1,1,0,0,1,1,1,1,1,1,1,1,1,1,1,1],"id":1,"left_children":[1,3,5,7,9,11,13,15,17,19,21,23,25,27,29,-1,31,33,-1,35,37,39,41,-1,45,47,49,51,-1,55,57,59,61,-1,65,-1,-1,69,71,73,-1,77,-1,-1,-1,81,83,-1,-1,87,89,-1,91,-1,-1,93,-1,95,97,-1,101,-1,103,-1,-1,-1,-1,-1,-1,105,-1,107,109,-1,-1,-1,-1,117,119,-1,-1,121,123,125,127,-1,-1,131,133,-1,-1,137,139,-1,-1,141,143,145,147,-1,-1,-1,-1,151,153,155,157,159,-1,-1,-1,-1,-1,-1,-1,-1,-1,161,-1,-1,163,-1,-1,-1,-1,165,-1,167,-1,-1,-1,-1,-1,-1,-1,-1,-1,169,171,173,175,177,-1,179,181,-1,-1,183,185,-1,-1,187,189,191,193,195,197,199,201,203,-1,-1,205,-1,-1,-1,-1,-1,-1,-1,-1,211,-1,213,215,217,-1,219,-1,221,-1,-1,-1,223,-1,-1,-1,-1,-1,-1,225,227,-1,-1,-1,231,-1,-1,-1,-1,233,235,237,-1,-1,-1,-1,-1,-1,-1,-1,-1,243,245,-1,-1,-1,247,-1,249,251,-1,-1,-1,-1,-1,-1,-1,-1,-1,-1,-1,-1,-1,-1,253,255,-1,-1,-1,-1,-1,-1,-1,-1,-1,-1,-1,259,261,263,-1,265,267,269,-1,-1,-1,-1,-1,-1,-1,-1,-1,275,-1,279,-1,-1,-1,-1,-1,-1,-1,-1,-1,283,-1,-1,-1,-1,-1,-1,-1,-1,-1,-1,-1,-1,-1,-1,-1,-1,-1,-1,-1,-1],"loss_changes":[2.415942E3,2.5246484E2,5.42734E2,4.7829712E1,2.1612695E2,1.1880027E2,3.4431787E2,3.878882E1,1.0357056E0,1.2082241E2,6.327893E1,1.02236664E2,3.3561485E1,1.01754196E2,1.827378E2,0E0,4.075354E1,5.6557617E0,0E0,3.0125061E1,7.923701E1,7.183777E0,4.3078766E1,3.7149963E0,7.258913E1,8.273529E0,2.8190697E1,8.696734E1,7.709259E0,3.0086746E1,1.3752173E2,7.705658E0,3.0726624E1,3.164673E-1,8.647446E0,4.6192932E-1,0E0,7.481611E1,2.8083702E1,1.59337845E1,2.762268E0,3.7740036E1,4.413475E0,0E0,0E0,2.8247494E1,3.9870483E1,0E0,5.1851807E0,2.6642834E1,1.4764786E1,0E0,7.104771E1,0E0,0E0,8.80777E0,0E0,5.5900146E1,5.826734E1,1.5864868E0,1.213707E1,0E0,3.911457E1,0E0,0E0,0E0,0E0,0E0,0E0,4.9436024E1,0E0,1.52311325E1,3.057339E1,5.606613E0,0E0,3.3821602E0,3.13385E-1,3.0386219E1,1.5559624E1,0E0,0E0,2.8442343E1,1.7151474E1,3.1458595E1,2.5809158E1,0E0,1.9260254E0,2.4941202E1,1.3488526E1,3.8244476E0,0E0,3.889235E1,4.9933777E1,0E0,0E0,4.6705322E1,3.2269596E1,1.0484657E1,3.6507244E1,3.2166672E0,0E0,0E0,0E0,2.7860199E1,1.904435E1,1.8206676E1,3.5133163E1,6.92231E0,0E0,0E0,0E0,0E0,0E0,0E0,0E0,0E0,0E0,3.590377E1,0E0,0E0,8.8316345E0,0E0,0E0,0E0,0E0,1.3054033E1,0E0,8.064056E0,0E0,0E0,0E0,0E0,0E0,0E0,0E0,0E0,0E0,2.8704996E1,1.3476288E1,2.1031975E1,1.3548859E1,1.9464111E1,0E0,1.5402374E1,2.8160313E1,0E0,0E0,1.8407028E1,1.5955676E1,0E0,0E0,9.218861E0,2.4607784E1,2.9585915E1,8.003952E0,1.19910145E1,1.5805309E1,2.6369312E1,3.3777466E1,9.679127E0,0E0,0E0,1.5597712E1,0E0,1.0335846E0,0E0,0E0,2.276596E0,0E0,0E0,0E0,7.019409E0,0E0,1.6074223E1,8.300442E0,1.5373135E1,0E0,1.3736328E1,0E0,8.828926E0,0E0,0E0,0E0,1.2453272E1,0E0,0E0,0E0,0E0,0E0,0E0,1.120299E1,1.3295708E1,0E0,7.570267E-1,0E0,1.2333244E1,0E0,0E0,0E0,0E0,2.0706701E1,1.643512E1,1.5084389E1,0E0,0E0,4.1322937E0,0E0,0E0,0E0,0E0,0E0,2.5526428E0,8.104347E0,8.079365E0,0E0,0E0,0E0,1.1708134E1,0E0,2.8959106E1,7.462036E0,0E0,0E0,0E0,0E0,0E0,0E0,0E0,0E0,0E0,0E0,0E0,0E0,0E0,0E0,1.6925705E1,8.800091E0,0E0,0E0,0E0,0E0,0E0,0E0,0E0,5.34758E0,0E0,0E0,0E0,1.1482559E1,1.4225761E1,3.834259E0,0E0,5.831299E0,1.0512192E1,2.2815165E1,0E0,0E0,0E0,0E0,0E0,6.0597E0,0E0,4.9497566E0,0E0,3.4929504E0,2.5002441E0,9.04068E0,0E0,1.0651093E0,0E0,0E0,0E0,0E0,0E0,0E0,0E0,1.0715519E1,3.376709E0,0E0,0E0,7.121475E0,4.1137695E-1,0E0,0E0,0E0,0E0,2.1662598E0,0E0,0E0,0E0,0E0,0E0,2.989502E-1,0E0,1.8889618E0,0E0,0E0],"parents":[2147483647,0,0,1,1,2,2,3,3,4,4,5,5,6,6,7,7,8,8,9,9,10,10,11,11,12,12,13,13,14,14,16,16,17,17,19,19,20,20,21,21,22,22,23,23,24,24,25,25,26,26,27,27,28,28,29,29,30,30,31,31,32,32,33,33,34,34,35,35,37,37,38,38,39,39,40,40,41,41,42,42,45,45,46,46,48,48,49,49,50,50,52,52,55,55,57,57,58,58,59,59,60,60,62,62,69,69,71,71,72,72,73,73,75,75,76,76,77,77,78,78,81,81,82,82,83,83,84,84,86,86,87,87,88,88,89,89,91,91,92,92,95,95,96,96,97,97,98,98,99,99,103,103,104,104,105,105,106,106,107,107,117,117,120,120,125,125,127,127,137,137,138,138,139,139,140,140,141,141,143,143,144,144,147,147,148,148,151,151,152,152,153,153,154,154,155,155,156,156,157,157,158,158,159,159,162,162,164,164,167,167,171,171,173,173,174,174,175,175,177,177,179,179,183,183,190,190,191,191,193,193,195,195,200,200,201,201,202,202,205,205,211,211,212,212,213,213,217,217,219,219,220,220,235,235,236,236,244,244,248,248,249,249,250,250,252,252,253,253,254,254,260,260,262,262,264,264,265,265,266,266,268,268,276,276,277,277,280,280,281,281,286,286,292,292,294,294],"right_children":[2,4,6,8,10,12,14,16,18,20,22,24,26,28,30,-1,32,34,-1,36,38,40,42,-1,46,48,50,52,-1,56,58,60,62,-1,66,-1,-1,70,72,74,-1,78,-1,-1,-1,82,84,-1,-1,88,90,-1,92,-1,-1,94,-1,96,98,-1,102,-1,104,-1,-1,-1,-1,-1,-1,106,-1,108,110,-1,-1,-1,-1,118,120,-1,-1,122,124,126,128,-1,-1,132,134,-1,-1,138,140,-1,-1,142,144,146,148,-1,-1,-1,-1,152,154,156,158,160,-1,-1,-1,-1,-1,-1,-1,-1,-1,162,-1,-1,164,-1,-1,-1,-1,166,-1,168,-1,-1,-1,-1,-1,-1,-1,-1,-1,170,172,174,176,178,-1,180,182,-1,-1,184,186,-1,-1,188,190,192,194,196,198,200,202,204,-1,-1,206,-1,-1,-1,-1,-1,-1,-1,-1,212,-1,214,216,218,-1,220,-1,222,-1,-1,-1,224,-1,-1,-1,-1,-1,-1,226,228,-1,-1,-1,232,-1,-1,-1,-1,234,236,238,-1,-1,-1,-1,-1,-1,-1,-1,-1,244,246,-1,-1,-1,248,-1,250,252,-1,-1,-1,-1,-1,-1,-1,-1,-1,-1,-1,-1,-1,-1,254,256,-1,-1,-1,-1,-1,-1,-1,-1,-1,-1,-1,260,262,264,-1,266,268,270,-1,-1,-1,-1,-1,-1,-1,-1,-1,276,-1,280,-1,-1,-1,-1,-1,-1,-1,-1,-1,284,-1,-1,-1,-1,-1,-1,-1,-1,-1,-1,-1,-1,-1,-1,-1,-1,-1,-1,-1,-1],"split_conditions":[-2.1144631E-3,-2.6381016E-3,-6.8069743E-3,-2.0559888E-2,-7.243782E-2,-5.9642065E-2,-6.859541E-3,-8.969757E-3,-4.7571808E-2,-5.618026E-4,-9.579075E-3,-5.505403E-4,-7.94832E-3,-6.7998044E-2,-4.4781715E-4,-5.252108E-2,-2.4758994E-3,-5.3864576E-2,-5.7005823E-2,-6.347359E-6,4.6911725E-4,-8.2406524E-4,-1.9742486E-6,-4.382658E-2,-8.189764E-3,-2.6128596E-2,-2.6379097E-2,-6.9832127E-4,-4.0831637E-2,-9.57258E-4,-7.5069174E-2,-4.254793E-3,-1.185496E-3,-5.3257383E-2,-6.7868307E-3,-4.9262855E-2,-7.403498E-4,1.47186965E-2,-7.444843E-5,1.5413609E-3,-5.0109755E-2,-2.7020682E-2,-4.844566E-2,-3.0085204E-2,-5.511873E-2,5.8050605E-4,-2.6473308E-3,-1.916668E-2,-4.262178E-2,-3.080435E-8,-2.7632709E-3,-4.229418E-2,-7.006587E-2,-5.2150354E-2,-2.1453457E-2,-9.776483E-5,1.4993012E-2,4.99428E-4,-2.9578658E-3,-5.0921634E-2,-1.0162751E-2,-5.5212405E-2,-1.1174537E-1,-5.614312E-2,-4.3161463E-2,-5.2929506E-2,-2.057316E-2,-3.7530072E-2,-5.2618638E-2,-1.4465144E-2,-3.7415724E-2,-7.478347E-3,-1.2335711E-4,-4.5838352E-2,-1.1892389E-2,-3.9264422E-2,-5.3133924E-2,-2.3985215E-2,-4.087192E-3,-3.219943E-2,-5.650656E-2,-7.84316E-3,-7.618714E-2,-7.6677958E-3,-4.1918865E-6,-2.5701663E-2,-4.77084E-2,-2.379688E-3,-6.2294025E-3,-4.1322973E-2,-8.410045E-3,-8.6023435E-3,-7.6563195E-3,-4.6855133E-2,-1.4611366E-2,-4.1410677E-2,-2.3693406E-6,-6.496617E-2,-1.979999E-2,-4.1247826E-2,-5.5708528E-2,-1.2736107E-2,-4.9894236E-2,-3.2605429E-3,-6.9887855E-4,-8.02019E-3,-8.240117E-3,7.7870814E-3,-6.3415254E-3,2.572353E-2,-2.6623879E-2,-5.3702857E-2,-2.7231382E-2,-4.8064973E-2,-2.5146676E-2,-4.20117E-2,-5.5341505E-2,-9.389672E-3,-3.1197803E-2,-6.368945E-3,-8.365586E-4,2.881549E-2,-2.346623E-2,-1.03850765E-2,-4.9832862E-2,3.455233E-5,-2.28134E-2,1.1155461E-3,7.2345855E-3,-5.2361794E-2,-3.321177E-2,-4.5580346E-2,3.9737727E-3,-9.538227E-4,3.80604E-2,-2.7929734E-2,-5.2164003E-2,-2.9767677E-2,-6.325714E-2,-1.4737391E-4,-4.147231E-2,4.0669153E-3,3.8007665E-3,-5.645677E-3,2.4944593E-3,-6.27968E-3,-4.1671157E-2,-6.0163825E-3,-6.033282E-3,-5.157351E-2,-2.7539082E-2,-1.4143766E-4,-6.3739717E-3,-3.393083E-2,-3.2821384E-12,8.383969E-4,-7.1257623E-3,-1.1147676E-2,-8.246847E-5,-4.0630117E-2,-5.5623766E-2,-2.004197E-2,-8.504933E-3,-1.8234955E-2,-4.7653317E-2,3.5100836E-2,4.016341E-3,4.8952512E-2,2.162006E-2,2.361909E-2,-2.6310861E-2,-3.1978294E-2,1.0985213E-2,-3.065744E-3,-6.2689905E-5,8.742054E-4,-1.0510785E-2,-5.571082E-3,2.1755958E-2,-3.0418482E-6,7.6015475E-3,-3.1432744E-2,2.3687702E-2,-1.8701273E-4,5.4463986E-2,-2.578564E-2,1.6006194E-2,-7.613057E-3,-4.0994227E-2,-2.2743346E-2,-1.470388E-3,-3.869549E-2,1.5841827E-2,-4.9008653E-2,-2.6269732E-2,-1.0909138E-2,1.1993265E-3,-1.2645636E-2,2.9281164E-2,2.971802E-2,-5.0260755E-4,-2.2592351E-7,-2.170229E-3,-1.29350675E-2,-4.261245E-2,3.634396E-2,-3.684248E-4,-5.3679105E-2,-3.5242032E-2,5.2777015E-2,3.332752E-2,4.9163334E-2,-1.3003333E-3,1.3493343E-5,1.8133083E-2,-1.563917E-2,-4.4689063E-2,-1.6445661E-2,-4.6022385E-3,-4.911236E-6,-2.779021E-2,2.4272358E-2,5.309709E-2,1.268557E-3,3.499982E-2,4.0641267E-2,7.93416E-3,-5.2944683E-2,-1.4242854E-2,-5.51454E-2,-3.829438E-2,-1.00201545E-2,-4.8423413E-2,1.3194129E-2,-3.1506095E-2,-6.572828E-2,-5.532539E-4,-2.4389982E-2,1.8000001E-2,4.780764E-2,2.2308866E-2,5.374925E-2,3.330912E-2,1.1759226E-2,3.890242E-2,-3.0486505E-2,3.7569067E-4,2.0615673E-3,-2.8754293E-4,-7.484437E-3,-1.9418783E-3,3.2987077E-2,-2.3851044E-2,-1.5505461E-3,-5.9370003E-3,-4.41926E-3,2.7695902E-2,4.7097486E-2,2.251365E-2,1.5237445E-2,4.1896243E-2,5.410454E-3,3.634424E-2,3.2958172E-2,-1.8697185E-3,5.358878E-2,-8.337393E-3,1.9880923E-2,4.952307E-2,-8.070395E-3,4.099541E-2,2.382337E-2,5.1437072E-2,2.1439794E-2,4.886524E-2,5.3749576E-2,-1.3877718E-3,5.4240733E-2,4.0335193E-2,1.9417059E-2,4.76364E-2,5.2469075E-2,3.56506E-2,1.743136E-2,5.2933224E-2,3.5705972E-2,5.4794576E-2,2.5856642E-2,5.271885E-2,5.6065198E-2,3.941862E-2,3.69576E-2,5.527013E-2,5.622017E-2,4.8377287E-2,5.256257E-2,3.486287E-2],"split_indices":[32,32,55,89,27,27,68,70,27,67,57,67,55,0,67,0,45,63,0,90,67,26,80,57,55,66,89,67,30,21,0,18,67,37,70,65,0,66,62,11,20,43,10,2147483647,2147483647,14,59,0,5,77,15,0,60,2147483647,2147483647,48,0,67,94,69,25,0,27,2147483647,2147483647,0,0,2147483647,2147483647,78,0,68,65,16,0,2147483647,2147483647,20,17,2147483647,2147483647,29,60,29,80,2147483647,2147483647,94,68,65,0,68,68,0,0,63,80,0,20,2147483647,2147483647,0,0,32,19,28,55,61,0,0,0,2147483647,2147483647,2147483647,2147483647,2147483647,2147483647,88,0,0,58,0,0,0,0,92,0,82,0,2147483647,2147483647,0,0,0,0,2147483647,2147483647,20,63,45,27,66,0,23,5,0,0,57,38,2147483647,2147483647,67,94,43,54,84,47,78,65,20,0,0,25,0,32,0,0,8,0,0,0,49,0,38,92,42,0,55,0,22,0,0,0,48,0,0,0,0,0,0,69,15,0,53,0,88,0,0,0,0,82,8,41,0,0,51,0,2147483647,2147483647,2147483647,2147483647,24,74,69,0,0,0,91,0,40,62,0,0,0,0,0,0,0,0,2147483647,2147483647,0,0,0,0,63,45,0,0,2147483647,2147483647,2147483647,2147483647,0,35,0,0,0,90,38,32,0,89,10,55,0,0,2147483647,2147483647,0,28,0,71,0,72,21,11,0,73,0,0,2147483647,2147483647,2147483647,2147483647,0,32,2147483647,2147483647,0,2,2147483647,2147483647,0,0,2147483647,2147483647,2147483647,2147483647,2147483647,2147483647,2147483647,2147483647,2147483647,2147483647,2147483647,2147483647],"split_type":[0,0,0,0,0,0,0,0,0,0,0,0,0,0,0,0,0,0,0,0,0,0,0,0,0,0,0,0,0,0,0,0,0,0,0,0,0,0,0,0,0,0,0,0,0,0,0,0,0,0,0,0,0,0,0,0,0,0,0,0,0,0,0,0,0,0,0,0,0,0,0,0,0,0,0,0,0,0,0,0,0,0,0,0,0,0,0,0,0,0,0,0,0,0,0,0,0,0,0,0,0,0,0,0,0,0,0,0,0,0,0,0,0,0,0,0,0,0,0,0,0,0,0,0,0,0,0,0,0,0,0,0,0,0,0,0,0,0,0,0,0,0,0,0,0,0,0,0,0,0,0,0,0,0,0,0,0,0,0,0,0,0,0,0,0,0,0,0,0,0,0,0,0,0,0,0,0,0,0,0,0,0,0,0,0,0,0,0,0,0,0,0,0,0,0,0,0,0,0,0,0,0,0,0,0,0,0,0,0,0,0,0,0,0,0,0,0,0,0,0,0,0,0,0,0,0,0,0,0,0,0,0,0,0,0,0,0,0,0,0,0,0,0,0,0,0,0,0,0,0,0,0,0,0,0,0,0,0,0,0,0,0,0,0,0,0,0,0,0,0,0,0,0,0,0,0,0,0,0,0,0,0,0,0,0,0,0,0,0,0,0,0,0,0,0,0,0],"sum_hessian":[3.6653972E3,1.5968013E3,2.068596E3,6.67637E2,9.2916425E2,4.8535156E2,1.5832445E3,4.3578613E2,2.318509E2,5.226031E2,4.065612E2,2.7791794E2,2.0743361E2,4.298749E2,1.1533696E3,9.768927E1,3.3809686E2,1.2493447E2,1.06916435E2,7.396365E1,4.486394E2,2.003808E2,2.0618037E2,3.1234104E1,2.4668384E2,8.74633E1,1.1997031E2,3.941407E2,3.5734207E1,4.97374E1,1.1036322E3,1.1194298E2,2.2615388E2,9.195093E1,3.298354E1,5.9714787E1,1.4248867E1,3.339172E2,1.1472221E2,6.1973568E1,1.3840724E2,1.629558E2,4.322457E1,1.5741988E1,1.5492116E1,7.748241E1,1.6920143E2,1.9994379E1,6.7468925E1,6.698542E1,5.2984894E1,2.4488398E1,3.696523E2,2.1490503E1,1.4243706E1,3.323838E1,1.6499018E1,9.7617096E2,1.27461235E2,7.9455765E1,3.248721E1,2.34892E1,2.0266467E2,6.796376E1,2.3987171E1,1.44918995E1,1.849164E1,1.5990628E1,4.372416E1,3.056773E2,2.8239885E1,7.64794E1,3.824281E1,4.347581E1,1.8497757E1,3.3227966E1,1.0517927E2,9.472963E1,6.8226166E1,1.59907465E1,2.7233826E1,3.699113E1,4.0491276E1,6.99885E1,9.921293E1,1.6993757E1,5.0475166E1,3.5991676E1,3.0993742E1,3.273997E1,2.024492E1,1.6968922E2,1.9996309E2,1.874287E1,1.4495511E1,8.819491E2,9.422185E1,2.9993069E1,9.746816E1,2.94855E1,4.9970264E1,1.699436E1,1.5492849E1,8.347045E1,1.1919423E2,7.7988174E1,2.2768913E2,5.8234505E1,1.82449E1,1.9997911E1,1.82449E1,2.9233625E1,1.4242187E1,1.8987307E1,1.424066E1,2.0736324E1,8.444295E1,7.098641E1,2.3743216E1,1.6999107E1,5.1227062E1,2.224475E1,1.4746381E1,2.324533E1,1.7245943E1,4.8240147E1,2.1748358E1,7.6965324E1,2.2247608E1,3.623257E1,1.4242593E1,1.4991763E1,2.0999912E1,1.4749709E1,1.6244032E1,1.624583E1,1.649414E1,4.1243336E1,1.2844588E2,8.873351E1,1.11229576E2,8.599492E2,2.1999916E1,6.2729393E1,3.1492455E1,1.5249841E1,1.4743229E1,6.6475624E1,3.0992542E1,1.5242485E1,1.4243016E1,3.0232508E1,5.3237946E1,5.0227776E1,6.896645E1,4.7241737E1,3.0746439E1,5.423741E1,1.7345172E2,4.248956E1,1.5744944E1,2.6245218E1,4.4741196E1,1.4493785E1,3.6733276E1,2.3991274E1,2.4248873E1,6.272142E1,1.4243902E1,2.4995478E1,1.624786E1,1.12196396E2,1.6249481E1,5.0994415E1,3.7739098E1,9.6980194E1,1.424938E1,8.334614E2,2.6487791E1,4.773119E1,1.4998205E1,1.4748397E1,1.6744057E1,4.023754E1,2.623808E1,1.47469845E1,1.6245558E1,1.4242444E1,1.5990063E1,1.4495984E1,3.8741962E1,3.323517E1,1.6992609E1,4.1479874E1,2.7486578E1,3.0494766E1,1.674697E1,1.4248578E1,1.6497862E1,1.6245108E1,3.7992306E1,1.452029E2,2.8248829E1,1.8246729E1,2.4242832E1,2.8743826E1,1.599737E1,2.2489435E1,1.424384E1,4.847785E1,1.4243566E1,5.522251E1,5.697389E1,2.9496286E1,2.1498127E1,1.9498737E1,1.824036E1,7.898029E1,1.7999899E1,2.118895E2,6.215719E2,1.7993126E1,2.9738062E1,1.6495615E1,2.3741926E1,1.5747563E1,2.2994398E1,1.4242218E1,1.8992949E1,2.3737179E1,1.7742695E1,1.5247968E1,1.5246799E1,1.4247444E1,2.374486E1,1.1596123E2,2.9241669E1,1.4248828E1,1.4E1,1.4496765E1,1.4247061E1,4.0978924E1,1.4243587E1,1.4244533E1,4.2729355E1,1.4497965E1,1.4998321E1,1.5246407E1,6.3733887E1,5.3726887E1,1.5816261E2,2.5492542E1,5.960794E2,8.3220634E1,3.2740593E1,1.4996026E1,1.4245643E1,2.7236307E1,1.549305E1,2.5998577E1,3.773531E1,2.524193E1,2.8484959E1,2.0990639E1,1.3717197E2,5.1262146E2,8.3457886E1,1.4995111E1,6.8225525E1,1.5496054E1,1.724454E1,1.42462E1,2.348911E1,1.42430105E1,1.4241947E1,1.0294207E2,3.4229893E1,4.8564005E2,2.6981445E1,1.4242569E1,6.921532E1,5.3979916E1,1.4245608E1,1.42420635E1,1.998783E1,1.5990013E1,4.6965002E2,1.424763E1,5.496769E1,3.9734753E1,1.4245161E1,1.4240387E1,4.5540964E2,3.939548E2,6.1454834E1,4.4717037E1,1.6737795E1],"tree_param":{"num_deleted":"60","num_feature":"95","num_nodes":"297","size_leaf_vector":"0"}},{"base_weights":[-3.2585816E-4,-8.9784384E-1,6.925964E-1,-1.2930228E0,-5.177889E-1,-2.0587085E-1,9.6813023E-1,-1.0981816E0,-1.67574E0,-8.575076E-2,-1.0675255E0,2.0918812E-1,-7.603557E-1,2.2509956E-1,1.2448347E0,-1.5527891E0,-8.689378E-1,-1.4265265E0,-1.7687438E0,-1.2672093E0,1.0568091E-1,-1.4651275E0,-7.069864E-1,-1.4204665E0,4.2026547E-1,-1.2157389E0,-4.211957E-1,3.683767E-1,-1.3229963E0,-5.678897E-1,1.3270435E0,-1.6653221E0,-8.0896175E-1,-6.566759E-1,-1.3304054E0,-9.795661E-1,-1.7095766E0,-1.8251885E0,-1.4499102E0,-1.604271E0,-8.7057374E-2,3.381021E-1,-5.60775E-1,-1.2160586E0,-1.6998768E0,-4.7691068E-1,-1.5405229E0,-9.62987E-1,-1.7986279E0,-7.2575665E-1,6.611962E-1,-5.274738E-1,-1.3604002E0,-1.6166031E-4,-9.436592E-1,-1.3709958E0,4.8691937E-1,-1.701422E0,-6.777905E-1,-1.0901607E0,4.8571077E-1,1.4516609E0,3.780226E-1,-1.1588709E0,-1.7181779E0,-1.5218745E0,-4.5985422E-1,-1.6621331E0,-8.983275E-1,-1.6738675E0,-2.0398986E-1,-1.7446616E0,-9.923173E-1,-1.737866E0,-1.1878633E0,4.4667792E-1,-1.5733281E0,-1.2327939E0,-1.5848562E-1,-1.4522381E0,-5.3610003E-1,-1.781747E0,-1.2437671E0,-6.889736E-2,-1.0625889E0,-9.5859855E-1,-1.8336697E0,-1.7903964E-1,-1.3170353E0,9.1447383E-1,-9.241791E-2,-1.0075343E0,-1.7465912E0,-5.6220824E-1,6.496284E-1,-2.3929153E-1,-1.3273306E0,9.5693105E-1,1.00389406E-1,-1.5848805E0,-5.2661645E-1,1.5282189E0,7.2803724E-1,-7.9293567E-1,7.391132E-1,-1.796568E0,-1.2951583E0,-1.8091362E0,-1.0739062E0,2.5388563E-1,-7.196537E-1,-1.0872145E0,-1.8530853E0,-1.5787584E0,-2.9317506E-2,-2.1903813E-1,6.608165E-1,-7.986173E-1,-1.6648167E0,4.583105E-1,-6.060716E-1,-1.1174059E0,-1.780469E0,2.4765691E-1,-1.0408245E0,-2.4487565E-1,-1.3087416E0,-4.2867303E-1,1.0548975E0,-7.574904E-1,5.5160433E-1,-1.4274229E0,-3.6490697E-1,-1.4788433E0,1.2866747E-1,-3.0900648E-2,1.2341124E0,-1.638881E0,-8.214595E-1,1.22592814E-1,1.2293705E0,-4.34765E-1,5.290244E-1,1.5640883E0,1.23058125E-1,1.1260656E0,-7.459755E-2,-2.0343539E-1,-1.3517157E0,1.147293E0,-1.4681475E-1,-8.2961154E-1,7.0717263E-1,-1.3083578E0,-4.511088E-1,-5.255572E-1,5.923467E-1,-3.4968656E-1,8.0011594E-1,1.8266885E-1,-1.1519636E0,-1.5975527E0,-6.6638446E-1,-7.6025355E-1,6.940493E-1,-1.5292462E0,-7.456838E-1,5.6377834E-1,1.3953143E0,8.647993E-1,-7.263501E-1,1.3753108E0,4.4583547E-1,-3.6907125E-2,-9.6979105E-1,1.9698684E-1,9.008483E-1,1.5905912E0,7.0461684E-1,1.3921232E0,2.462587E-1,-1.0185589E0,7.6759434E-1,7.1196884E-1,1.76733E0,-8.5491395E-1,5.185662E-1,1.3089098E0,2.0309114E-1,-1.7363149E0,-6.733388E-1,-7.5214905E-1,2.5512934E-1,-8.932144E-1,3.1707394E-1,-4.742236E-1,9.272134E-1,3.635264E-2,1.1628397E0,-1.7640188E0,-1.1402003E0,1.3157735E0,7.778824E-2,1.5442314E0,7.1274304E-1,6.1809033E-1,1.4864762E0,-5.006688E-1,5.8800024E-1,-4.5405602E-1,-1.4256073E0,-5.379222E-1,4.7846135E-1,1.1975546E0,1.6304447E-1,1.3542432E0,1.6688967E0,7.8651786E-1,1.7213705E0,4.1089512E-2,1.1490979E0,-5.1419497E-2,-1.0850891E0,-3.422783E-1,8.364535E-1,-1.3422275E0,-3.3228752E-1,1.0920429E0,7.5705804E-2,-4.59E-1,8.6460966E-1,1.0285372E0,1.6658578E0,9.464904E-1,1.5738286E0,5.2009698E-2,-1.0307782E0,8.405413E-1,-1.3842073E-1,8.0690247E-1,1.6092032E0,7.182344E-1,1.5649672E0,1.068697E0,1.69279E0,-1.5370086E0,-3.843616E-1,1.3194565E0,4.8586994E-1,1.8030487E0,1.2994106E0,1.6858076E0,1.1118804E0,1.7515953E-1,1.1776843E0,1.0681084E0,1.6328926E0,1.7382965E0,1.396587E0,1.4690067E0,4.3571353E-1,-2.3629483E-2,1.1496091E0,1.3331954E0,1.8404661E0,6.814188E-1,1.596672E0,1.7414573E0,1.2671456E0,1.7804204E0,1.4914775E0,6.6478986E-1,1.551471E0,1.5810164E0,8.36468E-1,5.650091E-1,1.7173102E0,1.7991502E0,1.2970638E0,1.6793219E0,9.44651E-1,8.842346E-1,1.7091058E0,1.709318E0,1.0381435E0,1.30405E0,1.8173624E0,1.3329582E0,1.8016505E0],"categories":[],"categories_nodes":[],"categories_segments":[],"categories_sizes":[],"default_left":[1,1,1,1,1,1,1,1,1,1,1,1,1,1,1,1,1,1,1,1,1,1,1,1,1,1,1,1,1,1,1,1,0,1,1,1,0,1,1,1,0,1,1,1,1,1,1,1,1,1,1,0,1,1,1,0,1,1,1,1,0,1,1,1,1,1,1,1,1,0,0,1,1,1,1,1,0,1,1,1,0,1,1,1,1,1,1,0,0,1,1,1,0,1,1,0,1,1,1,0,0,1,1,1,1,1,1,1,1,1,1,1,1,0,0,1,1,1,1,0,1,1,1,1,0,0,1,0,1,0,0,0,0,0,0,0,0,1,1,1,1,1,1,1,0,1,1,0,0,1,1,0,1,1,1,1,0,0,1,0,0,1,1,0,1,1,1,1,1,0,0,1,0,1,1,1,1,1,0,1,0,0,0,1,0,0,0,0,0,0,0,1,1,1,0,0,1,0,0,1,1,0,1,1,1,1,1,1,0,0,0,0,1,1,0,1,1,0,0,0,0,0,1,0,0,0,0,1,0,0,0,1,1,1,1,0,0,0,0,1,1,1,1,0,1,0,0,1,1,1,1,1,1,0,1,0,1,1,1,1,0,0,0,1,1,1,1,0,1,1,1,0,1,1,1,0,0,1,1,1,1,1,1,1,1,1,1,1,1],"id":2,"left_children":[1,3,5,7,9,11,13,15,17,19,21,23,25,27,29,31,33,35,-1,39,41,43,45,-1,49,51,53,55,-1,59,61,-1,-1,65,67,69,-1,-1,-1,-1,-1,75,77,79,-1,83,-1,-1,-1,87,89,-1,91,93,95,-1,97,-1,-1,99,-1,101,103,-1,-1,-1,109,-1,113,-1,-1,-1,-1,-1,-1,115,-1,-1,119,-1,-1,-1,-1,123,125,-1,-1,-1,-1,127,129,131,-1,133,135,-1,-1,139,141,-1,-1,143,145,147,149,-1,-1,-1,-1,151,153,-1,-1,-1,-1,155,157,-1,-1,-1,159,-1,-1,163,-1,-1,-1,-1,167,-1,-1,-1,-1,-1,-1,-1,-1,-1,-1,169,171,173,175,177,-1,179,181,-1,-1,183,185,-1,187,189,191,193,-1,-1,195,-1,-1,-1,-1,-1,197,-1,-1,201,-1,-1,-1,-1,-1,207,209,211,213,215,-1,217,-1,-1,-1,219,-1,-1,-1,-1,-1,-1,-1,221,223,225,-1,-1,227,-1,-1,-1,-1,-1,229,-1,-1,-1,-1,235,-1,-1,-1,-1,237,-1,-1,241,243,-1,-1,-1,-1,-1,245,-1,-1,-1,-1,247,-1,-1,-1,-1,-1,-1,-1,-1,-1,-1,-1,-1,-1,253,255,-1,257,-1,-1,259,261,-1,-1,-1,-1,-1,-1,-1,267,-1,271,-1,-1,-1,-1,-1,-1,-1,-1,-1,275,-1,-1,-1,-1,-1,-1,-1,-1,-1,-1,-1,-1,-1,-1,-1,-1,-1,-1,-1,-1],"loss_changes":[2.2780693E3,2.3901868E2,5.1193115E2,5.6451538E1,1.9352109E2,1.1200204E2,3.2500928E2,5.2937195E1,3.545044E0,1.0361604E2,5.0375916E1,9.646911E1,3.1652931E1,9.598302E1,1.7251807E2,1.3163055E1,3.3267944E1,7.980896E0,7.0983887E-1,2.526902E1,6.1323177E1,7.850464E0,3.570668E1,3.8365555E0,6.882405E1,8.080734E0,2.6592787E1,8.208098E1,7.8047867E0,2.8430506E1,1.2988611E2,2.0141296E0,0E0,4.029152E1,1.4107025E1,1.6854532E1,0E0,0E0,2.7079697E0,6.9644165E-1,0E0,6.1561127E1,2.7494808E1,1.3002586E1,9.507904E-1,3.585848E1,5.177704E0,0E0,0E0,1.3817884E1,3.922293E1,0E0,8.1046295E0,2.5179089E1,1.4261364E1,0E0,6.719435E1,0E0,0E0,8.7025795E0,0E0,5.287622E1,5.5285202E1,0E0,2.0971985E0,3.7421875E0,3.6811855E1,4.6153717E0,2.919117E1,0E0,0E0,0E0,0E0,0E0,0E0,3.981232E1,0E0,5.837078E0,1.8282475E1,4.9460297E0,0E0,0E0,0E0,2.7853535E1,1.2092743E1,0E0,0E0,0E0,0E0,2.9415436E1,2.2899164E1,1.0323265E1,0E0,2.3601187E1,1.2756865E1,0E0,4.123226E0,3.7816055E1,4.7107994E1,0E0,0E0,4.4181396E1,3.0481617E1,9.927572E0,3.6110992E1,0E0,0E0,0E0,0E0,2.6839874E1,2.2346458E1,0E0,0E0,0E0,0E0,1.7341131E1,2.9950653E1,0E0,0E0,0E0,1.6668274E1,6.2819366E0,0E0,3.1331812E1,0E0,0E0,4.716324E0,0E0,2.2504898E1,0E0,0E0,0E0,0E0,0E0,0E0,0E0,0E0,0E0,0E0,2.7234266E1,1.3772324E1,1.942792E1,1.38877735E1,1.8431885E1,0E0,1.4560791E1,2.660387E1,0E0,0E0,1.7138458E1,1.5631851E1,0E0,1.1329428E1,1.1039177E1,2.1699114E1,1.5844102E1,0E0,0E0,3.0492996E1,0E0,0E0,0E0,0E0,0E0,1.4748831E1,9.977875E-1,0E0,2.1354486E1,7.1941376E0,0E0,0E0,7.967804E0,0E0,1.5793461E1,8.510651E0,1.297143E1,1.1508427E1,1.3136475E1,0E0,8.350784E0,0E0,0E0,0E0,1.2186937E1,0E0,0E0,0E0,0E0,0E0,0E0,0E0,1.6550583E1,1.1045223E1,8.427782E0,0E0,0E0,2.3646088E1,0E0,0E0,0E0,0E0,0E0,1.5908424E1,2.4345398E0,0E0,0E0,2.8190002E0,9.205853E0,0E0,0E0,0E0,0E0,1.0161013E1,4.8078423E0,0E0,2.7333923E1,7.090576E0,0E0,0E0,0E0,0E0,0E0,1.4673977E1,0E0,0E0,0E0,0E0,1.8874725E1,0E0,0E0,0E0,0E0,2.6615906E-1,0E0,2.1147156E0,0E0,0E0,0E0,0E0,0E0,0E0,1.3440235E1,3.610077E0,0E0,5.593872E0,0E0,0E0,1.2888977E1,1.3623574E1,0E0,0E0,8.256073E-1,0E0,0E0,5.0359955E0,0E0,3.2599792E0,2.6652832E0,8.527969E0,4.8506317E0,0E0,0E0,0E0,0E0,0E0,0E0,0E0,0E0,1.0150444E1,1.5772705E0,6.710266E0,0E0,5.7311707E0,3.302887E0,0E0,0E0,0E0,1.3568115E0,0E0,9.124756E-2,0E0,0E0,0E0,0E0,0E0,0E0,0E0,0E0,0E0],"parents":[2147483647,0,0,1,1,2,2,3,3,4,4,5,5,6,6,7,7,8,8,9,9,10,10,11,11,12,12,13,13,14,14,15,15,16,16,17,17,18,18,19,19,20,20,21,21,22,22,23,23,24,24,25,25,26,26,27,27,28,28,29,29,30,30,31,31,33,33,34,34,35,35,38,38,39,39,41,41,42,42,43,43,44,44,45,45,46,46,49,49,50,50,52,52,53,53,54,54,56,56,59,59,61,61,62,62,64,64,65,65,66,66,67,67,68,68,75,75,77,77,78,78,79,79,83,83,84,84,89,89,90,90,91,91,93,93,94,94,96,96,97,97,98,98,101,101,102,102,103,103,104,104,109,109,110,110,115,115,116,116,120,120,121,121,123,123,126,126,128,128,139,139,140,140,141,141,142,142,143,143,145,145,146,146,149,149,150,150,152,152,153,153,154,154,155,155,158,158,164,164,165,165,167,167,168,168,171,171,173,173,174,174,175,175,176,176,177,177,179,179,183,183,191,191,192,192,193,193,196,196,202,202,203,203,206,206,207,207,212,212,213,213,215,215,216,216,222,222,227,227,232,232,234,234,241,241,242,242,244,244,247,247,248,248,251,251,254,254,256,256,257,257,258,258,259,259,268,268,269,269,270,270,272,272,273,273,277,277,279,279],"right_children":[2,4,6,8,10,12,14,16,18,20,22,24,26,28,30,32,34,36,-1,40,42,44,46,-1,50,52,54,56,-1,60,62,-1,-1,66,68,70,-1,-1,-1,-1,-1,76,78,80,-1,84,-1,-1,-1,88,90,-1,92,94,96,-1,98,-1,-1,100,-1,102,104,-1,-1,-1,110,-1,114,-1,-1,-1,-1,-1,-1,116,-1,-1,120,-1,-1,-1,-1,124,126,-1,-1,-1,-1,128,130,132,-1,134,136,-1,-1,140,142,-1,-1,144,146,148,150,-1,-1,-1,-1,152,154,-1,-1,-1,-1,156,158,-1,-1,-1,160,-1,-1,164,-1,-1,-1,-1,168,-1,-1,-1,-1,-1,-1,-1,-1,-1,-1,170,172,174,176,178,-1,180,182,-1,-1,184,186,-1,188,190,192,194,-1,-1,196,-1,-1,-1,-1,-1,198,-1,-1,202,-1,-1,-1,-1,-1,208,210,212,214,216,-1,218,-1,-1,-1,220,-1,-1,-1,-1,-1,-1,-1,222,224,226,-1,-1,228,-1,-1,-1,-1,-1,230,-1,-1,-1,-1,236,-1,-1,-1,-1,238,-1,-1,242,244,-1,-1,-1,-1,-1,246,-1,-1,-1,-1,248,-1,-1,-1,-1,-1,-1,-1,-1,-1,-1,-1,-1,-1,254,256,-1,258,-1,-1,260,262,-1,-1,-1,-1,-1,-1,-1,268,-1,272,-1,-1,-1,-1,-1,-1,-1,-1,-1,276,-1,-1,-1,-1,-1,-1,-1,-1,-1,-1,-1,-1,-1,-1,-1,-1,-1,-1,-1,-1],"split_conditions":[-2.1144631E-3,-2.5352538E-3,-6.8069743E-3,-6.6610694E-2,-7.257473E-2,-5.9642065E-2,-6.859541E-3,-3.2636812E-3,-3.9416786E-2,-5.618026E-4,-9.572888E-3,-5.505403E-4,-7.94832E-3,-6.7998044E-2,-4.4781715E-4,-4.9716594E-8,3.117069E-4,-2.891246E-4,-5.3062312E-2,-2.6042105E-4,4.519429E-4,-3.280794E-2,-1.9742486E-6,-4.2613994E-2,-8.915595E-3,-1.7087318E-3,-2.6379097E-2,-6.9832127E-4,-3.9689887E-2,-9.57258E-4,-7.516682E-2,-4.995966E-2,-2.4268853E-2,-5.599195E-3,-7.807387E-3,-1.1313358E-2,-5.1287297E-2,-5.4755654E-2,-4.3497305E-2,-4.812813E-2,-2.6117212E-3,-8.604914E-2,-2.5642007E-6,-7.1013127E-3,-5.0996304E-2,-2.7020682E-2,-4.6215687E-2,-2.888961E-2,-5.3958833E-2,-7.0807645E-3,-5.171455E-6,-1.5824214E-2,1.3900519E-3,-3.080435E-8,-1.7469765E-4,-4.1129872E-2,-7.055196E-2,-5.1042657E-2,-2.0333715E-2,-2.2619017E-6,1.4571323E-2,4.99428E-4,-2.9578658E-3,-3.4766126E-2,-5.1545337E-2,-4.5656234E-2,-1.0662638E-1,-4.986399E-2,-9.788048E-3,-5.0216023E-2,-6.119696E-3,-5.2339844E-2,-2.976952E-2,-5.213598E-2,-3.56359E-2,-1.4465144E-2,-4.719984E-2,-3.6983818E-2,-7.5112195E-3,-4.356714E-2,-1.6083E-2,-5.345241E-2,-3.7313014E-2,-2.3985215E-2,-4.087192E-3,-2.8757956E-2,-5.5010088E-2,-5.371189E-3,-3.951106E-2,-9.188298E-3,-2.1470818E-3,1.5510767E-4,-5.2397735E-2,-2.379688E-3,-6.2294025E-3,-7.1787457E-3,-3.981992E-2,-8.6023435E-3,-7.6563195E-3,-4.7546413E-2,-1.5798492E-2,-4.1410677E-2,-2.3693406E-6,-6.496617E-2,-1.979999E-2,-5.3897038E-2,-3.8854748E-2,-5.4274082E-2,-3.2217186E-2,-1.1680211E-2,-1.1941001E-2,-3.2616433E-2,-5.5592556E-2,-4.736275E-2,-8.7952515E-4,1.4461912E-3,-9.166811E-3,-2.395852E-2,-4.99445E-2,1.3749315E-2,1.0286947E-3,-3.3522177E-2,-5.3414065E-2,-1.3750425E-2,-3.1224735E-2,-7.3462697E-3,-3.9262246E-2,-1.286019E-2,-2.6473308E-3,-2.2724712E-2,1.6548129E-2,-4.2822685E-2,-1.0947209E-2,-4.4365298E-2,3.860024E-3,-9.270194E-4,3.702337E-2,-4.916643E-2,-2.4643784E-2,-3.048243E-2,-1.0663726E-1,-1.2093227E-4,1.378872E-4,4.0669153E-3,3.6917436E-3,-5.645677E-3,2.4944593E-3,-6.1030616E-3,-4.055147E-2,-6.0163825E-3,-6.033282E-3,-2.4888346E-2,-4.2250828E-4,-1.1263772E-4,5.3699035E-4,-7.4943136E-3,1.7770402E-2,-1.0490596E-2,-3.7705672E-3,5.4800655E-3,-3.4558907E-2,-4.792658E-2,-1.9991534E-2,-2.2807606E-2,-2.4876447E-2,-4.5877386E-2,-2.2370514E-2,-7.297301E-2,4.185943E-2,2.594398E-2,-2.1790503E-2,4.1259322E-2,1.3375063E-2,-3.0790954E-3,-1.8838918E-4,-1.2148406E-2,-5.6275748E-2,-5.571082E-3,2.1138504E-2,-3.0418482E-6,7.387761E-3,-3.0556764E-2,2.302783E-2,-1.8701273E-4,5.30199E-2,-2.5647419E-2,1.55569855E-2,3.9267294E-2,6.092734E-3,-5.2089445E-2,-2.0200163E-2,-2.036389E-2,-4.6676247E-5,-2.2896004E-4,9.512218E-3,-1.4226708E-2,-8.246847E-5,1.0905791E-3,3.488519E-2,-5.292056E-2,-3.4206007E-2,3.9473202E-2,-2.1418226E-3,4.6326943E-2,2.138229E-2,1.8542709E-2,4.4594284E-2,-3.0146623E-5,1.7640008E-2,-1.362168E-2,-4.2768218E-2,-1.6137665E-2,-2.173118E-2,3.5926636E-2,4.891334E-3,-4.911236E-6,-2.779021E-2,2.3595536E-2,5.1641114E-2,1.2326853E-3,3.447294E-2,-1.5425849E-3,-4.807573E-3,-1.0268349E-2,2.5093604E-2,-4.0266823E-2,-9.968625E-3,-3.2804474E-2,2.271174E-3,-1.3769999E-2,2.593829E-2,3.0856114E-2,4.9975734E-2,2.8394712E-2,4.7214855E-2,1.5602909E-3,-3.0923344E-2,2.5216239E-2,-4.1526216E-3,2.4207074E-2,4.8276097E-2,-7.484437E-3,-1.9418783E-3,3.206091E-2,-2.3851044E-2,-4.6110258E-2,-1.1530847E-2,-1.0767448E-2,-1.4205234E-6,5.409146E-2,3.8982317E-2,5.057423E-2,3.3356413E-2,5.2547855E-3,3.533053E-2,3.2043252E-2,-1.8697185E-3,5.2148893E-2,-8.6105394E-4,4.40702E-2,1.3071406E-2,-7.0888444E-4,3.4488272E-2,3.9995864E-2,5.5213984E-2,2.0442562E-2,4.790016E-2,5.224372E-2,-1.3877718E-3,5.3412613E-2,4.4744324E-2,1.9943696E-2,4.6544127E-2,4.7430493E-2,2.509404E-2,1.6950274E-2,5.1519305E-2,5.3974506E-2,3.8911913E-2,5.0379656E-2,2.833953E-2,2.6527038E-2,5.1273175E-2,5.127954E-2,3.1144304E-2,3.9121497E-2,5.452087E-2,3.9988745E-2,5.4049514E-2],"split_indices":[32,32,55,27,27,27,68,32,20,67,57,67,55,0,67,22,67,92,21,90,67,49,80,57,55,37,89,67,30,21,0,22,0,79,55,57,0,2147483647,2147483647,15,0,0,22,55,39,43,10,2147483647,2147483647,9,80,0,79,77,16,0,60,2147483647,2147483647,22,0,67,94,2147483647,2147483647,14,60,27,88,0,0,2147483647,2147483647,2147483647,2147483647,78,0,53,25,25,0,2147483647,2147483647,20,17,2147483647,2147483647,0,0,68,85,42,0,94,68,0,75,68,68,0,0,63,80,0,20,2147483647,2147483647,2147483647,2147483647,55,57,2147483647,2147483647,0,0,56,55,2147483647,2147483647,0,92,2147483647,2147483647,78,0,0,73,0,59,0,0,0,0,0,0,0,0,2147483647,2147483647,20,0,45,12,66,0,23,5,0,0,57,38,0,82,67,82,28,0,0,10,0,0,2147483647,2147483647,0,52,2147483647,2147483647,63,65,0,0,21,0,38,92,23,27,55,0,22,0,0,0,48,0,0,0,0,0,0,0,3,67,34,0,0,65,0,0,2147483647,2147483647,0,85,2147483647,2147483647,2147483647,2147483647,16,0,0,0,0,75,37,0,40,62,0,0,0,0,0,38,0,0,0,0,20,0,0,0,2147483647,2147483647,2147483647,2147483647,0,0,0,0,2147483647,2147483647,38,32,0,89,0,0,3,77,2147483647,2147483647,2147483647,2147483647,0,71,0,72,61,2,79,0,0,0,2147483647,2147483647,2147483647,2147483647,0,32,2147483647,2147483647,0,11,2147483647,2147483647,0,0,2147483647,2147483647,2147483647,2147483647,2147483647,2147483647,2147483647,2147483647,2147483647,2147483647,2147483647,2147483647],"split_type":[0,0,0,0,0,0,0,0,0,0,0,0,0,0,0,0,0,0,0,0,0,0,0,0,0,0,0,0,0,0,0,0,0,0,0,0,0,0,0,0,0,0,0,0,0,0,0,0,0,0,0,0,0,0,0,0,0,0,0,0,0,0,0,0,0,0,0,0,0,0,0,0,0,0,0,0,0,0,0,0,0,0,0,0,0,0,0,0,0,0,0,0,0,0,0,0,0,0,0,0,0,0,0,0,0,0,0,0,0,0,0,0,0,0,0,0,0,0,0,0,0,0,0,0,0,0,0,0,0,0,0,0,0,0,0,0,0,0,0,0,0,0,0,0,0,0,0,0,0,0,0,0,0,0,0,0,0,0,0,0,0,0,0,0,0,0,0,0,0,0,0,0,0,0,0,0,0,0,0,0,0,0,0,0,0,0,0,0,0,0,0,0,0,0,0,0,0,0,0,0,0,0,0,0,0,0,0,0,0,0,0,0,0,0,0,0,0,0,0,0,0,0,0,0,0,0,0,0,0,0,0,0,0,0,0,0,0,0,0,0,0,0,0,0,0,0,0,0,0,0,0,0,0,0,0,0,0,0,0,0,0,0,0,0,0,0,0,0,0,0,0,0,0,0,0,0,0,0,0,0,0,0,0,0,0,0,0,0,0],"sum_hessian":[3.6610203E3,1.5949027E3,2.0661174E3,7.807163E2,8.1418646E2,4.849698E2,1.5811477E3,5.199033E2,2.6081296E2,4.5654425E2,3.5764224E2,2.7771173E2,2.0725806E2,4.2953546E2,1.1516123E3,1.72349E2,3.4755432E2,7.532093E1,1.8549202E2,6.2875565E1,3.9366867E2,1.6862222E2,1.8902E2,3.1188278E1,2.4652345E2,8.736726E1,1.1989079E2,3.9384677E2,3.568869E1,4.970466E1,1.1019076E3,1.4862482E2,2.3724186E1,2.397152E2,1.0783914E2,3.0934088E1,4.4386845E1,1.5357866E2,3.191336E1,4.8627693E1,1.4247873E1,2.9224368E2,1.0142497E2,8.481444E1,8.3807785E1,1.4936414E2,3.965587E1,1.5718892E1,1.5469386E1,4.2474586E1,2.0404886E2,1.59807625E1,7.13865E1,6.694367E1,5.294712E1,2.445494E1,3.6939185E2,2.1463127E1,1.4225561E1,3.3208473E1,1.6496183E1,9.7354083E2,1.283668E2,1.621187E1,1.3241293E2,4.3178165E1,1.9653702E2,5.939318E1,4.8445957E1,1.5711141E1,1.5222948E1,1.7699686E1,1.4213674E1,3.4413445E1,1.4214249E1,2.7726065E2,1.4983046E1,3.7206905E1,6.421807E1,6.2106388E1,2.2708054E1,6.858976E1,1.5218026E1,8.869341E1,6.067072E1,1.4715071E1,2.4940798E1,2.2745811E1,1.9728777E1,1.5256183E2,5.148704E1,3.9188526E1,3.2197975E1,3.5967648E1,3.0976023E1,1.9243114E1,3.3704006E1,1.6602884E2,2.0336299E2,1.6718996E1,1.648948E1,8.793911E2,9.414974E1,2.9973064E1,9.839374E1,1.0897221E2,2.3440727E1,2.4456682E1,1.8721483E1,5.2454113E1,1.4408292E2,1.6477222E1,4.291596E1,2.671304E1,2.1732918E1,6.747398E1,2.0978667E2,1.9977932E1,1.7228973E1,2.6994423E1,3.7223644E1,3.292427E1,2.9182114E1,6.746532E1,2.1228096E1,1.4499277E1,4.6171444E1,1.4246065E1,1.3831575E2,2.524289E1,2.6244154E1,2.2963253E1,1.6225273E1,1.4967991E1,2.0999659E1,1.4749708E1,1.6226315E1,1.9472055E1,1.4231952E1,4.1225834E1,1.24803E2,9.043716E1,1.1292584E2,8.573914E2,2.1999672E1,6.266906E1,3.148068E1,1.5249382E1,1.4723683E1,6.7157005E1,3.1236734E1,1.522689E1,3.7227222E1,4.392297E1,1.0015994E2,4.9228916E1,1.8245071E1,2.5232836E1,1.8455383E2,1.5497387E1,2.172626E1,1.4715947E1,1.8208326E1,2.0492392E1,4.6972927E1,3.1945126E1,1.4226316E1,5.7711517E1,8.060424E1,2.1985695E1,1.924014E1,1.0457055E2,2.0232454E1,5.248045E1,3.7956703E1,6.0462658E1,5.2463184E1,8.3091833E2,2.6473076E1,4.7670864E1,1.4998194E1,1.4744763E1,1.6735916E1,4.071766E1,2.6439344E1,1.4994607E1,1.6242126E1,1.6242018E1,2.0985205E1,2.5203415E1,1.8719555E1,7.018006E1,2.997988E1,3.4232533E1,1.4996385E1,1.6489645E1,1.6806418E2,1.9996323E1,2.6976604E1,1.7718536E1,1.422659E1,2.1985273E1,3.5726246E1,6.513197E1,1.5472263E1,1.4226257E1,9.034429E1,3.0238443E1,2.2242006E1,1.8744408E1,1.9212296E1,1.6492052E1,4.3970608E1,3.697188E1,1.54913E1,2.113372E2,6.195812E2,1.7982801E1,2.9688065E1,1.6495443E1,2.4222216E1,2.2976505E1,4.7203556E1,1.4988204E1,1.4991674E1,1.8239351E1,1.5993182E1,1.4057086E2,2.7493319E1,2.1485184E1,1.4241062E1,1.4234476E1,5.08975E1,1.42277775E1,7.611651E1,1.5245629E1,1.4992814E1,2.7479126E1,1.6491482E1,2.0488544E1,1.6483337E1,5.369201E1,1.576452E2,2.5471281E1,5.9410986E2,2.7970879E1,1.9232677E1,1.0136558E2,3.9205288E1,3.418058E1,1.6716917E1,5.913297E1,1.6983541E1,2.5239672E1,2.8452337E1,2.0971102E1,1.3667409E2,5.1077017E2,8.333968E1,8.612837E1,1.52372055E1,2.2725296E1,1.6479992E1,2.0961731E1,3.8171238E1,1.4227306E1,1.4225031E1,1.0249044E2,3.4183655E1,4.309993E2,7.977088E1,1.5482072E1,6.785761E1,7.189732E1,1.4231045E1,1.4235377E1,1.9948277E1,4.123007E2,1.86986E1,5.783315E1,2.1937733E1,1.4230819E1,5.3626793E1,5.641553E1,1.5481797E1,1.7204311E1,3.950964E2,1.8199432E1,3.9633717E1],"tree_param":{"num_deleted":"68","num_feature":"95","num_nodes":"289","size_leaf_vector":"0"}},{"base_weights":[-4.808006E-4,-8.7305796E-1,6.7323387E-1,-1.3179482E0,-5.527703E-1,-2.0033497E-1,9.41365E-1,-1.1250839E0,-1.6746475E0,-1.5055415E-1,-1.0689511E0,2.0310827E-1,-7.3940843E-1,2.1850264E-1,1.210911E0,-1.6607374E0,-9.6618545E-1,-1.7906985E0,-1.529716E0,-1.2638475E0,3.4992367E-2,-1.448657E0,-6.954212E-1,-1.3823612E0,4.08204E-1,-1.1827298E0,-4.0944123E-1,6.158666E-1,-3.115381E-1,-5.524311E-1,1.2909958E0,-1.7491676E0,-1.3747656E0,-1.4429715E0,-7.2517025E-1,-9.6503145E-1,-1.6496174E0,-1.5575167E0,-1.656162E-2,2.6794142E-1,-6.395794E-1,-1.1284052E0,-1.5831009E0,-4.6689236E-1,-1.5291173E0,-9.2500424E-1,-1.7625257E0,-3.527506E-1,7.56971E-1,-1.5318019E0,-8.77135E-1,-2.2631769E-4,-9.173355E-1,-1.528352E0,7.68471E-1,-7.979582E-1,1.562415E-1,-1.1142292E0,3.8421807E-1,1.4124495E0,3.6740464E-1,-1.6135373E0,-9.907861E-1,-1.7527266E0,-5.983178E-1,-1.0997792E0,-1.7517686E0,-1.167032E0,-1.6708964E0,4.0636042E-1,-1.1940581E0,-9.7262985E-1,3.3709947E-2,-1.4456027E0,-3.491299E-1,-1.2230723E0,-1.6842071E0,-7.8681745E-2,-9.9761397E-1,-9.881367E-1,-1.8003114E0,2.5575766E-1,-9.0143794E-1,2.0170625E-1,1.1435082E0,-1.1300987E0,-1.7216644E0,-1.6974175E-1,-1.2338854E0,-5.9756035E-1,5.7983005E-1,-1.2653388E0,-1.5139903E-1,-1.2141391E-1,1.0059423E0,-5.2084863E-1,-1.5835477E0,3.598766E-1,-7.706513E-1,-4.5524672E-1,-1.7866812E0,1.4870958E0,7.079539E-1,-7.714692E-1,7.186974E-1,-1.294452E0,-1.7727305E0,-3.8863567E-1,-1.6061012E0,-9.1137834E-2,-9.5013726E-1,-1.8079823E0,-1.2867167E0,-2.413639E-1,6.284943E-1,-1.2126746E0,-1.8407016E-1,8.355636E-1,-8.438342E-1,-1.708928E0,-8.282668E-1,-1.5175183E0,-7.565151E-1,-1.3154529E0,-1.7582344E0,2.3243403E-1,-9.815054E-1,-1.9646953E-1,-1.2553699E0,9.2653316E-1,-7.5068533E-1,-3.3332628E-1,-1.6076765E0,6.3289356E-1,-7.399966E-1,1.3994236E0,2.387289E-1,-1.6682782E0,-7.3328716E-1,-1.4474094E0,1.4660276E-1,1.124859E0,-9.891802E-2,-7.3668224E-1,-1.5832175E0,8.7666863E-1,-6.4706284E-1,2.739647E-3,1.1707314E0,-2.3275884E-2,-1.2669647E0,-5.518097E-1,6.539956E-1,1.5335044E0,4.3322012E-1,9.6530545E-1,-4.8956162E-1,-1.6944665E-1,-1.3079432E0,1.1161485E0,-1.427774E-1,-1.6395211E0,-8.4166735E-1,-8.023684E-1,3.1916156E-1,-4.879627E-1,-1.2866747E0,3.4098357E-1,-6.0493755E-1,-3.9811656E-2,8.3670735E-1,-8.541651E-1,-1.5889689E0,-6.3928723E-1,7.467449E-1,-5.56578E-1,-1.5094315E0,1.1277137E0,1.1859547E-1,1.5522184E0,6.698771E-1,3.241106E-2,-1.3082677E0,1.2879372E0,3.419414E-1,-7.6629716E-1,3.8220543E-1,9.4862056E-1,1.7588647E-2,1.1811216E0,1.5887579E0,-3.017316E-1,1.2666589E0,4.6403262E-1,1.4776447E0,6.920334E-1,1.7216295E0,-8.3121973E-1,5.0406945E-1,-2.0794982E-1,-1.2893909E0,-7.1118814E-1,7.1253395E-1,-9.981786E-1,5.361137E-1,-1.5294136E0,-7.2648394E-1,-1.7907022E-1,8.236846E-1,-9.416549E-1,1.8324792E-1,9.557638E-1,-4.7892737E-1,1.0211247E0,-1.1202834E-1,-2.5003427E-1,-1.3126556E0,1.1620998E0,-2.331476E-2,-1.7123605E0,-1.0974251E0,1.6804781E0,1.033809E0,1.443668E0,8.4443146E-1,1.2764996E0,3.113086E-1,2.750808E-1,1.3027492E0,8.0109006E-1,1.6090624E0,-6.2252325E-1,1.1432065E0,1.7441819E0,9.5698357E-1,3.9927687E-2,1.1174871E0,2.8169456E-1,1.3511947E0,-1.68636E0,-4.3738085E-1,-1.7798312E0,-1.1237195E0,-3.5261685E-1,-1.4177076E0,4.258983E-1,-1.017428E0,1.1835941E0,3.5988358E-1,1.5431104E0,6.9871247E-1,1.3295165E0,1.822957E0,1.0068749E0,1.6461059E0,1.3652025E0,-2.1758735E-2,1.4326398E0,4.5290658E-1,1.6344097E0,1.0371935E0,1.4154868E0,5.704007E-1,-1.5193237E-1,8.7394613E-1,4.8541534E-1,1.4246691E0,1.188681E0,1.747582E0,1.6263703E0,7.7194166E-1,1.1126537E0,1.6531888E0,1.4066724E0,5.209527E-1,6.327621E-1,1.5762283E0,-1.4443585E-1,1.4485005E0,1.0464104E0,1.7593794E0,1.4355724E0,1.7058896E0,1.6758604E0,1.113327E0,1.5650645E0,7.7261275E-1,1.7404354E0,1.3810022E0,1.7955493E0,1.2458795E0,1.6666248E0,1.0220709E0,1.2679968E0,1.7615697E0,1.580548E0,7.986713E-1,1.7765557E0,1.225247E0,1.139473E0,1.7820266E0,1.4202037E0,1.7939434E0],"categories":[],"categories_nodes":[],"categories_segments":[],"categories_sizes":[],"default_left":[1,1,1,1,1,1,1,1,1,1,1,1,1,1,1,1,1,1,1,1,1,1,1,1,1,1,1,1,1,1,1,1,1,1,1,1,1,1,0,1,1,1,1,1,1,1,1,1,1,1,1,1,1,0,1,1,1,1,0,1,1,1,1,0,1,1,1,1,1,1,0,1,1,1,0,1,1,1,1,1,1,1,1,1,1,1,1,0,1,1,1,1,0,1,1,1,0,1,0,0,0,1,1,1,1,1,1,0,0,1,1,1,1,1,1,1,0,0,0,1,1,1,1,1,1,1,0,0,1,0,0,0,0,1,0,1,0,1,1,0,0,0,0,1,1,0,1,0,1,1,0,0,1,1,1,1,0,0,0,1,1,1,1,1,1,1,1,1,1,1,1,1,0,0,1,0,1,0,0,1,1,0,0,1,0,0,0,1,0,1,1,0,0,1,1,1,0,0,0,0,0,0,1,1,0,1,0,1,1,1,0,0,1,1,0,0,0,1,0,1,1,1,1,1,1,0,0,0,1,0,1,0,0,1,1,0,0,0,0,0,0,1,1,0,0,0,0,1,1,1,1,1,1,1,1,0,0,1,0,1,1,1,1,0,0,1,1,1,1,1,0,0,1,1,1,0,1,0,0,1,1,1,1,1,1,1,0,1,1,1,1,1,1,1,1,1,1,1,1,1,1,1,1],"id":3,"left_children":[1,3,5,7,9,11,13,15,-1,19,21,23,25,27,29,-1,33,-1,-1,37,39,41,43,-1,47,49,51,53,55,57,59,-1,-1,61,63,-1,-1,-1,-1,69,71,73,-1,77,-1,-1,-1,81,83,-1,87,89,91,-1,93,95,97,99,-1,101,103,-1,107,-1,109,-1,-1,-1,-1,113,-1,115,117,-1,-1,-1,-1,125,127,-1,-1,129,131,133,135,-1,-1,-1,-1,139,141,-1,-1,145,147,149,-1,151,-1,-1,-1,153,155,157,159,-1,-1,-1,-1,163,165,-1,-1,167,169,171,-1,-1,-1,-1,-1,-1,-1,-1,-1,173,-1,-1,175,-1,-1,-1,-1,177,-1,-1,-1,-1,-1,-1,-1,-1,-1,-1,-1,-1,181,-1,183,185,-1,-1,187,189,191,193,-1,-1,-1,195,197,-1,-1,199,201,203,205,-1,209,211,213,215,-1,-1,217,-1,-1,-1,-1,-1,-1,-1,-1,223,-1,-1,-1,225,-1,227,229,-1,-1,231,-1,235,-1,-1,-1,-1,-1,-1,237,239,-1,-1,-1,-1,-1,243,-1,-1,245,247,-1,-1,-1,-1,-1,-1,-1,-1,-1,-1,255,-1,-1,-1,257,-1,259,-1,-1,-1,-1,-1,-1,-1,-1,-1,-1,-1,-1,-1,-1,-1,-1,261,263,-1,-1,-1,-1,-1,-1,-1,-1,269,-1,271,-1,275,277,-1,-1,-1,-1,-1,-1,-1,-1,-1,281,-1,-1,-1,-1,-1,-1,-1,-1,285,-1,-1,-1,-1,-1,-1,-1,-1,-1,-1,-1,-1,-1,-1,-1,-1,-1,-1,-1,-1,-1],"loss_changes":[2.1493103E3,2.2625635E2,4.8344324E2,4.393689E1,1.9248615E2,1.0570932E2,3.0735486E2,3.5450623E1,1.1577759E0,1.0801422E2,5.6606506E1,9.1088425E1,2.9938492E1,9.0765E1,1.6307874E2,7.885742E-2,3.7811066E1,0E0,5.8483887E0,2.7334389E1,7.0726074E1,6.8471375E0,3.866648E1,3.9535484E0,6.58921E1,8.06665E0,2.5098223E1,8.170694E1,4.220083E1,2.7080456E1,1.2288428E2,0E0,0E0,7.080414E0,2.8490593E1,0E0,3.085434E0,7.263031E-1,0E0,6.816635E1,2.5942596E1,1.5011208E1,2.9906616E0,3.3641975E1,4.6806183E0,0E0,0E0,2.6405376E1,3.6230064E1,1.0927353E0,1.2251278E1,2.3864948E1,1.4170807E1,0E0,4.8816345E1,1.8945644E1,1.8227709E1,1.332996E1,0E0,5.005774E1,5.224646E1,1.7749481E0,1.1755253E1,0E0,3.6177773E1,0E0,0E0,0E0,1.889801E-2,4.4217594E1,0E0,1.4416214E1,2.829319E1,5.7849045E0,0E0,3.5328484E0,5.7180786E-1,2.708326E1,1.4013519E1,0E0,0E0,2.6315834E1,1.6092861E1,2.9271717E1,2.2807007E1,0E0,0E0,0E0,5.8795547E0,2.1672222E1,1.3038349E1,5.036934E0,0E0,2.6500448E1,3.0083801E1,2.5447687E1,0E0,2.1451448E1,0E0,0E0,0E0,4.227185E1,2.9756939E1,9.771406E0,3.414665E1,3.3656502E0,0E0,0E0,0E0,2.4869364E1,1.8019737E1,0E0,0E0,1.6918419E1,3.1805748E1,6.6171875E0,0E0,0E0,0E0,0E0,0E0,0E0,0E0,0E0,0E0,3.2719368E1,0E0,0E0,8.402664E0,0E0,0E0,0E0,0E0,1.2385799E1,0E0,7.6214905E0,0E0,0E0,0E0,0E0,0E0,0E0,0E0,0E0,0E0,0E0,1.4847453E1,0E0,1.4744003E1,1.3003612E1,0E0,0E0,1.1219576E1,1.4487549E1,2.3916893E1,1.9487854E1,0E0,0E0,0E0,1.6280533E1,1.4769222E1,0E0,0E0,8.747093E0,2.2476063E1,2.7771305E1,8.239365E0,7.9239435E0,1.3164934E1,2.4586998E1,3.058223E1,8.655481E0,0E0,0E0,1.4641222E1,0E0,1.2641449E0,0E0,0E0,2.4839325E0,0E0,0E0,0E0,8.214706E0,0E0,0E0,0E0,8.158264E0,0E0,1.2625198E1,1.0284424E1,0E0,0E0,3.1087566E1,3.6582718E0,1.1520281E1,0E0,0E0,0E0,0E0,0E0,0E0,1.0550594E1,1.2824711E1,0E0,2.7819824E0,0E0,0E0,0E0,9.164251E0,0E0,0E0,1.9419893E1,1.524794E1,0E0,0E0,0E0,4.1656837E0,0E0,0E0,0E0,4.133606E-2,0E0,7.1568146E0,1.7128563E1,0E0,0E0,0E0,1.0787949E1,0E0,8.516235E0,0E0,0E0,0E0,0E0,0E0,0E0,0E0,0E0,0E0,0E0,0E0,0E0,0E0,0E0,0E0,0E0,1.5784363E1,8.082178E0,0E0,0E0,0E0,0E0,6.747013E0,1.0112305E0,0E0,0E0,1.0188599E1,0E0,4.7530518E0,5.492138E0,9.569946E0,2.1358204E1,0E0,0E0,0E0,0E0,0E0,0E0,3.4224548E0,0E0,0E0,4.975708E0,0E0,0E0,0E0,1.316925E0,0E0,0E0,0E0,0E0,1.0167969E1,3.3863525E0,5.836029E-1,0E0,4.3569336E0,0E0,2.383667E0,5.0617447E0,0E0,0E0,0E0,0E0,0E0,1.3602295E0,1.4807739E0,0E0,9.106445E-2,0E0,0E0,0E0,0E0,0E0],"parents":[2147483647,0,0,1,1,2,2,3,3,4,4,5,5,6,6,7,7,8,8,9,9,10,10,11,11,12,12,13,13,14,14,15,15,16,16,18,18,19,19,20,20,21,21,22,22,23,23,24,24,25,25,26,26,27,27,28,28,29,29,30,30,33,33,34,34,36,36,37,37,39,39,40,40,41,41,42,42,43,43,44,44,47,47,48,48,49,49,50,50,51,51,52,52,54,54,55,55,56,56,57,57,59,59,60,60,61,61,62,62,64,64,68,68,69,69,71,71,72,72,73,73,75,75,76,76,77,77,78,78,81,81,82,82,83,83,84,84,88,88,89,89,90,90,91,91,93,93,94,94,95,95,97,97,101,101,102,102,103,103,104,104,105,105,109,109,110,110,113,113,114,114,115,115,125,125,128,128,133,133,135,135,146,146,148,148,149,149,152,152,153,153,154,154,155,155,159,159,160,160,163,163,164,164,165,165,166,166,167,167,168,168,169,169,170,170,171,171,174,174,176,176,179,179,183,183,187,187,189,189,190,190,193,193,194,194,195,195,202,202,203,203,205,205,209,209,212,212,213,213,217,217,221,221,223,223,224,224,228,228,230,230,247,247,248,248,253,253,254,254,257,257,259,259,260,260,261,261,262,262,269,269,272,272,276,276,281,281,282,282,283,283,285,285,287,287,288,288,294,294,295,295,297,297],"right_children":[2,4,6,8,10,12,14,16,-1,20,22,24,26,28,30,-1,34,-1,-1,38,40,42,44,-1,48,50,52,54,56,58,60,-1,-1,62,64,-1,-1,-1,-1,70,72,74,-1,78,-1,-1,-1,82,84,-1,88,90,92,-1,94,96,98,100,-1,102,104,-1,108,-1,110,-1,-1,-1,-1,114,-1,116,118,-1,-1,-1,-1,126,128,-1,-1,130,132,134,136,-1,-1,-1,-1,140,142,-1,-1,146,148,150,-1,152,-1,-1,-1,154,156,158,160,-1,-1,-1,-1,164,166,-1,-1,168,170,172,-1,-1,-1,-1,-1,-1,-1,-1,-1,174,-1,-1,176,-1,-1,-1,-1,178,-1,-1,-1,-1,-1,-1,-1,-1,-1,-1,-1,-1,182,-1,184,186,-1,-1,188,190,192,194,-1,-1,-1,196,198,-1,-1,200,202,204,206,-1,210,212,214,216,-1,-1,218,-1,-1,-1,-1,-1,-1,-1,-1,224,-1,-1,-1,226,-1,228,230,-1,-1,232,-1,236,-1,-1,-1,-1,-1,-1,238,240,-1,-1,-1,-1,-1,244,-1,-1,246,248,-1,-1,-1,-1,-1,-1,-1,-1,-1,-1,256,-1,-1,-1,258,-1,260,-1,-1,-1,-1,-1,-1,-1,-1,-1,-1,-1,-1,-1,-1,-1,-1,262,264,-1,-1,-1,-1,-1,-1,-1,-1,270,-1,272,-1,276,278,-1,-1,-1,-1,-1,-1,-1,-1,-1,282,-1,-1,-1,-1,-1,-1,-1,-1,286,-1,-1,-1,-1,-1,-1,-1,-1,-1,-1,-1,-1,-1,-1,-1,-1,-1,-1,-1,-1,-1],"split_conditions":[-2.1144631E-3,-2.6381016E-3,-6.8069743E-3,-2.0559888E-2,-7.243782E-2,-5.9642065E-2,-6.859541E-3,-8.969757E-3,-5.023942E-2,-5.618026E-4,-9.579075E-3,-5.505403E-4,-7.94832E-3,-6.32074E-2,-4.4781715E-4,-4.982212E-2,-2.4758994E-3,-5.3720955E-2,-4.589148E-2,-6.347359E-6,4.6911725E-4,-8.2406524E-4,-1.9742486E-6,-4.1470833E-2,-8.189764E-3,-2.5889801E-3,-2.6379097E-2,-9.0978236E-4,-7.6033017E-3,-1.1254239E-3,-7.516682E-2,-5.2475024E-2,-4.124297E-2,-4.254793E-3,-1.185496E-3,-2.8950943E-2,-4.9488522E-2,-4.67255E-2,-4.968486E-4,1.47186965E-2,-7.444843E-5,1.5413609E-3,-4.7493026E-2,-2.7020682E-2,-4.587352E-2,-2.7750127E-2,-5.287577E-2,5.8050605E-4,-2.6473308E-3,-4.5954056E-2,-1.2743101E-5,-1.0550306E-7,9.8544294E-1,-4.585056E-2,-8.626858E-3,-7.991297E-3,-7.16393E-2,-8.0047315E-4,1.1526542E-2,4.99428E-4,-2.9578658E-3,-4.8406117E-2,-3.5186645E-2,-5.2581795E-2,-1.1174537E-1,-3.2993376E-2,-5.2553058E-2,-3.501096E-2,-5.012689E-2,-1.4465144E-2,-3.582174E-2,-7.478347E-3,-1.2335711E-4,-4.336808E-2,-1.0473897E-2,-3.669217E-2,-5.0526213E-2,-2.3985215E-2,-4.087192E-3,-2.96441E-2,-5.400934E-2,-7.84316E-3,-7.618714E-2,-7.6677958E-3,-4.1918865E-6,-3.390296E-2,-5.164993E-2,-5.0922525E-3,-3.7016563E-2,-1.9756872E-3,-8.2891514E-5,-3.7960164E-2,-4.541971E-3,-7.741452E-3,-2.32005E-3,1.7336331E-4,-4.750643E-2,-1.170394E-1,-2.3119537E-2,-1.3657401E-2,-5.3600434E-2,-4.379841E-2,-1.0889573E-2,-4.937636E-2,-1.979999E-2,-3.883356E-2,-5.3181913E-2,-1.165907E-2,-4.8183035E-2,-3.2605429E-3,-6.8548485E-4,-5.4239467E-2,-3.86015E-2,-1.7826632E-4,-8.240117E-3,1.7793982E-3,-5.5221044E-3,2.5066907E-2,-2.5315026E-2,-5.126784E-2,-2.4848003E-2,-4.5525547E-2,-2.2695452E-2,-3.9463587E-2,-5.274703E-2,-9.389672E-3,-2.9445162E-2,-5.894086E-3,-8.365586E-4,2.7795995E-2,-2.2520559E-2,-9.999788E-3,-4.8230294E-2,3.455233E-5,-2.2199897E-2,4.1982707E-2,7.161867E-3,-5.0048344E-2,-2.1998614E-2,-4.342228E-2,4.398083E-3,3.374577E-2,-2.9675406E-3,-2.2100467E-2,-4.7496524E-2,2.6300058E-2,-3.3456297E-3,8.218941E-5,-6.060319E-2,-4.99103E-4,-3.800894E-2,-1.6554292E-2,1.3967862E-3,-6.0399445E-3,-6.0306434E-3,-1.023185E-6,-1.4686848E-2,-5.0833994E-3,-3.9238296E-2,-6.0163825E-3,-6.033282E-3,-4.9185634E-2,-2.525002E-2,-1.4143766E-4,-6.3739717E-3,-3.393083E-2,-3.560733E-10,1.02295065E-2,1.4461912E-3,-1.1147676E-2,-8.246847E-5,-4.065218E-2,-4.7669064E-2,-1.9178616E-2,-8.504933E-3,-1.669734E-2,-4.5282945E-2,3.383141E-2,3.557864E-3,4.6566553E-2,2.0096313E-2,9.723318E-4,-3.924803E-2,2.68206E-4,1.0258242E-2,-2.2988914E-2,1.1466162E-2,-9.147248E-6,5.276594E-4,-1.9486113E-2,9.687276E-1,-9.051948E-3,3.7999768E-2,-5.6032953E-3,4.4329338E-2,-1.8701273E-4,5.1648885E-2,-2.4936592E-2,1.5122083E-2,-6.2384945E-3,-3.8681727E-2,-2.1335643E-2,-3.4471005E-3,-3.907192E-2,1.608341E-2,-4.5882408E-2,-2.1794518E-2,-5.3721066E-3,2.4710536E-2,-9.88666E-2,5.4974374E-3,2.8672913E-2,-5.0260755E-4,-2.2592351E-7,-3.36085E-3,-7.501028E-3,-3.9379667E-2,3.4862995E-2,-6.9944275E-4,-5.1370814E-2,-3.2922752E-2,5.0414342E-2,3.1014267E-2,4.331004E-2,2.1403824E-4,3.829499E-2,9.339257E-3,8.252424E-3,-9.082436E-2,2.40327E-2,-9.31956E-4,-1.8675696E-2,3.4296192E-2,5.2325454E-2,2.8709507E-2,1.1978305E-3,3.352461E-2,8.450837E-3,4.053584E-2,-5.05908E-2,-1.3121425E-2,-5.3394932E-2,-3.3711582E-2,-1.0578505E-2,-4.2531226E-2,1.2776949E-2,-3.052284E-2,-6.572828E-2,-5.532539E-4,4.629331E-2,2.0961374E-2,3.9885495E-2,5.468871E-2,3.0206246E-2,4.9383175E-2,4.0956076E-2,-6.52762E-4,-2.7683822E-3,1.3587197E-2,-2.779021E-2,3.1115806E-2,-1.5505461E-3,-5.5909595E-3,-4.557971E-3,2.6218383E-2,1.456246E-2,4.2740073E-2,3.566043E-2,5.2427456E-2,4.8791107E-2,2.3158249E-2,3.337961E-2,-1.7975732E-3,4.220017E-2,1.562858E-2,1.8982861E-2,4.7286846E-2,-4.3330756E-3,4.3455016E-2,3.1392314E-2,5.278138E-2,-5.232385E-5,5.1176686E-2,5.027581E-2,3.339981E-2,4.6951935E-2,2.3178382E-2,5.2213058E-2,4.1430064E-2,5.3866476E-2,3.7376385E-2,4.999874E-2,3.0662125E-2,3.8039904E-2,5.284709E-2,4.741644E-2,2.3960138E-2,5.329667E-2,3.675741E-2,3.4184188E-2,5.34608E-2,4.2606108E-2,5.38183E-2],"split_indices":[32,32,55,89,27,27,68,70,86,67,57,67,55,60,67,32,45,2147483647,2147483647,90,67,26,80,57,55,59,89,67,68,24,0,2147483647,2147483647,18,67,2147483647,2147483647,65,0,66,62,11,20,43,10,2147483647,2147483647,14,59,79,34,77,1,0,68,43,0,83,0,67,94,69,49,0,27,2147483647,2147483647,2147483647,2147483647,78,0,68,65,30,0,2147483647,2147483647,20,17,2147483647,2147483647,29,60,29,80,2147483647,2147483647,0,31,94,39,16,0,11,21,39,0,0,0,0,0,63,87,27,20,2147483647,2147483647,0,0,32,19,2147483647,2147483647,69,55,82,0,0,0,2147483647,2147483647,2147483647,2147483647,2147483647,2147483647,88,0,0,58,0,0,0,0,92,0,82,0,2147483647,2147483647,0,0,0,0,2147483647,2147483647,0,94,0,63,37,0,0,69,55,57,77,0,0,0,57,38,2147483647,2147483647,67,94,43,77,28,56,78,65,20,0,0,25,0,32,0,0,2147483647,2147483647,0,0,67,0,0,0,80,0,35,1,0,0,47,1,48,0,0,0,0,0,0,18,15,0,57,0,2147483647,2147483647,27,0,0,82,8,0,0,0,65,0,2147483647,2147483647,2147483647,2147483647,67,39,0,0,0,0,0,66,0,0,2147483647,2147483647,0,0,0,0,0,0,2147483647,2147483647,0,0,0,0,63,45,2147483647,2147483647,2147483647,2147483647,2147483647,2147483647,0,0,70,0,62,93,10,55,0,0,2147483647,2147483647,2147483647,2147483647,83,0,0,32,2147483647,2147483647,0,73,0,0,2147483647,2147483647,65,61,2147483647,2147483647,56,0,2147483647,2147483647,2147483647,2147483647,2147483647,2147483647,2147483647,2147483647,2147483647,2147483647,2147483647,2147483647,2147483647,2147483647,2147483647,2147483647],"split_type":[0,0,0,0,0,0,0,0,0,0,0,0,0,0,0,0,0,0,0,0,0,0,0,0,0,0,0,0,0,0,0,0,0,0,0,0,0,0,0,0,0,0,0,0,0,0,0,0,0,0,0,0,0,0,0,0,0,0,0,0,0,0,0,0,0,0,0,0,0,0,0,0,0,0,0,0,0,0,0,0,0,0,0,0,0,0,0,0,0,0,0,0,0,0,0,0,0,0,0,0,0,0,0,0,0,0,0,0,0,0,0,0,0,0,0,0,0,0,0,0,0,0,0,0,0,0,0,0,0,0,0,0,0,0,0,0,0,0,0,0,0,0,0,0,0,0,0,0,0,0,0,0,0,0,0,0,0,0,0,0,0,0,0,0,0,0,0,0,0,0,0,0,0,0,0,0,0,0,0,0,0,0,0,0,0,0,0,0,0,0,0,0,0,0,0,0,0,0,0,0,0,0,0,0,0,0,0,0,0,0,0,0,0,0,0,0,0,0,0,0,0,0,0,0,0,0,0,0,0,0,0,0,0,0,0,0,0,0,0,0,0,0,0,0,0,0,0,0,0,0,0,0,0,0,0,0,0,0,0,0,0,0,0,0,0,0,0,0,0,0,0,0,0,0,0,0,0,0,0,0,0,0,0,0,0,0,0,0,0,0,0,0,0,0,0,0,0,0,0,0,0,0,0],"sum_hessian":[3.65411E3,1.5919558E3,2.0621543E3,6.650559E2,9.2689984E2,4.8436163E2,1.5777927E3,4.3435693E2,2.3069899E2,5.216858E2,4.0521408E2,2.7738763E2,2.06974E2,4.2903287E2,1.1487599E3,9.720918E1,3.3714777E2,1.2180799E2,1.0889101E2,7.3695526E1,4.4799026E2,1.9951843E2,2.0569565E2,3.1115173E1,2.4627245E2,8.721436E1,1.19759636E2,2.4511314E2,1.8391974E2,4.9649864E1,1.09911E3,7.0341225E1,2.6867958E1,1.1152918E2,2.2561858E2,2.065646E1,8.823454E1,5.9449593E1,1.4245931E1,3.3344495E2,1.1454533E2,6.177069E1,1.3774774E2,1.6266634E2,4.302931E1,1.5682048E1,1.5433126E1,7.739574E1,1.6887671E2,3.8838146E1,4.8376217E1,6.687682E1,5.288281E1,1.5686708E1,2.2942644E2,8.981738E1,9.410235E1,3.091662E1,1.8733246E1,9.709053E2,1.2820477E2,7.911749E1,3.241169E1,2.3383738E1,2.0223485E2,1.5667718E1,7.2566826E1,1.5918555E1,4.3531036E1,3.0526514E2,2.8179806E1,7.633884E1,3.8206486E1,4.329341E1,1.847728E1,3.3073467E1,1.0467428E2,9.460975E1,6.8056595E1,1.5918526E1,2.7110783E1,3.695053E1,4.0445206E1,6.9935486E1,9.894122E1,1.4696369E1,2.4141779E1,1.6712713E1,3.1663504E1,3.2932854E1,3.3943974E1,3.5913494E1,1.6969315E1,4.8430347E1,1.809961E2,6.7625946E1,2.2191437E1,7.765382E1,1.6448532E1,1.6461676E1,1.4454946E1,8.7688245E2,9.40228E1,2.9941107E1,9.826367E1,2.9373291E1,4.9744198E1,1.7205706E1,1.5205985E1,8.334477E1,1.18890076E2,2.9351524E1,1.4179513E1,7.793282E1,2.273323E2,5.811137E1,1.8227465E1,1.9989223E1,1.8217262E1,2.910879E1,1.4184621E1,1.889572E1,1.4177748E1,2.0638266E1,8.403601E1,7.091483E1,2.369492E1,1.699519E1,5.10614E1,2.2220427E1,1.4730103E1,2.3230293E1,1.7214912E1,4.8195595E1,2.1739893E1,7.670004E1,2.2241182E1,1.5703909E1,1.5959595E1,1.4933492E1,1.7999361E1,1.8461939E1,1.5482036E1,1.4731455E1,2.118204E1,1.647688E1,3.1953466E1,2.5679726E1,1.5531636E2,4.1188915E1,2.643703E1,1.8727541E1,5.8926273E1,8.394608E2,3.742167E1,7.7550705E1,1.6472092E1,1.4728677E1,1.521243E1,6.70389E1,3.1224771E1,1.5182027E1,1.4191264E1,3.0141184E1,5.3203587E1,5.1126633E1,6.7763435E1,2.9978092E1,4.795473E1,5.419386E1,1.7313844E2,3.1433475E1,2.6677896E1,2.6223988E1,4.469084E1,1.4465371E1,3.659603E1,2.395506E1,2.4240536E1,6.2485542E1,1.42145E1,1.6228035E1,1.5725432E1,1.3558781E2,1.9728544E1,1.4227674E1,2.6961243E1,3.9943718E1,1.8982555E1,1.16818665E2,7.2264215E2,2.0224794E1,1.7196873E1,4.0161953E1,3.7388752E1,4.0684204E1,2.6354694E1,1.49879675E1,1.6236803E1,1.4216592E1,1.5924592E1,1.4476847E1,3.872674E1,3.4141785E1,1.698485E1,4.6070324E1,2.1693115E1,1.4733498E1,1.5244594E1,3.3464005E1,1.4490727E1,1.6226995E1,3.796686E1,1.4489679E2,2.8241653E1,1.4229409E1,1.7204065E1,2.870099E1,1.5989853E1,2.2404696E1,1.4191335E1,4.829521E1,1.41903305E1,9.8681915E1,3.6905907E1,2.5712444E1,1.4231273E1,1.4211863E1,1.02606804E2,1.917687E1,7.034653E2,1.548006E1,2.4681894E1,2.3175037E1,1.42137165E1,1.6495264E1,2.4188942E1,2.3986538E1,1.4740203E1,1.4428641E1,1.9713142E1,2.6392338E1,1.9677984E1,1.5735088E1,1.7728916E1,1.4243336E1,2.3723526E1,1.1568306E2,2.9213732E1,1.4471795E1,1.4229195E1,1.6928171E1,3.136704E1,3.3143375E1,6.5538536E1,2.2688824E1,1.4217082E1,8.840859E1,1.4198208E1,6.718295E2,3.1635756E1,8.299012E1,3.2692944E1,1.4991849E1,1.4221883E1,1.57043E1,1.7439077E1,1.4207792E1,5.133074E1,6.723291E1,2.1175686E1,2.5433794E1,6.463957E2,1.743355E1,1.4202207E1,1.4980343E1,6.800977E1,1.8482428E1,1.4210517E1,1.4196981E1,5.3035927E1,1.3152638E2,5.148693E2,5.3808086E1,1.4201688E1,1.0889568E2,2.26307E1,4.61446E2,5.3423313E1,3.96072E1,1.4200884E1,8.9994095E1,1.8901592E1,2.2370512E1,4.390755E2,3.851224E1,1.4911072E1,4.2489075E2,1.4184758E1,1.4162777E1,2.4349464E1,2.361407E1,4.0127667E2],"tree_param":{"num_deleted":"78","num_feature":"95","num_nodes":"303","size_leaf_vector":"0"}},{"base_weights":[-6.2420615E-4,-8.4953207E-1,6.547493E-1,-1.2026829E0,-4.6398544E-1,-1.9500278E-1,9.1584474E-1,-9.7022426E-1,-1.551209E0,-8.1593686E-1,4.957436E-2,1.9722968E-1,-7.1916115E-1,2.1211725E-1,1.1787481E0,-1.4997507E0,-7.567165E-1,-1.3948681E0,-1.7126831E0,-1.5732086E0,-6.8355244E-1,5.2917063E-1,-4.2691076E-1,-1.3463464E0,3.965757E-1,-1.1510022E0,-3.9809042E-1,3.4847087E-1,-1.2632853E0,-5.375699E-1,1.2568692E0,-8.322835E-1,-1.6104254E0,-1.0956559E0,-3.9591897E-1,-1.5922236E0,-1.1021456E0,-9.76684E-1,-1.7567257E0,-5.3223497E-1,-1.414953E0,-9.39611E-1,6.974302E-1,-2.2087386E-1,-1.2755483E0,-8.8870656E-1,-1.7287455E0,-6.95025E-1,6.2628704E-1,-5.648288E-1,-1.3143532E0,-3.5066425E-4,-8.9192194E-1,-1.2291757E0,4.6747422E-1,-1.6426512E0,-6.205854E-1,-1.0400605E0,4.72965E-1,1.3753891E0,3.5725012E-1,-1.7107933E0,-1.0207032E0,-5.973871E-1,-1.3401986E0,-1.4087483E0,-2.1722582E-1,-1.2591639E0,-1.6938199E0,-4.2477342E-1,-1.4275033E0,-1.6443245E0,-4.0555978E-1,-9.071598E-1,-1.6788405E0,1.062256E0,-7.876219E-2,-7.9676455E-1,1.0031661E-1,-6.981766E-1,-1.7548757E0,-1.6915733E-1,-1.2652557E0,8.6748594E-1,-8.958212E-2,-7.5815994E-1,-1.4833299E0,5.345788E-1,-6.2820566E-1,-1.2857572E0,-2.2586888E-1,7.9210174E-1,2.9048184E-2,-1.4673398E0,-4.2987835E-1,1.4483807E0,6.8816006E-1,-7.505846E-1,6.9922495E-1,-1.1595917E0,2.539499E-1,-1.5589917E0,-9.733825E-1,5.2921796E-1,-4.9218985E-1,-1.0725088E0,-1.6582954E0,-2.109221E-1,-1.1417202E0,4.0081897E-1,1.3106107E0,-6.842257E-1,6.8325025E-1,-1.4997544E0,-3.588249E-1,3.763151E-1,-1.0565232E0,-4.3229595E-1,1.0038751E0,-7.350987E-1,5.353914E-1,-1.6381038E0,-1.0077355E0,-2.5129724E-1,1.032453E0,-1.2461241E0,1.7242923E-2,-8.4168875E-1,-1.6499501E0,-6.444888E-1,8.9879954E-1,-1.4310136E0,1.9256063E-1,1.493749E0,4.2132065E-1,1.0742836E0,-8.851356E-2,-1.8091938E-1,-1.2934183E0,-5.7260357E-2,1.1397228E0,-5.152459E-1,-1.6303678E0,-1.2065401E0,-1.7135192E0,5.1189795E-2,-1.3989744E0,1.0615292E0,-3.6947474E-1,-7.608404E-1,1.6202503E-1,-8.301224E-2,-1.290073E0,-1.6625055E0,-6.615614E-1,8.0699766E-1,1.5652691E0,-9.521063E-1,2.5748563E-1,6.709606E-1,-5.0370353E-1,5.420206E-1,1.3249999E0,1.7765683E-1,1.081296E0,-2.7253422E-1,4.9005195E-1,1.1492825E0,1.5478574E0,-3.2539704E-1,1.2077777E0,1.330701E0,2.2995253E-1,-9.985654E-1,7.2524303E-1,-7.993482E-1,5.647557E-1,1.4300321E0,2.1916051E-1,-8.120707E-1,-1.7720369E0,-8.107374E-2,-1.0284206E0,7.760822E-1,-4.6187323E-1,-9.7718817E-1,9.106062E-2,-2.4109144E-2,-1.3902575E0,1.7373315E0,1.1483033E0,1.2860171E0,-3.315645E-2,1.2699507E0,7.211655E-2,1.4749897E0,6.420989E-1,7.781851E-1,-8.093189E-1,1.2699174E0,3.7454543E-1,-1.1317899E0,8.1923835E-2,-2.9206786E-1,6.9072694E-1,6.82249E-1,1.3892304E0,7.7945197E-1,1.567718E0,7.4862665E-1,1.6485293E0,9.232216E-1,1.6400324E0,-5.175179E-1,-1.4825945E0,-3.4720618E-1,-1.4139293E0,2.695047E-1,-8.0824524E-1,8.018256E-1,-4.8249173E-1,1.0193474E0,1.6113884E0,7.612995E-1,1.420722E0,8.447926E-1,-2.5649175E-1,5.886102E-1,-7.614669E-1,-3.2498147E-2,9.0696937E-1,-5.6649573E-2,1.0640355E0,1.5539868E0,9.3925035E-1,1.5925399E0,1.0090427E0,-5.21746E-1,4.2065054E-1,1.7409264E0,1.2079698E0,3.1856164E-1,1.1692392E0,8.384819E-1,1.522234E0,1.2273028E0,3.888684E-1,1.6718881E0,1.1368533E0,1.082619E0,1.6109418E0,1.3799858E0,4.9281502E-1,6.911267E-1,-2.3850448E-1,1.733939E0,1.1771605E0,8.317621E-1,1.4868873E0,1.3980974E0,1.6625398E0,-2.7911276E-1,8.942614E-1,-9.016742E-1,6.520764E-1,6.8628615E-1,1.6336244E0,1.5052313E0,6.417685E-1,1.6972504E0,1.3369259E0,1.1994599E0,3.3733878E-1,1.6144931E0,9.5735186E-1,1.2243496E0,1.7184973E0,1.537721E0,7.5402975E-1,7.0277894E-1,1.4534603E0,1.6936009E0,1.2014221E0,1.7335879E0,1.1819975E0,1.0965186E0,1.740728E0,1.7678452E0,1.0332723E0,1.3770977E0,1.7510784E0],"categories":[],"categories_nodes":[],"categories_segments":[],"categories_sizes":[],"default_left":[1,1,1,1,1,1,1,1,1,1,1,1,1,1,1,1,1,1,0,1,1,1,1,1,1,1,1,1,1,1,1,0,1,1,1,1,1,1,1,1,1,0,1,1,1,1,1,1,1,1,1,1,1,0,1,1,1,1,0,1,1,1,1,1,1,0,1,1,1,0,1,0,1,1,1,1,1,1,1,1,1,0,0,1,1,1,1,1,1,1,0,1,1,0,0,1,1,1,1,1,0,1,1,1,1,1,1,1,1,0,1,0,0,0,1,1,0,0,1,0,0,1,1,0,0,0,0,1,1,0,1,0,1,1,1,1,1,0,0,1,1,0,0,1,1,0,1,0,0,1,1,1,0,0,1,1,1,0,0,1,0,1,1,1,1,1,1,1,1,0,0,1,0,0,0,0,0,1,0,1,1,0,1,0,0,1,1,0,0,1,1,0,0,0,1,1,1,0,0,1,1,0,1,0,1,1,1,0,1,1,1,1,1,0,0,0,0,1,0,0,0,1,1,1,1,0,0,0,0,0,1,0,0,1,1,1,1,0,1,1,1,1,1,1,1,1,0,1,1,0,1,1,1,1,1,1,1,1,1,1,1,0,1,0,0,1,1,1,0,1,1,1,0,1,1,1,1,1,1,1,1,1,1,1,1,1,1,1,1,1,1],"id":4,"left_children":[1,3,5,7,9,11,13,15,17,19,21,23,25,27,29,31,33,35,-1,-1,39,41,43,-1,47,-1,51,53,-1,57,59,-1,-1,63,65,-1,69,-1,-1,71,-1,-1,75,77,-1,-1,-1,81,83,-1,-1,87,89,-1,91,-1,-1,93,-1,95,97,-1,-1,99,101,-1,103,-1,-1,-1,-1,-1,107,-1,-1,109,111,113,115,-1,-1,-1,-1,117,119,-1,-1,123,125,-1,-1,129,131,-1,-1,133,135,137,139,141,-1,-1,145,147,149,-1,-1,151,153,-1,-1,-1,-1,-1,157,159,-1,-1,161,-1,-1,-1,-1,-1,-1,-1,-1,-1,-1,-1,163,-1,165,167,169,171,173,-1,-1,175,177,-1,-1,-1,-1,-1,-1,-1,-1,181,183,185,-1,-1,187,-1,-1,-1,-1,191,-1,193,-1,197,199,201,203,205,207,-1,-1,-1,-1,-1,-1,-1,-1,-1,-1,-1,-1,-1,213,-1,-1,215,217,-1,-1,-1,-1,-1,-1,-1,219,-1,-1,-1,-1,223,225,-1,227,-1,229,231,-1,-1,235,-1,-1,-1,-1,-1,-1,-1,-1,237,-1,-1,-1,-1,-1,-1,-1,-1,-1,-1,-1,-1,245,-1,-1,-1,-1,249,-1,-1,253,-1,-1,-1,-1,-1,-1,-1,-1,-1,-1,-1,259,-1,-1,261,263,-1,-1,-1,-1,267,-1,-1,271,-1,-1,-1,-1,-1,-1,-1,-1,-1,-1,-1,-1,-1,-1,-1,-1,-1,-1,-1,-1,-1,-1,-1,-1,-1,-1,-1,-1],"loss_changes":[2.0289946E3,2.1577771E2,4.5679828E2,6.563074E1,1.3763095E2,9.976346E1,2.910564E2,5.536798E1,5.938904E0,4.4211945E1,7.1178856E1,8.605889E1,2.8328072E1,8.683688E1,1.5434094E2,9.192932E0,4.336763E1,8.239105E0,0E0,5.5589294E0,4.199875E1,3.9007324E1,2.7047916E1,4.0667076E0,6.235293E1,7.684433E0,2.3689322E1,7.4529144E1,7.8916817E0,2.6183025E1,1.164176E2,0E0,5.429779E0,2.1633942E1,3.1377687E1,1.2875366E0,1.5463074E1,0E0,0E0,4.46484E1,7.2694855E0,0E0,3.9674103E1,2.3567047E1,7.167305E0,0E0,0E0,1.2800882E1,3.539228E1,0E0,5.273155E0,2.3108526E1,1.38233795E1,0E0,5.221099E1,0E0,0E0,8.260803E0,0E0,4.758423E1,4.9392715E1,0E0,0E0,3.0169569E1,8.330048E0,0E0,3.1045235E1,0E0,0E0,0E0,2.2222672E0,0E0,4.13268E1,0E0,0E0,1.5109329E1,2.1521282E1,1.3492836E1,2.6707638E1,0E0,0E0,0E0,0E0,2.7570358E1,2.1553637E1,0E0,2.1154861E0,1.4795767E1,1.2645662E1,4.045067E0,0E0,3.289566E1,3.7798923E1,0E0,0E0,4.0123047E1,2.8552696E1,9.323715E0,3.3082283E1,1.0617996E1,0E0,2.0279846E0,2.1222244E1,1.9938686E1,1.9479332E1,0E0,0E0,3.1733013E1,1.4012962E1,0E0,7.5545197E0,0E0,0E0,0E0,1.0993549E1,1.7779972E1,0E0,0E0,1.9873276E1,0E0,0E0,0E0,0E0,0E0,0E0,0E0,0E0,0E0,0E0,0E0,2.5691193E1,0E0,1.9812168E1,1.3825195E1,2.2939024E1,1.3432831E1,2.4743858E1,0E0,0E0,1.7721804E1,1.6434166E1,0E0,0E0,0E0,0E0,0E0,6.0721664E0,0E0,0E0,1.4149082E1,1.2956628E1,3.235463E1,0E0,0E0,1.534446E1,0E0,1.204773E0,0E0,0E0,2.2052765E1,0E0,1.9964647E1,7.3704834E0,2.4881012E1,2.042128E1,1.7187065E1,1.3872206E1,1.2223801E1,9.776123E0,0E0,0E0,7.7322464E0,0E0,0E0,0E0,0E0,0E0,3.5372086E0,0E0,0E0,0E0,0E0,1.2240864E1,0E0,0E0,8.826412E0,2.8209572E1,0E0,0E0,0E0,0E0,0E0,0E0,0E0,1.5236414E1,2.4474335E0,0E0,0E0,0E0,8.376923E0,1.04368305E1,0E0,1.7826761E1,0E0,1.091626E1,1.1868132E1,4.2252655E0,0E0,8.121216E0,0E0,0E0,0E0,0E0,0E0,0E0,0E0,0E0,1.7716007E1,0E0,0E0,0E0,0E0,4.537964E-1,5.1100845E0,4.277054E0,0E0,0E0,0E0,0E0,0E0,8.422409E0,0E0,0E0,7.846222E-1,0E0,4.5422363E0,5.557106E0,0E0,2.216327E1,0E0,0E0,0E0,0E0,0E0,3.7143402E0,2.1179428E0,0E0,0E0,0E0,0E0,4.7543945E0,0E0,0E0,1.7543259E1,2.2229763E1,0E0,6.28883E0,0E0,0E0,9.7341E0,3.534668E0,0E0,1.1968086E1,0E0,0E0,0E0,0E0,5.334076E0,0E0,2.5212402E0,5.181534E0,4.861519E0,0E0,1.048706E0,0E0,0E0,1.4974365E0,1.6142807E0,0E0,0E0,2.1254616E0,0E0,0E0,2.319336E-1,0E0,0E0,0E0,0E0,0E0,0E0,0E0],"parents":[2147483647,0,0,1,1,2,2,3,3,4,4,5,5,6,6,7,7,8,8,9,9,10,10,11,11,12,12,13,13,14,14,15,15,16,16,17,17,19,19,20,20,21,21,22,22,23,23,24,24,25,25,26,26,27,27,28,28,29,29,30,30,32,32,33,33,34,34,35,35,36,36,39,39,40,40,42,42,43,43,44,44,47,47,48,48,50,50,51,51,52,52,54,54,57,57,59,59,60,60,63,63,64,64,66,66,70,70,72,72,75,75,76,76,77,77,78,78,83,83,84,84,86,86,87,87,88,88,89,89,91,91,92,92,95,95,96,96,97,97,98,98,99,99,101,101,102,102,103,103,104,104,107,107,108,108,110,110,114,114,115,115,118,118,130,130,132,132,133,133,134,134,135,135,136,136,139,139,140,140,146,146,149,149,150,150,151,151,154,154,156,156,159,159,161,161,162,162,163,163,164,164,165,165,166,166,167,167,168,168,171,171,177,177,182,182,185,185,186,186,194,194,195,195,199,199,200,200,202,202,204,204,205,205,206,206,208,208,217,217,222,222,223,223,224,224,230,230,233,233,235,235,236,236,238,238,244,244,245,245,250,250,253,253,254,254,256,256,259,259,260,260,262,262,267,267,269,269,270,270,271,271,273,273,276,276,277,277,280,280,283,283],"right_children":[2,4,6,8,10,12,14,16,18,20,22,24,26,28,30,32,34,36,-1,-1,40,42,44,-1,48,-1,52,54,-1,58,60,-1,-1,64,66,-1,70,-1,-1,72,-1,-1,76,78,-1,-1,-1,82,84,-1,-1,88,90,-1,92,-1,-1,94,-1,96,98,-1,-1,100,102,-1,104,-1,-1,-1,-1,-1,108,-1,-1,110,112,114,116,-1,-1,-1,-1,118,120,-1,-1,124,126,-1,-1,130,132,-1,-1,134,136,138,140,142,-1,-1,146,148,150,-1,-1,152,154,-1,-1,-1,-1,-1,158,160,-1,-1,162,-1,-1,-1,-1,-1,-1,-1,-1,-1,-1,-1,164,-1,166,168,170,172,174,-1,-1,176,178,-1,-1,-1,-1,-1,-1,-1,-1,182,184,186,-1,-1,188,-1,-1,-1,-1,192,-1,194,-1,198,200,202,204,206,208,-1,-1,-1,-1,-1,-1,-1,-1,-1,-1,-1,-1,-1,214,-1,-1,216,218,-1,-1,-1,-1,-1,-1,-1,220,-1,-1,-1,-1,224,226,-1,228,-1,230,232,-1,-1,236,-1,-1,-1,-1,-1,-1,-1,-1,238,-1,-1,-1,-1,-1,-1,-1,-1,-1,-1,-1,-1,246,-1,-1,-1,-1,250,-1,-1,254,-1,-1,-1,-1,-1,-1,-1,-1,-1,-1,-1,260,-1,-1,262,264,-1,-1,-1,-1,268,-1,-1,272,-1,-1,-1,-1,-1,-1,-1,-1,-1,-1,-1,-1,-1,-1,-1,-1,-1,-1,-1,-1,-1,-1,-1,-1,-1,-1,-1,-1],"split_conditions":[-2.1144631E-3,-1.0310198E-2,-6.8069743E-3,-7.182285E-2,-1.9861856E-3,-5.9642065E-2,-6.859541E-3,-1.2071114E-2,-2.9821854E-2,-2.8167572E-3,-8.48387E-2,-5.505403E-4,-7.94832E-3,-6.7998044E-2,-4.4781715E-4,-6.060859E-2,-2.1211612E-3,-8.347687E-3,-5.1380493E-2,-4.7196258E-2,-2.0654194E-2,-6.5325503E-4,-2.0903489E-2,-4.039039E-2,-8.915595E-3,-3.4530066E-2,-2.6379097E-2,-1.7662492E-1,-3.789856E-2,-9.57258E-4,-7.516682E-2,-2.4968505E-2,-4.831276E-2,-1.2766943E-5,-4.0438315E-3,-4.7766708E-2,-9.731123E-7,-2.9300518E-2,-5.2701768E-2,-3.2406799E-3,-4.2448588E-2,-2.818833E-2,2.7049624E-4,-7.643912E-3,-3.826645E-2,-2.6661197E-2,-5.1862363E-2,-7.0807645E-3,-5.171455E-6,-1.6944865E-2,-3.9430596E-2,-4.70243E-2,-2.7632709E-3,-3.687527E-2,-6.483354E-2,-4.9279533E-2,-1.8617561E-2,-9.776483E-5,1.418895E-2,4.99428E-4,-2.9578658E-3,-5.1323798E-2,-3.0621095E-2,-6.0691107E-3,-1.0826341E-2,-4.2262446E-2,-1.2565503E-1,-3.7774913E-2,-5.0814595E-2,-1.2743202E-2,-4.28251E-2,-4.9329735E-2,5.988121E-4,-2.7214793E-2,-5.0365213E-2,-4.2941356E-3,-3.6132606E-6,-5.215442E-6,-1.0722804E-6,-2.0945298E-2,-5.264627E-2,-5.07472E-3,-3.795767E-2,-9.188298E-3,-2.1470818E-3,-2.2744797E-2,-4.4499896E-2,-6.759567E-3,-1.4106087E-7,-3.8572714E-2,-6.7760665E-3,-5.953638E-4,-2.7583244E-3,-4.402019E-2,-1.2896351E-2,-4.379841E-2,-2.3693406E-6,-6.496617E-2,-1.6848672E-3,-3.3458555E-4,7.618497E-3,-4.676975E-2,-4.4060804E-2,2.1417472E-3,1.8750168E-3,-3.2175265E-2,-4.974886E-2,7.674371E-3,-9.717645E-3,1.2024569E-2,3.931832E-2,-2.052677E-2,2.0497506E-2,-4.4992633E-2,-4.2683883E-3,-1.1451064E-2,-3.1695694E-2,-1.2968878E-2,-2.6473308E-3,-2.205296E-2,1.6061742E-2,-4.9143113E-2,-3.0232064E-2,-7.538917E-3,3.0973587E-2,-3.7383724E-2,5.172877E-4,-2.5250662E-2,-4.9498502E-2,-1.9334665E-2,-8.5718855E-3,-4.2930406E-2,-7.6563195E-3,-6.0399445E-3,-4.361552E-3,-5.645677E-3,2.4944593E-3,-5.4275813E-3,-3.880255E-2,6.439538E-5,-4.108768E-2,-1.5457377E-2,-4.891103E-2,-3.6196202E-2,-5.1405575E-2,1.5356938E-3,-4.1969232E-2,3.1845875E-2,-1.1084242E-2,-9.379162E-2,8.1742124E-5,-1.0006343E-2,-3.870219E-2,-4.9875163E-2,-8.318474E-7,2.420993E-2,4.6958074E-2,-2.8563188E-2,7.7245687E-3,-3.1170502E-4,-1.51111055E-2,-7.297301E-2,3.975E-2,-3.0003496E-2,-6.5078154E-2,-7.1943086E-4,-1.6445661E-2,-2.4294402E-3,9.687276E-1,-9.761911E-3,3.6233332E-2,3.992103E-2,6.898576E-3,-2.9956961E-2,2.175729E-2,-2.3980444E-2,1.694267E-2,4.2900965E-2,6.574815E-3,-2.436212E-2,-5.3161107E-2,-2.432212E-3,7.35367E-5,2.3282466E-2,-1.3856197E-2,-1.3691075E-1,-4.6129532E-2,-7.232743E-4,-4.1707724E-2,5.2119944E-2,3.4449097E-2,3.858051E-2,-9.946935E-4,3.809852E-2,-1.2004129E-3,4.4249687E-2,1.9262966E-2,2.3345554E-2,-2.4279566E-2,-6.8832994E-3,-5.994605E-6,-3.3953696E-2,1.7336331E-4,-8.7620355E-3,-8.45322E-3,1.3584517E-4,4.167691E-2,2.3383558E-2,-9.31956E-4,2.24588E-2,4.9455877E-2,2.7696647E-2,4.920097E-2,-1.5525538E-2,-4.4477835E-2,-1.04161855E-2,-4.241788E-2,-2.0591938E-3,-2.4247358E-2,2.4054768E-2,-1.4474751E-2,3.0580422E-2,4.834165E-2,2.2838984E-2,4.262166E-2,2.5343778E-2,-7.6947524E-3,1.7658304E-2,-2.2844007E-2,-9.749444E-4,1.4754912E-4,-1.6994872E-3,3.1921066E-2,4.66196E-2,2.817751E-2,-2.779021E-2,3.0271282E-2,-1.5652379E-2,-1.5057086E-7,5.222779E-2,3.623909E-2,9.5568495E-3,3.5077173E-2,2.5154456E-2,4.566702E-2,3.681908E-2,1.1666051E-2,5.015664E-2,3.41056E-2,3.2478567E-2,-1.7975732E-3,4.1399572E-2,1.4784451E-2,-9.502593E-3,-3.2457567E-3,5.201817E-2,3.5314813E-2,2.4952862E-2,4.460662E-2,-4.0549137E-5,4.9876194E-2,-8.3733825E-3,-7.2958946E-2,-2.7050225E-2,1.9562293E-2,2.0588584E-2,4.900873E-2,4.5156937E-2,1.9253055E-2,5.091751E-2,4.0107775E-2,3.5983797E-2,1.0120163E-2,4.8434794E-2,2.8720556E-2,3.6730487E-2,5.155492E-2,4.613163E-2,2.2620892E-2,2.1083368E-2,4.3603808E-2,5.0808027E-2,3.604266E-2,5.2007634E-2,3.5459924E-2,3.2895558E-2,5.222184E-2,5.3035352E-2,3.0998167E-2,4.131293E-2,5.253235E-2],"split_indices":[32,57,55,27,30,27,68,55,27,30,27,67,55,0,67,89,30,55,0,60,20,67,49,57,55,66,89,93,30,21,0,0,0,8,10,90,54,2147483647,2147483647,5,44,0,67,68,46,2147483647,2147483647,9,80,2147483647,2147483647,27,15,0,60,2147483647,2147483647,48,0,67,94,2147483647,2147483647,9,68,0,27,2147483647,2147483647,0,20,0,67,2147483647,2147483647,18,77,46,80,2147483647,2147483647,0,0,68,85,2147483647,2147483647,68,77,65,0,67,26,0,0,63,80,0,32,62,0,63,75,14,45,2147483647,2147483647,94,88,0,6,0,0,0,38,73,0,0,59,0,0,2147483647,2147483647,0,0,0,0,2147483647,2147483647,0,68,0,68,55,55,23,5,0,0,24,60,0,0,2147483647,2147483647,0,60,0,0,60,19,4,0,0,40,2147483647,2147483647,0,0,65,0,63,65,20,63,37,91,36,1,0,0,22,0,0,0,0,0,52,0,2147483647,2147483647,0,31,0,0,93,63,0,0,2147483647,2147483647,0,0,0,17,2147483647,2147483647,0,0,53,51,0,39,0,28,26,51,0,66,2147483647,2147483647,2147483647,2147483647,0,0,0,0,10,0,0,0,2147483647,2147483647,30,62,0,0,0,0,0,48,0,0,2147483647,2147483647,62,93,0,8,2147483647,2147483647,2147483647,2147483647,2147483647,2147483647,93,0,2147483647,2147483647,0,32,2147483647,2147483647,47,11,2147483647,2147483647,2147483647,2147483647,65,61,0,27,0,0,2147483647,2147483647,56,0,2147483647,2147483647,38,0,2147483647,2147483647,2147483647,2147483647,2147483647,2147483647,2147483647,2147483647,2147483647,2147483647,2147483647,2147483647,2147483647,2147483647,2147483647,2147483647,2147483647,2147483647],"split_type":[0,0,0,0,0,0,0,0,0,0,0,0,0,0,0,0,0,0,0,0,0,0,0,0,0,0,0,0,0,0,0,0,0,0,0,0,0,0,0,0,0,0,0,0,0,0,0,0,0,0,0,0,0,0,0,0,0,0,0,0,0,0,0,0,0,0,0,0,0,0,0,0,0,0,0,0,0,0,0,0,0,0,0,0,0,0,0,0,0,0,0,0,0,0,0,0,0,0,0,0,0,0,0,0,0,0,0,0,0,0,0,0,0,0,0,0,0,0,0,0,0,0,0,0,0,0,0,0,0,0,0,0,0,0,0,0,0,0,0,0,0,0,0,0,0,0,0,0,0,0,0,0,0,0,0,0,0,0,0,0,0,0,0,0,0,0,0,0,0,0,0,0,0,0,0,0,0,0,0,0,0,0,0,0,0,0,0,0,0,0,0,0,0,0,0,0,0,0,0,0,0,0,0,0,0,0,0,0,0,0,0,0,0,0,0,0,0,0,0,0,0,0,0,0,0,0,0,0,0,0,0,0,0,0,0,0,0,0,0,0,0,0,0,0,0,0,0,0,0,0,0,0,0,0,0,0,0,0,0,0,0,0,0,0,0,0,0,0,0,0,0,0,0,0,0,0,0,0,0,0,0,0,0,0,0,0,0,0,0,0,0],"sum_hessian":[3.6449646E3,1.5878804E3,2.057084E3,8.276526E2,7.6022784E2,4.8355997E2,1.5735242E3,4.9876926E2,3.288833E2,4.507395E2,3.0948834E2,2.76944E2,2.0661598E2,4.284571E2,1.145067E3,1.415882E2,3.5718106E2,1.7199469E2,1.5688863E2,6.545232E1,3.8528717E2,1.5418552E2,1.5530283E2,3.1017267E1,2.4592673E2,8.700675E1,1.1960923E2,3.9290906E2,3.5548023E1,4.9594543E1,1.0954725E3,2.134981E1,1.2023839E2,1.831191E2,1.7406197E2,1.0008045E2,7.191423E1,1.6886047E1,4.856627E1,3.2067194E2,6.461526E1,1.5376423E1,1.388091E2,1.2597757E2,2.9325256E1,1.5632703E1,1.5384565E1,4.2402435E1,2.0352429E2,1.993373E1,6.707302E1,6.680452E1,5.280471E1,2.6904383E1,3.6600467E2,2.13751E1,1.4172924E1,3.3104195E1,1.6490349E1,9.67483E2,1.27989525E2,1.01126175E2,1.9112211E1,6.1418503E1,1.21700584E2,2.5071812E1,1.4899016E2,2.6523417E1,7.355704E1,2.4082243E1,4.783199E1,3.1566553E1,2.8910538E2,2.3613663E1,4.10016E1,9.417597E1,4.463312E1,4.457481E1,8.140276E1,1.4416498E1,1.4908758E1,2.2733871E1,1.9668564E1,1.5207397E2,5.1450317E1,1.6907648E1,5.0165375E1,3.6151867E1,3.0652655E1,3.2598755E1,2.0205957E1,2.0983102E2,1.5617366E2,1.8644E1,1.4460196E1,8.735901E2,9.389287E1,2.9907782E1,9.808174E1,3.677259E1,2.464591E1,7.41955E1,4.7505085E1,3.985938E1,1.0913078E2,2.1070038E1,2.676195E1,2.2966852E2,5.9436855E1,2.6421669E1,6.77543E1,2.492825E1,1.9704874E1,1.6179142E1,2.8395666E1,6.626741E1,1.5135353E1,1.4236008E1,1.3783797E2,2.5222517E1,2.6227798E1,3.600413E1,1.4161242E1,1.4212778E1,2.1939087E1,1.5184847E1,1.5467808E1,1.6180557E1,1.6418198E1,1.4158545E1,1.9567249E2,1.49477825E1,1.4122588E2,8.361983E2,3.739179E1,6.2458447E1,3.1434423E1,1.52437935E1,1.4663987E1,3.641491E1,6.1666832E1,1.6408684E1,2.0363909E1,2.5299496E1,4.8896004E1,1.4199899E1,3.3305187E1,2.4918518E1,1.4940862E1,7.724675E1,3.1884033E1,2.062938E2,2.3374718E1,2.7330976E1,3.210588E1,2.4154757E1,4.359955E1,1.4190533E1,1.4205134E1,4.9823273E1,1.6444138E1,5.763412E1,8.020385E1,3.991603E1,1.5575645E2,5.5126137E1,8.609974E1,1.1653686E2,7.1966144E2,1.9481209E1,1.7910582E1,4.7467007E1,1.4991438E1,1.4732009E1,1.6702415E1,1.647479E1,1.9940119E1,4.646132E1,1.5205515E1,1.4177633E1,1.9127556E1,2.2186539E1,5.5060207E1,1.5945815E1,1.5938218E1,3.28641E1,1.7342969E2,1.7676144E1,1.4429737E1,2.8621983E1,1.4977567E1,2.6152372E1,2.36709E1,2.1941654E1,3.569247E1,6.4809456E1,1.5394392E1,2.4947933E1,1.4968098E1,1.2231542E2,3.344103E1,1.5458811E1,3.9667328E1,1.7487547E1,6.861219E1,4.0856766E1,7.568009E1,1.9146175E1,7.0051526E2,1.7949509E1,2.95175E1,1.51924515E1,3.1268867E1,2.6918695E1,2.8141512E1,1.4190237E1,1.8673864E1,1.4529915E2,2.8130552E1,1.5220633E1,2.0471836E1,1.6883417E1,4.792604E1,2.9355745E1,9.295967E1,1.8967651E1,1.4473378E1,2.4968822E1,1.46985035E1,1.5988431E1,5.262376E1,1.4208896E1,2.664787E1,5.3601063E1,2.2079027E1,6.689436E2,3.1571648E1,2.2910484E1,1.2238866E2,3.3767757E1,1.4158281E1,1.4931479E1,1.4424267E1,1.5175842E1,7.778383E1,3.167239E1,2.095137E1,3.9444237E1,1.4156825E1,2.5383698E1,6.4355994E2,1.7397326E1,1.4174322E1,8.674529E1,3.5643368E1,4.571345E1,3.207038E1,1.421562E1,1.745677E1,1.3105371E2,5.125062E2,1.4952606E1,7.179269E1,2.0422974E1,1.5220392E1,1.6659014E1,1.5411367E1,1.1392594E2,1.7127773E1,4.5932916E2,5.3177048E1,4.5632145E1,2.6160542E1,9.336055E1,2.0565393E1,2.2270578E1,4.3705856E2,3.833381E1,1.4843237E1,1.6714634E1,2.8917511E1,7.5752975E1,1.7607573E1,4.2293118E2,1.4127392E1,1.4097211E1,2.4236599E1,1.4706689E1,1.4210821E1,2.3508842E1,3.9942233E2],"tree_param":{"num_deleted":"78","num_feature":"95","num_nodes":"291","size_leaf_vector":"0"}},{"base_weights":[-8.078109E-4,-8.2693946E-1,6.371549E-1,-1.1947281E0,-4.7449046E-1,-1.8974897E-1,8.9159834E-1,-1.0116757E0,-1.5560646E0,-7.573865E-2,-9.8369336E-1,1.9163796E-1,-6.9941926E-1,2.0599027E-1,1.1483165E0,-1.452911E0,-8.0383015E-1,-1.3173612E0,-1.6455504E0,-1.1757907E0,1.0162551E-1,-1.3532366E0,-6.5028554E-1,-1.3325281E0,3.8291553E-1,-1.1200078E0,-3.8716075E-1,3.385282E-1,-1.2302804E0,-5.2316993E-1,1.2245836E0,-1.5777509E0,-6.8782413E-1,-5.964431E-1,-1.2431884E0,-8.8718396E-1,-1.5918121E0,-1.7028058E0,-1.3261353E0,-1.5112846E0,-1.0775387E-1,3.1564623E-1,-5.121003E-1,-1.0933633E0,-1.5645894E0,-4.351613E-1,-1.4344499E0,-1.6953754E0,-8.868001E-1,-6.76008E-1,6.0507303E-1,-1.4631668E0,-8.211178E-1,-7.591631E-1,1.1634554E-1,-1.4208479E0,4.4061E-1,-1.6114459E0,-5.869498E-1,-1.0654495E0,3.7775165E-1,1.3404844E0,3.4715563E-1,-1.6395458E0,-1.1943011E0,-1.4044616E0,-4.1103196E-1,-1.5699329E0,-8.0981636E-1,-1.5595424E0,-1.4461641E-1,-1.2021606E0,-1.7303681E0,-1.6259514E0,-8.698629E-1,-1.6565716E0,-1.0825623E0,4.1771227E-1,-1.4858643E0,-1.1602896E0,-1.2542528E-1,-1.3291466E0,-3.7663776E-1,-1.3017452E0,-1.6936169E0,-5.237478E-2,-9.863393E-1,-8.536198E-1,-1.7307184E0,-1.6430603E-1,-1.2322394E0,8.338879E-1,-9.8559834E-2,-1.0613179E0,-1.6556264E0,-1.3386166E0,-3.2278574E-1,-2.7839845E-1,-1.1313627E0,-9.758139E-1,5.523324E-1,8.8144076E-1,7.8690454E-2,-4.278991E-1,-1.719263E0,1.4119574E0,6.6932046E-1,-7.307152E-1,6.7994094E-1,-1.1181347E0,-1.7033415E0,-1.7048863E0,-9.4030887E-1,2.7852812E-1,-6.613306E-1,-1.0397488E0,-1.7483796E0,-1.4815147E0,2.7270492E-2,-1.8554978E-1,6.256021E-1,-7.300247E-1,-1.5918387E0,4.6886355E-1,-5.5843216E-1,-9.948118E-1,-1.6633577E0,-1.599407E0,-8.207003E-1,2.4324808E-1,-9.6295774E-1,-2.2456111E-1,-1.2172037E0,-4.8059723E-1,9.7048265E-1,-7.4328095E-1,5.076549E-1,-1.0434332E0,4.9035498E-1,-1.5206966E0,-4.7935715E-1,-3.5279998E-1,1.1721216E0,1.2074579E-1,1.1273912E0,-9.63041E-1,2.6833013E-1,1.4457067E0,1.0471002E-1,9.187026E-1,-4.869916E-1,-1.2619076E0,-1.5435842E-1,1.0644698E0,-1.5028866E-1,-6.999642E-1,6.910997E-1,-1.2279571E0,-3.9994693E-1,1.2804078E-1,-1.0839465E0,-9.478367E-2,8.2480806E-1,1.8572116E-1,-1.0762045E0,-1.4352803E0,-5.2803814E-1,-7.107695E-1,6.655228E-1,-1.4371967E0,-6.6133165E-1,5.362452E-1,1.2744852E0,7.2287154E-1,-7.942986E-1,1.3422763E0,5.848401E-1,-4.1896656E-1,-1.377705E0,-6.21985E-1,4.0356836E-1,1.4710001E0,6.3305134E-1,4.306257E-1,1.418958E0,6.549764E-1,1.6526577E0,-8.115875E-1,4.7220737E-1,1.2679918E0,2.0698914E-1,-1.5837674E0,-5.7430065E-1,-6.7709124E-1,2.8390685E-1,-3.8120168E-1,7.060513E-1,-6.650282E-1,5.512031E-1,9.5672804E-1,-3.4002632E-1,3.1003797E-2,1.1186963E0,-1.6746773E0,-1.050381E0,1.2292659E0,7.02296E-2,1.4192003E0,6.0686326E-1,6.871399E-1,1.4841156E0,-1.0822086E-1,1.3035543E0,5.114803E-1,-6.008196E-1,1.3383042E0,1.5995014E0,-6.1402726E-1,1.0862925E0,1.682609E0,9.070847E-1,2.509226E-2,1.0677475E0,2.7814453E-2,-1.0253749E0,-2.4455628E-1,7.930166E-1,-9.75755E-1,2.384264E-1,1.1032641E0,1.6697162E-1,-4.498997E-1,8.3353907E-1,1.5538241E0,8.582034E-1,1.6631308E0,1.137088E0,6.269834E-1,-4.2773885E-1,1.382575E0,4.7313797E-1,1.6220311E0,9.896515E-1,-1.4604458E0,-3.5567817E-1,1.9762556E-1,1.2437997E0,1.1317053E0,1.6902796E0,8.6892384E-1,1.568234E-1,1.6575062E0,1.230741E0,1.3239057E0,1.6665833E0,1.4151306E0,6.993869E-1,2.1115008E-1,1.1956506E0,8.074924E-1,-4.1066724E-1,1.7125721E0,1.1954648E0,1.3121394E0,4.2809072E-1,9.340998E-1,1.5492665E0,1.3502378E0,1.6998279E0,1.5559735E0,7.1356905E-1,6.0861784E-1,1.4822608E0,4.0038455E-1,1.37966E0,1.6328261E0,8.510818E-1,1.1425492E0,1.7204113E0,1.0330187E0,1.7318476E0,