{"learner":{"attributes":{"best_iteration":"49","best_ntree_limit":"50","scikit_learn":"{\"use_label_encoder\": null, \"n_estimators\": 50, \"objective\": \"binary:logistic\", \"max_depth\": 6, \"max_leaves\": null, \"max_bin\": null, \"grow_policy\": null, \"learning_rate\": 0.5, \"verbosity\": null, \"booster\": null, \"tree_method\": null, \"gamma\": 1, \"min_child_weight\": 5, \"max_delta_step\": null, \"subsample\": null, \"sampling_method\": null, \"colsample_bytree\": null, \"colsample_bylevel\": null, \"colsample_bynode\": null, \"reg_alpha\": null, \"reg_lambda\": null, \"scale_pos_weight\": null, \"base_score\": null, \"missing\": NaN, \"num_parallel_tree\": null, \"random_state\": 1, \"n_jobs\": null, \"monotone_constraints\": null, \"interaction_constraints\": null, \"importance_type\": null, \"gpu_id\": null, \"validate_parameters\": null, \"predictor\": null, \"enable_categorical\": false, \"feature_types\": null, \"max_cat_to_onehot\": null, \"max_cat_threshold\": null, \"eval_metric\": null, \"early_stopping_rounds\": null, \"callbacks\": null, \"classes_\": [0.0, 1.0], \"n_classes_\": 2, \"_estimator_type\": \"classifier\"}"},"feature_names":[],"feature_types":[],"gradient_booster":{"model":{"gbtree_model_param":{"num_parallel_tree":"1","num_trees":"50","size_leaf_vector":"0"},"tree_info":[0,0,0,0,0,0,0,0,0,0,0,0,0,0,0,0,0,0,0,0,0,0,0,0,0,0,0,0,0,0,0,0,0,0,0,0,0,0,0,0,0,0,0,0,0,0,0,0,0,0],"trees":[{"base_weights":[-0E0,-1.1906005E0,9.373073E-1,-4.6E-1,-1.9782609E0,-3.0393997E-1,1.4015526E0,-1.5336323E0,8.8268155E-1,7.8326994E-1,-1.3430657E0,-8.764045E-1,1.5495496E0,1.2195122E0,-1.794621E0,1.7617022E0,-7.7165353E-1,-1.7209302E0,1.9558011E0,1.7575758E0,-1.7387755E0,-1.8208956E0,1.6923077E0,1.2903226E-2,1.745978E0,-1.9588689E0,1.1666666E0,1.6666667E-1,1.9069767E0,1.5454545E0,-1.908046E0,-1.8787879E0,-1E0,4.6153846E-1,-1.9641255E0,1.5949367E0,-1.55E0,1.7962004E0,-6.666667E-1,1.8644068E0,6.666667E-1,-5E-1,-1.8666667E0,1.8511957E0,-3.030303E-1],"categories":[],"categories_nodes":[],"categories_segments":[],"categories_sizes":[],"default_left":[1,1,1,1,0,1,1,1,1,1,1,1,1,0,1,1,1,1,0,0,1,0,0,1,1,0,0,0,0,0,0,1,1,0,0,1,1,1,0,0,0,0,0,0,0],"id":0,"left_children":[1,3,5,7,-1,9,11,13,15,17,19,21,23,-1,25,27,29,-1,-1,-1,33,-1,-1,35,37,-1,-1,-1,-1,-1,-1,-1,-1,-1,-1,39,41,43,-1,-1,-1,-1,-1,-1,-1],"loss_changes":[9.703259E2,2.1949316E2,2.8076828E2,2.8966296E2,0E0,1.5159088E2,1.2078662E2,8.2305725E1,1.3150984E2,1.9642441E2,8.71024E1,5.7062805E1,1.0049054E2,0E0,5.201822E1,1.3295624E1,8.6551125E1,5.680046E-1,0E0,0E0,3.1276764E1,0E0,0E0,9.828405E1,3.6972534E1,0E0,0E0,0E0,0E0,0E0,0E0,0E0,0E0,0E0,0E0,3.6973495E0,5.716667E0,3.3983154E1,0E0,0E0,0E0,0E0,0E0,0E0,0E0],"parents":[2147483647,0,0,1,1,2,2,3,3,5,5,6,6,7,7,8,8,9,9,10,10,11,11,12,12,14,14,15,15,16,16,17,17,20,20,23,23,24,24,35,35,36,36,37,37],"right_children":[2,4,6,8,-1,10,12,14,16,18,20,22,24,-1,26,28,30,-1,-1,-1,34,-1,-1,36,38,-1,-1,-1,-1,-1,-1,-1,-1,-1,-1,40,42,44,-1,-1,-1,-1,-1,-1,-1],"split_conditions":[2.1191637E-3,6.497977E-1,9.950945E-1,3.451488E-1,-9.8913044E-1,3.104576E-1,9.9993E-1,1.3215119E-1,5.3216773E-1,4.2269462E-1,3.8845372E-1,3.8499695E-1,2.859208E-1,6.097561E-1,7.387946E-1,9.9492574E-1,3.3660212E-1,-8.604651E-1,9.7790056E-1,8.787879E-1,1.25E-1,-9.104478E-1,8.4615386E-1,3.2620704E-1,9.779223E-1,-9.7943443E-1,5.833333E-1,8.3333336E-2,9.5348835E-1,7.7272725E-1,-9.54023E-1,-9.3939394E-1,-5E-1,2.3076923E-1,-9.8206276E-1,7.5105E-1,3.735204E-1,2.8337765E-1,-3.3333334E-1,9.322034E-1,3.3333334E-1,-2.5E-1,-9.3333334E-1,9.2559785E-1,-1.5151516E-1],"split_indices":[32,333,275,199,0,14,107,276,44,40,169,85,67,0,37,195,328,2,0,0,56,0,0,313,75,0,0,0,0,0,0,2147483647,2147483647,0,0,9,12,97,0,0,0,0,0,0,0],"split_type":[0,0,0,0,0,0,0,0,0,0,0,0,0,0,0,0,0,0,0,0,0,0,0,0,0,0,0,0,0,0,0,0,0,0,0,0,0,0,0,0,0,0,0,0,0],"sum_hessian":[8.675E2,3.82E2,4.855E2,1.99E2,1.83E2,1.3225E2,3.5325E2,1.105E2,8.85E1,6.475E1,6.75E1,2.125E1,3.32E2,9.25E0,1.0125E2,5.775E1,3.075E1,2.05E1,4.425E1,7.25E0,6.025E1,1.575E1,5.5E0,3.775E1,2.9425E2,9.625E1,5E0,5E0,5.275E1,1E1,2.075E1,1.55E1,5E0,5.5E0,5.475E1,1.875E1,1.9E1,2.885E2,5.75E0,1.375E1,5E0,5E0,1.4E1,2.8125E2,7.25E0],"tree_param":{"num_deleted":"2","num_feature":"363","num_nodes":"45","size_leaf_vector":"0"}},{"base_weights":[-2.541729E-3,-8.2435435E-1,5.959171E-1,-1.2475812E0,3.75501E-2,-1.2099271E0,7.795823E-1,-6.387508E-1,-1.4014114E0,5.8922845E-1,-1.1980345E0,4.618272E-1,-1.4820504E0,9.254458E-1,-1.4177824E0,-1.288996E0,6.1878437E-1,9.313621E-1,-1.4145944E0,-1.343263E0,-4.6384364E-1,1.0602807E0,-5.981803E-1,-6.0952204E-1,1.3080243E0,-8.8967925E-1,1.2129009E0,1.1900723E0,-3.700364E-1,-1.5793567E0,8.324404E-1,-7.410322E-2,1.3747935E0,-1.2696465E0,1.2430404E0,-1.4452429E0,1.0109693E0,1.2050536E0,2.5681773E-1],"categories":[],"categories_nodes":[],"categories_segments":[],"categories_sizes":[],"default_left":[1,1,1,1,1,1,1,1,0,1,1,0,0,1,0,0,1,1,0,0,0,1,1,0,0,0,1,1,1,0,1,0,0,0,0,0,0,0,0],"id":1,"left_children":[1,3,5,7,9,11,13,15,-1,17,19,-1,-1,21,-1,-1,23,25,-1,-1,-1,27,29,-1,-1,-1,31,33,35,-1,37,-1,-1,-1,-1,-1,-1,-1,-1],"loss_changes":[3.4779562E2,1.08742096E2,1.3665837E2,1.7824188E1,6.825781E1,1.8047337E1,1.2055008E2,3.5265724E1,0E0,4.874681E1,2.6737442E0,0E0,0E0,7.242798E1,0E0,0E0,1.353243E1,3.168451E1,0E0,0E0,0E0,6.0108948E1,4.2093887E1,0E0,0E0,0E0,1.0962486E1,4.0001526E1,4.2298855E1,0E0,2.3659248E0,0E0,0E0,0E0,0E0,0E0,0E0,0E0,0E0],"parents":[2147483647,0,0,1,1,2,2,3,3,4,4,5,5,6,6,7,7,9,9,10,10,13,13,16,16,17,17,21,21,22,22,26,26,27,27,28,28,30,30],"right_children":[2,4,6,8,10,12,14,16,-1,18,20,-1,-1,22,-1,-1,24,26,-1,-1,-1,28,30,-1,-1,-1,32,34,36,-1,38,-1,-1,-1,-1,-1,-1,-1,-1],"split_conditions":[1.7964599E-1,5.261215E-1,2.245293E-1,3.508597E-1,4.6753645E-1,2.6240563E-1,9.999983E-1,9.9999774E-1,-7.007057E-1,9.999479E-1,4.5264655E-1,2.309136E-1,-7.410252E-1,2.2413057E-1,-7.088912E-1,-6.44498E-1,6.016436E-1,5.694338E-1,-7.072972E-1,-6.716315E-1,-2.3192182E-1,5.653447E-1,1.7801824E-1,-3.0476102E-1,6.5401214E-1,-4.4483963E-1,3.645001E-1,9.626365E-1,3.8426575E-1,-7.8967834E-1,2.3132002E-1,-3.705161E-2,6.8739676E-1,-6.3482326E-1,6.215202E-1,-7.2262144E-1,5.0548464E-1,6.025268E-1,1.2840886E-1],"split_indices":[45,136,211,339,316,187,227,362,0,227,292,0,0,1,0,0,181,237,0,0,0,304,34,0,0,0,123,275,8,0,14,0,0,0,0,0,0,0,0],"split_type":[0,0,0,0,0,0,0,0,0,0,0,0,0,0,0,0,0,0,0,0,0,0,0,0,0,0,0,0,0,0,0,0,0,0,0,0,0,0,0],"sum_hessian":[7.051601E2,2.9697382E2,4.081863E2,1.9887256E2,9.810124E1,3.716663E1,3.7101968E2,4.1152203E1,1.5772035E2,6.818176E1,2.9919477E1,5.1053624E0,3.2061264E1,3.4846692E2,2.2552784E1,2.7109455E1,1.4042749E1,5.869531E1,9.486458E0,2.4285948E1,5.63353E0,3.2041553E2,2.8051384E1,5.0890775E0,8.953672E0,7.570159E0,5.112515E1,2.9391287E2,2.6502651E1,1.6577745E1,1.14736395E1,5.773066E0,4.5352085E1,5.7115602E0,2.8820132E2,1.4874967E1,1.1627685E1,6.3012342E0,5.1724052E0],"tree_param":{"num_deleted":"0","num_feature":"363","num_nodes":"39","size_leaf_vector":"0"}},{"base_weights":[-1.8799718E-2,-6.8570405E-1,4.7304285E-1,-2.4076198E-1,-1.2060689E0,1.1254005E0,1.2769356E-1,-8.636282E-1,4.9403533E-1,1.2303779E0,-1.5212034E-1,3.9654237E-1,-1.0231361E0,-1.1388915E0,4.1060978E-1,7.88292E-1,-1.2034986E0,6.0617775E-1,-8.9286983E-1,-1.2199997E-1,-1.5329555E0,-2.919361E-1,-1.219693E0,1.0056932E0,-3.759971E-1,-1.1214517E0,1.0558012E0,-1.2145648E0,7.4591804E-1,4.409671E-1,-1.2999343E0,6.512273E-1,-1.1198878E0,1.1694361E0,1.8532743E-1,-1.2661896E0,8.4882134E-1],"categories":[],"categories_nodes":[],"categories_segments":[],"categories_sizes":[],"default_left":[1,1,1,1,0,1,1,1,1,0,0,1,1,1,1,1,0,1,1,1,0,0,0,0,0,0,1,0,1,0,0,0,0,0,0,0,0],"id":2,"left_children":[1,3,5,7,-1,9,11,13,15,-1,-1,17,19,21,23,25,-1,27,29,31,-1,-1,-1,-1,-1,-1,33,-1,35,-1,-1,-1,-1,-1,-1,-1,-1],"loss_changes":[1.6997195E2,5.0632614E1,6.705174E1,5.5261932E1,0E0,1.4015701E1,6.109363E1,2.333953E1,2.8722942E1,0E0,0E0,4.3715446E1,1.7006367E1,3.3318634E0,6.144637E0,2.5702215E1,0E0,3.6012924E1,1.2920614E1,1.2001509E1,0E0,0E0,0E0,0E0,0E0,0E0,3.9981956E0,0E0,2.7736206E1,0E0,0E0,0E0,0E0,0E0,0E0,0E0,0E0],"parents":[2147483647,0,0,1,1,2,2,3,3,5,5,6,6,7,7,8,8,11,11,12,12,13,13,14,14,15,15,17,17,18,18,19,19,26,26,28,28],"right_children":[2,4,6,8,-1,10,12,14,16,-1,-1,18,20,22,24,26,-1,28,30,32,-1,-1,-1,-1,-1,-1,34,-1,36,-1,-1,-1,-1,-1,-1,-1,-1],"split_conditions":[2.1191637E-3,6.5271974E-1,1.6499695E-1,3.451488E-1,-6.0303444E-1,2.6571774E-1,6.086625E-1,2.8596547E-1,5.5197734E-1,6.1518896E-1,-7.606017E-2,9.999932E-1,9.9964464E-1,9.96475E-1,3.3857745E-1,1.4675565E-1,-6.017493E-1,8.749808E-1,9.9458385E-1,1.9064738E-1,-7.6647776E-1,-1.4596805E-1,-6.098465E-1,5.028466E-1,-1.8799855E-1,-5.6072587E-1,7.2001266E-1,-6.072824E-1,2.6311642E-1,2.2048356E-1,-6.4996713E-1,3.2561365E-1,-5.599439E-1,5.8471805E-1,9.266371E-2,-6.330948E-1,4.2441067E-1],"split_indices":[32,333,41,199,0,29,325,211,14,0,0,95,272,251,129,45,0,216,149,90,0,0,0,0,0,0,267,0,202,0,0,0,0,0,0,0,0],"split_type":[0,0,0,0,0,0,0,0,0,0,0,0,0,0,0,0,0,0,0,0,0,0,0,0,0,0,0,0,0,0,0,0,0,0,0,0,0],"sum_hessian":[5.161994E2,2.1893907E2,2.9726035E2,1.1881125E2,1.0012782E2,1.0211274E2,1.951476E2,6.420837E1,5.4602886E1,9.4393105E1,7.7196383E0,1.5872322E2,3.642438E1,5.288933E1,1.1319034E1,4.6992638E1,7.6102486E0,1.3698224E2,2.1740982E1,1.3608986E1,2.2815395E1,5.00807E0,4.788126E1,6.285449E0,5.033585E0,5.3815594E0,4.161108E1,9.215641E0,1.27766594E2,5.0640874E0,1.6676895E1,7.8633523E0,5.7456336E0,3.650246E1,5.10862E0,5.6663156E0,1.2210027E2],"tree_param":{"num_deleted":"0","num_feature":"363","num_nodes":"37","size_leaf_vector":"0"}},{"base_weights":[-3.205575E-2,3.2417285E-1,-6.97826E-1,7.452796E-1,-2.2663881E-1,-9.61079E-1,1.0416902E0,8.813004E-1,-1.228666E0,-6.574554E-1,7.9332584E-1,9.817104E-1,-1.0976673E0,9.3746203E-1,-4.3636075E-1,-1.1938236E0,4.3873876E-1,-5.786332E-1,1.0924022E0,-2.5100866E-1,-1.1707698E0,-1.0613017E-1,9.8207986E-1,-1.3351653E0,-2.6408976E-1,8.732607E-1,-9.8368275E-1,5.727585E-1,1.1854477E0,1.0454346E0,2.2991985E-1,-1.7466215E0,-1.2019017E0,1.0518168E0,2.812782E-1],"categories":[],"categories_nodes":[],"categories_segments":[],"categories_sizes":[],"default_left":[1,1,1,1,1,1,0,1,0,1,1,0,1,1,0,1,1,0,1,0,0,0,1,1,0,1,0,1,1,0,0,1,1,0,0],"id":3,"left_children":[1,3,5,7,9,11,-1,13,-1,15,17,-1,19,21,-1,23,25,-1,-1,-1,-1,-1,29,-1,-1,33,-1,-1,-1,-1,-1,-1,-1,-1,-1],"loss_changes":[8.914233E1,5.6976856E1,6.098858E1,3.8412697E1,4.7487267E1,3.1407867E1,0E0,1.0077568E1,0E0,4.5026436E1,1.3841217E1,0E0,6.3448486E0,5.95385E0,0E0,6.3612595E0,1.66808E1,0E0,6.157017E-1,0E0,0E0,0E0,5.5053864E0,3.1894684E-1,0E0,1.8328028E0,0E0,0E0,0E0,0E0,0E0,0E0,0E0,0E0,0E0],"parents":[2147483647,0,0,1,1,2,2,3,3,4,4,5,5,7,7,9,9,10,10,12,12,13,13,15,15,16,16,18,18,22,22,23,23,25,25],"right_children":[2,4,6,8,10,12,-1,14,-1,16,18,-1,20,22,-1,24,26,-1,-1,-1,-1,-1,30,-1,-1,34,-1,-1,-1,-1,-1,-1,-1,-1,-1],"split_conditions":[5.3216773E-1,9.999597E-1,5.716672E-1,3.9285713E-1,5.9423447E-1,8.6178195E-1,5.208451E-1,8.5611856E-1,-6.14333E-1,9.769966E-1,9.9999833E-1,4.908552E-1,1.7096621E-1,9.9998456E-1,-2.1818037E-1,9.998025E-1,4.2602628E-1,-2.893166E-1,5.462011E-1,-1.2550433E-1,-5.853849E-1,-5.3065084E-2,4.4640124E-1,-6.6758263E-1,-1.3204488E-1,2.4336731E-1,-4.9184138E-1,2.8637925E-1,5.9272385E-1,5.227173E-1,1.14959925E-1,-8.7331074E-1,-6.0095084E-1,5.259084E-1,1.406391E-1],"split_indices":[44,152,32,24,26,251,0,2,0,291,152,0,97,290,0,275,12,0,349,0,0,0,277,95,0,88,0,2147483647,2147483647,0,0,2147483647,2147483647,0,0],"split_type":[0,0,0,0,0,0,0,0,0,0,0,0,0,0,0,0,0,0,0,0,0,0,0,0,0,0,0,0,0,0,0,0,0,0,0],"sum_hessian":[3.7391022E2,2.4391408E2,1.2999615E2,1.3803241E2,1.0588167E2,1.13297554E2,1.6698595E1,1.2965189E2,8.380527E0,7.468946E1,3.1192205E1,7.035758E0,1.06261795E2,1.2462849E2,5.0234013E0,5.00909E1,2.459856E1,5.4153805E0,2.5776825E1,8.798067E0,9.746373E1,5.0533843E0,1.195751E2,4.3102257E1,6.9886427E0,1.9138268E1,5.460292E0,5.0012674E0,2.0775557E1,1.0992608E2,9.649019E0,7.5829897E0,3.5519268E1,1.4106607E1,5.031661E0],"tree_param":{"num_deleted":"4","num_feature":"363","num_nodes":"35","size_leaf_vector":"0"}},{"base_weights":[-3.3480983E-2,-5.54343E-1,3.1259483E-1,-1.0858027E0,-1.1504174E-1,-7.6133054E-1,4.739756E-1,4.208581E-1,-9.260192E-1,-1.1719502E0,4.2425257E-1,5.681492E-1,-9.1964644E-1,-1.0359493E0,7.2838E-1,-1.078247E0,-2.9139596E-1,-8.104152E-1,6.67089E-1,-7.7683195E-3,9.5696104E-1,-7.904417E-1,7.6049083E-1,1.0586714E0,4.854323E-1,-1.2572958E-2,8.889071E-1],"categories":[],"categories_nodes":[],"categories_segments":[],"categories_sizes":[],"default_left":[1,1,1,0,1,1,1,1,1,0,0,1,0,0,1,0,0,0,1,0,1,0,1,1,1,0,0],"id":4,"left_children":[1,3,5,-1,7,9,11,13,15,-1,-1,17,-1,-1,19,-1,-1,-1,21,-1,-1,-1,25,-1,-1,-1,-1],"loss_changes":[4.846489E1,2.4927841E1,2.836744E1,0E0,2.640715E1,1.0961391E1,1.9041136E1,1.7211033E1,2.0170994E0,0E0,0E0,1.8652393E1,0E0,0E0,5.2099495E0,0E0,0E0,0E0,1.7542671E1,0E0,6.17939E-1,0E0,1.1671967E1,0E0,0E0,0E0,0E0],"parents":[2147483647,0,0,1,1,2,2,4,4,5,5,6,6,7,7,8,8,11,11,14,14,18,18,20,20,22,22],"right_children":[2,4,6,-1,8,10,12,14,16,-1,-1,18,-1,-1,20,-1,-1,-1,22,-1,-1,-1,26,-1,-1,-1,-1],"split_conditions":[1.7964599E-1,4.6806884E-1,2.3139933E-1,-5.4290134E-1,5.538697E-1,5.401567E-1,9.999973E-1,9.683808E-1,6.848186E-1,-5.859751E-1,2.1212628E-1,8.534328E-1,-4.5982322E-1,-5.179747E-1,6.0003394E-1,-5.391235E-1,-1.4569798E-1,-4.052076E-1,9.9811745E-1,-3.8841597E-3,4.7848052E-1,-3.9522085E-1,1.5581883E-1,5.293357E-1,2.4271615E-1,-6.286479E-3,4.4445354E-1],"split_indices":[45,14,211,0,14,13,227,284,144,0,0,233,0,0,340,0,0,0,251,0,90,0,13,2147483647,2147483647,0,0],"split_type":[0,0,0,0,0,0,0,0,0,0,0,0,0,0,0,0,0,0,0,0,0,0,0,0,0,0,0],"sum_hessian":[2.669031E2,1.0630571E2,1.6059738E2,4.7440857E1,5.8864857E1,2.049482E1,1.4010255E2,3.5733166E1,2.313169E1,1.52311125E1,5.263707E0,1.3178926E2,8.313299E0,5.8154135E0,2.9917753E1,1.8092731E1,5.0389585E0,8.343615E0,1.2344565E2,7.3175373E0,2.2600216E1,6.984838E0,1.1646081E2,1.7565985E1,5.03423E0,1.6718393E1,9.974242E1],"tree_param":{"num_deleted":"2","num_feature":"363","num_nodes":"27","size_leaf_vector":"0"}},{"base_weights":[-4.5205466E-2,-5.1628584E-1,2.2906397E-1,-1.2951869E-1,-1.0578811E0,9.0613705E-1,-4.664428E-2,1.9085622E-1,-9.810364E-1,1.0331035E0,8.10522E-2,2.528915E-1,-7.2508425E-1,-9.3520373E-1,4.774869E-1,-1.2092429E0,4.184576E-1,-1.1720641E0,1.8183568E-1,-3.6251906E-1,6.972927E-1,-9.608697E-1,5.7486284E-1,8.809175E-1,7.8091025E-2,7.463189E-1,-6.641828E-1],"categories":[],"categories_nodes":[],"categories_segments":[],"categories_sizes":[],"default_left":[1,1,1,1,0,1,1,1,0,0,0,1,1,0,1,0,1,0,0,0,1,0,1,0,0,0,0],"id":5,"left_children":[1,3,5,7,-1,9,11,13,-1,-1,-1,15,17,-1,19,-1,21,-1,-1,-1,23,-1,25,-1,-1,-1,-1],"loss_changes":[2.6089487E1,1.5421295E1,2.3887499E1,1.2318918E1,0E0,3.7936172E0,1.8823338E1,1.1146134E1,0E0,0E0,0E0,1.6089272E1,1.1706344E1,0E0,5.253877E0,0E0,1.3187364E1,0E0,0E0,0E0,2.4110594E0,0E0,1.1803629E1,0E0,0E0,0E0,0E0],"parents":[2147483647,0,0,1,1,2,2,3,3,5,5,6,6,7,7,11,11,12,12,14,14,16,16,20,20,22,22],"right_children":[2,4,6,8,-1,10,12,14,-1,-1,-1,16,18,-1,20,-1,22,-1,-1,-1,24,-1,26,-1,-1,-1,-1],"split_conditions":[2.1191637E-3,5.318806E-1,1.6499695E-1,1.8880093E-1,-5.2894056E-1,2.3121002E-1,4.6741855E-1,4.1666668E-2,-4.905182E-1,5.1655173E-1,4.05261E-2,1.4017507E-1,9.8631305E-1,-4.6760187E-1,7.188307E-1,-6.0462147E-1,5.9664285E-1,-5.8603203E-1,9.091784E-2,-1.8125953E-1,4.3091643E-1,-4.8043486E-1,9.9999505E-1,4.4045874E-1,3.9045513E-2,3.7315944E-1,-3.320914E-1],"split_indices":[32,327,41,39,0,29,226,22,0,0,0,39,102,0,198,0,336,0,0,0,295,0,95,0,0,0,0],"split_type":[0,0,0,0,0,0,0,0,0,0,0,0,0,0,0,0,0,0,0,0,0,0,0,0,0,0,0],"sum_hessian":[2.0001106E2,7.327419E1,1.2673687E2,4.347017E1,2.9804024E1,3.6012432E1,9.072444E1,3.2149944E1,1.1320227E1,3.0991287E1,5.021144E0,6.337236E1,2.7352077E1,6.064022E0,2.608592E1,5.8048987E0,5.7567463E1,1.8126158E1,9.225922E0,5.2755814E0,2.0810339E1,5.3390737E0,5.222839E1,1.5724546E1,5.0857935E0,4.6229004E1,5.9993863E0],"tree_param":{"num_deleted":"0","num_feature":"363","num_nodes":"27","size_leaf_vector":"0"}},{"base_weights":[-5.3070333E-2,-4.2650077E-1,2.4832878E-1,-1.1904238E-1,-9.633274E-1,-8.854298E-1,3.7865615E-1,2.3681448E-1,-9.567114E-1,-1.1016164E0,-3.742582E-1,-7.3495656E-1,4.7468963E-1,-5.3492993E-1,5.9356135E-1,-5.487055E-1,5.921104E-1,9.274401E-1,4.7593825E-2,-2.1245775E-1,6.785957E-1,-4.0786944E-2,7.695339E-1],"categories":[],"categories_nodes":[],"categories_segments":[],"categories_sizes":[],"default_left":[1,1,1,1,1,0,1,1,0,0,0,0,1,0,1,0,1,0,0,0,1,0,0],"id":6,"left_children":[1,3,5,7,9,-1,11,13,-1,-1,-1,-1,15,-1,17,-1,19,-1,-1,-1,21,-1,-1],"loss_changes":[1.7112633E1,1.1084827E1,1.2783601E1,1.3427577E1,1.5891571E0,0E0,8.504608E0,9.095445E0,0E0,0E0,0E0,0E0,8.83456E0,0E0,4.0168314E0,0E0,4.5979977E0,0E0,0E0,0E0,3.8278675E0,0E0,0E0],"parents":[2147483647,0,0,1,1,2,2,3,3,4,4,6,6,7,7,12,12,14,14,16,16,20,20],"right_children":[2,4,6,8,10,-1,12,14,-1,-1,-1,-1,16,-1,18,-1,20,-1,-1,-1,22,-1,-1],"split_conditions":[4.494476E-1,7.476897E-1,9.9999666E-1,7.0185196E-1,2.9046726E-1,-4.427149E-1,1.8367268E-1,1.1904763E-1,-4.783557E-1,-5.508082E-1,-1.871291E-1,-3.6747828E-1,7.444293E-1,-2.6746497E-1,3.0716443E-1,-2.7435276E-1,1.4675565E-1,4.6372005E-1,2.3796912E-2,-1.0622887E-1,7.0011686E-4,-2.0393472E-2,3.8476694E-1],"split_indices":[217,50,197,28,211,0,88,8,0,0,0,0,235,0,36,0,45,0,0,0,8,0,0],"split_type":[0,0,0,0,0,0,0,0,0,0,0,0,0,0,0,0,0,0,0,0,0,0,0],"sum_hessian":[1.5010153E2,6.685446E1,8.324707E1,4.328529E1,2.3569168E1,7.9854293E0,7.5261635E1,3.0882952E1,1.240234E1,1.8383411E1,5.185758E0,5.4468107E0,6.981483E1,9.605048E0,2.1277903E1,6.807782E0,6.3007046E1,1.2769925E1,8.5079775E0,5.9740663E0,5.7032978E1,6.4624095E0,5.0570568E1],"tree_param":{"num_deleted":"0","num_feature":"363","num_nodes":"23","size_leaf_vector":"0"}},{"base_weights":[-5.271268E-2,-2.0191227E-1,5.995196E-1,4.4230975E-2,-7.855222E-1,-4.1492003E-1,9.058401E-1,-6.535892E-1,2.512492E-1,9.265905E-2,-1.0171328E0,-1.0336276E0,1.8064152E-1,-5.8875513E-1,4.4610238E-1,-5.3618985E-1,6.0135E-1,7.255659E-1,-5.518904E-2],"categories":[],"categories_nodes":[],"categories_segments":[],"categories_sizes":[],"default_left":[1,1,1,1,1,0,0,1,1,0,0,0,0,0,1,0,1,0,0],"id":7,"left_children":[1,3,5,7,9,-1,-1,11,13,-1,-1,-1,-1,-1,15,-1,17,-1,-1],"loss_changes":[1.19767275E1,1.4385246E1,7.502037E0,1.0451352E1,6.132597E0,0E0,0E0,5.440031E0,9.369723E0,0E0,0E0,0E0,0E0,0E0,7.2966194E0,0E0,3.2991028E0,0E0,0E0],"parents":[2147483647,0,0,1,1,2,2,3,3,4,4,7,7,8,8,14,14,16,16],"right_children":[2,4,6,8,10,-1,-1,12,14,-1,-1,-1,-1,-1,16,-1,18,-1,-1],"split_conditions":[5.6230366E-1,5.3216773E-1,9.992144E-2,3.2684E-1,9.353403E-1,-2.0746002E-1,4.5292005E-1,5.5510354E-1,1.4298536E-1,4.6329524E-2,-5.085664E-1,-5.168138E-1,9.032076E-2,-2.9437757E-1,5.4841585E-2,-2.6809493E-1,2.0836107E-1,3.6278296E-1,-2.759452E-2],"split_indices":[32,44,255,199,116,0,0,205,13,0,0,0,0,0,55,0,258,0,0],"split_type":[0,0,0,0,0,0,0,0,0,0,0,0,0,0,0,0,0,0,0],"sum_hessian":[1.2083061E2,9.889792E1,2.193269E1,7.0210266E1,2.8687658E1,5.004567E0,1.6928123E1,1.5569888E1,5.4640377E1,6.112241E0,2.2575417E1,1.0532658E1,5.0372305E0,9.907596E0,4.473278E1,5.7700973E0,3.896268E1,3.267542E1,6.287264E0],"tree_param":{"num_deleted":"0","num_feature":"363","num_nodes":"19","size_leaf_vector":"0"}},{"base_weights":[-5.0287902E-2,6.9764906E-1,-1.821047E-1,2.9101318E-1,9.0427923E-1,-3.6460933E-1,4.2293838E-1,-1.0745537E-2,-8.9924514E-1,8.724198E-1,-1.2834394E-1,-1.0330855E0,2.6972434E-1,-1.2215344E-1,-1.1083107E0,-5.7855064E-1,4.818734E-1,6.983792E-1,-2.8888303E-1],"categories":[],"categories_nodes":[],"categories_segments":[],"categories_sizes":[],"default_left":[1,1,1,1,1,1,1,1,1,0,0,0,1,0,0,0,1,0,0],"id":8,"left_children":[1,-1,5,-1,-1,7,9,11,13,-1,-1,-1,15,-1,-1,-1,17,-1,-1],"loss_changes":[9.775565E0,9.8630095E-1,9.429096E0,0E0,0E0,1.230015E1,5.049846E0,1.179523E1,4.0727386E0,0E0,0E0,0E0,6.093464E0,0E0,0E0,0E0,4.6059136E0,0E0,0E0],"parents":[2147483647,0,0,1,1,2,2,5,5,6,6,7,7,8,8,12,12,16,16],"right_children":[2,-1,6,-1,-1,8,10,12,14,-1,-1,-1,16,-1,-1,-1,18,-1,-1],"split_conditions":[1.652067E-1,3.4882453E-1,5.2387273E-1,1.4550659E-1,4.5213962E-1,1.8873294E-1,5.8667576E-1,9.684445E-2,1.3147295E-1,4.362099E-1,-6.417197E-2,-5.1654273E-1,3.671777E-1,-6.107672E-2,-5.5415535E-1,-2.8927532E-1,1.8507312E-1,3.491896E-1,-1.4444152E-1],"split_indices":[36,56,38,2147483647,2147483647,39,38,8,54,0,0,0,295,0,0,0,90,0,0],"split_type":[0,0,0,0,0,0,0,0,0,0,0,0,0,0,0,0,0,0,0],"sum_hessian":[9.686445E1,1.3870392E1,8.299406E1,5.4848714E0,8.385521E0,6.406648E1,1.8927572E1,3.9164474E1,2.4902012E1,1.010558E1,8.821991E0,7.853671E0,3.1310802E1,5.6151004E0,1.9286911E1,5.918534E0,2.539227E1,1.9897076E1,5.4951935E0],"tree_param":{"num_deleted":"2","num_feature":"363","num_nodes":"19","size_leaf_vector":"0"}},{"base_weights":[-4.9293537E-2,-3.2189518E-1,2.8042352E-1,-4.9614483E-1,3.434635E-1,4.2757845E-1,-4.650819E-1,-7.365894E-2,-8.037517E-1,-2.1210252E-1,6.1878467E-1,5.1457316E-1,-6.228436E-1,-1.2317956E-1,-1.0225337E0,1.8840852E-1,8.0836356E-1],"categories":[],"categories_nodes":[],"categories_segments":[],"categories_sizes":[],"default_left":[1,1,1,1,0,1,0,1,1,0,1,0,0,0,0,0,0],"id":9,"left_children":[1,3,5,7,-1,9,-1,11,13,-1,15,-1,-1,-1,-1,-1,-1],"loss_changes":[7.1502886E0,5.209543E0,4.157482E0,4.4702244E0,0E0,3.8809118E0,0E0,5.4198713E0,2.8620195E0,0E0,1.7942171E0,0E0,0E0,0E0,0E0,0E0,0E0],"parents":[2147483647,0,0,1,1,2,2,3,3,5,5,7,7,8,8,10,10],"right_children":[2,4,6,8,-1,10,-1,12,14,-1,16,-1,-1,-1,-1,-1,-1],"split_conditions":[4.8715103E-1,5.716672E-1,4.0255427E-1,1.3272983E-1,1.7173176E-1,8.0094737E-1,-2.3254095E-1,5.77381E-1,9.998796E-1,-1.0605126E-1,2.4146593E-1,2.5728658E-1,-3.114218E-1,-6.158978E-2,-5.112668E-1,9.420426E-2,4.0418178E-1],"split_indices":[58,32,175,54,0,147,0,28,152,0,32,0,0,0,0,0,0],"split_type":[0,0,0,0,0,0,0,0,0,0,0,0,0,0,0,0,0],"sum_hessian":[7.754819E1,4.2463867E1,3.508432E1,3.3852592E1,8.611277E0,2.9656832E1,5.4274883E0,1.4785183E1,1.9067408E1,6.7995677E0,2.2857264E1,7.1692343E0,7.6159487E0,5.0186753E0,1.4048733E1,7.5993295E0,1.5257934E1],"tree_param":{"num_deleted":"0","num_feature":"363","num_nodes":"17","size_leaf_vector":"0"}},{"base_weights":[-4.1164055E-2,1.3760522E-1,-4.851214E-1,-4.758872E-1,3.0548584E-1,4.9035516E-2,-7.2768384E-1,-1.20947905E-1,4.8828495E-1,-9.494864E-1,-3.2215354E-1,-6.565202E-1,4.3151423E-1,5.1001724E-2,6.8067926E-1,9.0155274E-1,4.475273E-1,2.7773723E-2,8.007344E-1],"categories":[],"categories_nodes":[],"categories_segments":[],"categories_sizes":[],"default_left":[1,1,1,0,1,0,1,1,1,1,1,0,0,0,1,0,1,0,0],"id":10,"left_children":[1,3,5,-1,7,-1,-1,11,13,-1,-1,-1,-1,-1,15,-1,17,-1,-1],"loss_changes":[5.3738117E0,5.135518E0,2.5514946E0,0E0,3.071907E0,0E0,9.009013E-1,3.9517767E0,2.2580004E0,0E0,0E0,0E0,0E0,0E0,5.6695175E-1,0E0,1.6313E0,0E0,0E0],"parents":[2147483647,0,0,1,1,2,2,4,4,6,6,7,7,8,8,14,14,16,16],"right_children":[2,4,6,-1,8,-1,-1,12,14,-1,-1,-1,-1,-1,16,-1,18,-1,-1],"split_conditions":[6.425484E-1,2.2117698E-1,6.4575857E-1,-2.379436E-1,9.999993E-1,2.4517758E-2,-3.6384192E-1,5.7364047E-1,1.0143023E-2,-4.747432E-1,-1.6107677E-1,-3.282601E-1,2.1575712E-1,2.5500862E-2,1.6499695E-1,4.5077637E-1,4.0301E-1,1.38868615E-2,4.003672E-1],"split_indices":[130,88,321,0,116,0,331,172,32,2147483647,2147483647,0,0,0,41,0,41,0,0],"split_type":[0,0,0,0,0,0,0,0,0,0,0,0,0,0,0,0,0,0,0],"sum_hessian":[6.5868195E1,4.745103E1,1.8417164E1,9.800827E0,3.7650204E1,6.000674E0,1.241649E1,1.1398393E1,2.6251812E1,7.159369E0,5.257121E0,5.692028E0,5.7063646E0,8.407628E0,1.7844185E1,7.6912107E0,1.0152973E1,5.1323223E0,5.0206513E0],"tree_param":{"num_deleted":"2","num_feature":"363","num_nodes":"19","size_leaf_vector":"0"}},{"base_weights":[-1.38649065E-2,-2.9817107E-1,2.6276755E-1,-8.182256E-1,-6.1585903E-2,5.7061493E-1,-1.0994426E-1,4.8651227E-1,-4.5697406E-1,8.2660943E-1,8.005923E-3,5.3458995E-1,-5.5451727E-1,-8.292446E-1,1.0600772E-1],"categories":[],"categories_nodes":[],"categories_segments":[],"categories_sizes":[],"default_left":[1,1,1,0,1,1,1,0,1,0,0,0,0,0,0],"id":11,"left_children":[1,3,5,-1,7,9,11,-1,13,-1,-1,-1,-1,-1,-1],"loss_changes":[4.6877227E0,3.5633662E0,3.5319798E0,0E0,4.8315363E0,2.4015532E0,4.4557776E0,0E0,2.7855053E0,0E0,0E0,0E0,0E0,0E0,0E0],"parents":[2147483647,0,0,1,1,2,2,4,4,5,5,6,6,8,8],"right_children":[2,4,6,-1,8,10,12,-1,14,-1,-1,-1,-1,-1,-1],"split_conditions":[4.2744708E-1,1.8051365E-1,2.2727273E-1,-4.091128E-1,1.3026021E-1,9.999997E-1,4.9001315E-1,2.4325614E-1,5.72451E-1,4.1330472E-1,4.0029613E-3,2.6729497E-1,-2.7725863E-1,-4.146223E-1,5.300386E-2],"split_indices":[322,45,17,0,54,158,103,0,361,0,0,0,0,0,0],"split_type":[0,0,0,0,0,0,0,0,0,0,0,0,0,0,0],"sum_hessian":[5.7607395E1,2.8371262E1,2.9236134E1,8.102376E0,2.0268887E1,1.5720528E1,1.3515606E1,8.397528E0,1.1871358E1,1.0481887E1,5.238641E0,5.4344115E0,8.081195E0,6.861352E0,5.010006E0],"tree_param":{"num_deleted":"0","num_feature":"363","num_nodes":"15","size_leaf_vector":"0"}},{"base_weights":[-1.255142E-2,-3.7711585E-1,2.4141103E-1,1.8504865E-1,-6.0034794E-1,-3.679863E-1,3.8210177E-1,-1.19795024E-1,-8.2977474E-1,-7.436111E-2,5.6566477E-1,1.066997E-1,7.3736656E-1,4.5279482E-1,8.63002E-1],"categories":[],"categories_nodes":[],"categories_segments":[],"categories_sizes":[],"default_left":[1,1,1,0,1,0,1,0,0,0,1,0,1,1,1],"id":12,"left_children":[1,3,5,-1,7,-1,9,-1,-1,-1,11,-1,-1,-1,-1],"loss_changes":[4.6977577E0,2.7238424E0,2.707254E0,0E0,1.569572E0,0E0,2.1210508E0,0E0,0E0,0E0,1.324995E0,0E0,6.663036E-2,0E0,0E0],"parents":[2147483647,0,0,1,1,2,2,4,4,6,6,10,10,12,12],"right_children":[2,4,6,-1,8,-1,10,-1,-1,-1,12,-1,-1,-1,-1],"split_conditions":[4.494476E-1,7.938585E-1,6.375382E-1,9.252433E-2,3.5803032E-1,-1.8399315E-1,7.045799E-1,-5.9897512E-2,-4.1488737E-1,-3.7180554E-2,6.931846E-1,5.334985E-2,3.6868328E-1,2.2639741E-1,4.31501E-1],"split_indices":[217,2,138,0,187,0,49,0,0,0,219,0,12,2147483647,2147483647],"split_type":[0,0,0,0,0,0,0,0,0,0,0,0,0,0,0],"sum_hessian":[4.8756268E1,1.9819847E1,2.893642E1,5.681983E0,1.4137864E1,5.1244526E0,2.3811968E1,5.0604634E0,9.077401E0,7.000026E0,1.6811941E1,5.0185647E0,1.1793378E1,5.0220885E0,6.771289E0],"tree_param":{"num_deleted":"2","num_feature":"363","num_nodes":"15","size_leaf_vector":"0"}},{"base_weights":[-1.1870941E-2,2.533144E-1,-2.6319456E-1,-2.9771915E-1,5.369107E-1,2.6914987E-1,-5.5415034E-1,7.661438E-1,1.324445E-1,-2.4080616E-1,-7.8431284E-1],"categories":[],"categories_nodes":[],"categories_segments":[],"categories_sizes":[],"default_left":[1,1,1,0,1,0,1,0,0,1,1],"id":13,"left_children":[1,3,5,-1,7,-1,-1,-1,-1,-1,-1],"loss_changes":[3.0361216E0,3.627353E0,3.7682219E0,0E0,1.2898593E0,0E0,9.243126E-1,0E0,0E0,0E0,0E0],"parents":[2147483647,0,0,1,1,2,2,4,4,6,6],"right_children":[2,4,6,-1,8,-1,-1,-1,-1,-1,-1],"split_conditions":[9.999597E-1,9.9835813E-1,4.0705186E-1,-1.4885958E-1,2.9892126E-1,1.3457493E-1,-2.7707517E-1,3.830719E-1,6.622225E-2,-1.2040308E-1,-3.9215642E-1],"split_indices":[152,275,280,0,247,0,29,0,0,2147483647,2147483647],"split_type":[0,0,0,0,0,0,0,0,0,0,0],"sum_hessian":[4.3554672E1,2.1189035E1,2.2365635E1,7.1828356E0,1.40062E1,7.9305415E0,1.4435094E1,8.368885E0,5.637314E0,6.9794655E0,7.4556284E0],"tree_param":{"num_deleted":"2","num_feature":"363","num_nodes":"11","size_leaf_vector":"0"}},{"base_weights":[2.4497455E-3,1.2683451E-1,-5.157388E-1,4.3719563E-1,-9.848051E-2,7.760177E-2,7.6002705E-1,-3.4326094E-1,4.406744E-1,-6.884296E-1,2.3121862E-1],"categories":[],"categories_nodes":[],"categories_segments":[],"categories_sizes":[],"default_left":[1,1,0,1,1,0,0,1,0,0,0],"id":14,"left_children":[1,3,-1,5,7,-1,-1,9,-1,-1,-1],"loss_changes":[2.6742237E0,2.3816774E0,0E0,1.5953336E0,2.8161383E0,0E0,0E0,3.0243993E0,0E0,0E0,0E0],"parents":[2147483647,0,0,1,1,3,3,4,4,7,7],"right_children":[2,4,-1,6,8,-1,-1,10,-1,-1,-1],"split_conditions":[7.7229667E-1,1.455447E-1,-2.578694E-1,9.999947E-1,4.217631E-1,3.8800884E-2,3.8001353E-1,3.7881002E-1,2.203372E-1,-3.442148E-1,1.1560931E-1],"split_indices":[28,54,0,362,41,0,0,199,0,0,0],"split_type":[0,0,0,0,0,0,0,0,0,0,0],"sum_hessian":[3.947506E1,3.24428E1,7.0322595E0,1.3250486E1,1.9192314E1,6.855119E0,6.395367E0,1.3449482E1,5.742832E0,8.277624E0,5.1718574E0],"tree_param":{"num_deleted":"0","num_feature":"363","num_nodes":"11","size_leaf_vector":"0"}},{"base_weights":[6.166272E-3,1.6445127E-1,-3.8786277E-1,-3.4840816E-1,3.022418E-1,4.708506E-1,-1.625068E-1,5.216517E-2,7.2454065E-1],"categories":[],"categories_nodes":[],"categories_segments":[],"categories_sizes":[],"default_left":[1,1,0,0,1,1,0,0,0],"id":15,"left_children":[1,3,-1,-1,5,7,-1,-1,-1],"loss_changes":[2.3120692E0,1.9722986E0,0E0,0E0,1.7503062E0,1.6542618E0,0E0,0E0,0E0],"parents":[2147483647,0,0,1,1,4,4,5,5],"right_children":[2,4,-1,-1,6,8,-1,-1,-1],"split_conditions":[2.09521E-1,9.684445E-2,-1.9393139E-1,-1.7420408E-1,5.261624E-1,2.7119067E-1,-8.12534E-2,2.6082585E-2,3.6227033E-1],"split_indices":[90,8,0,0,328,211,0,0,0],"split_type":[0,0,0,0,0,0,0,0,0],"sum_hessian":[3.5048176E1,2.5419556E1,9.628622E0,5.0594883E0,2.0360067E1,1.4930291E1,5.429775E0,6.088148E0,8.842143E0],"tree_param":{"num_deleted":"0","num_feature":"363","num_nodes":"9","size_leaf_vector":"0"}},{"base_weights":[1.0670975E-2,-3.265823E-1,1.6498637E-1,3.2671985E-1,-3.2193315E-1,5.629876E-1,-2.409944E-2],"categories":[],"categories_nodes":[],"categories_segments":[],"categories_sizes":[],"default_left":[1,0,1,1,0,0,0],"id":16,"left_children":[1,-1,3,5,-1,-1,-1],"loss_changes":[1.788194E0,0E0,1.9579926E0,1.5185894E0,0E0,0E0,0E0],"parents":[2147483647,0,0,2,2,3,3],"right_children":[2,-1,4,6,-1,-1,-1],"split_conditions":[3.38364E-1,-1.6329116E-1,6.425484E-1,5.9778476E-1,-1.6096658E-1,2.814938E-1,-1.204972E-2],"split_indices":[73,0,130,325,0,0,0],"split_type":[0,0,0,0,0,0,0],"sum_hessian":[3.232436E1,9.796962E0,2.25274E1,1.7157448E1,5.3699512E0,9.8912E0,7.2662487E0],"tree_param":{"num_deleted":"0","num_feature":"363","num_nodes":"7","size_leaf_vector":"0"}},{"base_weights":[8.542354E-3,2.2256817E-1,-2.2316435E-1,-2.3181039E-1,4.4079483E-1,-5.34166E-1,4.9206644E-2,1.8227452E-1,6.073945E-1],"categories":[],"categories_nodes":[],"categories_segments":[],"categories_sizes":[],"default_left":[1,1,1,0,1,0,0,1,1],"id":17,"left_children":[1,3,5,-1,-1,-1,-1,-1,-1],"loss_changes":[1.6086351E0,1.772224E0,1.3472186E0,0E0,3.9416766E-1,0E0,0E0,0E0,0E0],"parents":[2147483647,0,0,1,1,2,2,4,4],"right_children":[2,4,6,-1,-1,-1,-1,-1,-1],"split_conditions":[9.9372137E-1,3.9263105E-1,1.8597806E-1,-1.15905195E-1,2.2039741E-1,-2.67083E-1,2.4603322E-2,9.113726E-2,3.0369726E-1],"split_indices":[236,157,234,0,181,0,0,2147483647,2147483647],"split_type":[0,0,0,0,0,0,0,0,0],"sum_hessian":[3.0436333E1,1.5842328E1,1.4594005E1,5.1198454E0,1.0722483E1,6.3650374E0,8.228967E0,5.0226684E0,5.699815E0],"tree_param":{"num_deleted":"2","num_feature":"363","num_nodes":"9","size_leaf_vector":"0"}},{"base_weights":[-3.7958828E-4,-1.1739952E-1,4.6556172E-1,-6.080605E-1,3.9676316E-2,2.3166113E-1,-3.4251472E-1,4.8017573E-1,-1.5208097E-1],"categories":[],"categories_nodes":[],"categories_segments":[],"categories_sizes":[],"default_left":[1,1,0,0,1,1,0,0,0],"id":18,"left_children":[1,3,-1,-1,5,7,-1,-1,-1],"loss_changes":[1.6779637E0,1.9196447E0,0E0,0E0,1.5152249E0,1.3721297E0,0E0,0E0,0E0],"parents":[2147483647,0,0,1,1,4,4,5,5],"right_children":[2,4,-1,-1,6,8,-1,-1,-1],"split_conditions":[5.6230366E-1,3.2589132E-1,2.3278086E-1,-3.0403024E-1,1.8873294E-1,1.7949075E-1,-1.7125736E-1,2.4008787E-1,-7.6040484E-2],"split_indices":[32,199,0,0,39,258,0,0,0],"split_type":[0,0,0,0,0,0,0,0,0],"sum_hessian":[2.877211E1,2.3594461E1,5.1776485E0,5.0253983E0,1.8569063E1,1.2622369E1,5.946694E0,7.508502E0,5.113867E0],"tree_param":{"num_deleted":"0","num_feature":"363","num_nodes":"9","size_leaf_vector":"0"}},{"base_weights":[-2.9908011E-3,1.6841549E-1,-2.8560317E-1,-3.5773468E-1,4.0486473E-1,6.236897E-1,8.315872E-2],"categories":[],"categories_nodes":[],"categories_segments":[],"categories_sizes":[],"default_left":[1,1,0,0,1,1,1],"id":19,"left_children":[1,3,-1,-1,-1,-1,-1],"loss_changes":[1.373608E0,2.3420866E0,0E0,0E0,8.38989E-1,0E0,0E0],"parents":[2147483647,0,0,1,1,4,4],"right_children":[2,4,-1,-1,-1,-1,-1],"split_conditions":[4.1802786E-2,8.0282843E-1,-1.4280158E-1,-1.7886734E-1,2.0243236E-1,3.1184486E-1,4.157936E-2],"split_indices":[0,3,0,0,28,2147483647,2147483647],"split_type":[0,0,0,0,0,0,0],"sum_hessian":[2.6363043E1,1.6661692E1,9.701351E0,5.007031E0,1.1654661E1,6.377785E0,5.276876E0],"tree_param":{"num_deleted":"2","num_feature":"363","num_nodes":"7","size_leaf_vector":"0"}},{"base_weights":[-4.5693032E-3,1.3927025E-1,-3.2526308E-1,5.6143445E-1,-1.1701652E-1,3.11202E-1,-5.084344E-1],"categories":[],"categories_nodes":[],"categories_segments":[],"categories_sizes":[],"default_left":[1,1,0,0,1,0,0],"id":20,"left_children":[1,3,-1,-1,5,-1,-1],"loss_changes":[1.2464154E0,2.0863543E0,0E0,0E0,2.2447731E0,0E0,0E0],"parents":[2147483647,0,0,1,1,4,4],"right_children":[2,4,-1,-1,6,-1,-1],"split_conditions":[7.030563E-1,2.1018073E-1,-1.6263154E-1,2.8071722E-1,4.059616E-1,1.55601E-1,-2.542172E-1],"split_indices":[28,41,0,0,226,0,0],"split_type":[0,0,0,0,0,0,0],"sum_hessian":[2.5038506E1,1.7676054E1,7.362451E0,6.2274084E0,1.1448647E1,5.5651765E0,5.88347E0],"tree_param":{"num_deleted":"0","num_feature":"363","num_nodes":"7","size_leaf_vector":"0"}},{"base_weights":[1.7307252E-4,-2.639714E-1,1.854232E-1,-1.66681E-1,3.9644477E-1],"categories":[],"categories_nodes":[],"categories_segments":[],"categories_sizes":[],"default_left":[1,0,1,0,0],"id":21,"left_children":[1,-1,3,-1,-1],"loss_changes":[1.2217095E0,0E0,1.1564233E0,0E0,0E0],"parents":[2147483647,0,0,2,2],"right_children":[2,-1,4,-1,-1],"split_conditions":[4.494476E-1,-1.319857E-1,8.9244044E-1,-8.33405E-2,1.9822238E-1],"split_indices":[217,0,75,0,0],"split_type":[0,0,0,0,0],"sum_hessian":[2.2966812E1,9.292243E0,1.367457E1,5.203047E0,8.471523E0],"tree_param":{"num_deleted":"0","num_feature":"363","num_nodes":"5","size_leaf_vector":"0"}},{"base_weights":[1.1752632E-3,2.0587948E-1,-2.0790826E-1,-9.180454E-2,4.3294185E-1,-5.956913E-1,1.7983007E-1],"categories":[],"categories_nodes":[],"categories_segments":[],"categories_sizes":[],"default_left":[1,1,1,1,1,0,0],"id":22,"left_children":[1,-1,5,-1,-1,-1,-1],"loss_changes":[1.0322278E0,8.6325634E-1,1.9014747E0,0E0,0E0,0E0,0E0],"parents":[2147483647,0,0,1,1,2,2],"right_children":[2,-1,6,-1,-1,-1,-1],"split_conditions":[4.495375E-2,1.0293974E-1,2.0603286E-1,-4.590227E-2,2.1647093E-1,-2.9784566E-1,8.991504E-2],"split_indices":[150,55,45,2147483647,2147483647,0,0],"split_type":[0,0,0,0,0,0,0],"sum_hessian":[2.2117228E1,1.1183395E1,1.0933832E1,5.0969114E0,6.086484E0,5.198455E0,5.7353773E0],"tree_param":{"num_deleted":"2","num_feature":"363","num_nodes":"7","size_leaf_vector":"0"}},{"base_weights":[-9.169155E-3,1.6745192E-1,-2.4922657E-1,-1.9632521E-1,4.1502023E-1],"categories":[],"categories_nodes":[],"categories_segments":[],"categories_sizes":[],"default_left":[1,1,0,0,0],"id":23,"left_children":[1,3,-1,-1,-1],"loss_changes":[9.751604E-1,1.277612E0,0E0,0E0,0E0],"parents":[2147483647,0,0,1,1],"right_children":[2,4,-1,-1,-1],"split_conditions":[9.9871504E-1,8.650465E-1,-1.24613285E-1,-9.816261E-2,2.0751011E-1],"split_indices":[69,75,0,0,0],"split_type":[0,0,0,0,0],"sum_hessian":[2.1015203E1,1.2281558E1,8.733645E0,5.057317E0,7.224241E0],"tree_param":{"num_deleted":"0","num_feature":"363","num_nodes":"5","size_leaf_vector":"0"}},{"base_weights":[-3.3290354E-3,2.1616656E-1,-1.8039571E-1,-4.9633333E-1,1.1260026E-1],"categories":[],"categories_nodes":[],"categories_segments":[],"categories_sizes":[],"default_left":[1,0,1,0,0],"id":24,"left_children":[1,-1,3,-1,-1],"loss_changes":[8.619631E-1,0E0,1.191266E0,0E0,0E0],"parents":[2147483647,0,0,2,2],"right_children":[2,-1,4,-1,-1],"split_conditions":[7.82105E-1,1.0808328E-1,9.999969E-1,-2.4816667E-1,5.630013E-2],"split_indices":[303,0,113,0,0],"split_type":[0,0,0,0,0],"sum_hessian":[2.0174839E1,8.909552E0,1.1265287E1,5.0865097E0,6.178778E0],"tree_param":{"num_deleted":"0","num_feature":"363","num_nodes":"5","size_leaf_vector":"0"}},{"base_weights":[-8.7245125E-3,1.8882756E-1,-2.1521293E-1],"categories":[],"categories_nodes":[],"categories_segments":[],"categories_sizes":[],"default_left":[1,1,1],"id":25,"left_children":[-1,-1,-1],"loss_changes":[8.7328774E-1,0E0,0E0],"parents":[2147483647,0,0],"right_children":[-1,-1,-1],"split_conditions":[-4.3622563E-3,9.441378E-2,-1.0760646E-1],"split_indices":[101,2147483647,2147483647],"split_type":[0,0,0],"sum_hessian":[1.9411976E1,9.96437E0,9.447605E0],"tree_param":{"num_deleted":"2","num_feature":"363","num_nodes":"3","size_leaf_vector":"0"}},{"base_weights":[-4.575845E-3,1.9262986E-1,-2.1143061E-1],"categories":[],"categories_nodes":[],"categories_segments":[],"categories_sizes":[],"default_left":[1,1,1],"id":26,"left_children":[-1,-1,-1],"loss_changes":[8.734521E-1,0E0,0E0],"parents":[2147483647,0,0],"right_children":[-1,-1,-1],"split_conditions":[-2.2879224E-3,9.631493E-2,-1.05715305E-1],"split_indices":[101,2147483647,2147483647],"split_type":[0,0,0],"sum_hessian":[1.941344E1,9.973723E0,9.439716E0],"tree_param":{"num_deleted":"2","num_feature":"363","num_nodes":"3","size_leaf_vector":"0"}},{"base_weights":[-2.399727E-3,1.9462171E-1,-2.0944372E-1],"categories":[],"categories_nodes":[],"categories_segments":[],"categories_sizes":[],"default_left":[1,1,1],"id":27,"left_children":[-1,-1,-1],"loss_changes":[8.735064E-1,0E0,0E0],"parents":[2147483647,0,0],"right_children":[-1,-1,-1],"split_conditions":[-1.1998635E-3,9.7310856E-2,-1.0472186E-1],"split_indices":[101,2147483647,2147483647],"split_type":[0,0,0],"sum_hessian":[1.9414345E1,9.978696E0,9.43565E0],"tree_param":{"num_deleted":"2","num_feature":"363","num_nodes":"3","size_leaf_vector":"0"}},{"base_weights":[-1.2587506E-3,1.9566503E-1,-2.0840065E-1],"categories":[],"categories_nodes":[],"categories_segments":[],"categories_sizes":[],"default_left":[1,1,1],"id":28,"left_children":[-1,-1,-1],"loss_changes":[8.7352234E-1,0E0,0E0],"parents":[2147483647,0,0],"right_children":[-1,-1,-1],"split_conditions":[-6.293753E-4,9.7832516E-2,-1.04200326E-1],"split_indices":[101,2147483647,2147483647],"split_type":[0,0,0],"sum_hessian":[1.9414852E1,9.981313E0,9.433538E0],"tree_param":{"num_deleted":"2","num_feature":"363","num_nodes":"3","size_leaf_vector":"0"}},{"base_weights":[-6.600636E-4,1.962126E-1,-2.0785362E-1],"categories":[],"categories_nodes":[],"categories_segments":[],"categories_sizes":[],"default_left":[1,1,1],"id":29,"left_children":[-1,-1,-1],"loss_changes":[8.73532E-1,0E0,0E0],"parents":[2147483647,0,0],"right_children":[-1,-1,-1],"split_conditions":[-3.300318E-4,9.81063E-2,-1.0392681E-1],"split_indices":[101,2147483647,2147483647],"split_type":[0,0,0],"sum_hessian":[1.9415129E1,9.982697E0,9.432433E0],"tree_param":{"num_deleted":"2","num_feature":"363","num_nodes":"3","size_leaf_vector":"0"}},{"base_weights":[-3.4622266E-4,1.9649947E-1,-2.0756656E-1],"categories":[],"categories_nodes":[],"categories_segments":[],"categories_sizes":[],"default_left":[1,1,1],"id":30,"left_children":[-1,-1,-1],"loss_changes":[8.735347E-1,0E0,0E0],"parents":[2147483647,0,0],"right_children":[-1,-1,-1],"split_conditions":[-1.7311133E-4,9.824973E-2,-1.0378328E-1],"split_indices":[101,2147483647,2147483647],"split_type":[0,0,0],"sum_hessian":[1.9415277E1,9.983421E0,9.431856E0],"tree_param":{"num_deleted":"2","num_feature":"363","num_nodes":"3","size_leaf_vector":"0"}},{"base_weights":[-1.8161876E-4,1.9665007E-1,-2.0741627E-1],"categories":[],"categories_nodes":[],"categories_segments":[],"categories_sizes":[],"default_left":[1,1,1],"id":31,"left_children":[-1,-1,-1],"loss_changes":[8.7353784E-1,0E0,0E0],"parents":[2147483647,0,0],"right_children":[-1,-1,-1],"split_conditions":[-9.080938E-5,9.832504E-2,-1.0370813E-1],"split_indices":[101,2147483647,2147483647],"split_type":[0,0,0],"sum_hessian":[1.9415356E1,9.983804E0,9.431552E0],"tree_param":{"num_deleted":"2","num_feature":"363","num_nodes":"3","size_leaf_vector":"0"}},{"base_weights":[-9.508548E-5,1.9672945E-1,-2.073376E-1],"categories":[],"categories_nodes":[],"categories_segments":[],"categories_sizes":[],"default_left":[1,1,1],"id":32,"left_children":[-1,-1,-1],"loss_changes":[8.7354213E-1,0E0,0E0],"parents":[2147483647,0,0],"right_children":[-1,-1,-1],"split_conditions":[-4.754274E-5,9.8364726E-2,-1.036688E-1],"split_indices":[101,2147483647,2147483647],"split_type":[0,0,0],"sum_hessian":[1.9415401E1,9.984011E0,9.431392E0],"tree_param":{"num_deleted":"2","num_feature":"363","num_nodes":"3","size_leaf_vector":"0"}},{"base_weights":[-4.9883252E-5,1.9677089E-1,-2.0729645E-1],"categories":[],"categories_nodes":[],"categories_segments":[],"categories_sizes":[],"default_left":[1,1,1],"id":33,"left_children":[-1,-1,-1],"loss_changes":[8.735438E-1,0E0,0E0],"parents":[2147483647,0,0],"right_children":[-1,-1,-1],"split_conditions":[-2.4941626E-5,9.8385446E-2,-1.0364822E-1],"split_indices":[101,2147483647,2147483647],"split_type":[0,0,0],"sum_hessian":[1.9415422E1,9.984117E0,9.431307E0],"tree_param":{"num_deleted":"2","num_feature":"363","num_nodes":"3","size_leaf_vector":"0"}},{"base_weights":[-2.6474623E-5,1.9679211E-1,-2.0727476E-1],"categories":[],"categories_nodes":[],"categories_segments":[],"categories_sizes":[],"default_left":[1,1,1],"id":34,"left_children":[-1,-1,-1],"loss_changes":[8.7354195E-1,0E0,0E0],"parents":[2147483647,0,0],"right_children":[-1,-1,-1],"split_conditions":[-1.3237312E-5,9.8396055E-2,-1.0363738E-1],"split_indices":[101,2147483647,2147483647],"split_type":[0,0,0],"sum_hessian":[1.9415428E1,9.984165E0,9.431263E0],"tree_param":{"num_deleted":"2","num_feature":"363","num_nodes":"3","size_leaf_vector":"0"}},{"base_weights":[-1.41442115E-5,1.9680361E-1,-2.0726387E-1],"categories":[],"categories_nodes":[],"categories_segments":[],"categories_sizes":[],"default_left":[1,1,1],"id":35,"left_children":[-1,-1,-1],"loss_changes":[8.7354434E-1,0E0,0E0],"parents":[2147483647,0,0],"right_children":[-1,-1,-1],"split_conditions":[-7.0721057E-6,9.840181E-2,-1.03631936E-1],"split_indices":[101,2147483647,2147483647],"split_type":[0,0,0],"sum_hessian":[1.9415428E1,9.984194E0,9.431233E0],"tree_param":{"num_deleted":"2","num_feature":"363","num_nodes":"3","size_leaf_vector":"0"}},{"base_weights":[-7.3876654E-6,1.9680962E-1,-2.072574E-1],"categories":[],"categories_nodes":[],"categories_segments":[],"categories_sizes":[],"default_left":[1,1,1],"id":36,"left_children":[-1,-1,-1],"loss_changes":[8.735423E-1,0E0,0E0],"parents":[2147483647,0,0],"right_children":[-1,-1,-1],"split_conditions":[-3.6938327E-6,9.840481E-2,-1.036287E-1],"split_indices":[101,2147483647,2147483647],"split_type":[0,0,0],"sum_hessian":[1.941543E1,9.984206E0,9.431224E0],"tree_param":{"num_deleted":"2","num_feature":"363","num_nodes":"3","size_leaf_vector":"0"}},{"base_weights":[-3.6909648E-6,1.9681284E-1,-2.0725377E-1],"categories":[],"categories_nodes":[],"categories_segments":[],"categories_sizes":[],"default_left":[1,1,1],"id":37,"left_children":[-1,-1,-1],"loss_changes":[8.735407E-1,0E0,0E0],"parents":[2147483647,0,0],"right_children":[-1,-1,-1],"split_conditions":[-1.8454824E-6,9.840642E-2,-1.03626885E-1],"split_indices":[101,2147483647,2147483647],"split_type":[0,0,0],"sum_hessian":[1.9415436E1,9.984215E0,9.431221E0],"tree_param":{"num_deleted":"2","num_feature":"363","num_nodes":"3","size_leaf_vector":"0"}},{"base_weights":[-1.5867738E-6,1.9681482E-1,-2.0725194E-1],"categories":[],"categories_nodes":[],"categories_segments":[],"categories_sizes":[],"default_left":[1,1,1],"id":38,"left_children":[-1,-1,-1],"loss_changes":[8.735416E-1,0E0,0E0],"parents":[2147483647,0,0],"right_children":[-1,-1,-1],"split_conditions":[-7.933869E-7,9.840741E-2,-1.0362597E-1],"split_indices":[101,2147483647,2147483647],"split_type":[0,0,0],"sum_hessian":[1.9415442E1,9.984223E0,9.431219E0],"tree_param":{"num_deleted":"2","num_feature":"363","num_nodes":"3","size_leaf_vector":"0"}},{"base_weights":[-8.219651E-7,1.968156E-1,-2.0725137E-1],"categories":[],"categories_nodes":[],"categories_segments":[],"categories_sizes":[],"default_left":[1,1,1],"id":39,"left_children":[-1,-1,-1],"loss_changes":[8.735425E-1,0E0,0E0],"parents":[2147483647,0,0],"right_children":[-1,-1,-1],"split_conditions":[-4.1098255E-7,9.84078E-2,-1.03625685E-1],"split_indices":[101,2147483647,2147483647],"split_type":[0,0,0],"sum_hessian":[1.9415442E1,9.984226E0,9.431216E0],"tree_param":{"num_deleted":"2","num_feature":"363","num_nodes":"3","size_leaf_vector":"0"}},{"base_weights":[-4.5121476E-7,1.9681595E-1,-2.0725104E-1],"categories":[],"categories_nodes":[],"categories_segments":[],"categories_sizes":[],"default_left":[1,1,1],"id":40,"left_children":[-1,-1,-1],"loss_changes":[8.7354267E-1,0E0,0E0],"parents":[2147483647,0,0],"right_children":[-1,-1,-1],"split_conditions":[-2.2560738E-7,9.840798E-2,-1.0362552E-1],"split_indices":[101,2147483647,2147483647],"split_type":[0,0,0],"sum_hessian":[1.941544E1,9.984226E0,9.431214E0],"tree_param":{"num_deleted":"2","num_feature":"363","num_nodes":"3","size_leaf_vector":"0"}},{"base_weights":[-3.5085398E-7,1.9681604E-1,-2.0725095E-1],"categories":[],"categories_nodes":[],"categories_segments":[],"categories_sizes":[],"default_left":[1,1,1],"id":41,"left_children":[-1,-1,-1],"loss_changes":[8.735426E-1,0E0,0E0],"parents":[2147483647,0,0],"right_children":[-1,-1,-1],"split_conditions":[-1.7542699E-7,9.840802E-2,-1.0362548E-1],"split_indices":[101,2147483647,2147483647],"split_type":[0,0,0],"sum_hessian":[1.941544E1,9.984226E0,9.431214E0],"tree_param":{"num_deleted":"2","num_feature":"363","num_nodes":"3","size_leaf_vector":"0"}},{"base_weights":[-2.7530967E-7,1.9681612E-1,-2.0725091E-1],"categories":[],"categories_nodes":[],"categories_segments":[],"categories_sizes":[],"default_left":[1,1,1],"id":42,"left_children":[-1,-1,-1],"loss_changes":[8.7354267E-1,0E0,0E0],"parents":[2147483647,0,0],"right_children":[-1,-1,-1],"split_conditions":[-1.3765484E-7,9.840806E-2,-1.03625454E-1],"split_indices":[101,2147483647,2147483647],"split_type":[0,0,0],"sum_hessian":[1.941544E1,9.984226E0,9.431213E0],"tree_param":{"num_deleted":"2","num_feature":"363","num_nodes":"3","size_leaf_vector":"0"}},{"base_weights":[-2.059695E-7,1.9681619E-1,-2.0725085E-1],"categories":[],"categories_nodes":[],"categories_segments":[],"categories_sizes":[],"default_left":[1,1,1],"id":43,"left_children":[-1,-1,-1],"loss_changes":[8.7354267E-1,0E0,0E0],"parents":[2147483647,0,0],"right_children":[-1,-1,-1],"split_conditions":[-1.0298475E-7,9.8408096E-2,-1.03625424E-1],"split_indices":[101,2147483647,2147483647],"split_type":[0,0,0],"sum_hessian":[1.941544E1,9.984226E0,9.431212E0],"tree_param":{"num_deleted":"2","num_feature":"363","num_nodes":"3","size_leaf_vector":"0"}},{"base_weights":[-2.0450972E-7,1.9681619E-1,-2.0725085E-1],"categories":[],"categories_nodes":[],"categories_segments":[],"categories_sizes":[],"default_left":[1,1,1],"id":44,"left_children":[-1,-1,-1],"loss_changes":[8.7354267E-1,0E0,0E0],"parents":[2147483647,0,0],"right_children":[-1,-1,-1],"split_conditions":[-1.0225486E-7,9.8408096E-2,-1.03625424E-1],"split_indices":[101,2147483647,2147483647],"split_type":[0,0,0],"sum_hessian":[1.941544E1,9.984226E0,9.431212E0],"tree_param":{"num_deleted":"2","num_feature":"363","num_nodes":"3","size_leaf_vector":"0"}},{"base_weights":[-2.0377982E-7,1.9681619E-1,-2.0725085E-1],"categories":[],"categories_nodes":[],"categories_segments":[],"categories_sizes":[],"default_left":[1,1,1],"id":45,"left_children":[-1,-1,-1],"loss_changes":[8.7354267E-1,0E0,0E0],"parents":[2147483647,0,0],"right_children":[-1,-1,-1],"split_conditions":[-1.0188991E-7,9.8408096E-2,-1.03625424E-1],"split_indices":[101,2147483647,2147483647],"split_type":[0,0,0],"sum_hessian":[1.941544E1,9.984226E0,9.431212E0],"tree_param":{"num_deleted":"2","num_feature":"363","num_nodes":"3","size_leaf_vector":"0"}},{"base_weights":[-2.0159013E-7,1.9681619E-1,-2.0725085E-1],"categories":[],"categories_nodes":[],"categories_segments":[],"categories_sizes":[],"default_left":[1,1,1],"id":46,"left_children":[-1,-1,-1],"loss_changes":[8.7354267E-1,0E0,0E0],"parents":[2147483647,0,0],"right_children":[-1,-1,-1],"split_conditions":[-1.0079506E-7,9.8408096E-2,-1.03625424E-1],"split_indices":[101,2147483647,2147483647],"split_type":[0,0,0],"sum_hessian":[1.941544E1,9.984226E0,9.431212E0],"tree_param":{"num_deleted":"2","num_feature":"363","num_nodes":"3","size_leaf_vector":"0"}},{"base_weights":[-2.0013033E-7,1.9681619E-1,-2.0725085E-1],"categories":[],"categories_nodes":[],"categories_segments":[],"categories_sizes":[],"default_left":[1,1,1],"id":47,"left_children":[-1,-1,-1],"loss_changes":[8.7354267E-1,0E0,0E0],"parents":[2147483647,0,0],"right_children":[-1,-1,-1],"split_conditions":[-1.00065165E-7,9.8408096E-2,-1.03625424E-1],"split_indices":[101,2147483647,2147483647],"split_type":[0,0,0],"sum_hessian":[1.941544E1,9.984226E0,9.431212E0],"tree_param":{"num_deleted":"2","num_feature":"363","num_nodes":"3","size_leaf_vector":"0"}},{"base_weights":[-1.9867053E-7,1.9681619E-1,-2.0725083E-1],"categories":[],"categories_nodes":[],"categories_segments":[],"categories_sizes":[],"default_left":[1,1,1],"id":48,"left_children":[-1,-1,-1],"loss_changes":[8.7354267E-1,0E0,0E0],"parents":[2147483647,0,0],"right_children":[-1,-1,-1],"split_conditions":[-9.933527E-8,9.8408096E-2,-1.0362542E-1],"split_indices":[101,2147483647,2147483647],"split_type":[0,0,0],"sum_hessian":[1.9415438E1,9.984226E0,9.431212E0],"tree_param":{"num_deleted":"2","num_feature":"363","num_nodes":"3","size_leaf_vector":"0"}},{"base_weights":[-1.9721075E-7,1.9681619E-1,-2.0725083E-1],"categories":[],"categories_nodes":[],"categories_segments":[],"categories_sizes":[],"default_left":[1,1,1],"id":49,"left_children":[-1,-1,-1],"loss_changes":[8.7354267E-1,0E0,0E0],"parents":[2147483647,0,0],"right_children":[-1,-1,-1],"split_conditions":[-9.8605376E-8,9.8408096E-2,-1.0362542E-1],"split_indices":[101,2147483647,2147483647],"split_type":[0,0,0],"sum_hessian":[1.9415438E1,9.984226E0,9.431212E0],"tree_param":{"num_deleted":"2","num_feature":"363","num_nodes":"3","size_leaf_vector":"0"}}]},"name":"gbtree"},"learner_model_param":{"base_score":"5E-1","boost_from_average":"1","num_class":"0","num_feature":"363","num_target":"1"},"objective":{"name":"binary:logistic","reg_loss_param":{"scale_pos_weight":"1"}}},"version":[1,7,6]}