{"learner":{"attributes":{"best_iteration":"72","best_ntree_limit":"73","scikit_learn":"{\"use_label_encoder\": null, \"n_estimators\": 73, \"objective\": \"binary:logistic\", \"max_depth\": 10, \"max_leaves\": null, \"max_bin\": null, \"grow_policy\": null, \"learning_rate\": 0.25, \"verbosity\": null, \"booster\": null, \"tree_method\": null, \"gamma\": 1, \"min_child_weight\": 3, \"max_delta_step\": null, \"subsample\": null, \"sampling_method\": null, \"colsample_bytree\": null, \"colsample_bylevel\": null, \"colsample_bynode\": null, \"reg_alpha\": null, \"reg_lambda\": null, \"scale_pos_weight\": null, \"base_score\": null, \"missing\": NaN, \"num_parallel_tree\": null, \"random_state\": 1, \"n_jobs\": null, \"monotone_constraints\": null, \"interaction_constraints\": null, \"importance_type\": null, \"gpu_id\": null, \"validate_parameters\": null, \"predictor\": null, \"enable_categorical\": false, \"feature_types\": null, \"max_cat_to_onehot\": null, \"max_cat_threshold\": null, \"eval_metric\": null, \"early_stopping_rounds\": null, \"callbacks\": null, \"classes_\": [0.0, 1.0], \"n_classes_\": 2, \"_estimator_type\": \"classifier\"}"},"feature_names":[],"feature_types":[],"gradient_booster":{"model":{"gbtree_model_param":{"num_parallel_tree":"1","num_trees":"73","size_leaf_vector":"0"},"tree_info":[0,0,0,0,0,0,0,0,0,0,0,0,0,0,0,0,0,0,0,0,0,0,0,0,0,0,0,0,0,0,0,0,0,0,0,0,0,0,0,0,0,0,0,0,0,0,0,0,0,0,0,0,0,0,0,0,0,0,0,0,0,0,0,0,0,0,0,0,0,0,0,0,0],"trees":[{"base_weights":[-0E0,1.1013699E0,-1.2681388E0,1.339233E0,-1.902439E0,-1.4696629E0,1.5692308E0,-1.6666666E0,1.5213319E0,7.586207E-1,-1.7026023E0,1.8490566E0,2.5E-1,-1.8333334E0,-7.5E-1,-1.625E0,1.6227224E0,-1.7241379E0,1.8709677E0,4.0860215E-1,-1.9665738E0,1.7102085E0,-1.6923077E0,1.862069E0,-1.7948718E0,-9.5652175E-1,-1.9885551E0,-1.3333334E0,1.7636566E0,-1.1111112E0,1.8142695E0,-6E-1,1.8615917E0,5.555556E-1,1.908982E0,1.6666666E0,-1.25E0,1.9367397E0,1.1764706E-1],"categories":[],"categories_nodes":[],"categories_segments":[],"categories_sizes":[],"default_left":[1,1,1,1,0,1,1,1,1,1,1,0,0,1,1,0,1,0,0,1,1,1,0,0,0,0,0,0,1,0,1,0,1,1,1,0,0,0,0],"id":0,"left_children":[1,3,5,7,-1,9,11,-1,15,17,19,-1,-1,-1,-1,-1,21,-1,-1,23,25,27,-1,-1,-1,-1,-1,-1,29,-1,31,-1,33,35,37,-1,-1,-1,-1],"loss_changes":[7.1440686E2,1.9814096E2,1.3825131E2,1.4170465E2,0E0,1.1678131E2,5.536503E0,9.166641E-1,7.9278625E1,6.329254E1,1.132384E2,0E0,0E0,0E0,0E0,0E0,7.054114E1,0E0,0E0,7.78044E1,2.083191E0,3.9399963E1,0E0,0E0,0E0,0E0,0E0,0E0,3.4644287E1,0E0,2.633728E1,0E0,1.2354919E1,2.013889E1,1.0151855E1,0E0,0E0,0E0,0E0],"parents":[2147483647,0,0,1,1,2,2,3,3,5,5,6,6,7,7,8,8,9,9,10,10,16,16,19,19,20,20,21,21,28,28,30,30,32,32,33,33,34,34],"right_children":[2,4,6,8,-1,10,12,-1,16,18,20,-1,-1,-1,-1,-1,22,-1,-1,24,26,28,-1,-1,-1,-1,-1,-1,30,-1,32,-1,34,36,38,-1,-1,-1,-1],"split_conditions":[5.3792596E-1,5.5462945E-1,3.9048222E-1,7.4516433E-1,-4.7560975E-1,4.1687098E-1,1.5579244E-2,-4.1666666E-1,2.2586708E-1,8.48208E-1,5E-2,4.6226415E-1,6.25E-2,-4.5833334E-1,-1.875E-1,-4.0625E-1,1.3725486E-1,-4.3103448E-1,4.6774194E-1,4.1666668E-2,6.4830836E-3,7.962654E-1,-4.2307693E-1,4.6551725E-1,-4.4871795E-1,-2.3913044E-1,-4.9713877E-1,-3.3333334E-1,3.7184024E-1,-2.777778E-1,1.8217526E-1,-1.5E-1,2.8599334E-1,4.638963E-2,9.501375E-1,4.1666666E-1,-3.125E-1,4.8418492E-1,2.9411765E-2],"split_indices":[24,35,27,98,0,36,0,0,154,7,16,0,0,2147483647,2147483647,0,25,0,0,20,0,49,0,0,0,0,0,0,43,0,158,0,90,1,163,0,0,0,0],"split_type":[0,0,0,0,0,0,0,0,0,0,0,0,0,0,0,0,0,0,0,0,0,0,0,0,0,0,0,0,0,0,0,0,0,0,0,0,0,0,0],"sum_hessian":[5.095E2,2.7275E2,2.3675E2,2.5325E2,1.95E1,2.215E2,1.525E1,1.4E1,2.3925E2,2.075E1,2.0075E2,1.225E1,3E0,1.1E1,3E0,7E0,2.3225E2,6.25E0,1.45E1,2.225E1,1.785E2,2.2675E2,5.5E0,1.35E1,8.75E0,4.75E0,1.7375E2,3.5E0,2.2325E2,3.5E0,2.1975E2,4E0,2.1575E2,8E0,2.0775E2,5E0,3E0,2.045E2,3.25E0],"tree_param":{"num_deleted":"2","num_feature":"189","num_nodes":"39","size_leaf_vector":"0"}},{"base_weights":[-4.080481E-3,8.699849E-1,-1.0144182E0,1.0604848E0,-1.5380845E0,1.3963103E-1,-1.3534768E0,1.1994466E0,-1.527527E0,-1.5437157E0,1.4677616E0,2.238734E-1,-1.5874887E0,-8.362142E-1,1.304709E0,1.5931274E0,2.9239494E-1,1.5098037E0,-1.4839576E0,-9.066888E-1,-1.601875E0,5.467672E-1,-1.5068125E0,-1.389662E0,1.3748051E0,1.4270896E0,-1.2696849E0,-1.1411331E0,1.471498E0,1.5351923E0,-6.7572035E-2,3.891602E-1,1.5889432E0,1.3121786E0,-1.4012624E0,1.3896329E0,-1.4534136E0,6.153385E-1,1.6018201E0],"categories":[],"categories_nodes":[],"categories_segments":[],"categories_sizes":[],"default_left":[1,1,1,1,0,1,1,1,0,0,1,1,1,1,1,0,0,0,0,1,1,0,0,0,1,1,0,0,1,1,1,1,1,0,0,0,0,0,0],"id":1,"left_children":[1,3,5,7,-1,9,11,13,-1,-1,15,17,-1,21,23,-1,-1,-1,-1,-1,-1,-1,-1,-1,25,27,-1,-1,29,31,33,35,37,-1,-1,-1,-1,-1,-1],"loss_changes":[4.275423E2,1.2070845E2,8.805763E1,8.855414E1,0E0,1.182998E2,6.445688E1,5.024893E1,0E0,0E0,3.8845253E0,5.3436863E1,2.9968262E-2,1.1849871E1,4.3181793E1,0E0,0E0,0E0,0E0,0E0,0E0,0E0,0E0,0E0,3.1329437E1,2.5608856E1,0E0,0E0,2.0365204E1,1.1610199E1,1.871593E1,2.0855923E1,1.3875732E0,0E0,0E0,0E0,0E0,0E0,0E0],"parents":[2147483647,0,0,1,1,2,2,3,3,5,5,6,6,7,7,10,10,11,11,12,12,13,13,14,14,24,24,25,25,28,28,29,29,30,30,31,31,32,32],"right_children":[2,4,6,8,-1,10,12,14,-1,-1,16,18,-1,22,24,-1,-1,-1,-1,-1,-1,-1,-1,-1,26,28,-1,-1,30,32,34,36,38,-1,-1,-1,-1,-1,-1],"split_conditions":[5.3792596E-1,5.5462945E-1,5E-2,1.3725486E-1,-3.8452113E-1,2.790953E-1,4.5454547E-2,8.322253E-1,-3.8188174E-1,-3.8592893E-1,1.5765164E-2,4.1666668E-2,-3.9687216E-1,9.9904907E-1,2.0789546E-1,3.9828184E-1,7.3098734E-2,3.774509E-1,-3.709894E-1,-2.266722E-1,-4.0046874E-1,1.366918E-1,-3.767031E-1,-3.474155E-1,1E0,9.5501745E-1,-3.1742123E-1,-2.8528327E-1,9.4759965E-1,3.2509558E-2,2.5E-1,5.660239E-3,3.238703E-1,3.2804465E-1,-3.503156E-1,3.4740824E-1,-3.633534E-1,1.5383463E-1,4.0045503E-1],"split_indices":[24,35,19,25,0,22,5,49,0,0,0,20,0,77,154,0,0,0,0,2147483647,2147483647,0,0,0,160,145,0,0,53,129,15,0,40,0,0,0,0,0,0],"split_type":[0,0,0,0,0,0,0,0,0,0,0,0,0,0,0,0,0,0,0,0,0,0,0,0,0,0,0,0,0,0,0,0,0,0,0,0,0,0,0],"sum_hessian":[4.8213794E2,2.5857657E2,2.2356136E2,2.4013904E2,1.8437534E1,5.0900417E1,1.7266095E2,2.2841118E2,1.1727868E1,2.2376665E1,2.8523754E1,2.2311857E1,1.5034909E2,1.0888828E1,2.1752234E2,2.5453436E1,3.0703175E0,1.2794243E1,9.517613E0,4.4362774E0,1.4591281E2,3.616057E0,7.2727714E0,5.038195E0,2.1248415E2,2.08816E2,3.6681628E0,3.129594E0,2.056864E2,1.9751479E2,8.171607E0,9.217941E0,1.8829684E2,4.0243754E0,4.1472316E0,6.133448E0,3.0844934E0,3.094735E0,1.8520212E2],"tree_param":{"num_deleted":"2","num_feature":"189","num_nodes":"39","size_leaf_vector":"0"}},{"base_weights":[-7.106938E-3,7.4132884E-1,-8.797721E-1,9.054831E-1,-1.3408252E0,1.2024826E-1,-1.1770726E0,-1.1726907E0,1.0371675E0,-1.3481815E0,1.2584945E0,1.9163568E-1,-1.3828074E0,-1.3436857E0,-4.6330923E-1,-1.1582114E0,1.1116828E0,1.6874318E-1,1.3934481E0,1.3146967E0,-1.2897927E0,-6.367257E-1,-1.4014374E0,1.1743623E0,-1.1931002E0,-9.857891E-1,1.2141355E0,-9.5066065E-1,1.255462E0,-9.3223125E-1,1.2977127E0,-6.1983573E-1,1.3342334E0,1.3776898E0,3.4043032E-1],"categories":[],"categories_nodes":[],"categories_segments":[],"categories_sizes":[],"default_left":[1,1,1,1,0,1,1,1,1,0,1,1,1,1,1,0,1,0,0,0,0,1,1,1,0,0,1,0,1,0,1,0,1,0,0],"id":2,"left_children":[1,3,5,7,-1,9,11,-1,15,-1,17,19,-1,-1,-1,-1,23,-1,-1,-1,-1,-1,-1,25,-1,-1,27,-1,29,-1,31,-1,33,-1,-1],"loss_changes":[2.8045633E2,8.022288E1,5.9080704E1,6.0016403E1,0E0,7.914732E1,4.332187E1,9.8747444E-1,3.442914E1,0E0,3.6798859E0,3.639904E1,9.5695496E-1,0E0,0E0,0E0,2.9780807E1,0E0,0E0,0E0,0E0,0E0,0E0,1.767157E1,0E0,0E0,1.8078339E1,0E0,1.8367798E1,0E0,1.3609619E1,0E0,7.280304E0,0E0,0E0],"parents":[2147483647,0,0,1,1,2,2,3,3,5,5,6,6,7,7,8,8,10,10,11,11,12,12,16,16,23,23,26,26,28,28,30,30,32,32],"right_children":[2,4,6,8,-1,10,12,-1,16,-1,18,20,-1,-1,-1,-1,24,-1,-1,-1,-1,-1,-1,26,-1,-1,28,-1,30,-1,32,-1,34,-1,-1],"split_conditions":[5.3792596E-1,5.5462945E-1,5E-2,7.4516433E-1,-3.352063E-1,2.790953E-1,4.5454547E-2,-2.931727E-1,2.2586708E-1,-3.3704537E-1,9.9992377E-1,4.1666668E-2,-3.4570184E-1,-3.3592144E-1,-1.1582731E-1,-2.8955284E-1,1.3725486E-1,4.2185795E-2,3.4836203E-1,3.2867417E-1,-3.2244816E-1,-1.5918143E-1,-3.5035935E-1,7.305213E-1,-2.9827505E-1,-2.4644728E-1,3.205791E-1,-2.3766516E-1,9.5501745E-1,-2.3305781E-1,5.359335E-1,-1.5495893E-1,9.466734E-1,3.4442246E-1,8.510758E-2],"split_indices":[24,35,19,98,0,22,5,30,154,0,110,20,0,2147483647,2147483647,0,25,0,0,0,0,2147483647,2147483647,180,0,0,40,0,145,0,171,0,53,0,0],"split_type":[0,0,0,0,0,0,0,0,0,0,0,0,0,0,0,0,0,0,0,0,0,0,0,0,0,0,0,0,0,0,0,0,0,0,0],"sum_hessian":[4.274024E2,2.3015874E2,1.9724368E2,2.1386316E2,1.629557E1,4.5337826E1,1.5190585E2,1.2272931E1,2.0159023E2,1.971694E1,2.5620884E1,1.985871E1,1.3204715E2,9.168676E0,3.1042545E0,6.140309E0,1.9544992E2,3.0712097E0,2.2549675E1,1.1359611E1,8.499098E0,4.073947E0,1.279732E2,1.9075279E2,4.6971307E0,3.0186646E0,1.8773413E2,3.1045752E0,1.8462955E2,3.09906E0,1.8153049E2,3.094209E0,1.7843628E2,1.7059052E2,7.845771E0],"tree_param":{"num_deleted":"4","num_feature":"189","num_nodes":"35","size_leaf_vector":"0"}},{"base_weights":[-1.0932211E-2,6.5097237E-1,-7.950145E-1,7.9681134E-1,-1.2152406E0,1.0119988E-1,-1.0799795E0,-8.5467136E-1,9.3546075E-1,1.0386684E0,-9.6955204E-1,-1.1749277E0,1.0939388E0,2.3894884E-1,-1.2619723E0,-1.1171116E0,1.0009135E0,-4.0479437E-1,1.2798921E0,-1.1893413E0,1.9733016E-1,1.0944597E0,-1.2695018E0,1.0664476E0,-8.4519315E-1,1.1398982E0,-4.0050724E-1,-1.2312631E-1,1.2104006E0,7.7056825E-1,-1.2020355E0,1.0868299E0,-1.5811747E0,1.2464193E0,-2.7660677E-2,3.2776055E-1,1.2638866E0,5.4229146E-1,1.276486E0],"categories":[],"categories_nodes":[],"categories_segments":[],"categories_sizes":[],"default_left":[1,1,1,1,0,1,1,1,1,1,1,1,0,0,0,0,1,0,0,0,0,0,0,1,0,1,1,1,1,0,0,0,0,1,0,0,1,1,1],"id":3,"left_children":[1,3,5,7,-1,9,11,13,15,17,19,21,-1,-1,-1,-1,23,-1,-1,-1,-1,-1,-1,25,-1,27,29,31,33,-1,-1,-1,-1,35,-1,-1,-1,-1,-1],"loss_changes":[1.9164929E2,5.5469017E1,4.327793E1,4.3466408E1,0E0,4.2859047E1,2.7775269E1,6.96288E0,2.42771E1,8.426781E0,5.359049E0,2.7884537E1,0E0,0E0,0E0,0E0,2.1175995E1,0E0,0E0,0E0,0E0,0E0,0E0,1.7941956E1,0E0,1.39335785E1,8.884057E0,1.7758184E1,6.576767E0,0E0,0E0,0E0,0E0,1.873703E0,0E0,0E0,5.767517E-1,0E0,0E0],"parents":[2147483647,0,0,1,1,2,2,3,3,5,5,6,6,7,7,8,8,9,9,10,10,11,11,16,16,23,23,25,25,26,26,27,27,28,28,33,33,36,36],"right_children":[2,4,6,8,-1,10,12,14,16,18,20,22,-1,-1,-1,-1,24,-1,-1,-1,-1,-1,-1,26,-1,28,30,32,34,-1,-1,-1,-1,36,-1,-1,-1,-1,-1],"split_conditions":[5.3792596E-1,5.5462945E-1,7.1428575E-2,8.322253E-1,-3.0381015E-1,4.9977398E-1,5E-1,1.666557E-2,2.1362957E-1,5.832344E-1,1.2730286E-1,3.4150612E-1,2.734847E-1,5.973721E-2,-3.1549308E-1,-2.792779E-1,7.002379E-1,-1.0119859E-1,3.1997302E-1,-2.9733533E-1,4.933254E-2,2.736149E-1,-3.1737545E-1,6.0636535E-2,-2.1129829E-1,3.461396E-2,4.6485078E-1,1.0328307E-2,9.4759965E-1,1.9264206E-1,-3.005089E-1,2.7170748E-1,-3.9529368E-1,3.4511185E-1,-6.9151693E-3,8.194014E-2,3.1597164E-1,1.3557287E-1,3.191215E-1],"split_indices":[24,35,14,49,0,101,18,97,154,125,80,36,0,0,0,0,141,0,0,0,0,0,0,75,0,129,101,0,53,0,0,0,0,121,0,0,39,2147483647,2147483647],"split_type":[0,0,0,0,0,0,0,0,0,0,0,0,0,0,0,0,0,0,0,0,0,0,0,0,0,0,0,0,0,0,0,0,0,0,0,0,0,0,0],"sum_hessian":[3.6727805E2,1.9924753E2,1.680305E2,1.8533702E2,1.3910502E1,4.069372E1,1.27336784E2,1.3954749E1,1.7138228E2,2.1713236E1,1.8980486E1,1.22448265E2,4.888522E0,3.899029E0,1.005572E1,4.7996507E0,1.6658263E2,3.0119405E0,1.8701296E1,1.5955858E1,3.0246289E0,4.475771E0,1.17972496E2,1.6127975E2,5.3028708E0,1.5380183E2,7.4779253E0,8.09191E0,1.4570992E2,3.0542014E0,4.423724E0,4.5613174E0,3.5305927E0,1.4158409E2,4.1258373E0,3.0106018E0,1.3857349E2,3.133827E0,1.3543965E2],"tree_param":{"num_deleted":"2","num_feature":"189","num_nodes":"39","size_leaf_vector":"0"}},{"base_weights":[-1.1897356E-2,5.840443E-1,-7.282359E-1,7.1616477E-1,-1.1265367E0,1.17794864E-1,-9.898104E-1,8.212448E-1,-1.1241667E0,1.0520624E0,-1.1325873E0,1.7848484E-1,-1.1731548E0,-1.0130147E0,8.9403605E-1,1.187574E0,2.2143053E-1,1.1121892E0,-1.0680205E0,-2.6786447E-1,-1.2015054E0,-8.643939E-1,9.575386E-1,1.0073771E0,-9.059799E-1,-6.863383E-1,1.0517873E0,1.2075871E0,4.7364083E-1,3.1620187E-1,1.2307069E0,8.641682E-1,-1.4706753E0,1.0956792E0,-3.8655257E-1],"categories":[],"categories_nodes":[],"categories_segments":[],"categories_sizes":[],"default_left":[1,1,1,1,0,1,1,1,0,1,0,1,1,0,1,0,0,0,0,0,0,0,1,1,0,0,1,1,1,0,0,1,0,0,0],"id":4,"left_children":[1,3,5,7,-1,9,11,13,-1,15,-1,17,19,-1,21,-1,-1,-1,-1,-1,-1,-1,23,25,-1,-1,27,29,31,-1,-1,33,-1,-1,-1],"loss_changes":[1.3361679E2,3.942328E1,3.1570541E1,3.1714966E1,0E0,4.144741E1,2.3487099E1,2.1094254E1,0E0,2.0154343E0,0E0,1.9354574E1,2.0923767E0,0E0,1.7126808E1,0E0,0E0,0E0,0E0,0E0,0E0,0E0,1.404068E1,1.1112747E1,0E0,0E0,1.15889435E1,1.7892609E0,2.4281393E1,0E0,0E0,7.9130783E0,0E0,0E0,0E0],"parents":[2147483647,0,0,1,1,2,2,3,3,5,5,6,6,7,7,9,9,11,11,12,12,14,14,22,22,23,23,26,26,27,27,28,28,31,31],"right_children":[2,4,6,8,-1,10,12,14,-1,16,-1,18,20,-1,22,-1,-1,-1,-1,-1,-1,-1,24,26,-1,-1,28,30,32,-1,-1,34,-1,-1,-1],"split_conditions":[5.3792596E-1,5.5462945E-1,5E-2,1.3725486E-1,-2.8163418E-1,1.5779603E-2,4.5454547E-2,7.999659E-1,-2.8104168E-1,5.456387E-1,-2.8314683E-1,4.1666668E-2,6.4830836E-3,-2.5325367E-1,2.2762534E-1,2.968935E-1,5.535763E-2,2.780473E-1,-2.6700512E-1,-6.696612E-2,-3.0037636E-1,-2.1609847E-1,1E0,3.7271824E-1,-2.2649497E-1,-1.7158458E-1,1.5E-1,3.2272023E-1,9.964771E-1,7.905047E-2,3.0767673E-1,4.7341573E-1,-3.6766884E-1,2.739198E-1,-9.663814E-2],"split_indices":[24,35,19,25,0,0,5,49,0,74,0,20,0,0,154,0,0,0,0,0,0,0,160,43,0,0,19,92,81,0,0,173,0,0,0],"split_type":[0,0,0,0,0,0,0,0,0,0,0,0,0,0,0,0,0,0,0,0,0,0,0,0,0,0,0,0,0,0,0,0,0,0,0],"sum_hessian":[3.1099982E2,1.6986728E2,1.4113255E2,1.5822755E2,1.1639724E1,3.3459984E1,1.0767256E2,1.5020485E2,8.022707E0,1.924157E1,1.4218414E1,1.4608937E1,9.306363E1,5.2402267E0,1.4496461E2,1.6173288E1,3.0682805E0,8.414069E0,6.1948686E0,3.1432142E0,8.992041E1,4.6130867E0,1.4035153E2,1.3714316E2,3.2083764E0,3.134765E0,1.3400839E2,1.0470388E2,2.9304512E1,3.0180836E0,1.016858E2,2.4865643E1,4.43887E0,2.1086458E1,3.7791839E0],"tree_param":{"num_deleted":"0","num_feature":"189","num_nodes":"35","size_leaf_vector":"0"}},{"base_weights":[-1.5497705E-2,5.3131235E-1,-6.82429E-1,6.534365E-1,-1.0585403E0,1.115887E-1,-9.4794565E-1,7.5513643E-1,-1.0072263E0,7.334293E-1,-1.0622748E0,-1.0343775E0,9.14926E-1,-3.7783676E-1,8.626613E-1,-9.226236E-1,1.1213273E0,9.211525E-1,-1.1234426E0,-1.0057431E0,8.7348443E-1,-9.4924927E-1,9.192777E-1,9.645505E-1,-5.520049E-1,-9.316573E-2,1.028122E0,-1.048592E0,9.0218383E-1,1.0809261E0,5.0943952E-2,1.1212363E0,-5.3283125E-2,1.1444513E0,3.7431002E-1],"categories":[],"categories_nodes":[],"categories_segments":[],"categories_sizes":[],"default_left":[1,1,1,1,0,1,1,1,0,1,0,1,0,1,1,0,0,0,0,0,0,0,1,1,0,1,1,0,0,1,0,1,0,0,0],"id":5,"left_children":[1,3,5,7,-1,9,11,13,-1,15,-1,17,-1,19,21,-1,-1,-1,-1,-1,-1,-1,23,25,-1,27,29,-1,-1,31,-1,33,-1,-1,-1],"loss_changes":[9.5300835E1,2.8574749E1,2.4924187E1,2.338892E1,0E0,2.2966208E1,1.5167755E1,1.5775864E1,0E0,1.4178329E1,0E0,1.5818085E1,0E0,1.0062126E1,1.2786171E1,0E0,0E0,0E0,0E0,0E0,0E0,0E0,8.0675125E0,7.4996796E0,0E0,7.7547235E0,5.308716E0,0E0,0E0,4.566498E0,0E0,1.222969E0,0E0,0E0,0E0],"parents":[2147483647,0,0,1,1,2,2,3,3,5,5,6,6,7,7,9,9,11,11,13,13,14,14,22,22,23,23,25,25,26,26,29,29,31,31],"right_children":[2,4,6,8,-1,10,12,14,-1,16,-1,18,-1,20,22,-1,-1,-1,-1,-1,-1,-1,24,26,-1,28,30,-1,-1,32,-1,34,-1,-1,-1],"split_conditions":[5.3792596E-1,5.5462945E-1,7.1428575E-2,6.538296E-2,-2.646351E-1,5.1182546E-2,5E-1,2.7178338E-2,-2.518066E-1,6.4303124E-1,-2.655687E-1,3.4150612E-1,2.287315E-1,8.6746275E-2,2.2586708E-1,-2.306559E-1,2.8033182E-1,2.3028812E-1,-2.8086066E-1,-2.514358E-1,2.1837111E-1,-2.3731232E-1,4.9418473E-1,2.9091674E-1,-1.3800122E-1,2.4918E-1,7.020349E-1,-2.62148E-1,2.2554596E-1,6.0251576E-1,1.2735988E-2,6.9018435E-1,-1.3320781E-2,2.8611282E-1,9.3577504E-2],"split_indices":[24,35,14,75,0,140,18,75,0,165,0,36,0,89,154,0,0,0,0,0,0,0,38,90,0,38,101,0,0,71,0,164,0,0,0],"split_type":[0,0,0,0,0,0,0,0,0,0,0,0,0,0,0,0,0,0,0,0,0,0,0,0,0,0,0,0,0,0,0,0,0,0,0],"sum_hessian":[2.5932962E2,1.4260918E2,1.1672044E2,1.3298311E2,9.626065E0,2.9395128E1,8.732531E1,1.2582292E2,7.1601906E0,1.9461058E1,9.93407E0,8.387834E1,3.4469686E0,1.0688275E1,1.1513465E2,3.4316769E0,1.602938E1,3.2468808E0,8.063146E1,7.2476816E0,3.4405935E0,3.0108607E0,1.1212379E2,1.09110756E2,3.0130305E0,6.1596437E0,1.0295112E2,3.1155584E0,3.0440853E0,9.7572395E1,5.3787227E0,9.423469E1,3.337706E0,9.087793E1,3.356753E0],"tree_param":{"num_deleted":"0","num_feature":"189","num_nodes":"35","size_leaf_vector":"0"}},{"base_weights":[-1.6755013E-2,4.9712035E-1,-6.52503E-1,-8.0582523E-1,7.397689E-1,-9.607414E-1,-6.536243E-2,5.1806056E-1,-1.0813514E0,-1.0749316E0,8.6570317E-1,-4.5823E-1,-1.1317173E0,4.1844702E-1,-9.388934E-1,9.467591E-1,-8.978898E-1,6.397912E-1,-8.9617044E-1,-1.0246028E0,6.93449E-1,-4.684397E-1,-1.0372404E0,1.0044421E0,-5.414395E-1,-1.0327628E0,-3.3184475E-1,-1.8750577E-1,8.956548E-1,1.0665187E0,-4.4889438E-1,2.9394406E-1,1.0094476E0,1.0291392E-1,1.1006653E0,1.1325985E0,4.3339086E-1,1.1589648E0,3.599866E-1],"categories":[],"categories_nodes":[],"categories_segments":[],"categories_sizes":[],"default_left":[1,1,1,1,1,1,1,0,0,0,1,1,0,1,1,1,0,0,1,0,1,1,1,1,0,1,1,0,1,1,0,1,1,0,1,1,0,0,0],"id":6,"left_children":[1,3,5,7,9,11,13,-1,-1,-1,15,17,-1,19,-1,23,-1,-1,-1,-1,27,-1,-1,29,-1,-1,-1,-1,-1,33,-1,-1,-1,-1,35,37,-1,-1,-1],"loss_changes":[7.123725E1,3.8725914E1,1.7575012E1,7.641263E0,2.4284584E1,4.965893E0,1.5025437E1,0E0,0E0,0E0,1.4589462E1,9.174068E0,0E0,9.8274975E0,9.937191E-2,8.473808E0,0E0,0E0,6.749773E-1,0E0,3.711546E0,0E0,0E0,8.533447E0,0E0,0E0,0E0,0E0,8.229313E-1,2.7137833E0,0E0,0E0,0E0,0E0,1.2750778E0,1.1813126E0,0E0,0E0,0E0],"parents":[2147483647,0,0,1,1,2,2,3,3,4,4,5,5,6,6,10,10,11,11,13,13,14,14,15,15,18,18,20,20,23,23,28,28,29,29,34,34,35,35],"right_children":[2,4,6,8,10,12,14,-1,-1,-1,16,18,-1,20,-1,24,-1,-1,-1,-1,28,-1,-1,30,-1,-1,-1,-1,-1,34,-1,-1,-1,-1,36,38,-1,-1,-1],"split_conditions":[1.5E-1,2.1664591E-1,7.308662E-1,3.3746146E-2,3.2032523E-1,3.5091949E-1,4.1730717E-2,1.2951514E-1,-2.7033785E-1,-2.687329E-1,4.0857607E-1,9.271002E-2,-2.8292933E-1,9.1806793E-1,-2.3472334E-1,5.540619E-1,-2.2447245E-1,1.599478E-1,-2.2404261E-1,-2.561507E-1,8.011907E-1,-1.17109925E-1,-2.593101E-1,6.854325E-1,-1.3535987E-1,-2.581907E-1,-8.296119E-2,-4.687644E-2,2.239137E-1,3.157602E-1,-1.12223595E-1,7.3486015E-2,2.523619E-1,2.572848E-2,5.367981E-1,3.9775774E-1,1.08347714E-1,2.897412E-1,8.999665E-2],"split_indices":[19,30,47,1,40,30,95,0,0,0,147,10,0,119,22,35,0,0,121,0,98,2147483647,2147483647,87,0,2147483647,2147483647,0,46,149,0,2147483647,2147483647,0,56,147,0,0,0],"split_type":[0,0,0,0,0,0,0,0,0,0,0,0,0,0,0,0,0,0,0,0,0,0,0,0,0,0,0,0,0,0,0,0,0,0,0,0,0,0,0],"sum_hessian":[2.1606125E2,1.1960364E2,9.645761E1,1.8412643E1,1.01190994E2,6.2834373E1,3.3623238E1,3.0202537E0,1.5392389E1,6.0776067E0,9.511339E1,1.6885798E1,4.5948574E1,2.1973871E1,1.1649366E1,9.137681E1,3.7365754E0,4.6831403E0,1.2202658E1,3.0809653E0,1.8892906E1,3.010662E0,8.638704E0,8.828011E1,3.0967002E0,9.156329E0,3.0463285E0,3.5405226E0,1.5352383E1,8.4919106E1,3.3610017E0,3.011483E0,1.2340899E1,3.043609E0,8.18755E1,7.7470695E1,4.404804E0,7.443061E1,3.0400856E0],"tree_param":{"num_deleted":"6","num_feature":"189","num_nodes":"39","size_leaf_vector":"0"}},{"base_weights":[-1.9919047E-2,4.5776093E-1,-6.0428643E-1,-7.5825524E-1,6.8184763E-1,-9.023722E-1,-6.625002E-2,3.3286744E-1,-1.0354195E0,-1.005624E0,8.026302E-1,-4.0089893E-1,-1.087965E0,8.9899236E-1,-4.2498106E-1,8.809489E-1,-8.236598E-1,4.92911E-1,-8.937744E-1,3.1846422E-1,-1.0979253E0,9.4823533E-1,-3.0642158E-1,-8.079203E-1,8.7617964E-1,-2.922889E-1,1.0064057E0,1.042478E0,1.519178E-1,1.0812018E0,3.282415E-1,5.1852435E-1,1.100734E0],"categories":[],"categories_nodes":[],"categories_segments":[],"categories_sizes":[],"default_left":[1,1,1,1,1,1,1,0,0,0,1,1,0,0,1,1,0,0,0,1,0,1,0,0,0,0,1,1,0,1,0,1,1],"id":7,"left_children":[1,3,5,7,9,11,13,-1,-1,-1,15,17,-1,-1,19,21,-1,-1,-1,23,-1,25,-1,-1,-1,-1,27,29,-1,-1,-1,-1,-1],"loss_changes":[5.116353E1,2.8004633E1,1.3159441E1,5.2347994E0,1.8275196E1,4.49279E0,1.0930649E1,0E0,0E0,0E0,1.0983387E1,7.440321E0,0E0,0E0,1.1800903E1,6.4678917E0,0E0,0E0,0E0,8.02641E0,0E0,5.5920258E0,0E0,0E0,0E0,0E0,2.010147E0,1.5074081E0,0E0,1.2639618E-1,0E0,0E0,0E0],"parents":[2147483647,0,0,1,1,2,2,3,3,4,4,5,5,6,6,10,10,11,11,14,14,15,15,19,19,21,21,26,26,27,27,29,29],"right_children":[2,4,6,8,10,12,14,-1,-1,-1,16,18,-1,-1,20,22,-1,-1,-1,24,-1,26,-1,-1,-1,-1,28,30,-1,-1,-1,-1,-1],"split_conditions":[1.5E-1,2.0925009E-1,7.308662E-1,1.14496395E-1,3.2032523E-1,3.5091949E-1,7.3762155E-1,8.321686E-2,-2.5885487E-1,-2.51406E-1,4.0857607E-1,9.9988604E-1,-2.7199125E-1,2.2474809E-1,9.687975E-1,6.6034305E-1,-2.0591494E-1,1.2322775E-1,-2.234436E-1,7.779222E-1,-2.7448133E-1,2.3437779E-1,-7.6605394E-2,-2.0198007E-1,2.1904491E-1,-7.3072225E-2,6.01988E-2,6.237264E-1,3.797945E-2,2.7030045E-1,8.2060374E-2,1.2963109E-1,2.751835E-1],"split_indices":[19,30,47,124,40,30,47,0,0,0,147,57,0,0,83,87,0,0,0,96,0,154,0,0,0,0,75,174,0,32,0,2147483647,2147483647],"split_type":[0,0,0,0,0,0,0,0,0,0,0,0,0,0,0,0,0,0,0,0,0,0,0,0,0,0,0,0,0,0,0,0,0],"sum_hessian":[1.8129848E2,9.987457E1,8.1423904E1,1.5170023E1,8.4704544E1,5.195974E1,2.9464163E1,3.0321746E0,1.2137848E1,5.168516E0,7.953603E1,1.4889175E1,3.7070568E1,7.575264E0,2.1888899E1,7.631898E1,3.217053E0,5.292097E0,9.597078E0,1.0649958E1,1.123894E1,7.241663E1,3.902342E0,3.3783274E0,7.2716303E0,3.0633729E0,6.9353264E1,6.633301E1,3.0202546E0,6.2434223E1,3.8987858E0,3.0187314E0,5.941549E1],"tree_param":{"num_deleted":"2","num_feature":"189","num_nodes":"33","size_leaf_vector":"0"}},{"base_weights":[-2.3444427E-2,4.229364E-1,-5.983817E-1,5.326605E-1,-9.3447345E-1,1.2007047E-1,-8.6026E-1,9.968708E-1,1.7309165E-1,6.890436E-1,-8.5199714E-1,-1.6041073E-1,-1.0245776E0,1.3869393E-1,1.0739015E0,4.9851727E-1,-1.0666878E0,1.002463E0,-1.8386415E-1,-9.1241693E-1,8.774221E-1,7.3023885E-1,-9.9146444E-1,-6.293808E-1,9.1951585E-1,1.0300217E0,1.3056089E-1],"categories":[],"categories_nodes":[],"categories_segments":[],"categories_sizes":[],"default_left":[1,1,1,1,0,1,1,1,1,1,0,1,0,0,0,1,0,0,0,0,0,1,0,0,1,0,0],"id":8,"left_children":[1,3,5,7,-1,9,11,13,15,17,-1,19,-1,-1,-1,21,-1,-1,-1,-1,-1,23,-1,-1,25,-1,-1],"loss_changes":[3.9521244E1,1.341385E1,1.2763399E1,1.33260975E1,0E0,1.101398E1,5.5206566E0,2.1706505E0,1.9406258E1,3.5890255E0,0E0,9.06222E0,0E0,0E0,0E0,1.3753108E1,0E0,0E0,0E0,0E0,0E0,9.131287E0,0E0,0E0,2.4443378E0,0E0,0E0],"parents":[2147483647,0,0,1,1,2,2,3,3,5,5,6,6,7,7,8,8,9,9,11,11,15,15,21,21,24,24],"right_children":[2,4,6,8,-1,10,12,14,16,18,-1,20,-1,-1,-1,22,-1,-1,-1,-1,-1,24,-1,-1,26,-1,-1],"split_conditions":[5.3792596E-1,5.5462945E-1,7.1428575E-2,2.7223808E-1,-2.3361836E-1,4.4208962E-1,1.9802746E-1,7.248601E-1,2.5937218E-2,4.9977398E-1,-2.1299928E-1,4.2323437E-1,-2.561444E-1,3.4673482E-2,2.6847538E-1,8.788899E-1,-2.6667196E-1,2.5061575E-1,-4.5966037E-2,-2.2810423E-1,2.1935552E-1,2.7222056E-2,-2.4786611E-1,-1.573452E-1,2.6651615E-1,2.5750542E-1,3.2640222E-2],"split_indices":[24,35,14,24,0,90,34,3,0,101,0,39,0,0,0,177,0,0,0,0,0,75,0,0,6,0,0],"split_type":[0,0,0,0,0,0,0,0,0,0,0,0,0,0,0,0,0,0,0,0,0,0,0,0,0,0,0],"sum_hessian":[1.5200815E2,8.571977E1,6.628838E1,7.987111E1,5.848665E0,1.7852446E1,4.8435936E1,3.4089066E1,4.5782043E1,1.1444738E1,6.407707E0,9.585653E0,3.8850285E1,3.0385E0,3.1050564E1,3.6736973E1,9.045069E0,8.311911E0,3.1328273E0,5.6282835E0,3.9573696E0,3.223387E1,4.5031033E0,3.6548767E0,2.8578995E1,2.4799828E1,3.7791665E0],"tree_param":{"num_deleted":"0","num_feature":"189","num_nodes":"27","size_leaf_vector":"0"}},{"base_weights":[-2.5024183E-2,3.916682E-1,-5.674574E-1,4.9614936E-1,-8.8948154E-1,1.0917076E-1,-8.2786E-1,9.5028687E-1,1.5243986E-1,5.9897107E-1,-8.83982E-1,-1.4004114E-1,-9.975795E-1,1.1330488E-1,1.0437077E0,4.5325106E-1,-1.0092136E0,-1.9968748E-1,9.221322E-1,7.1809053E-1,-8.882837E-1,6.838117E-1,-8.3741695E-1,-5.397461E-1,8.7657803E-1,8.995623E-2,9.836839E-1],"categories":[],"categories_nodes":[],"categories_segments":[],"categories_sizes":[],"default_left":[1,1,1,1,0,1,1,1,1,1,0,1,0,0,0,1,0,0,0,0,0,1,0,0,1,0,0],"id":9,"left_children":[1,3,5,7,-1,9,11,13,15,17,-1,19,-1,-1,-1,21,-1,-1,-1,-1,-1,23,-1,-1,25,-1,-1],"loss_changes":[2.883115E1,1.010233E1,9.851236E0,1.03717E1,0E0,8.448172E0,4.543659E0,2.136282E0,1.4274506E1,3.15175E0,0E0,6.4831285E0,0E0,0E0,0E0,1.0124222E1,0E0,0E0,0E0,0E0,0E0,7.026167E0,0E0,0E0,1.9658356E0,0E0,0E0],"parents":[2147483647,0,0,1,1,2,2,3,3,5,5,6,6,7,7,8,8,9,9,11,11,15,15,21,21,24,24],"right_children":[2,4,6,8,-1,10,12,14,16,18,-1,20,-1,-1,-1,22,-1,-1,-1,-1,-1,24,-1,-1,26,-1,-1],"split_conditions":[5.3792596E-1,5.5462945E-1,7.1428575E-2,2.7223808E-1,-2.2237039E-1,5.1182546E-2,5E-2,7.248601E-1,2.5937218E-2,5.7063925E-1,-2.209955E-1,4.578447E-1,-2.4939488E-1,2.832622E-2,2.6092693E-1,2.7268165E-1,-2.523034E-1,-4.992187E-2,2.3053305E-1,1.7952263E-1,-2.2207093E-1,2.7222056E-2,-2.0935424E-1,-1.3493653E-1,3.2315803E-1,2.2489058E-2,2.4592097E-1],"split_indices":[24,35,14,24,0,140,19,3,0,128,0,141,0,0,0,187,0,0,0,0,0,75,0,0,24,0,0],"split_type":[0,0,0,0,0,0,0,0,0,0,0,0,0,0,0,0,0,0,0,0,0,0,0,0,0,0,0],"sum_hessian":[1.2557248E2,7.117467E1,5.4397808E1,6.637439E1,4.8002777E0,1.5278648E1,3.911916E1,2.7833572E1,3.854082E1,1.04981165E1,4.780532E0,8.10348E0,3.101568E1,3.0169306E0,2.4816643E1,3.1097832E1,7.4429884E0,3.1342444E0,7.3638716E0,3.7933383E0,4.310142E0,2.6783503E1,4.3143287E0,3.4003358E0,2.3383167E1,3.0227726E0,2.0360394E1],"tree_param":{"num_deleted":"0","num_feature":"189","num_nodes":"27","size_leaf_vector":"0"}},{"base_weights":[-2.788027E-2,3.8258788E-1,-5.3667223E-1,6.5593815E-1,-5.4705596E-1,-8.2530075E-1,-3.0215045E-2,-4.1923055E-1,7.9291564E-1,-9.618902E-1,8.846853E-3,-3.251431E-1,-1.0155905E0,3.3001056E-1,-7.743757E-1,9.2723125E-1,-1.5669109E-1,4.1749793E-1,-7.2555226E-1,7.40056E-1,-2.7820083E-1,1.877674E-1,9.9055254E-1,1.0408697E0,3.6746237E-1],"categories":[],"categories_nodes":[],"categories_segments":[],"categories_sizes":[],"default_left":[1,1,1,1,1,1,1,0,1,0,0,1,0,1,0,1,0,0,0,0,0,0,1,1,1],"id":10,"left_children":[1,3,5,7,9,11,13,-1,15,-1,-1,17,-1,19,-1,21,-1,-1,-1,-1,-1,-1,-1,-1,-1],"loss_changes":[2.2247932E1,1.5352223E1,6.9250603E0,7.114338E0,3.2259207E0,2.5485706E0,5.1604834E0,0E0,5.399172E0,0E0,0E0,3.2191806E0,0E0,3.455604E0,0E0,1.5105247E0,0E0,0E0,0E0,0E0,0E0,0E0,6.565361E-1,0E0,0E0],"parents":[2147483647,0,0,1,1,2,2,3,3,4,4,5,5,6,6,8,8,11,11,13,13,15,15,22,22],"right_children":[2,4,6,8,10,12,14,-1,16,-1,-1,18,-1,20,-1,22,-1,-1,-1,-1,-1,-1,-1,-1,-1],"split_conditions":[1.5E-1,9.998762E-1,7.308662E-1,3.811515E-1,1.7334372E-1,3.5091949E-1,4.298906E-2,-1.0480764E-1,5.8031905E-1,-2.4047256E-1,2.2117132E-3,5.6349254E-1,-2.5389764E-1,8.7937284E-1,-1.9359392E-1,2.5617746E-1,-3.9172772E-2,1.0437448E-1,-1.8138807E-1,1.85014E-1,-6.955021E-2,4.694185E-2,2.4763814E-1,2.6021743E-1,9.186559E-2],"split_indices":[19,160,47,40,46,30,95,0,71,0,0,24,0,111,0,154,0,0,0,0,0,0,186,2147483647,2147483647],"split_type":[0,0,0,0,0,0,0,0,0,0,0,0,0,0,0,0,0,0,0,0,0,0,0,0,0],"sum_hessian":[1.0454636E2,5.800159E1,4.6544765E1,4.5049706E1,1.2951888E1,2.9247272E1,1.7297493E1,4.8579483E0,4.0191757E1,6.998809E0,5.9530787E0,8.807174E0,2.0440098E1,1.203045E1,5.267043E0,3.5231987E1,4.959768E0,3.0701926E0,5.736981E0,7.056385E0,4.974065E0,3.0917675E0,3.214022E1,2.9118298E1,3.0219233E0],"tree_param":{"num_deleted":"2","num_feature":"189","num_nodes":"25","size_leaf_vector":"0"}},{"base_weights":[-2.9506896E-2,3.3544514E-1,-5.203387E-1,4.9101636E-1,-4.899355E-1,1.0116604E-1,-7.848772E-1,-9.4158635E-2,7.519662E-1,1.5111838E-1,-8.897642E-1,5.6919056E-1,-8.4062916E-1,-1.1601393E-1,-9.434356E-1,-9.537611E-1,3.2272595E-1,8.8576823E-1,-2.0375232E-1,9.193237E-1,-8.628059E-2,-6.7503947E-1,7.9730636E-1,1.002358E0,1.3083632E-1],"categories":[],"categories_nodes":[],"categories_segments":[],"categories_sizes":[],"default_left":[1,1,1,1,1,1,1,1,1,0,0,1,0,0,0,0,1,1,0,0,0,0,0,0,0],"id":11,"left_children":[1,3,5,7,9,11,13,15,17,-1,-1,19,-1,-1,-1,-1,21,23,-1,-1,-1,-1,-1,-1,-1],"loss_changes":[1.660844E1,7.0751762E0,6.5763044E0,6.9858656E0,2.4263737E0,6.0692787E0,2.842268E0,5.63111E0,4.1996613E0,0E0,0E0,2.1607563E0,0E0,0E0,0E0,0E0,5.6288433E0,2.3119678E0,0E0,0E0,0E0,0E0,0E0,0E0,0E0],"parents":[2147483647,0,0,1,1,2,2,3,3,4,4,5,5,6,6,7,7,8,8,11,11,16,16,17,17],"right_children":[2,4,6,8,10,12,14,16,18,-1,-1,20,-1,-1,-1,-1,22,24,-1,-1,-1,-1,-1,-1,-1],"split_conditions":[5.3792596E-1,8.284405E-2,7.1428575E-2,3.5632128E-1,2.7922052E-1,4.6845207E-1,1.9802746E-1,5.23497E-2,2.6509175E-2,3.7779596E-2,-2.2244105E-1,4.9151182E-1,-2.1015729E-1,-2.9003482E-2,-2.358589E-1,-2.3844028E-1,9.701676E-1,3.75E-1,-5.093808E-2,2.2983092E-1,-2.1570148E-2,-1.6875987E-1,1.9932659E-1,2.505895E-1,3.270908E-2],"split_indices":[24,80,14,31,24,90,34,80,0,0,0,101,0,0,0,0,4,20,0,0,0,0,0,0,0],"split_type":[0,0,0,0,0,0,0,0,0,0,0,0,0,0,0,0,0,0,0,0,0,0,0,0,0],"sum_hessian":[9.0742805E1,5.222679E1,3.8516018E1,4.4284893E1,7.9418993E0,1.1683786E1,2.6832232E1,1.3854842E1,3.043005E1,3.2896216E0,4.6522775E0,8.069357E0,3.6144295E0,5.4736896E0,2.1358541E1,4.104228E0,9.750614E0,2.6757193E1,3.6728573E0,4.9973717E0,3.0719855E0,3.0067604E0,6.7438536E0,2.2893791E1,3.8634014E0],"tree_param":{"num_deleted":"0","num_feature":"189","num_nodes":"25","size_leaf_vector":"0"}},{"base_weights":[-3.0677492E-2,3.3540016E-1,-4.9546292E-1,5.893085E-1,-4.9830756E-1,-1.9093673E-1,-9.631653E-1,-3.6355197E-1,7.301443E-1,7.655616E-2,-8.306414E-1,2.035241E-1,-8.910411E-1,8.624073E-1,-7.922871E-2,5.721048E-1,-8.109126E-1,3.220889E-1,9.656956E-1,7.5270915E-1,3.4404963E-2,4.8793525E-1,1.0200375E0],"categories":[],"categories_nodes":[],"categories_segments":[],"categories_sizes":[],"default_left":[1,1,1,1,1,1,0,0,1,0,0,1,0,1,0,1,0,0,1,0,0,1,1],"id":12,"left_children":[1,3,5,7,9,11,-1,-1,13,-1,-1,15,-1,17,-1,19,-1,-1,-1,-1,-1,-1,-1],"loss_changes":[1.3570647E1,9.748945E0,4.817403E0,4.92171E0,2.1592686E0,6.3990593E0,0E0,0E0,3.33996E0,0E0,0E0,6.1527705E0,0E0,1.159689E0,0E0,1.1147995E0,0E0,0E0,6.3682556E-2,0E0,0E0,0E0,0E0],"parents":[2147483647,0,0,1,1,2,2,3,3,4,4,5,5,8,8,11,11,13,13,15,15,18,18],"right_children":[2,4,6,8,10,12,-1,-1,14,-1,-1,16,-1,18,-1,20,-1,-1,-1,-1,-1,-1,-1],"split_conditions":[1.5E-1,9.998762E-1,4.9388155E-2,3.811515E-1,6.206516E-1,2.669411E-1,-2.4079132E-1,-9.088799E-2,5.8031905E-1,1.913904E-2,-2.0766035E-1,4.593327E-2,-2.2276028E-1,6.936588E-1,-1.9807177E-2,9.568337E-1,-2.0272815E-1,8.0522224E-2,2.414239E-1,1.8817729E-1,8.601241E-3,1.2198381E-1,2.5500938E-1],"split_indices":[19,160,175,40,63,6,0,0,71,0,0,140,0,153,0,64,0,0,50,0,0,2147483647,2147483647],"split_type":[0,0,0,0,0,0,0,0,0,0,0,0,0,0,0,0,0,0,0,0,0,0,0],"sum_hessian":[7.778143E1,4.3666718E1,3.411472E1,3.3697258E1,9.969458E0,2.1514582E1,1.2600138E1,4.135577E0,2.9561682E1,3.9340556E0,6.0354023E0,1.4214807E1,7.2997746E0,2.53531E1,4.20858E0,1.0746324E1,3.4684825E0,4.7296844E0,2.0623417E1,7.74503E0,3.0012941E0,3.1253245E0,1.7498093E1],"tree_param":{"num_deleted":"2","num_feature":"189","num_nodes":"23","size_leaf_vector":"0"}},{"base_weights":[-3.3399303E-2,6.4113396E-1,-2.7385178E-1,9.335035E-1,-6.3991326E-1,-1.0467561E-2,-8.63295E-1,2.2007291E-1,-8.9982665E-1,-3.287421E-1,-9.71227E-1,-4.9645796E-1,5.230067E-1,1.4404312E-1,-8.2678115E-1,-2.9634777E-1,6.725106E-1,8.635312E-1,1.7119674E-1,3.6722463E-1,9.7583616E-1],"categories":[],"categories_nodes":[],"categories_segments":[],"categories_sizes":[],"default_left":[1,1,1,0,0,1,1,1,0,1,1,1,1,0,0,0,1,1,0,1,1],"id":13,"left_children":[1,3,5,-1,-1,7,-1,11,-1,-1,-1,13,15,-1,-1,-1,17,-1,-1,-1,-1],"loss_changes":[1.1323637E1,7.474633E0,7.9663553E0,0E0,0E0,7.6854777E0,5.953646E-1,6.728978E0,0E0,0E0,0E0,2.1013808E0,2.8249936E0,0E0,0E0,0E0,1.617342E0,3.7181187E-1,0E0,0E0,0E0],"parents":[2147483647,0,0,1,1,2,2,5,5,6,6,7,7,11,11,12,12,16,16,17,17],"right_children":[2,4,6,-1,-1,8,-1,12,-1,-1,-1,14,16,-1,-1,-1,18,-1,-1,-1,-1],"split_conditions":[2.7223808E-1,5.132741E-1,5.1549196E-2,2.3337588E-1,-1.5997832E-1,4.904732E-2,-2.1582375E-1,8.34548E-1,-2.2495666E-1,-8.218552E-2,-2.4280675E-1,4.1666668E-2,4.742541E-1,3.601078E-2,-2.0669529E-1,-7.408694E-2,9.996107E-1,2.158828E-1,4.2799186E-2,9.180616E-2,2.4395904E-1],"split_indices":[24,35,175,0,0,95,160,150,0,2147483647,2147483647,20,178,0,0,0,119,68,0,2147483647,2147483647],"split_type":[0,0,0,0,0,0,0,0,0,0,0,0,0,0,0,0,0,0,0,0,0],"sum_hessian":[6.773322E1,1.7361954E1,5.037127E1,1.435667E1,3.0052834E0,3.5518223E1,1.4853047E1,2.8804138E1,6.7140856E0,3.1748493E0,1.1678198E1,8.369316E0,2.0434822E1,3.03954E0,5.329776E0,3.0017214E0,1.74331E1,1.2099987E1,5.333113E0,3.020677E0,9.07931E0],"tree_param":{"num_deleted":"4","num_feature":"189","num_nodes":"21","size_leaf_vector":"0"}},{"base_weights":[-3.484882E-2,5.951946E-1,-2.493382E-1,8.8294566E-1,-4.4588482E-1,5.6038857E-2,-6.699803E-1,-7.9883206E-1,2.8865215E-1,-8.26821E-1,7.704723E-2,-4.9976134E-1,5.912934E-1,-1.7148389E-1,-9.6643233E-1,4.914392E-2,7.646864E-1,9.5662963E-1,2.7780253E-1],"categories":[],"categories_nodes":[],"categories_segments":[],"categories_sizes":[],"default_left":[1,1,1,0,0,1,1,0,1,1,0,0,1,0,0,0,1,1,1],"id":14,"left_children":[1,3,5,-1,-1,7,9,-1,11,13,-1,-1,15,-1,-1,-1,-1,-1,-1],"loss_changes":[8.208871E0,5.020237E0,5.8440065E0,0E0,0E0,5.6219845E0,2.300394E0,0E0,5.5561914E0,1.2856064E0,0E0,0E0,1.5031567E0,0E0,0E0,0E0,8.883662E-1,0E0,0E0],"parents":[2147483647,0,0,1,1,2,2,5,5,6,6,8,8,9,9,12,12,16,16],"right_children":[2,4,6,-1,-1,8,10,-1,12,14,-1,-1,16,-1,-1,-1,-1,-1,-1],"split_conditions":[2.7223808E-1,4.8966604E-1,5.9181612E-2,2.2073641E-1,-1.11471206E-1,4.3148935E-2,5.466668E-1,-1.9970801E-1,8.349359E-1,9.932445E-1,1.9261807E-2,-1.24940336E-1,1.8934712E-1,-4.2870972E-2,-2.4160808E-1,1.228598E-2,1.911716E-1,2.3915741E-1,6.945063E-2],"split_indices":[24,35,1,0,0,68,25,0,150,160,0,0,187,0,0,0,19,2147483647,2147483647],"split_type":[0,0,0,0,0,0,0,0,0,0,0,0,0,0,0,0,0,0,0],"sum_hessian":[5.8646362E1,1.4443863E1,4.42025E1,1.1435124E1,3.0087383E0,2.6112307E1,1.809019E1,5.0647645E0,2.1047543E1,1.4862871E1,3.2273207E0,5.657584E0,1.5389958E1,3.0016043E0,1.1861267E1,4.040358E0,1.13496E1,7.4484234E0,3.9011767E0],"tree_param":{"num_deleted":"2","num_feature":"189","num_nodes":"19","size_leaf_vector":"0"}},{"base_weights":[-3.5615366E-2,1.156634E-1,-9.0615016E-1,-4.7886032E-1,3.0486262E-1,-8.330957E-3,-7.6992744E-1,-2.8326777E-1,5.1235193E-1,-7.6638687E-1,2.316055E-1,-1.9244155E-1,6.1337274E-1,7.3806727E-1,-3.7567187E-2,1.8442412E-1,8.379503E-1,9.2786443E-1,3.2662278E-1],"categories":[],"categories_nodes":[],"categories_segments":[],"categories_sizes":[],"default_left":[1,1,0,1,1,0,0,1,1,0,0,0,1,1,0,1,1,1,1],"id":15,"left_children":[1,3,-1,5,7,-1,-1,9,11,-1,-1,-1,13,-1,-1,-1,-1,-1,-1],"loss_changes":[7.060627E0,5.3073306E0,0E0,1.5639486E0,4.467359E0,0E0,0E0,2.6353278E0,2.0075293E0,0E0,0E0,0E0,1.931138E0,9.364443E-1,0E0,0E0,4.5236778E-1,0E0,0E0],"parents":[2147483647,0,0,1,1,3,3,4,4,7,7,8,8,12,12,13,13,16,16],"right_children":[2,4,-1,6,8,-1,-1,10,12,-1,-1,-1,14,-1,-1,-1,-1,-1,-1],"split_conditions":[6.2422645E-1,7.9461396E-1,-2.2653754E-1,9.982687E-1,1.7182535E-1,-2.0827393E-3,-1.9248186E-1,8.419065E-1,3.523412E-1,-1.9159672E-1,5.7901375E-2,-4.811039E-2,3.9285713E-1,1.8451682E-1,-9.391797E-3,4.610603E-2,2.0948757E-1,2.3196611E-1,8.1655696E-2],"split_indices":[36,98,0,160,46,0,0,137,172,0,0,0,21,4,0,2147483647,2147483647,2147483647,2147483647],"split_type":[0,0,0,0,0,0,0,0,0,0,0,0,0,0,0,0,0,0,0],"sum_hessian":[5.1818268E1,4.488537E1,6.9329014E0,1.0466218E1,3.4419147E1,4.3931003E0,6.0731177E0,8.880911E0,2.5538239E1,4.3297224E0,4.5511885E0,3.0881464E0,2.2450092E1,1.8728584E1,3.721508E0,3.2974584E0,1.5431125E1,1.2430646E1,3.0004792E0],"tree_param":{"num_deleted":"4","num_feature":"189","num_nodes":"19","size_leaf_vector":"0"}},{"base_weights":[-4.049566E-2,2.557092E-1,-4.1739616E-1,4.9289018E-1,-4.8751393E-1,1.3113141E-1,-6.836155E-1,-2.4047996E-1,6.684317E-1,-7.423315E-1,-1.2147532E-1,6.5131074E-1,-4.759326E-1,-1.848442E-1,-9.0965325E-1,9.111628E-1,1.279255E-1],"categories":[],"categories_nodes":[],"categories_segments":[],"categories_sizes":[],"default_left":[1,1,1,1,1,1,1,0,1,1,1,0,0,0,0,0,0],"id":16,"left_children":[1,3,5,7,-1,11,13,-1,15,-1,-1,-1,-1,-1,-1,-1,-1],"loss_changes":[5.455444E0,5.078642E0,3.2238903E0,2.9034076E0,5.7605755E-1,2.7895603E0,1.4791231E0,0E0,2.1734133E0,0E0,0E0,0E0,0E0,0E0,0E0,0E0,0E0],"parents":[2147483647,0,0,1,1,2,2,3,3,4,4,5,5,6,6,8,8],"right_children":[2,4,6,8,-1,12,14,-1,16,-1,-1,-1,-1,-1,-1,-1,-1],"split_conditions":[1.5E-1,9.998762E-1,4.1666668E-2,3.9334267E-1,-1.2187848E-1,3.1989908E-1,4.983741E-1,-6.011999E-2,5.2898645E-1,-1.8558288E-1,-3.036883E-2,1.6282769E-1,-1.1898315E-1,-4.621105E-2,-2.2741331E-1,2.277907E-1,3.1981375E-2],"split_indices":[19,160,20,40,46,22,24,0,141,2147483647,2147483647,0,0,0,0,0,0],"split_type":[0,0,0,0,0,0,0,0,0,0,0,0,0,0,0,0,0],"sum_hessian":[4.6910458E1,2.644722E1,2.0463236E1,2.0304401E1,6.142818E0,6.8521857E0,1.3611051E1,3.8500187E0,1.6454382E1,3.0155385E0,3.1272798E0,3.6509142E0,3.2012715E0,4.8116026E0,8.799448E0,1.0881809E1,5.5725737E0],"tree_param":{"num_deleted":"2","num_feature":"189","num_nodes":"17","size_leaf_vector":"0"}},{"base_weights":[-3.662662E-2,8.379836E-2,-8.4583503E-1,-4.2543772E-1,2.612674E-1,6.069663E-2,-7.418953E-1,-2.4436392E-1,4.7244707E-1,-6.959592E-1,1.4151327E-1,7.8576374E-1,1.6424173E-2,4.008588E-1,8.718103E-1,5.276166E-1,-4.6216622E-1],"categories":[],"categories_nodes":[],"categories_segments":[],"categories_sizes":[],"default_left":[1,1,0,1,1,0,0,1,1,0,0,1,1,1,1,0,0],"id":17,"left_children":[1,3,-1,5,7,-1,-1,9,11,-1,-1,-1,15,-1,-1,-1,-1],"loss_changes":[4.2999797E0,3.607364E0,0E0,1.6416457E0,3.2449112E0,0E0,0E0,1.7179713E0,2.9896178E0,0E0,0E0,6.2365055E-2,2.587496E0,0E0,0E0,0E0,0E0],"parents":[2147483647,0,0,1,1,3,3,4,4,7,7,8,8,11,11,12,12],"right_children":[2,4,-1,6,8,-1,-1,10,12,-1,-1,-1,16,-1,-1,-1,-1],"split_conditions":[6.2422645E-1,6.6659236E-1,-2.1145876E-1,3.1395856E-1,1.7182848E-1,1.5174158E-2,-1.8547383E-1,4.2503148E-1,3.9656878E-1,-1.739898E-1,3.537832E-2,1.9644094E-1,4.0621242E-1,1.002147E-1,2.1795258E-1,1.3190416E-1,-1.15541555E-1],"split_indices":[36,153,0,182,46,0,0,39,123,0,0,186,36,2147483647,2147483647,0,0],"split_type":[0,0,0,0,0,0,0,0,0,0,0,0,0,0,0,0,0],"sum_hessian":[4.2398132E1,3.7686184E1,4.7119474E0,9.378352E0,2.8307833E1,4.0165014E0,5.3618507E0,8.293476E0,2.0014357E1,3.4510758E0,4.8423996E0,1.1434825E1,8.579532E0,3.123108E0,8.311717E0,4.0989347E0,4.480597E0],"tree_param":{"num_deleted":"2","num_feature":"189","num_nodes":"17","size_leaf_vector":"0"}},{"base_weights":[-3.9091427E-2,2.1032128E-1,-4.0624595E-1,-3.0580616E-1,4.4622108E-1,-7.383439E-1,1.4568327E-1,-7.201339E-1,1.0764224E-1,6.241017E-1,-2.8504622E-1,-2.7222818E-1,-8.920683E-1,7.7134824E-1,1.2203425E-1,8.8785696E-1,3.717664E-1],"categories":[],"categories_nodes":[],"categories_segments":[],"categories_sizes":[],"default_left":[1,1,1,1,1,1,0,0,0,1,0,1,1,1,1,1,1],"id":18,"left_children":[1,3,5,7,9,-1,-1,-1,-1,-1,-1,-1,-1,-1,-1,-1,-1],"loss_changes":[3.6936085E0,3.0734277E0,3.0915954E0,1.475368E0,2.3842847E0,4.972582E-1,0E0,0E0,0E0,9.3766356E-1,0E0,0E0,0E0,1.6358423E-1,0E0,0E0,0E0],"parents":[2147483647,0,0,1,1,2,2,3,3,4,4,5,5,9,9,13,13],"right_children":[2,4,6,8,10,-1,-1,-1,-1,-1,-1,-1,-1,-1,-1,-1,-1],"split_conditions":[5.3792596E-1,3.5632128E-1,6.527833E-1,9.6965873E-1,8.040455E-2,-1.8458597E-1,3.642082E-2,-1.8003348E-1,2.691056E-2,1.5602542E-1,-7.1261555E-2,-6.8057045E-2,-2.2301708E-1,1.9283706E-1,3.0508563E-2,2.2196424E-1,9.29416E-2],"split_indices":[24,31,125,4,80,141,0,0,0,160,0,2147483647,2147483647,2147483647,2147483647,2147483647,2147483647],"split_type":[0,0,0,0,0,0,0,0,0,0,0,0,0,0,0,0,0],"sum_hessian":[3.8402073E1,2.3122099E1,1.5279975E1,7.160103E0,1.5961996E1,9.328956E0,5.95102E0,3.2057548E0,3.9543478E0,1.2956804E1,3.0051918E0,3.0008395E0,6.328116E0,9.603841E0,3.3529632E0,6.4896474E0,3.1141937E0],"tree_param":{"num_deleted":"6","num_feature":"189","num_nodes":"17","size_leaf_vector":"0"}},{"base_weights":[-3.90908E-2,2.1608351E-1,-3.796123E-1,4.882652E-1,-3.8335258E-1,1.1647059E-1,-6.458152E-1,7.1967876E-1,1.4275066E-2,-7.191034E-1,3.2254178E-2,-7.539749E-2,-8.864782E-1,2.277453E-1,9.182154E-1],"categories":[],"categories_nodes":[],"categories_segments":[],"categories_sizes":[],"default_left":[1,1,1,1,1,0,1,1,0,0,0,0,0,1,1],"id":19,"left_children":[1,3,5,7,9,-1,11,-1,-1,-1,-1,-1,-1,-1,-1],"loss_changes":[3.2581365E0,3.7002172E0,2.1908488E0,1.6622314E0,1.0396019E0,0E0,1.3853736E0,7.89567E-1,0E0,0E0,0E0,0E0,0E0,0E0,0E0],"parents":[2147483647,0,0,1,1,2,2,3,3,4,4,6,6,7,7],"right_children":[2,4,6,8,10,-1,12,-1,-1,-1,-1,-1,-1,-1,-1],"split_conditions":[1.5E-1,9.997526E-1,3.542179E-1,5.2898645E-1,3.774589E-1,2.9117648E-2,4.2647183E-1,1.7991969E-1,3.5687664E-3,-1.7977585E-1,8.0635445E-3,-1.8849373E-2,-2.2161955E-1,5.6936324E-2,2.2955385E-1],"split_indices":[19,160,30,141,27,0,24,39,0,0,0,0,0,2147483647,2147483647],"split_type":[0,0,0,0,0,0,0,0,0,0,0,0,0,0,0],"sum_hessian":[3.5552227E1,2.0531847E1,1.5020379E1,1.4247874E1,6.2839723E0,5.4417915E0,9.578588E0,9.225446E0,5.022429E0,3.071992E0,3.21198E0,3.2318268E0,6.3467603E0,3.270049E0,5.9553967E0],"tree_param":{"num_deleted":"2","num_feature":"189","num_nodes":"15","size_leaf_vector":"0"}},{"base_weights":[-3.994182E-2,1.360832E-1,-5.2174085E-1,-4.9479327E-1,2.8550908E-1,-5.7238135E-2,-7.414528E-1,4.7361076E-1,-3.3763036E-1,6.479554E-1,-8.041776E-3,7.7973956E-1,2.0891042E-1],"categories":[],"categories_nodes":[],"categories_segments":[],"categories_sizes":[],"default_left":[1,1,1,0,1,1,1,1,0,1,0,1,1],"id":20,"left_children":[1,3,-1,-1,7,-1,-1,9,-1,-1,-1,-1,-1],"loss_changes":[2.946404E0,2.5569463E0,9.0457535E-1,0E0,2.662676E0,0E0,0E0,1.4174352E0,0E0,5.522537E-1,0E0,0E0,0E0],"parents":[2147483647,0,0,1,1,2,2,4,4,7,7,9,9],"right_children":[2,4,-1,-1,8,-1,-1,10,-1,-1,-1,-1,-1],"split_conditions":[5.195754E-2,2.5632703E-1,-1.3043521E-1,-1.2369832E-1,3.6506787E-1,-1.4309534E-2,-1.853632E-1,1.0454548E-1,-8.440759E-2,1.6198885E-1,-2.010444E-3,1.9493489E-1,5.2227605E-2],"split_indices":[175,154,24,0,154,2147483647,2147483647,25,0,62,0,2147483647,2147483647],"split_type":[0,0,0,0,0,0,0,0,0,0,0,0,0],"sum_hessian":[3.290459E1,2.4625301E1,8.279288E0,4.2730746E0,2.0352226E1,3.063379E0,5.2159095E0,1.5817497E1,4.5347295E0,1.1360163E1,4.4573345E0,8.140663E0,3.219499E0],"tree_param":{"num_deleted":"4","num_feature":"189","num_nodes":"13","size_leaf_vector":"0"}},{"base_weights":[-3.636397E-2,3.6847714E-1,-2.1013919E-1,-1.21125765E-1,6.1358905E-1,1.0302553E-1,-5.676394E-1,-5.707037E-1,3.6052978E-1,-7.454882E-1,-8.403358E-2,-8.914789E-2,5.653164E-1,2.654096E-1,7.2146726E-1],"categories":[],"categories_nodes":[],"categories_segments":[],"categories_sizes":[],"default_left":[1,1,1,0,0,1,1,0,1,1,1,1,1,1,1],"id":21,"left_children":[1,3,5,-1,-1,7,-1,-1,-1,-1,-1,-1,-1,-1,-1],"loss_changes":[2.3283932E0,1.2710962E0,2.6361108E0,0E0,0E0,2.4817703E0,8.752241E-1,0E0,9.8087966E-1,0E0,0E0,0E0,1.4002085E-1,0E0,0E0],"parents":[2147483647,0,0,1,1,2,2,5,5,6,6,8,8,12,12],"right_children":[2,4,6,-1,-1,8,-1,-1,-1,-1,-1,-1,-1,-1,-1],"split_conditions":[3.5899007E-1,3.295567E-2,3.93248E-1,-3.0281441E-2,1.5339726E-1,6.513005E-1,-1.4190985E-1,-1.4267592E-1,9.0132445E-2,-1.8637206E-1,-2.1008395E-2,-2.2286972E-2,1.413291E-1,6.63524E-2,1.8036681E-1],"split_indices":[36,95,123,0,0,9,76,0,134,2147483647,2147483647,2147483647,2147483647,2147483647,2147483647],"split_type":[0,0,0,0,0,0,0,0,0,0,0,0,0,0,0],"sum_hessian":[3.0996E1,8.9725E0,2.20235E1,3.1621149E0,5.8103848E0,1.2119138E1,9.904363E0,3.014851E0,9.104287E0,6.845405E0,3.0589576E0,3.0254889E0,6.0787983E0,3.005695E0,3.073103E0],"tree_param":{"num_deleted":"6","num_feature":"189","num_nodes":"15","size_leaf_vector":"0"}},{"base_weights":[-3.1775754E-2,-7.023886E-1,6.9736905E-2,2.6333848E-1,-3.6079422E-1,5.2104527E-1,-6.793609E-2,-7.754494E-1,1.4873262E-1,-4.322451E-2,7.437584E-1,3.584741E-1,-4.070829E-1],"categories":[],"categories_nodes":[],"categories_segments":[],"categories_sizes":[],"default_left":[1,0,1,1,1,1,1,0,0,0,0,0,0],"id":22,"left_children":[1,-1,3,5,7,9,11,-1,-1,-1,-1,-1,-1],"loss_changes":[2.107931E0,0E0,2.3603642E0,1.6852797E0,1.9856616E0,1.412667E0,1.4967285E0,0E0,0E0,0E0,0E0,0E0,0E0],"parents":[2147483647,0,0,2,2,3,3,4,4,5,5,6,6],"right_children":[2,-1,4,6,8,10,12,-1,-1,-1,-1,-1,-1],"split_conditions":[2.3141125E-1,-1.7559715E-1,3.4665483E-1,1.5E-1,3.6733443E-1,2.0533541E-1,3.542179E-1,-1.9386235E-1,3.7183154E-2,-1.0806127E-2,1.859396E-1,8.961853E-2,-1.0177072E-1],"split_indices":[154,0,147,19,27,152,30,0,0,0,0,0,0],"split_type":[0,0,0,0,0,0,0,0,0,0,0,0,0],"sum_hessian":[2.924499E1,3.066679E0,2.617831E1,1.8325863E1,7.852448E0,9.985243E0,8.34062E0,4.041531E0,3.8109167E0,3.053857E0,6.931386E0,3.6697035E0,4.670917E0],"tree_param":{"num_deleted":"0","num_feature":"189","num_nodes":"13","size_leaf_vector":"0"}},{"base_weights":[-3.2615304E-2,1.1720641E-1,-4.4804072E-1,2.659926E-1,-3.9391005E-1,-7.165044E-1,-1.0888909E-1,-2.0568591E-1,4.866159E-1,-2.9178273E-2,6.9207424E-1,8.252456E-1,3.3373737E-1],"categories":[],"categories_nodes":[],"categories_segments":[],"categories_sizes":[],"default_left":[1,1,1,1,0,1,1,0,1,0,1,1,1],"id":23,"left_children":[1,3,-1,7,-1,-1,-1,-1,9,-1,-1,-1,-1],"loss_changes":[1.7946539E0,1.7294731E0,6.16369E-1,1.8841828E0,0E0,0E0,0E0,0E0,1.289537E0,0E0,1.3527727E-1,0E0,0E0],"parents":[2147483647,0,0,1,1,2,2,3,3,8,8,10,10],"right_children":[2,4,-1,8,-1,-1,-1,-1,10,-1,-1,-1,-1],"split_conditions":[5.195754E-2,9.835386E-1,-1.1201018E-1,7.4699455E-1,-9.847751E-2,-1.791261E-1,-2.7222272E-2,-5.142148E-2,4.6479458E-1,-7.2945682E-3,1.7301856E-1,2.063114E-1,8.343434E-2],"split_indices":[175,116,27,148,0,2147483647,2147483647,0,184,0,147,2147483647,2147483647],"split_type":[0,0,0,0,0,0,0,0,0,0,0,0,0],"sum_hessian":[2.6990805E1,2.036434E1,6.6264634E0,1.614431E1,4.2200303E0,3.0776432E0,3.5488203E0,5.1664577E0,1.0977853E1,3.3715954E0,7.6062574E0,4.595434E0,3.0108232E0],"tree_param":{"num_deleted":"4","num_feature":"189","num_nodes":"13","size_leaf_vector":"0"}},{"base_weights":[-2.7622337E-2,-6.133638E-1,7.284293E-2,-5.077199E-1,1.8720217E-1,-2.0188546E-1,3.548884E-1,5.77741E-1,-5.036576E-2,2.1622913E-1,7.1065116E-1],"categories":[],"categories_nodes":[],"categories_segments":[],"categories_sizes":[],"default_left":[1,0,1,0,1,0,1,1,0,1,1],"id":24,"left_children":[1,-1,3,-1,5,-1,7,-1,-1,-1,-1],"loss_changes":[1.6109535E0,0E0,1.662794E0,0E0,1.4064198E0,0E0,1.3529943E0,3.0463624E-1,0E0,0E0,0E0],"parents":[2147483647,0,0,2,2,4,4,6,6,7,7],"right_children":[2,-1,4,-1,6,-1,8,-1,-1,-1,-1],"split_conditions":[1.760349E-1,-1.5334095E-1,8.346547E-1,-1.2692997E-1,9.982878E-1,-5.0471365E-2,9.9887305E-1,1.4443526E-1,-1.259144E-2,5.405728E-2,1.7766279E-1],"split_indices":[37,0,49,0,131,0,119,135,0,2147483647,2147483647],"split_type":[0,0,0,0,0,0,0,0,0,0,0],"sum_hessian":[2.5616192E1,3.002942E0,2.2613249E1,3.1552794E0,1.945797E1,5.7988257E0,1.3659144E1,8.538259E0,5.120886E0,3.0014033E0,5.536855E0],"tree_param":{"num_deleted":"2","num_feature":"189","num_nodes":"11","size_leaf_vector":"0"}},{"base_weights":[-2.9352967E-2,3.223293E-1,-1.8066081E-1,7.809518E-1,-1.7513098E-1,8.499163E-2,-5.894905E-1,-3.1572708E-1,6.13518E-1,-2.1892932E-1,-7.942369E-1,-6.583016E-1,9.522981E-2],"categories":[],"categories_nodes":[],"categories_segments":[],"categories_sizes":[],"default_left":[1,1,1,0,0,1,1,1,0,1,1,0,0],"id":25,"left_children":[1,3,5,-1,-1,7,-1,11,-1,-1,-1,-1,-1],"loss_changes":[1.4081476E0,1.9597595E0,2.046079E0,0E0,0E0,2.7380767E0,3.8486457E-1,1.1176109E0,0E0,0E0,0E0,0E0,0E0],"parents":[2147483647,0,0,1,1,2,2,5,5,6,6,7,7],"right_children":[2,4,6,-1,-1,8,-1,12,-1,-1,-1,-1,-1],"split_conditions":[2.8405058E-1,6.160428E-1,3.316574E-1,1.9523795E-1,-4.3782745E-2,2.683928E-1,-1.4737262E-1,4.1128156E-1,1.533795E-1,-5.473233E-2,-1.9855922E-1,-1.645754E-1,2.3807453E-2],"split_indices":[24,30,29,0,0,29,0,40,0,2147483647,2147483647,0,0],"split_type":[0,0,0,0,0,0,0,0,0,0,0,0,0],"sum_hessian":[2.4368488E1,6.9904394E0,1.7378048E1,3.3406882E0,3.6497514E0,1.1013635E1,6.3644137E0,6.493223E0,4.5204115E0,3.0014668E0,3.3629467E0,3.2129917E0,3.2802312E0],"tree_param":{"num_deleted":"2","num_feature":"189","num_nodes":"13","size_leaf_vector":"0"}},{"base_weights":[-2.2445189E-2,-5.379358E-1,8.790278E-2,2.1220547E-1,-3.584726E-1,-3.576655E-1,4.388806E-1,-7.520635E-2,6.1689276E-1,2.88207E-1,7.554358E-1],"categories":[],"categories_nodes":[],"categories_segments":[],"categories_sizes":[],"default_left":[1,0,1,1,0,0,1,0,1,1,1],"id":26,"left_children":[1,-1,3,5,-1,-1,7,-1,-1,-1,-1],"loss_changes":[1.3809953E0,0E0,1.1953192E0,2.2762618E0,0E0,0E0,1.1616278E0,0E0,1.994319E-1,0E0,0E0],"parents":[2147483647,0,0,2,2,3,3,6,6,8,8],"right_children":[2,-1,4,6,-1,-1,8,-1,-1,-1,-1],"split_conditions":[5.8808044E-2,-1.3448395E-1,1.3725486E-1,4.1274893E-1,-8.961815E-2,-8.941638E-2,8.645417E-1,-1.8801587E-2,1.5422319E-1,7.205175E-2,1.8885896E-1],"split_indices":[47,0,25,40,0,0,49,0,110,2147483647,2147483647],"split_type":[0,0,0,0,0,0,0,0,0,0,0],"sum_hessian":[2.2446394E1,3.2745285E0,1.9171865E1,1.5406267E1,3.7655985E0,4.2197523E0,1.1186515E1,3.025783E0,8.160732E0,3.3331907E0,4.827541E0],"tree_param":{"num_deleted":"2","num_feature":"189","num_nodes":"11","size_leaf_vector":"0"}},{"base_weights":[-2.4486562E-2,1.85177E-1,-2.7748248E-1,3.6317745E-1,-2.9192692E-1,1.1586177E-1,-5.345009E-1,1.1446734E-1,6.258035E-1],"categories":[],"categories_nodes":[],"categories_segments":[],"categories_sizes":[],"default_left":[1,1,1,1,0,0,0,1,1],"id":27,"left_children":[1,3,5,-1,-1,-1,-1,-1,-1],"loss_changes":[1.2274319E0,1.1865704E0,1.1181428E0,5.627358E-1,0E0,0E0,0E0,0E0,0E0],"parents":[2147483647,0,0,1,1,2,2,3,3],"right_children":[2,4,6,-1,-1,-1,-1,-1,-1],"split_conditions":[3.9585423E-1,3.521077E-1,4.309867E-1,9.079436E-2,-7.298173E-2,2.8965443E-2,-1.3362522E-1,2.8616834E-2,1.5645087E-1],"split_indices":[123,182,36,126,0,0,0,2147483647,2147483647],"split_type":[0,0,0,0,0,0,0,0,0],"sum_hessian":[2.1171179E1,1.1723613E1,9.447565E0,8.712059E0,3.0115533E0,3.9506497E0,5.496916E0,5.2120447E0,3.5000145E0],"tree_param":{"num_deleted":"2","num_feature":"189","num_nodes":"9","size_leaf_vector":"0"}},{"base_weights":[-2.3828067E-2,1.0706081E-1,-4.090675E-1,-2.2487803E-1,3.2980907E-1,2.2315182E-1,-6.5488416E-1,-1.534375E-1,5.4466134E-1,7.1464175E-1,2.3485811E-1],"categories":[],"categories_nodes":[],"categories_segments":[],"categories_sizes":[],"default_left":[1,1,0,1,1,0,0,0,1,1,1],"id":28,"left_children":[1,3,-1,5,7,-1,-1,-1,-1,-1,-1],"loss_changes":[1.1257962E0,1.3170084E0,0E0,1.5611316E0,1.1700529E0,0E0,0E0,0E0,2.2519588E-1,0E0,0E0],"parents":[2147483647,0,0,1,1,3,3,4,4,8,8],"right_children":[2,4,-1,6,8,-1,-1,-1,-1,-1,-1],"split_conditions":[3.9285713E-1,2.3567823E-1,-1.0226688E-1,2.1528313E-2,3.6468282E-1,5.5787954E-2,-1.6372104E-1,-3.8359374E-2,1.3616534E-1,1.7866044E-1,5.8714528E-2],"split_indices":[21,35,0,0,31,0,0,0,36,2147483647,2147483647],"split_type":[0,0,0,0,0,0,0,0,0,0,0],"sum_hessian":[2.0458246E1,1.5809057E1,4.6491895E0,6.344677E0,9.464381E0,3.3428063E0,3.0018704E0,3.000805E0,6.463576E0,3.3298306E0,3.133745E0],"tree_param":{"num_deleted":"2","num_feature":"189","num_nodes":"11","size_leaf_vector":"0"}},{"base_weights":[-2.469879E-2,2.287888E-1,-2.3763342E-1,5.7846946E-1,-2.0698193E-1,-5.410397E-1,2.1400711E-1,-2.1200037E-1,-7.3039407E-1],"categories":[],"categories_nodes":[],"categories_segments":[],"categories_sizes":[],"default_left":[1,1,1,0,0,1,0,1,1],"id":29,"left_children":[1,3,5,-1,-1,-1,-1,-1,-1],"loss_changes":[1.1565831E0,1.6179298E0,1.7037544E0,0E0,0E0,2.9469895E-1,0E0,0E0,0E0],"parents":[2147483647,0,0,1,1,2,2,5,5],"right_children":[2,4,6,-1,-1,-1,-1,-1,-1],"split_conditions":[9.981009E-1,4.145167E-1,3.6733443E-1,1.4461736E-1,-5.174548E-2,-1.3525993E-1,5.3501777E-2,-5.3000093E-2,-1.8259852E-1],"split_indices":[160,22,27,0,0,145,0,2147483647,2147483647],"split_type":[0,0,0,0,0,0,0,0,0],"sum_hessian":[1.942036E1,8.83194E0,1.058842E1,4.7183084E0,4.1136312E0,6.2151914E0,4.373229E0,3.0444589E0,3.1707325E0],"tree_param":{"num_deleted":"2","num_feature":"189","num_nodes":"9","size_leaf_vector":"0"}},{"base_weights":[-1.8928982E-2,-4.3433276E-1,1.03781395E-1,2.586264E-1,-3.3031464E-1,3.9873475E-1,-1.0480373E-1,6.247081E-1,5.758515E-2],"categories":[],"categories_nodes":[],"categories_segments":[],"categories_sizes":[],"default_left":[1,0,1,1,0,1,1,1,1],"id":30,"left_children":[1,-1,3,-1,-1,-1,-1,-1,-1],"loss_changes":[1.0391824E0,0E0,1.1516349E0,6.6567725E-1,0E0,6.6180134E-1,0E0,0E0,0E0],"parents":[2147483647,0,0,2,2,3,3,5,5],"right_children":[2,-1,4,-1,-1,-1,-1,-1,-1],"split_conditions":[2.5588888E-1,-1.0858319E-1,3.4922054E-1,6.46566E-2,-8.257866E-2,9.968369E-2,-2.6200933E-2,1.5617703E-1,1.43962875E-2],"split_indices":[154,0,159,62,0,2147483647,2147483647,2147483647,2147483647],"split_type":[0,0,0,0,0,0,0,0,0],"sum_hessian":[1.8502096E1,3.6400766E0,1.4862019E1,1.1252421E1,3.6095972E0,8.05135E0,3.2010717E0,4.3432493E0,3.7081006E0],"tree_param":{"num_deleted":"4","num_feature":"189","num_nodes":"9","size_leaf_vector":"0"}},{"base_weights":[-2.1645105E-2,-2.888034E-1,1.2986752E-1,-5.832661E-1,9.0535104E-2,-2.5979814E-1,3.471926E-1,5.5628026E-1,-1.653385E-2],"categories":[],"categories_nodes":[],"categories_segments":[],"categories_sizes":[],"default_left":[1,1,1,1,1,0,1,1,1],"id":31,"left_children":[1,-1,5,-1,-1,-1,-1,-1,-1],"loss_changes":[8.084246E-1,8.573368E-1,1.1777898E0,0E0,0E0,0E0,6.687609E-1,0E0,0E0],"parents":[2147483647,0,0,1,1,2,2,6,6],"right_children":[2,-1,6,-1,-1,-1,-1,-1,-1],"split_conditions":[7.0877105E-1,-7.220085E-2,3.5317677E-1,-1.4581652E-1,2.2633776E-2,-6.4949535E-2,8.679815E-2,1.3907006E-1,-4.1334624E-3],"split_indices":[135,23,31,2147483647,2147483647,0,66,2147483647,2147483647],"split_type":[0,0,0,0,0,0,0,0,0],"sum_hessian":[1.8045439E1,6.202535E0,1.1842903E1,3.189268E0,3.013267E0,4.1702228E0,7.672681E0,4.535857E0,3.1368237E0],"tree_param":{"num_deleted":"4","num_feature":"189","num_nodes":"9","size_leaf_vector":"0"}},{"base_weights":[-1.9142976E-2,2.9114765E-1,-1.592157E-1,4.9193673E-2,-5.1236707E-1,3.1642273E-1,-3.1002E-1],"categories":[],"categories_nodes":[],"categories_segments":[],"categories_sizes":[],"default_left":[1,0,1,1,0,1,1],"id":32,"left_children":[1,-1,3,-1,-1,-1,-1],"loss_changes":[8.5637975E-1,0E0,1.0178462E0,9.9985003E-1,0E0,0E0,0E0],"parents":[2147483647,0,0,2,2,3,3],"right_children":[2,-1,4,-1,-1,-1,-1],"split_conditions":[3.5899007E-1,7.278691E-2,4.5957023E-1,1.2298418E-2,-1.2809177E-1,7.910568E-2,-7.7505E-2],"split_indices":[36,0,74,1,0,2147483647,2147483647],"split_type":[0,0,0,0,0,0,0],"sum_hessian":[1.7636997E1,5.1500354E0,1.2486961E1,8.394008E0,4.0929537E0,4.8815846E0,3.5124226E0],"tree_param":{"num_deleted":"2","num_feature":"189","num_nodes":"7","size_leaf_vector":"0"}},{"base_weights":[-1.7817337E-2,-2.867749E-1,1.2979163E-1,-9.6522704E-2,5.1308984E-1,-4.5085418E-1,2.7652225E-1],"categories":[],"categories_nodes":[],"categories_segments":[],"categories_sizes":[],"default_left":[1,0,1,1,0,0,0],"id":33,"left_children":[1,-1,3,5,-1,-1,-1],"loss_changes":[7.6088405E-1,0E0,1.1301544E0,1.2712611E0,0E0,0E0,0E0],"parents":[2147483647,0,0,2,2,3,3],"right_children":[2,-1,4,6,-1,-1,-1],"split_conditions":[7.4705005E-1,-7.1693726E-2,4.954642E-1,8.493594E-1,1.2827246E-1,-1.12713546E-1,6.913056E-2],"split_indices":[148,0,31,137,0,0,0],"split_type":[0,0,0,0,0,0,0],"sum_hessian":[1.7228037E1,5.770619E0,1.1457418E1,7.6743555E0,3.7830627E0,3.8289258E0,3.8454297E0],"tree_param":{"num_deleted":"0","num_feature":"189","num_nodes":"7","size_leaf_vector":"0"}},{"base_weights":[-1.2868709E-2,2.0334464E-1,-2.0047295E-1,5.05607E-1,-1.5838374E-1,-4.4392347E-1,1.5854904E-1],"categories":[],"categories_nodes":[],"categories_segments":[],"categories_sizes":[],"default_left":[1,1,1,0,0,1,1],"id":34,"left_children":[1,3,-1,-1,-1,-1,-1],"loss_changes":[7.534572E-1,1.0268445E0,9.3665004E-1,0E0,0E0,0E0,0E0],"parents":[2147483647,0,0,1,1,2,2],"right_children":[2,4,-1,-1,-1,-1,-1],"split_conditions":[9.981009E-1,4.145167E-1,-5.0118238E-2,1.2640175E-1,-3.9595935E-2,-1.1098087E-1,3.963726E-2],"split_indices":[160,22,27,0,0,2147483647,2147483647],"split_type":[0,0,0,0,0,0,0],"sum_hessian":[1.6570202E1,7.65915E0,8.911051E0,3.9558582E0,3.703292E0,5.169301E0,3.7417502E0],"tree_param":{"num_deleted":"2","num_feature":"189","num_nodes":"7","size_leaf_vector":"0"}},{"base_weights":[-6.886981E-3,1.6819575E-1,-2.2939119E-1,3.491768E-1,-1.8007483E-1,-4.6365377E-1,3.2746743E-2,8.5187726E-2,5.274544E-1],"categories":[],"categories_nodes":[],"categories_segments":[],"categories_sizes":[],"default_left":[1,1,1,1,1,1,1,1,1],"id":35,"left_children":[-1,-1,-1,-1,-1,-1,-1,-1,-1],"loss_changes":[7.0908123E-1,7.063607E-1,5.065981E-1,2.8725314E-1,0E0,0E0,0E0,0E0,0E0],"parents":[2147483647,0,0,1,1,2,2,3,3],"right_children":[-1,-1,-1,-1,-1,-1,-1,-1,-1],"split_conditions":[-1.7217452E-3,4.204894E-2,-5.7347797E-2,8.72942E-2,-4.5018706E-2,-1.1591344E-1,8.186686E-3,2.1296931E-2,1.318636E-1],"split_indices":[123,2147483647,2147483647,2147483647,2147483647,2147483647,2147483647,2147483647,2147483647],"split_type":[0,0,0,0,0,0,0,0,0],"sum_hessian":[1.6211405E1,9.209091E0,7.0023146E0,6.0582705E0,3.1508207E0,3.2918105E0,3.710504E0,3.0378034E0,3.020467E0],"tree_param":{"num_deleted":"8","num_feature":"189","num_nodes":"9","size_leaf_vector":"0"}},{"base_weights":[-5.265204E-3,1.6970415E-1,-2.279634E-1,3.5045996E-1,-1.7881992E-1,-4.626725E-1,3.41003E-2,8.647056E-2,5.283097E-1],"categories":[],"categories_nodes":[],"categories_segments":[],"categories_sizes":[],"default_left":[1,1,1,1,1,1,1,1,1],"id":36,"left_children":[-1,-1,-1,-1,-1,-1,-1,-1,-1],"loss_changes":[7.093334E-1,7.0598996E-1,5.0782E-1,2.858901E-1,0E0,0E0,0E0,0E0,0E0],"parents":[2147483647,0,0,1,1,2,2,3,3],"right_children":[-1,-1,-1,-1,-1,-1,-1,-1,-1],"split_conditions":[-1.316301E-3,4.242604E-2,-5.699085E-2,8.761499E-2,-4.470498E-2,-1.15668125E-1,8.525075E-3,2.161764E-2,1.3207743E-1],"split_indices":[123,2147483647,2147483647,2147483647,2147483647,2147483647,2147483647,2147483647,2147483647],"split_type":[0,0,0,0,0,0,0,0,0],"sum_hessian":[1.6211365E1,9.211804E0,6.999561E0,6.062199E0,3.1496058E0,3.2886703E0,3.7108903E0,3.0383933E0,3.0238059E0],"tree_param":{"num_deleted":"8","num_feature":"189","num_nodes":"9","size_leaf_vector":"0"}},{"base_weights":[-4.025611E-3,1.7085634E-1,-2.2687103E-1,3.5144016E-1,-1.7786212E-1,-4.6192142E-1,3.5135172E-2,8.7451585E-2,5.2896285E-1],"categories":[],"categories_nodes":[],"categories_segments":[],"categories_sizes":[],"default_left":[1,1,1,1,1,1,1,1,1],"id":37,"left_children":[-1,-1,-1,-1,-1,-1,-1,-1,-1],"loss_changes":[7.095174E-1,7.057064E-1,5.0875115E-1,2.8484535E-1,0E0,0E0,0E0,0E0,0E0],"parents":[2147483647,0,0,1,1,2,2,3,3],"right_children":[-1,-1,-1,-1,-1,-1,-1,-1,-1],"split_conditions":[-1.0064028E-3,4.2714085E-2,-5.6717757E-2,8.786004E-2,-4.446553E-2,-1.15480356E-1,8.783793E-3,2.1862896E-2,1.3224071E-1],"split_indices":[123,2147483647,2147483647,2147483647,2147483647,2147483647,2147483647,2147483647,2147483647],"split_type":[0,0,0,0,0,0,0,0,0],"sum_hessian":[1.621136E1,9.213891E0,6.99747E0,6.065215E0,3.148676E0,3.2862766E0,3.7111936E0,3.0388522E0,3.026363E0],"tree_param":{"num_deleted":"8","num_feature":"189","num_nodes":"9","size_leaf_vector":"0"}},{"base_weights":[-3.0778449E-3,1.7173718E-1,-2.2603585E-1,3.5218874E-1,-1.7712769E-1,-4.6134633E-1,3.5925653E-2,8.820095E-2,5.2946156E-1],"categories":[],"categories_nodes":[],"categories_segments":[],"categories_sizes":[],"default_left":[1,1,1,1,1,1,1,1,1],"id":38,"left_children":[-1,-1,-1,-1,-1,-1,-1,-1,-1],"loss_changes":[7.0965624E-1,7.0548064E-1,5.0945824E-1,2.8404593E-1,0E0,0E0,0E0,0E0,0E0],"parents":[2147483647,0,0,1,1,2,2,3,3],"right_children":[-1,-1,-1,-1,-1,-1,-1,-1,-1],"split_conditions":[-7.694612E-4,4.2934295E-2,-5.6508962E-2,8.8047184E-2,-4.4281922E-2,-1.1533658E-1,8.981413E-3,2.2050237E-2,1.3236539E-1],"split_indices":[123,2147483647,2147483647,2147483647,2147483647,2147483647,2147483647,2147483647,2147483647],"split_type":[0,0,0,0,0,0,0,0,0],"sum_hessian":[1.6211372E1,9.215496E0,6.9958754E0,6.067522E0,3.1479745E0,3.2844503E0,3.711425E0,3.0392034E0,3.0283186E0],"tree_param":{"num_deleted":"8","num_feature":"189","num_nodes":"9","size_leaf_vector":"0"}},{"base_weights":[-2.352662E-3,1.7241105E-1,-2.2539674E-1,3.5276148E-1,-1.7656612E-1,-4.609067E-1,3.6530618E-2,8.877447E-2,5.298433E-1],"categories":[],"categories_nodes":[],"categories_segments":[],"categories_sizes":[],"default_left":[1,1,1,1,1,1,1,1,1],"id":39,"left_children":[-1,-1,-1,-1,-1,-1,-1,-1,-1],"loss_changes":[7.0976144E-1,7.0530856E-1,5.1E-1,2.8343385E-1,0E0,0E0,0E0,0E0,0E0],"parents":[2147483647,0,0,1,1,2,2,3,3],"right_children":[-1,-1,-1,-1,-1,-1,-1,-1,-1],"split_conditions":[-5.881655E-4,4.3102764E-2,-5.6349184E-2,8.819037E-2,-4.414153E-2,-1.1522668E-1,9.132654E-3,2.2193618E-2,1.3246082E-1],"split_indices":[123,2147483647,2147483647,2147483647,2147483647,2147483647,2147483647,2147483647,2147483647],"split_type":[0,0,0,0,0,0,0,0,0],"sum_hessian":[1.62114E1,9.216737E0,6.994663E0,6.0692973E0,3.1474395E0,3.283055E0,3.7116077E0,3.0394764E0,3.0298207E0],"tree_param":{"num_deleted":"8","num_feature":"189","num_nodes":"9","size_leaf_vector":"0"}},{"base_weights":[-1.799074E-3,1.7292534E-1,-2.2490866E-1,3.5319856E-1,-1.7613763E-1,-4.6057034E-1,3.6992148E-2,8.92119E-2,5.301347E-1],"categories":[],"categories_nodes":[],"categories_segments":[],"categories_sizes":[],"default_left":[1,1,1,1,1,1,1,1,1],"id":40,"left_children":[-1,-1,-1,-1,-1,-1,-1,-1,-1],"loss_changes":[7.0983976E-1,7.051766E-1,5.104108E-1,2.8296703E-1,0E0,0E0,0E0,0E0,0E0],"parents":[2147483647,0,0,1,1,2,2,3,3],"right_children":[-1,-1,-1,-1,-1,-1,-1,-1,-1],"split_conditions":[-4.497685E-4,4.3231335E-2,-5.6227166E-2,8.829964E-2,-4.4034407E-2,-1.15142584E-1,9.248037E-3,2.2302976E-2,1.3253367E-1],"split_indices":[123,2147483647,2147483647,2147483647,2147483647,2147483647,2147483647,2147483647,2147483647],"split_type":[0,0,0,0,0,0,0,0,0],"sum_hessian":[1.6211416E1,9.217681E0,6.9937353E0,6.070651E0,3.1470294E0,3.2819908E0,3.7117448E0,3.0396829E0,3.0309682E0],"tree_param":{"num_deleted":"8","num_feature":"189","num_nodes":"9","size_leaf_vector":"0"}},{"base_weights":[-1.375297E-3,1.7331895E-1,-2.2453496E-1,3.5353297E-1,-1.7580938E-1,-4.6031323E-1,3.7345722E-2,8.954694E-2,5.303575E-1],"categories":[],"categories_nodes":[],"categories_segments":[],"categories_sizes":[],"default_left":[1,1,1,1,1,1,1,1,1],"id":41,"left_children":[-1,-1,-1,-1,-1,-1,-1,-1,-1],"loss_changes":[7.098992E-1,7.0507455E-1,5.1072663E-1,2.8260905E-1,0E0,0E0,0E0,0E0,0E0],"parents":[2147483647,0,0,1,1,2,2,3,3],"right_children":[-1,-1,-1,-1,-1,-1,-1,-1,-1],"split_conditions":[-3.4382424E-4,4.3329738E-2,-5.613374E-2,8.838324E-2,-4.3952346E-2,-1.1507831E-1,9.336431E-3,2.2386735E-2,1.3258937E-1],"split_indices":[123,2147483647,2147483647,2147483647,2147483647,2147483647,2147483647,2147483647,2147483647],"split_type":[0,0,0,0,0,0,0,0,0],"sum_hessian":[1.6211441E1,9.21841E0,6.993031E0,6.071691E0,3.1467183E0,3.281177E0,3.7118537E0,3.0398438E0,3.0318472E0],"tree_param":{"num_deleted":"8","num_feature":"189","num_nodes":"9","size_leaf_vector":"0"}},{"base_weights":[-1.0517475E-3,1.7361934E-1,-2.242494E-1,3.5378805E-1,-1.755585E-1,-4.6011704E-1,3.761605E-2,8.980262E-2,5.3052735E-1],"categories":[],"categories_nodes":[],"categories_segments":[],"categories_sizes":[],"default_left":[1,1,1,1,1,1,1,1,1],"id":42,"left_children":[-1,-1,-1,-1,-1,-1,-1,-1,-1],"loss_changes":[7.0994276E-1,7.049948E-1,5.109688E-1,2.8233516E-1,0E0,0E0,0E0,0E0,0E0],"parents":[2147483647,0,0,1,1,2,2,3,3],"right_children":[-1,-1,-1,-1,-1,-1,-1,-1,-1],"split_conditions":[-2.6293687E-4,4.3404836E-2,-5.606235E-2,8.844701E-2,-4.3889627E-2,-1.1502926E-1,9.404013E-3,2.2450656E-2,1.3263184E-1],"split_indices":[123,2147483647,2147483647,2147483647,2147483647,2147483647,2147483647,2147483647,2147483647],"split_type":[0,0,0,0,0,0,0,0,0],"sum_hessian":[1.6211452E1,9.218961E0,6.9924912E0,6.0724807E0,3.1464806E0,3.280554E0,3.7119372E0,3.0399652E0,3.0325155E0],"tree_param":{"num_deleted":"8","num_feature":"189","num_nodes":"9","size_leaf_vector":"0"}},{"base_weights":[-8.0405356E-4,1.738494E-1,-2.2403099E-1,3.539837E-1,-1.7536724E-1,-4.5996657E-1,3.7822533E-2,8.999853E-2,5.3065777E-1],"categories":[],"categories_nodes":[],"categories_segments":[],"categories_sizes":[],"default_left":[1,1,1,1,1,1,1,1,1],"id":43,"left_children":[-1,-1,-1,-1,-1,-1,-1,-1,-1],"loss_changes":[7.0997727E-1,7.0493686E-1,5.111523E-1,2.8212583E-1,0E0,0E0,0E0,0E0,0E0],"parents":[2147483647,0,0,1,1,2,2,3,3],"right_children":[-1,-1,-1,-1,-1,-1,-1,-1,-1],"split_conditions":[-2.0101339E-4,4.346235E-2,-5.6007747E-2,8.8495925E-2,-4.384181E-2,-1.1499164E-1,9.455633E-3,2.2499632E-2,1.3266444E-1],"split_indices":[123,2147483647,2147483647,2147483647,2147483647,2147483647,2147483647,2147483647,2147483647],"split_type":[0,0,0,0,0,0,0,0,0],"sum_hessian":[1.6211468E1,9.219389E0,6.9920797E0,6.073092E0,3.146297E0,3.2800791E0,3.7120006E0,3.04006E0,3.033032E0],"tree_param":{"num_deleted":"8","num_feature":"189","num_nodes":"9","size_leaf_vector":"0"}},{"base_weights":[-6.150104E-4,1.7402473E-1,-2.2386383E-1,3.5413238E-1,-1.7522027E-1,-4.5985124E-1,3.7980467E-2,9.0147495E-2,5.3075683E-1],"categories":[],"categories_nodes":[],"categories_segments":[],"categories_sizes":[],"default_left":[1,1,1,1,1,1,1,1,1],"id":44,"left_children":[-1,-1,-1,-1,-1,-1,-1,-1,-1],"loss_changes":[7.1000075E-1,7.048882E-1,5.112922E-1,2.819662E-1,0E0,0E0,0E0,0E0,0E0],"parents":[2147483647,0,0,1,1,2,2,3,3],"right_children":[-1,-1,-1,-1,-1,-1,-1,-1,-1],"split_conditions":[-1.537526E-4,4.3506183E-2,-5.5965956E-2,8.8533096E-2,-4.3805066E-2,-1.1496281E-1,9.495117E-3,2.2536874E-2,1.3268921E-1],"split_indices":[123,2147483647,2147483647,2147483647,2147483647,2147483647,2147483647,2147483647,2147483647],"split_type":[0,0,0,0,0,0,0,0,0],"sum_hessian":[1.6211473E1,9.219708E0,6.9917655E0,6.0735493E0,3.1461587E0,3.2797167E0,3.712049E0,3.0401287E0,3.0334208E0],"tree_param":{"num_deleted":"8","num_feature":"189","num_nodes":"9","size_leaf_vector":"0"}},{"base_weights":[-4.6997113E-4,1.7415953E-1,-2.237361E-1,3.5424712E-1,-1.751085E-1,-4.5976397E-1,3.810164E-2,9.026263E-2,5.3083324E-1],"categories":[],"categories_nodes":[],"categories_segments":[],"categories_sizes":[],"default_left":[1,1,1,1,1,1,1,1,1],"id":45,"left_children":[-1,-1,-1,-1,-1,-1,-1,-1,-1],"loss_changes":[7.1002185E-1,7.0485556E-1,5.1140213E-1,2.818429E-1,0E0,0E0,0E0,0E0,0E0],"parents":[2147483647,0,0,1,1,2,2,3,3],"right_children":[-1,-1,-1,-1,-1,-1,-1,-1,-1],"split_conditions":[-1.1749278E-4,4.353988E-2,-5.5934027E-2,8.856178E-2,-4.3777127E-2,-1.1494099E-1,9.52541E-3,2.2565657E-2,1.3270831E-1],"split_indices":[123,2147483647,2147483647,2147483647,2147483647,2147483647,2147483647,2147483647,2147483647],"split_type":[0,0,0,0,0,0,0,0,0],"sum_hessian":[1.6211489E1,9.219963E0,6.9915257E0,6.073911E0,3.1460514E0,3.279437E0,3.7120883E0,3.0401871E0,3.0337243E0],"tree_param":{"num_deleted":"8","num_feature":"189","num_nodes":"9","size_leaf_vector":"0"}},{"base_weights":[-3.5937814E-4,1.742622E-1,-2.236385E-1,3.5433435E-1,-1.7502294E-1,-4.5969677E-1,3.8193885E-2,9.035025E-2,5.3089124E-1],"categories":[],"categories_nodes":[],"categories_segments":[],"categories_sizes":[],"default_left":[1,1,1,1,1,1,1,1,1],"id":46,"left_children":[-1,-1,-1,-1,-1,-1,-1,-1,-1],"loss_changes":[7.1003693E-1,7.0482874E-1,5.11484E-1,2.8174883E-1,0E0,0E0,0E0,0E0,0E0],"parents":[2147483647,0,0,1,1,2,2,3,3],"right_children":[-1,-1,-1,-1,-1,-1,-1,-1,-1],"split_conditions":[-8.9844536E-5,4.356555E-2,-5.5909626E-2,8.858359E-2,-4.3755736E-2,-1.1492419E-1,9.548471E-3,2.2587562E-2,1.3272281E-1],"split_indices":[123,2147483647,2147483647,2147483647,2147483647,2147483647,2147483647,2147483647,2147483647],"split_type":[0,0,0,0,0,0,0,0,0],"sum_hessian":[1.6211494E1,9.220153E0,6.991342E0,6.0741835E0,3.1459699E0,3.279225E0,3.712117E0,3.04023E0,3.0339532E0],"tree_param":{"num_deleted":"8","num_feature":"189","num_nodes":"9","size_leaf_vector":"0"}},{"base_weights":[-2.7488137E-4,1.7434068E-1,-2.23564E-1,3.5440087E-1,-1.7495707E-1,-4.5964512E-1,3.826413E-2,9.041704E-2,5.309355E-1],"categories":[],"categories_nodes":[],"categories_segments":[],"categories_sizes":[],"default_left":[1,1,1,1,1,1,1,1,1],"id":47,"left_children":[-1,-1,-1,-1,-1,-1,-1,-1,-1],"loss_changes":[7.1004844E-1,7.048068E-1,5.115455E-1,2.8167713E-1,0E0,0E0,0E0,0E0,0E0],"parents":[2147483647,0,0,1,1,2,2,3,3],"right_children":[-1,-1,-1,-1,-1,-1,-1,-1,-1],"split_conditions":[-6.872034E-5,4.358517E-2,-5.5891E-2,8.860022E-2,-4.3739267E-2,-1.1491128E-1,9.566032E-3,2.260426E-2,1.3273388E-1],"split_indices":[123,2147483647,2147483647,2147483647,2147483647,2147483647,2147483647,2147483647,2147483647],"split_type":[0,0,0,0,0,0,0,0,0],"sum_hessian":[1.62115E1,9.220299E0,6.9912014E0,6.0743895E0,3.1459093E0,3.2790637E0,3.7121377E0,3.0402622E0,3.0341272E0],"tree_param":{"num_deleted":"8","num_feature":"189","num_nodes":"9","size_leaf_vector":"0"}},{"base_weights":[-2.1024278E-4,1.7440052E-1,-2.2350666E-1,3.5445178E-1,-1.7490731E-1,-4.596057E-1,3.831837E-2,9.046766E-2,5.3096956E-1],"categories":[],"categories_nodes":[],"categories_segments":[],"categories_sizes":[],"default_left":[1,1,1,1,1,1,1,1,1],"id":48,"left_children":[-1,-1,-1,-1,-1,-1,-1,-1,-1],"loss_changes":[7.100555E-1,7.047915E-1,5.1159406E-1,2.8162348E-1,0E0,0E0,0E0,0E0,0E0],"parents":[2147483647,0,0,1,1,2,2,3,3],"right_children":[-1,-1,-1,-1,-1,-1,-1,-1,-1],"split_conditions":[-5.2560696E-5,4.360013E-2,-5.5876665E-2,8.8612944E-2,-4.3726828E-2,-1.1490142E-1,9.579592E-3,2.2616915E-2,1.3274239E-1],"split_indices":[123,2147483647,2147483647,2147483647,2147483647,2147483647,2147483647,2147483647,2147483647],"split_type":[0,0,0,0,0,0,0,0,0],"sum_hessian":[1.6211504E1,9.220408E0,6.991096E0,6.0745473E0,3.1458607E0,3.2789402E0,3.7121556E0,3.0402849E0,3.0342627E0],"tree_param":{"num_deleted":"8","num_feature":"189","num_nodes":"9","size_leaf_vector":"0"}},{"base_weights":[-1.6061986E-4,1.7444675E-1,-2.2346316E-1,3.5449117E-1,-1.7486912E-1,-4.5957556E-1,3.835938E-2,9.050734E-2,5.309958E-1],"categories":[],"categories_nodes":[],"categories_segments":[],"categories_sizes":[],"default_left":[1,1,1,1,1,1,1,1,1],"id":49,"left_children":[-1,-1,-1,-1,-1,-1,-1,-1,-1],"loss_changes":[7.100639E-1,7.047808E-1,5.1162994E-1,2.8158092E-1,0E0,0E0,0E0,0E0,0E0],"parents":[2147483647,0,0,1,1,2,2,3,3],"right_children":[-1,-1,-1,-1,-1,-1,-1,-1,-1],"split_conditions":[-4.0154966E-5,4.3611687E-2,-5.586579E-2,8.862279E-2,-4.371728E-2,-1.1489389E-1,9.589845E-3,2.2626836E-2,1.3274895E-1],"split_indices":[123,2147483647,2147483647,2147483647,2147483647,2147483647,2147483647,2147483647,2147483647],"split_type":[0,0,0,0,0,0,0,0,0],"sum_hessian":[1.6211512E1,9.220498E0,6.991013E0,6.0746737E0,3.1458242E0,3.2788458E0,3.7121675E0,3.0403066E0,3.034367E0],"tree_param":{"num_deleted":"8","num_feature":"189","num_nodes":"9","size_leaf_vector":"0"}},{"base_weights":[-1.231303E-4,1.7448145E-1,-2.2342989E-1,3.5452047E-1,-1.7483966E-1,-4.595531E-1,3.8391102E-2,9.053632E-2,5.3101546E-1],"categories":[],"categories_nodes":[],"categories_segments":[],"categories_sizes":[],"default_left":[1,1,1,1,1,1,1,1,1],"id":50,"left_children":[-1,-1,-1,-1,-1,-1,-1,-1,-1],"loss_changes":[7.1006775E-1,7.0476985E-1,5.116594E-1,2.8155023E-1,0E0,0E0,0E0,0E0,0E0],"parents":[2147483647,0,0,1,1,2,2,3,3],"right_children":[-1,-1,-1,-1,-1,-1,-1,-1,-1],"split_conditions":[-3.0782576E-5,4.3620363E-2,-5.5857472E-2,8.863012E-2,-4.3709915E-2,-1.1488827E-1,9.5977755E-3,2.263408E-2,1.3275386E-1],"split_indices":[123,2147483647,2147483647,2147483647,2147483647,2147483647,2147483647,2147483647,2147483647],"split_type":[0,0,0,0,0,0,0,0,0],"sum_hessian":[1.621151E1,9.220559E0,6.9909506E0,6.0747614E0,3.1457973E0,3.278772E0,3.7121785E0,3.040317E0,3.0344443E0],"tree_param":{"num_deleted":"8","num_feature":"189","num_nodes":"9","size_leaf_vector":"0"}},{"base_weights":[-9.39007E-5,1.7450863E-1,-2.2340418E-1,3.545435E-1,-1.748168E-1,-4.59535E-1,3.8415182E-2,9.055971E-2,5.3103065E-1],"categories":[],"categories_nodes":[],"categories_segments":[],"categories_sizes":[],"default_left":[1,1,1,1,1,1,1,1,1],"id":51,"left_children":[-1,-1,-1,-1,-1,-1,-1,-1,-1],"loss_changes":[7.100721E-1,7.047622E-1,5.1167977E-1,2.8152478E-1,0E0,0E0,0E0,0E0,0E0],"parents":[2147483647,0,0,1,1,2,2,3,3],"right_children":[-1,-1,-1,-1,-1,-1,-1,-1,-1],"split_conditions":[-2.3475175E-5,4.3627158E-2,-5.5851046E-2,8.863588E-2,-4.37042E-2,-1.1488375E-1,9.603796E-3,2.2639928E-2,1.3275766E-1],"split_indices":[123,2147483647,2147483647,2147483647,2147483647,2147483647,2147483647,2147483647,2147483647],"split_type":[0,0,0,0,0,0,0,0,0],"sum_hessian":[1.6211514E1,9.220612E0,6.990903E0,6.074834E0,3.1457772E0,3.2787178E0,3.7121851E0,3.04033E0,3.0345042E0],"tree_param":{"num_deleted":"8","num_feature":"189","num_nodes":"9","size_leaf_vector":"0"}},{"base_weights":[-7.198243E-5,1.7452867E-1,-2.2338426E-1,3.5456064E-1,-1.7480047E-1,-4.5952162E-1,3.8434196E-2,9.057685E-2,5.310421E-1],"categories":[],"categories_nodes":[],"categories_segments":[],"categories_sizes":[],"default_left":[1,1,1,1,1,1,1,1,1],"id":52,"left_children":[-1,-1,-1,-1,-1,-1,-1,-1,-1],"loss_changes":[7.1007204E-1,7.04758E-1,5.116978E-1,2.8150624E-1,0E0,0E0,0E0,0E0,0E0],"parents":[2147483647,0,0,1,1,2,2,3,3],"right_children":[-1,-1,-1,-1,-1,-1,-1,-1,-1],"split_conditions":[-1.7995608E-5,4.363217E-2,-5.5846065E-2,8.864016E-2,-4.3700118E-2,-1.14880405E-1,9.608549E-3,2.2644212E-2,1.3276052E-1],"split_indices":[123,2147483647,2147483647,2147483647,2147483647,2147483647,2147483647,2147483647,2147483647],"split_type":[0,0,0,0,0,0,0,0,0],"sum_hessian":[1.6211514E1,9.220645E0,6.9908695E0,6.074886E0,3.1457586E0,3.2786756E0,3.712194E0,3.0403373E0,3.0345488E0],"tree_param":{"num_deleted":"8","num_feature":"189","num_nodes":"9","size_leaf_vector":"0"}},{"base_weights":[-5.4850218E-5,1.7454495E-1,-2.2336984E-1,3.5457414E-1,-1.7478587E-1,-4.5951137E-1,3.8447656E-2,9.059046E-2,5.3105104E-1],"categories":[],"categories_nodes":[],"categories_segments":[],"categories_sizes":[],"default_left":[1,1,1,1,1,1,1,1,1],"id":53,"left_children":[-1,-1,-1,-1,-1,-1,-1,-1,-1],"loss_changes":[7.1007806E-1,7.047504E-1,5.1170856E-1,2.8149176E-1,0E0,0E0,0E0,0E0,0E0],"parents":[2147483647,0,0,1,1,2,2,3,3],"right_children":[-1,-1,-1,-1,-1,-1,-1,-1,-1],"split_conditions":[-1.3712554E-5,4.3636236E-2,-5.584246E-2,8.8643536E-2,-4.3696467E-2,-1.1487784E-1,9.611914E-3,2.2647616E-2,1.3276276E-1],"split_indices":[123,2147483647,2147483647,2147483647,2147483647,2147483647,2147483647,2147483647,2147483647],"split_type":[0,0,0,0,0,0,0,0,0],"sum_hessian":[1.621152E1,9.22068E0,6.990838E0,6.074929E0,3.1457512E0,3.278643E0,3.7121952E0,3.0403447E0,3.0345843E0],"tree_param":{"num_deleted":"8","num_feature":"189","num_nodes":"9","size_leaf_vector":"0"}},{"base_weights":[-4.1731448E-5,1.7455703E-1,-2.2335808E-1,3.5458457E-1,-1.7477629E-1,-4.5950308E-1,3.8458638E-2,9.060056E-2,5.310582E-1],"categories":[],"categories_nodes":[],"categories_segments":[],"categories_sizes":[],"default_left":[1,1,1,1,1,1,1,1,1],"id":54,"left_children":[-1,-1,-1,-1,-1,-1,-1,-1,-1],"loss_changes":[7.10079E-1,7.047491E-1,5.1171786E-1,2.814815E-1,0E0,0E0,0E0,0E0,0E0],"parents":[2147483647,0,0,1,1,2,2,3,3],"right_children":[-1,-1,-1,-1,-1,-1,-1,-1,-1],"split_conditions":[-1.0432862E-5,4.3639258E-2,-5.583952E-2,8.864614E-2,-4.369407E-2,-1.1487577E-1,9.6146595E-3,2.265014E-2,1.3276455E-1],"split_indices":[123,2147483647,2147483647,2147483647,2147483647,2147483647,2147483647,2147483647,2147483647],"split_type":[0,0,0,0,0,0,0,0,0],"sum_hessian":[1.6211521E1,9.220703E0,6.990818E0,6.0749626E0,3.14574E0,3.278619E0,3.7121992E0,3.0403488E0,3.0346138E0],"tree_param":{"num_deleted":"8","num_feature":"189","num_nodes":"9","size_leaf_vector":"0"}},{"base_weights":[-3.191289E-5,1.7456624E-1,-2.2334957E-1,3.545925E-1,-1.74769E-1,-4.594976E-1,3.8466923E-2,9.060854E-2,5.310635E-1],"categories":[],"categories_nodes":[],"categories_segments":[],"categories_sizes":[],"default_left":[1,1,1,1,1,1,1,1,1],"id":55,"left_children":[-1,-1,-1,-1,-1,-1,-1,-1,-1],"loss_changes":[7.100811E-1,7.047479E-1,5.1172626E-1,2.8147304E-1,0E0,0E0,0E0,0E0,0E0],"parents":[2147483647,0,0,1,1,2,2,3,3],"right_children":[-1,-1,-1,-1,-1,-1,-1,-1,-1],"split_conditions":[-7.978222E-6,4.364156E-2,-5.5837393E-2,8.8648126E-2,-4.369225E-2,-1.148744E-1,9.616731E-3,2.2652134E-2,1.3276587E-1],"split_indices":[123,2147483647,2147483647,2147483647,2147483647,2147483647,2147483647,2147483647,2147483647],"split_type":[0,0,0,0,0,0,0,0,0],"sum_hessian":[1.6211521E1,9.22072E0,6.9908004E0,6.074989E0,3.1457314E0,3.2785985E0,3.7122018E0,3.0403533E0,3.0346353E0],"tree_param":{"num_deleted":"8","num_feature":"189","num_nodes":"9","size_leaf_vector":"0"}},{"base_weights":[-2.4396148E-5,1.7457306E-1,-2.2334267E-1,3.5459834E-1,-1.7476343E-1,-4.5949295E-1,3.84735E-2,9.06144E-2,5.310674E-1],"categories":[],"categories_nodes":[],"categories_segments":[],"categories_sizes":[],"default_left":[1,1,1,1,1,1,1,1,1],"id":56,"left_children":[-1,-1,-1,-1,-1,-1,-1,-1,-1],"loss_changes":[7.100806E-1,7.047466E-1,5.117325E-1,2.8146672E-1,0E0,0E0,0E0,0E0,0E0],"parents":[2147483647,0,0,1,1,2,2,3,3],"right_children":[-1,-1,-1,-1,-1,-1,-1,-1,-1],"split_conditions":[-6.099037E-6,4.3643266E-2,-5.5835668E-2,8.8649586E-2,-4.3690857E-2,-1.1487324E-1,9.618375E-3,2.26536E-2,1.3276684E-1],"split_indices":[123,2147483647,2147483647,2147483647,2147483647,2147483647,2147483647,2147483647,2147483647],"split_type":[0,0,0,0,0,0,0,0,0],"sum_hessian":[1.6211521E1,9.220732E0,6.99079E0,6.075006E0,3.145725E0,3.2785845E0,3.7122054E0,3.040356E0,3.0346503E0],"tree_param":{"num_deleted":"8","num_feature":"189","num_nodes":"9","size_leaf_vector":"0"}},{"base_weights":[-1.8548442E-5,1.7457843E-1,-2.233374E-1,3.5460287E-1,-1.7475887E-1,-4.5948902E-1,3.8478307E-2,9.061915E-2,5.3107023E-1],"categories":[],"categories_nodes":[],"categories_segments":[],"categories_sizes":[],"default_left":[1,1,1,1,1,1,1,1,1],"id":57,"left_children":[-1,-1,-1,-1,-1,-1,-1,-1,-1],"loss_changes":[7.1008086E-1,7.047447E-1,5.117359E-1,2.8146124E-1,0E0,0E0,0E0,0E0,0E0],"parents":[2147483647,0,0,1,1,2,2,3,3],"right_children":[-1,-1,-1,-1,-1,-1,-1,-1,-1],"split_conditions":[-4.6371106E-6,4.3644607E-2,-5.583435E-2,8.865072E-2,-4.3689717E-2,-1.14872254E-1,9.619577E-3,2.2654787E-2,1.3276756E-1],"split_indices":[123,2147483647,2147483647,2147483647,2147483647,2147483647,2147483647,2147483647,2147483647],"split_type":[0,0,0,0,0,0,0,0,0],"sum_hessian":[1.6211521E1,9.22074E0,6.990781E0,6.07502E0,3.145721E0,3.2785745E0,3.7122064E0,3.0403588E0,3.0346613E0],"tree_param":{"num_deleted":"8","num_feature":"189","num_nodes":"9","size_leaf_vector":"0"}},{"base_weights":[-1.4226339E-5,1.7458247E-1,-2.2333361E-1,3.546064E-1,-1.7475581E-1,-4.5948634E-1,3.8481854E-2,9.062267E-2,5.310726E-1],"categories":[],"categories_nodes":[],"categories_segments":[],"categories_sizes":[],"default_left":[1,1,1,1,1,1,1,1,1],"id":58,"left_children":[-1,-1,-1,-1,-1,-1,-1,-1,-1],"loss_changes":[7.100815E-1,7.047447E-1,5.1173896E-1,2.8145742E-1,0E0,0E0,0E0,0E0,0E0],"parents":[2147483647,0,0,1,1,2,2,3,3],"right_children":[-1,-1,-1,-1,-1,-1,-1,-1,-1],"split_conditions":[-3.5565847E-6,4.3645617E-2,-5.5833403E-2,8.86516E-2,-4.3688953E-2,-1.14871584E-1,9.6204635E-3,2.2655668E-2,1.3276815E-1],"split_indices":[123,2147483647,2147483647,2147483647,2147483647,2147483647,2147483647,2147483647,2147483647],"split_type":[0,0,0,0,0,0,0,0,0],"sum_hessian":[1.6211521E1,9.220748E0,6.990773E0,6.0750313E0,3.1457164E0,3.278566E0,3.712207E0,3.0403605E0,3.0346708E0],"tree_param":{"num_deleted":"8","num_feature":"189","num_nodes":"9","size_leaf_vector":"0"}},{"base_weights":[-1.1087956E-5,1.7458555E-1,-2.2333117E-1,3.5460892E-1,-1.7475292E-1,-4.5948452E-1,3.8484074E-2,9.0625E-2,5.310744E-1],"categories":[],"categories_nodes":[],"categories_segments":[],"categories_sizes":[],"default_left":[1,1,1,1,1,1,1,1,1],"id":59,"left_children":[-1,-1,-1,-1,-1,-1,-1,-1,-1],"loss_changes":[7.100836E-1,7.047429E-1,5.117402E-1,2.814554E-1,0E0,0E0,0E0,0E0,0E0],"parents":[2147483647,0,0,1,1,2,2,3,3],"right_children":[-1,-1,-1,-1,-1,-1,-1,-1,-1],"split_conditions":[-2.771989E-6,4.3646388E-2,-5.5832792E-2,8.865223E-2,-4.368823E-2,-1.1487113E-1,9.621019E-3,2.265625E-2,1.327686E-1],"split_indices":[123,2147483647,2147483647,2147483647,2147483647,2147483647,2147483647,2147483647,2147483647],"split_type":[0,0,0,0,0,0,0,0,0],"sum_hessian":[1.621152E1,9.220755E0,6.990765E0,6.075039E0,3.1457155E0,3.2785594E0,3.7122056E0,3.0403607E0,3.034678E0],"tree_param":{"num_deleted":"8","num_feature":"189","num_nodes":"9","size_leaf_vector":"0"}},{"base_weights":[-8.394948E-6,1.7458801E-1,-2.233287E-1,3.546107E-1,-1.7474994E-1,-4.5948297E-1,3.8486507E-2,9.06271E-2,5.3107536E-1],"categories":[],"categories_nodes":[],"categories_segments":[],"categories_sizes":[],"default_left":[1,1,1,1,1,1,1,1,1],"id":60,"left_children":[-1,-1,-1,-1,-1,-1,-1,-1,-1],"loss_changes":[7.100835E-1,7.0473903E-1,5.1174283E-1,2.8145242E-1,0E0,0E0,0E0,0E0,0E0],"parents":[2147483647,0,0,1,1,2,2,3,3],"right_children":[-1,-1,-1,-1,-1,-1,-1,-1,-1],"split_conditions":[-2.098737E-6,4.3647002E-2,-5.5832174E-2,8.865268E-2,-4.3687485E-2,-1.1487074E-1,9.621627E-3,2.2656774E-2,1.3276884E-1],"split_indices":[123,2147483647,2147483647,2147483647,2147483647,2147483647,2147483647,2147483647,2147483647],"split_type":[0,0,0,0,0,0,0,0,0],"sum_hessian":[1.621152E1,9.220758E0,6.9907613E0,6.075042E0,3.1457167E0,3.278554E0,3.712207E0,3.0403616E0,3.0346801E0],"tree_param":{"num_deleted":"8","num_feature":"189","num_nodes":"9","size_leaf_vector":"0"}},{"base_weights":[-6.6139614E-6,1.7458968E-1,-2.2332716E-1,3.5461217E-1,-1.747487E-1,-4.5948187E-1,3.8487934E-2,9.062843E-2,5.3107643E-1],"categories":[],"categories_nodes":[],"categories_segments":[],"categories_sizes":[],"default_left":[1,1,1,1,1,1,1,1,1],"id":61,"left_children":[-1,-1,-1,-1,-1,-1,-1,-1,-1],"loss_changes":[7.1008384E-1,7.047391E-1,5.1174396E-1,2.8145123E-1,0E0,0E0,0E0,0E0,0E0],"parents":[2147483647,0,0,1,1,2,2,3,3],"right_children":[-1,-1,-1,-1,-1,-1,-1,-1,-1],"split_conditions":[-1.6534904E-6,4.364742E-2,-5.583179E-2,8.865304E-2,-4.3687176E-2,-1.1487047E-1,9.621983E-3,2.2657108E-2,1.3276911E-1],"split_indices":[123,2147483647,2147483647,2147483647,2147483647,2147483647,2147483647,2147483647,2147483647],"split_type":[0,0,0,0,0,0,0,0,0],"sum_hessian":[1.6211517E1,9.22076E0,6.990757E0,6.075046E0,3.1457143E0,3.27855E0,3.7122068E0,3.0403616E0,3.0346844E0],"tree_param":{"num_deleted":"8","num_feature":"189","num_nodes":"9","size_leaf_vector":"0"}},{"base_weights":[-5.1651514E-6,1.7459095E-1,-2.2332573E-1,3.546133E-1,-1.7474781E-1,-4.5948097E-1,3.848933E-2,9.0629406E-2,5.3107727E-1],"categories":[],"categories_nodes":[],"categories_segments":[],"categories_sizes":[],"default_left":[1,1,1,1,1,1,1,1,1],"id":62,"left_children":[-1,-1,-1,-1,-1,-1,-1,-1,-1],"loss_changes":[7.1008325E-1,7.047392E-1,5.1174545E-1,2.814504E-1,0E0,0E0,0E0,0E0,0E0],"parents":[2147483647,0,0,1,1,2,2,3,3],"right_children":[-1,-1,-1,-1,-1,-1,-1,-1,-1],"split_conditions":[-1.2912878E-6,4.3647736E-2,-5.5831432E-2,8.8653326E-2,-4.3686952E-2,-1.1487024E-1,9.622333E-3,2.2657352E-2,1.3276932E-1],"split_indices":[123,2147483647,2147483647,2147483647,2147483647,2147483647,2147483647,2147483647,2147483647],"split_type":[0,0,0,0,0,0,0,0,0],"sum_hessian":[1.6211517E1,9.220762E0,6.9907556E0,6.0750494E0,3.1457124E0,3.2785473E0,3.7122083E0,3.0403614E0,3.034688E0],"tree_param":{"num_deleted":"8","num_feature":"189","num_nodes":"9","size_leaf_vector":"0"}},{"base_weights":[-3.7078892E-6,1.7459233E-1,-2.2332454E-1,3.546146E-1,-1.7474696E-1,-4.5948035E-1,3.8490575E-2,9.063091E-2,5.3107804E-1],"categories":[],"categories_nodes":[],"categories_segments":[],"categories_sizes":[],"default_left":[1,1,1,1,1,1,1,1,1],"id":63,"left_children":[-1,-1,-1,-1,-1,-1,-1,-1,-1],"loss_changes":[7.10084E-1,7.047401E-1,5.117473E-1,2.8144848E-1,0E0,0E0,0E0,0E0,0E0],"parents":[2147483647,0,0,1,1,2,2,3,3],"right_children":[-1,-1,-1,-1,-1,-1,-1,-1,-1],"split_conditions":[-9.269723E-7,4.3648083E-2,-5.5831134E-2,8.865365E-2,-4.368674E-2,-1.1487009E-1,9.622644E-3,2.2657728E-2,1.3276951E-1],"split_indices":[123,2147483647,2147483647,2147483647,2147483647,2147483647,2147483647,2147483647,2147483647],"split_type":[0,0,0,0,0,0,0,0,0],"sum_hessian":[1.6211521E1,9.220767E0,6.990754E0,6.075056E0,3.1457112E0,3.2785447E0,3.7122095E0,3.0403643E0,3.0346918E0],"tree_param":{"num_deleted":"8","num_feature":"189","num_nodes":"9","size_leaf_vector":"0"}},{"base_weights":[-2.74611E-6,1.7459331E-1,-2.2332385E-1,3.5461548E-1,-1.7474629E-1,-4.5947966E-1,3.8491108E-2,9.063155E-2,5.3107876E-1],"categories":[],"categories_nodes":[],"categories_segments":[],"categories_sizes":[],"default_left":[1,1,1,1,1,1,1,1,1],"id":64,"left_children":[-1,-1,-1,-1,-1,-1,-1,-1,-1],"loss_changes":[7.1008503E-1,7.0474046E-1,5.11747E-1,2.8144836E-1,0E0,0E0,0E0,0E0,0E0],"parents":[2147483647,0,0,1,1,2,2,3,3],"right_children":[-1,-1,-1,-1,-1,-1,-1,-1,-1],"split_conditions":[-6.865275E-7,4.364833E-2,-5.5830963E-2,8.865387E-2,-4.3686572E-2,-1.14869915E-1,9.622777E-3,2.2657888E-2,1.3276969E-1],"split_indices":[123,2147483647,2147483647,2147483647,2147483647,2147483647,2147483647,2147483647,2147483647],"split_type":[0,0,0,0,0,0,0,0,0],"sum_hessian":[1.6211523E1,9.220771E0,6.9907517E0,6.07506E0,3.1457105E0,3.2785432E0,3.7122087E0,3.0403643E0,3.0346956E0],"tree_param":{"num_deleted":"8","num_feature":"189","num_nodes":"9","size_leaf_vector":"0"}},{"base_weights":[-2.195902E-6,1.7459384E-1,-2.2332337E-1,3.5461596E-1,-1.7474602E-1,-4.5947915E-1,3.849145E-2,9.063211E-2,5.3107905E-1],"categories":[],"categories_nodes":[],"categories_segments":[],"categories_sizes":[],"default_left":[1,1,1,1,1,1,1,1,1],"id":65,"left_children":[-1,-1,-1,-1,-1,-1,-1,-1,-1],"loss_changes":[7.1008515E-1,7.047409E-1,5.117469E-1,2.8144765E-1,0E0,0E0,0E0,0E0,0E0],"parents":[2147483647,0,0,1,1,2,2,3,3],"right_children":[-1,-1,-1,-1,-1,-1,-1,-1,-1],"split_conditions":[-5.489755E-7,4.364846E-2,-5.5830844E-2,8.865399E-2,-4.3686505E-2,-1.1486979E-1,9.622863E-3,2.2658028E-2,1.3276976E-1],"split_indices":[123,2147483647,2147483647,2147483647,2147483647,2147483647,2147483647,2147483647,2147483647],"split_type":[0,0,0,0,0,0,0,0,0],"sum_hessian":[1.6211521E1,9.220771E0,6.990751E0,6.075062E0,3.1457095E0,3.2785425E0,3.7122083E0,3.040365E0,3.0346968E0],"tree_param":{"num_deleted":"8","num_feature":"189","num_nodes":"9","size_leaf_vector":"0"}},{"base_weights":[-1.8163785E-6,1.7459424E-1,-2.2332315E-1,3.546163E-1,-1.7474565E-1,-4.59479E-1,3.849166E-2,9.0632565E-2,5.3107923E-1],"categories":[],"categories_nodes":[],"categories_segments":[],"categories_sizes":[],"default_left":[1,1,1,1,1,1,1,1,1],"id":66,"left_children":[-1,-1,-1,-1,-1,-1,-1,-1,-1],"loss_changes":[7.1008575E-1,7.0474064E-1,5.117469E-1,2.8144705E-1,0E0,0E0,0E0,0E0,0E0],"parents":[2147483647,0,0,1,1,2,2,3,3],"right_children":[-1,-1,-1,-1,-1,-1,-1,-1,-1],"split_conditions":[-4.5409462E-7,4.364856E-2,-5.5830788E-2,8.865408E-2,-4.3686412E-2,-1.1486975E-1,9.622915E-3,2.2658141E-2,1.3276981E-1],"split_indices":[123,2147483647,2147483647,2147483647,2147483647,2147483647,2147483647,2147483647,2147483647],"split_type":[0,0,0,0,0,0,0,0,0],"sum_hessian":[1.6211521E1,9.220772E0,6.990749E0,6.0750628E0,3.1457093E0,3.2785413E0,3.7122076E0,3.0403657E0,3.034697E0],"tree_param":{"num_deleted":"8","num_feature":"189","num_nodes":"9","size_leaf_vector":"0"}},{"base_weights":[-1.4050718E-6,1.7459463E-1,-2.233228E-1,3.5461658E-1,-1.7474519E-1,-4.5947868E-1,3.849196E-2,9.06329E-2,5.310794E-1],"categories":[],"categories_nodes":[],"categories_segments":[],"categories_sizes":[],"default_left":[1,1,1,1,1,1,1,1,1],"id":67,"left_children":[-1,-1,-1,-1,-1,-1,-1,-1,-1],"loss_changes":[7.100858E-1,7.0474017E-1,5.11747E-1,2.8144652E-1,0E0,0E0,0E0,0E0,0E0],"parents":[2147483647,0,0,1,1,2,2,3,3],"right_children":[-1,-1,-1,-1,-1,-1,-1,-1,-1],"split_conditions":[-3.5126794E-7,4.3648656E-2,-5.58307E-2,8.8654146E-2,-4.3686297E-2,-1.1486967E-1,9.62299E-3,2.2658225E-2,1.3276985E-1],"split_indices":[123,2147483647,2147483647,2147483647,2147483647,2147483647,2147483647,2147483647,2147483647],"split_type":[0,0,0,0,0,0,0,0,0],"sum_hessian":[1.6211521E1,9.220773E0,6.990748E0,6.075063E0,3.1457093E0,3.2785406E0,3.7122073E0,3.0403657E0,3.0346973E0],"tree_param":{"num_deleted":"8","num_feature":"189","num_nodes":"9","size_leaf_vector":"0"}},{"base_weights":[-1.0670947E-6,1.7459495E-1,-2.2332251E-1,3.5461688E-1,-1.7474495E-1,-4.5947853E-1,3.8492247E-2,9.063314E-2,5.310796E-1],"categories":[],"categories_nodes":[],"categories_segments":[],"categories_sizes":[],"default_left":[1,1,1,1,1,1,1,1,1],"id":68,"left_children":[-1,-1,-1,-1,-1,-1,-1,-1,-1],"loss_changes":[7.10086E-1,7.047401E-1,5.1174736E-1,2.8144628E-1,0E0,0E0,0E0,0E0,0E0],"parents":[2147483647,0,0,1,1,2,2,3,3],"right_children":[-1,-1,-1,-1,-1,-1,-1,-1,-1],"split_conditions":[-2.6677367E-7,4.364874E-2,-5.5830628E-2,8.865422E-2,-4.3686237E-2,-1.1486963E-1,9.623062E-3,2.2658285E-2,1.327699E-1],"split_indices":[123,2147483647,2147483647,2147483647,2147483647,2147483647,2147483647,2147483647,2147483647],"split_type":[0,0,0,0,0,0,0,0,0],"sum_hessian":[1.6211521E1,9.220773E0,6.9907475E0,6.075064E0,3.145709E0,3.27854E0,3.7122073E0,3.0403657E0,3.0346985E0],"tree_param":{"num_deleted":"8","num_feature":"189","num_nodes":"9","size_leaf_vector":"0"}},{"base_weights":[-8.353939E-7,1.7459515E-1,-2.2332227E-1,3.54617E-1,-1.7474471E-1,-4.5947835E-1,3.849246E-2,9.0633295E-2,5.310797E-1],"categories":[],"categories_nodes":[],"categories_segments":[],"categories_sizes":[],"default_left":[1,1,1,1,1,1,1,1,1],"id":69,"left_children":[-1,-1,-1,-1,-1,-1,-1,-1,-1],"loss_changes":[7.1008575E-1,7.047397E-1,5.117474E-1,2.8144604E-1,0E0,0E0,0E0,0E0,0E0],"parents":[2147483647,0,0,1,1,2,2,3,3],"right_children":[-1,-1,-1,-1,-1,-1,-1,-1,-1],"split_conditions":[-2.0884848E-7,4.3648787E-2,-5.5830568E-2,8.865425E-2,-4.3686178E-2,-1.1486959E-1,9.623115E-3,2.2658324E-2,1.3276993E-1],"split_indices":[123,2147483647,2147483647,2147483647,2147483647,2147483647,2147483647,2147483647,2147483647],"split_type":[0,0,0,0,0,0,0,0,0],"sum_hessian":[1.621152E1,9.220772E0,6.9907465E0,6.0750637E0,3.1457086E0,3.2785392E0,3.712207E0,3.0403655E0,3.0346982E0],"tree_param":{"num_deleted":"8","num_feature":"189","num_nodes":"9","size_leaf_vector":"0"}},{"base_weights":[-7.561763E-7,1.7459522E-1,-2.233222E-1,3.546171E-1,-1.7474467E-1,-4.594783E-1,3.8492527E-2,9.063339E-2,5.310797E-1],"categories":[],"categories_nodes":[],"categories_segments":[],"categories_sizes":[],"default_left":[1,1,1,1,1,1,1,1,1],"id":70,"left_children":[-1,-1,-1,-1,-1,-1,-1,-1,-1],"loss_changes":[7.1008575E-1,7.0473963E-1,5.117475E-1,2.8144574E-1,0E0,0E0,0E0,0E0,0E0],"parents":[2147483647,0,0,1,1,2,2,3,3],"right_children":[-1,-1,-1,-1,-1,-1,-1,-1,-1],"split_conditions":[-1.8904407E-7,4.3648805E-2,-5.583055E-2,8.865427E-2,-4.3686166E-2,-1.1486957E-1,9.623132E-3,2.2658348E-2,1.3276993E-1],"split_indices":[123,2147483647,2147483647,2147483647,2147483647,2147483647,2147483647,2147483647,2147483647],"split_type":[0,0,0,0,0,0,0,0,0],"sum_hessian":[1.6211517E1,9.220772E0,6.990746E0,6.0750637E0,3.1457083E0,3.278539E0,3.712207E0,3.0403655E0,3.0346982E0],"tree_param":{"num_deleted":"8","num_feature":"189","num_nodes":"9","size_leaf_vector":"0"}},{"base_weights":[-6.4936233E-7,1.745953E-1,-2.2332206E-1,3.5461715E-1,-1.7474462E-1,-4.5947808E-1,3.8492583E-2,9.0633444E-2,5.3107977E-1],"categories":[],"categories_nodes":[],"categories_segments":[],"categories_sizes":[],"default_left":[1,1,1,1,1,1,1,1,1],"id":71,"left_children":[-1,-1,-1,-1,-1,-1,-1,-1,-1],"loss_changes":[7.100855E-1,7.0473963E-1,5.117471E-1,2.8144592E-1,0E0,0E0,0E0,0E0,0E0],"parents":[2147483647,0,0,1,1,2,2,3,3],"right_children":[-1,-1,-1,-1,-1,-1,-1,-1,-1],"split_conditions":[-1.6234058E-7,4.3648824E-2,-5.5830516E-2,8.865429E-2,-4.3686155E-2,-1.1486952E-1,9.623146E-3,2.2658361E-2,1.3276994E-1],"split_indices":[123,2147483647,2147483647,2147483647,2147483647,2147483647,2147483647,2147483647,2147483647],"split_type":[0,0,0,0,0,0,0,0,0],"sum_hessian":[1.6211517E1,9.220772E0,6.990746E0,6.0750637E0,3.145708E0,3.278539E0,3.7122068E0,3.0403652E0,3.0346985E0],"tree_param":{"num_deleted":"8","num_feature":"189","num_nodes":"9","size_leaf_vector":"0"}},{"base_weights":[-5.485005E-7,1.7459542E-1,-2.2332202E-1,3.5461724E-1,-1.7474452E-1,-4.5947805E-1,3.8492627E-2,9.0633556E-2,5.310798E-1],"categories":[],"categories_nodes":[],"categories_segments":[],"categories_sizes":[],"default_left":[1,1,1,1,1,1,1,1,1],"id":72,"left_children":[-1,-1,-1,-1,-1,-1,-1,-1,-1],"loss_changes":[7.1008575E-1,7.047396E-1,5.117471E-1,2.814458E-1,0E0,0E0,0E0,0E0,0E0],"parents":[2147483647,0,0,1,1,2,2,3,3],"right_children":[-1,-1,-1,-1,-1,-1,-1,-1,-1],"split_conditions":[-1.3712513E-7,4.3648854E-2,-5.5830505E-2,8.865431E-2,-4.368613E-2,-1.1486951E-1,9.623157E-3,2.2658389E-2,1.3276996E-1],"split_indices":[123,2147483647,2147483647,2147483647,2147483647,2147483647,2147483647,2147483647,2147483647],"split_type":[0,0,0,0,0,0,0,0,0],"sum_hessian":[1.6211517E1,9.220772E0,6.9907455E0,6.075064E0,3.145708E0,3.2785387E0,3.7122068E0,3.0403655E0,3.0346985E0],"tree_param":{"num_deleted":"8","num_feature":"189","num_nodes":"9","size_leaf_vector":"0"}}]},"name":"gbtree"},"learner_model_param":{"base_score":"5E-1","boost_from_average":"1","num_class":"0","num_feature":"189","num_target":"1"},"objective":{"name":"binary:logistic","reg_loss_param":{"scale_pos_weight":"1"}}},"version":[1,7,6]}