{"learner":{"attributes":{"best_iteration":"41","best_ntree_limit":"42","scikit_learn":"{\"use_label_encoder\": null, \"n_estimators\": 42, \"objective\": \"binary:logistic\", \"max_depth\": 9, \"max_leaves\": null, \"max_bin\": null, \"grow_policy\": null, \"learning_rate\": 0.5, \"verbosity\": null, \"booster\": null, \"tree_method\": null, \"gamma\": 2, \"min_child_weight\": 7, \"max_delta_step\": null, \"subsample\": null, \"sampling_method\": null, \"colsample_bytree\": null, \"colsample_bylevel\": null, \"colsample_bynode\": null, \"reg_alpha\": null, \"reg_lambda\": null, \"scale_pos_weight\": null, \"base_score\": null, \"missing\": NaN, \"num_parallel_tree\": null, \"random_state\": 1, \"n_jobs\": null, \"monotone_constraints\": null, \"interaction_constraints\": null, \"importance_type\": null, \"gpu_id\": null, \"validate_parameters\": null, \"predictor\": null, \"enable_categorical\": false, \"feature_types\": null, \"max_cat_to_onehot\": null, \"max_cat_threshold\": null, \"eval_metric\": null, \"early_stopping_rounds\": null, \"callbacks\": null, \"classes_\": [0.0, 1.0], \"n_classes_\": 2, \"_estimator_type\": \"classifier\"}"},"feature_names":[],"feature_types":[],"gradient_booster":{"model":{"gbtree_model_param":{"num_parallel_tree":"1","num_trees":"42","size_leaf_vector":"0"},"tree_info":[0,0,0,0,0,0,0,0,0,0,0,0,0,0,0,0,0,0,0,0,0,0,0,0,0,0,0,0,0,0,0,0,0,0,0,0,0,0,0,0,0,0],"trees":[{"base_weights":[-0E0,1.04E0,-1.3514851E0,1.2870865E0,-9.74359E-1,-1.5952064E0,1.7377049E0,-1.6E0,1.477866E0,5.777778E-1,-1.8421053E0,2.3076923E-1,-1.7211949E0,7.272727E-2,1.6696774E0,-1.0886075E0,-1.8907104E0,-1.3125E0,1.84E0,1.7759563E0,-1.2765957E-1,-1.744E0,1.2432432E0,-7.4285716E-1,-1.953668E0,-6.25E-1,-1.7777778E0,1.8658892E0,4E-1,-1E0,-1.9175258E0,1.9209726E0,5E-1,1.9746032E0,6.25E-1],"categories":[],"categories_nodes":[],"categories_segments":[],"categories_sizes":[],"default_left":[1,1,1,1,1,1,0,0,1,0,0,0,1,1,1,1,1,1,0,1,0,1,0,0,0,0,0,1,0,0,0,1,0,0,0],"id":0,"left_children":[1,3,5,7,9,11,-1,-1,13,-1,-1,-1,15,17,19,21,23,25,-1,27,-1,29,-1,-1,-1,-1,-1,31,-1,-1,-1,33,-1,-1,-1],"loss_changes":[6.528755E2,1.3190576E2,1.5485803E2,1.3138889E2,4.046001E1,4.3589447E1,0E0,0E0,5.924066E1,0E0,0E0,0E0,1.6788025E1,6.9737045E1,3.7236633E1,6.2535164E1,8.467224E0,4.0069447E0,0E0,2.1898743E1,0E0,2.116951E0,0E0,0E0,0E0,0E0,0E0,1.194281E1,0E0,0E0,0E0,1.0199219E1,0E0,0E0,0E0],"parents":[2147483647,0,0,1,1,2,2,3,3,4,4,5,5,8,8,12,12,13,13,14,14,15,15,16,16,17,17,19,19,21,21,27,27,31,31],"right_children":[2,4,6,8,10,12,-1,-1,14,-1,-1,-1,16,18,20,22,24,26,-1,28,-1,30,-1,-1,-1,-1,-1,32,-1,-1,-1,34,-1,-1,-1],"split_conditions":[3.1973642E-1,3.6691126E-1,5.4152226E-1,1.17026806E-1,4.4454643E-1,1.16340384E-1,8.6885244E-1,-8E-1,2.477873E-1,2.888889E-1,-9.2105263E-1,1.15384616E-1,1.4695035E-1,9.983568E-1,6.2947863E-1,5.1058733E-1,1.6718045E-1,8.745E-2,9.2E-1,9.868597E-1,-6.382979E-2,1.1420308E-1,6.216216E-1,-3.7142858E-1,-9.76834E-1,-3.125E-1,-8.888889E-1,1.3808258E-1,2E-1,-5E-1,-9.587629E-1,3.4443504E-1,2.5E-1,9.873016E-1,3.125E-1],"split_indices":[44,206,54,46,27,106,0,0,45,0,0,0,38,212,166,64,101,0,0,134,0,4,0,0,0,0,0,0,0,0,0,77,0,0,0],"split_type":[0,0,0,0,0,0,0,0,0,0,0,0,0,0,0,0,0,0,0,0,0,0,0,0,0,0,0,0,0,0,0,0,0,0,0],"sum_hessian":[4.625E2,2.615E2,2.01E2,2.3325E2,2.825E1,1.8675E2,1.425E1,1.4E1,2.1925E2,1.025E1,1.8E1,1.2E1,1.7475E2,2.65E1,1.9275E2,3.85E1,1.3625E2,1.5E1,1.15E1,1.82E2,1.075E1,3.025E1,8.25E0,7.75E0,1.285E2,7E0,8E0,1.705E2,1.15E1,7E0,2.325E1,1.635E2,7E0,1.565E2,7E0],"tree_param":{"num_deleted":"0","num_feature":"328","num_nodes":"35","size_leaf_vector":"0"}},{"base_weights":[-2.6864123E-3,6.6575E-1,-8.829535E-1,7.989827E-1,-1.3192682E0,-1.251051E0,4.8536718E-1,-6.8048006E-1,9.367967E-1,-7.063683E-1,-1.4233823E0,1.2028857E0,-1.2681189E0,-1.4910775E0,4.5931146E-1,1.0614234E0,6.397044E-2,5.812641E-1,-1.3568677E0,1.6243951E0,1.8162486E-1,-3.106581E-1,1.1582692E0,9.461281E-1,-6.5142024E-1,1.8934789E0,1.1413462E0,-4.0901917E-1,1.2384756E0,1.3110304E0,1.3891082E-1,1.3995692E0,8.945665E-1,1.4388032E0,7.715648E-1,-1.0705104E-2,1.220259E0],"categories":[],"categories_nodes":[],"categories_segments":[],"categories_sizes":[],"default_left":[1,1,1,1,0,1,1,1,1,1,0,1,0,0,0,1,1,0,0,1,0,0,1,0,0,1,1,0,1,1,0,1,1,1,1,0,0],"id":1,"left_children":[1,3,5,7,-1,9,11,13,15,17,-1,19,-1,-1,-1,21,23,-1,-1,-1,-1,-1,27,-1,-1,-1,-1,-1,29,31,-1,-1,35,-1,-1,-1,-1],"loss_changes":[2.2788997E2,5.927468E1,8.480287E1,4.282605E1,0E0,1.13854065E1,4.7016273E1,1.7510645E1,2.0567856E1,2.9026175E1,0E0,1.0970783E1,0E0,0E0,0E0,2.2409882E1,1.6246443E1,0E0,0E0,2.3041153E-1,0E0,0E0,2.0017502E1,0E0,0E0,0E0,0E0,0E0,1.1617401E1,3.859665E0,0E0,1.6630707E0,7.9962273E0,0E0,0E0,0E0,0E0],"parents":[2147483647,0,0,1,1,2,2,3,3,5,5,6,6,7,7,8,8,9,9,11,11,15,15,16,16,19,19,22,22,28,28,29,29,31,31,32,32],"right_children":[2,4,6,8,-1,10,12,14,16,18,-1,20,-1,-1,-1,22,24,-1,-1,-1,-1,-1,28,-1,-1,-1,-1,-1,30,32,-1,-1,36,-1,-1,-1,-1],"split_conditions":[3.1973642E-1,9.6389365E-1,3.7387714E-1,6.4215654E-1,-6.596341E-1,1.4695035E-1,3.9285713E-1,9.824544E-1,8.939618E-1,8.606932E-1,-7.1169114E-1,6.429299E-1,-6.340594E-1,-7.455388E-1,2.2965573E-1,7.6785386E-2,8.0125153E-1,2.9063204E-1,-6.7843384E-1,8.1219757E-1,9.081243E-2,-1.5532905E-1,2.4607173E-1,4.7306404E-1,-3.2571012E-1,9.4673944E-1,5.706731E-1,-2.0450959E-1,9.8704666E-1,9.995707E-1,6.945541E-2,6.997846E-1,6.90066E-1,7.194016E-1,3.857824E-1,-5.352552E-3,6.101295E-1],"split_indices":[44,124,38,187,0,38,24,231,95,124,0,208,0,0,0,205,267,0,0,54,0,0,45,0,0,2147483647,2147483647,0,134,6,0,127,49,2147483647,2147483647,0,0],"split_type":[0,0,0,0,0,0,0,0,0,0,0,0,0,0,0,0,0,0,0,0,0,0,0,0,0,0,0,0,0,0,0,0,0,0,0,0,0],"sum_hessian":[3.8530377E2,2.191412E2,1.6616257E2,2.0591768E2,1.3223522E1,1.3100586E2,3.5156708E1,1.7211447E1,1.8870624E2,3.2712204E1,9.8293655E1,2.5170895E1,9.985813E0,9.8781185E0,7.3333273E0,1.6493927E2,2.3766962E1,1.1014991E1,2.1697214E1,1.7399107E1,7.771788E0,1.072883E1,1.5421045E2,1.0498541E1,1.3268422E1,9.299145E0,8.099961E0,7.307966E0,1.4690248E2,1.3762871E2,9.273766E0,1.1155246E2,2.607625E1,1.0377795E2,7.774513E0,7.1552258E0,1.8921024E1],"tree_param":{"num_deleted":"4","num_feature":"328","num_nodes":"37","size_leaf_vector":"0"}},{"base_weights":[-7.3077944E-3,4.7669107E-1,-7.567567E-1,8.316269E-1,-3.1723008E-2,-1.1063075E0,3.240804E-1,-1.1949594E0,9.9084383E-1,5.279408E-1,-7.104242E-1,-1.8121737E-1,-1.2332016E0,8.731203E-1,-1.1543789E0,-1.9088225E-1,1.0837708E0,-4.3456814E-1,9.2685914E-1,3.2175922E-1,-1.3907311E0,-6.322942E-2,1.317115E0,1.17921E0,1.7305702E-1,1.2142471E0,2.1869908E-1,-1.5735401E0,-9.608182E-1,1.2261544E0,6.139796E-1,1.3717622E0,8.398448E-1,7.777525E-1,1.286906E0],"categories":[],"categories_nodes":[],"categories_segments":[],"categories_sizes":[],"default_left":[1,1,1,1,1,1,1,0,1,1,1,0,0,1,0,0,1,0,1,0,1,0,0,1,0,1,0,1,1,1,1,1,1,1,1],"id":2,"left_children":[1,3,5,7,9,11,13,-1,15,17,19,-1,-1,21,-1,-1,23,-1,25,-1,-1,-1,-1,-1,-1,-1,-1,-1,-1,-1,-1,-1,-1,-1,-1],"loss_changes":[1.0802124E2,3.268019E1,4.450569E1,3.5579468E1,2.8998545E1,1.0167999E1,2.4815125E1,0E0,1.1120132E1,1.6480576E1,2.4661104E1,0E0,0E0,9.21117E0,0E0,0E0,7.8170624E0,0E0,5.8242836E0,0E0,1.3632584E-1,0E0,0E0,1.4590302E0,0E0,9.024429E-2,0E0,0E0,0E0,1.068428E0,0E0,0E0,0E0,0E0,0E0],"parents":[2147483647,0,0,1,1,2,2,3,3,4,4,5,5,6,6,8,8,9,9,10,10,13,13,16,16,18,18,20,20,23,23,25,25,29,29],"right_children":[2,4,6,8,10,12,14,-1,16,18,20,-1,-1,22,-1,-1,24,-1,26,-1,-1,-1,-1,-1,-1,-1,-1,-1,-1,-1,-1,-1,-1,-1,-1],"split_conditions":[3.233506E-1,2.517885E-1,3.7387714E-1,1.1607601E-1,9.9999535E-1,8.926949E-2,2.3787662E-1,-5.974797E-1,7.477652E-1,9.935755E-1,9.996213E-1,-9.0608686E-2,-6.166008E-1,8.722247E-1,-5.7718945E-1,-9.5441125E-2,9.337809E-1,-2.1728407E-1,9.304002E-1,1.6087961E-1,-6.9536555E-1,-3.161471E-2,6.585575E-1,5.89605E-1,8.652851E-2,6.0712355E-1,1.0934954E-1,-7.8677005E-1,-4.804091E-1,6.130772E-1,3.069898E-1,6.858811E-1,4.199224E-1,3.8887626E-1,6.43453E-1],"split_indices":[44,106,38,46,115,39,101,0,3,148,136,0,0,118,0,0,298,0,255,0,207,0,0,8,0,171,0,2147483647,2147483647,2147483647,2147483647,2147483647,2147483647,2147483647,2147483647],"split_type":[0,0,0,0,0,0,0,0,0,0,0,0,0,0,0,0,0,0,0,0,0,0,0,0,0,0,0,0,0,0,0,0,0,0,0],"sum_hessian":[2.958042E2,1.7995322E2,1.1585098E2,1.0559743E2,7.435578E1,8.752212E1,2.8328867E1,7.218013E0,9.837942E1,4.0873344E1,3.348244E1,1.085012E1,7.6672E1,2.095607E1,7.3727965E0,7.0953717E0,9.128404E1,1.1950308E1,2.8923037E1,1.3510666E1,1.9971775E1,7.0164714E0,1.3939599E1,8.235839E1,8.925657E0,2.006538E1,8.857655E0,1.2146615E1,7.8251595E0,7.496313E1,7.3952656E0,1.2248454E1,7.8169265E0,1.0591375E1,6.437175E1],"tree_param":{"num_deleted":"8","num_feature":"328","num_nodes":"35","size_leaf_vector":"0"}},{"base_weights":[-1.3227995E-2,6.185718E-1,-3.9775565E-1,8.3922905E-1,-5.9482325E-2,-8.170392E-1,2.7775604E-1,1.0039372E0,-2.4728691E-2,1.1688788E0,-1.0321133E0,-2.3254521E-1,-1.1409897E0,-6.748326E-1,6.5615207E-1,2.6401508E-1,1.130832E0,3.749866E-1,-1.1549606E0,-7.822382E-1,-1.2079369E0,-1.3137928E0,1.2741885E-1,1.0698117E0,-3.060012E-2,-2.5516987E-1,1.0495964E0,1.1718714E0,7.090852E-1,7.2133815E-1,-8.672806E-1],"categories":[],"categories_nodes":[],"categories_segments":[],"categories_sizes":[],"default_left":[1,1,1,1,1,1,1,1,0,0,0,1,1,1,1,0,0,1,0,1,1,0,0,1,1,0,0,1,1,0,0],"id":3,"left_children":[1,3,5,7,9,11,13,15,-1,-1,-1,17,-1,21,23,-1,-1,25,-1,-1,-1,-1,-1,-1,29,-1,-1,-1,-1,-1,-1],"loss_changes":[5.5303253E1,1.2937202E1,4.030123E1,9.281872E0,2.7588919E1,1.6313122E1,2.0244038E1,4.8336563E0,0E0,0E0,0E0,1.8633844E1,4.019394E-1,8.425792E0,1.1345819E1,0E0,0E0,8.912986E0,0E0,0E0,0E0,0E0,0E0,8.50544E-2,1.0655429E1,0E0,0E0,0E0,0E0,0E0,0E0],"parents":[2147483647,0,0,1,1,2,2,3,3,4,4,5,5,6,6,7,7,11,11,12,12,13,13,14,14,17,17,23,23,24,24],"right_children":[2,4,6,8,10,12,14,16,-1,-1,-1,18,-1,22,24,-1,-1,26,-1,-1,-1,-1,-1,-1,30,-1,-1,-1,-1,-1,-1],"split_conditions":[2.7632117E-1,9.98129E-1,2.526121E-1,2.3636717E-1,2.7202892E-1,9.9996793E-1,7.2586405E-1,1.7857143E-1,-1.2364346E-2,5.844394E-1,-5.1605666E-1,9.3395025E-2,-5.7049483E-1,1.3138492E-1,9.999922E-1,1.3200754E-1,5.65416E-1,7.596161E-1,-5.774803E-1,-3.911191E-1,-6.0396844E-1,-6.568964E-1,6.370942E-2,5.3490585E-1,9.662198E-1,-1.2758493E-1,5.247982E-1,5.859357E-1,3.545426E-1,3.6066908E-1,-4.336403E-1],"split_indices":[44,104,32,39,45,139,124,24,0,0,0,0,77,39,115,0,0,55,0,2147483647,2147483647,0,0,3,162,0,0,2147483647,2147483647,0,0],"split_type":[0,0,0,0,0,0,0,0,0,0,0,0,0,0,0,0,0,0,0,0,0,0,0,0,0,0,0,0,0,0,0],"sum_hessian":[2.2562463E2,8.5134834E1,1.404898E2,6.405266E1,2.1082174E1,8.655589E1,5.3933914E1,5.3660583E1,1.0392078E1,9.22717E0,1.1855005E1,3.147833E1,5.507756E1,1.5110575E1,3.882334E1,8.306433E0,4.535415E1,1.9336304E1,1.2142026E1,1.0656546E1,4.4421017E1,8.056374E0,7.054201E0,2.3881018E1,1.4942322E1,1.0319014E1,9.017291E0,1.6861715E1,7.0193024E0,7.942302E0,7.000019E0],"tree_param":{"num_deleted":"4","num_feature":"328","num_nodes":"31","size_leaf_vector":"0"}},{"base_weights":[-9.177898E-3,4.8795024E-1,-3.1677267E-1,5.1952135E-2,8.6270684E-1,-6.652343E-1,1.8625987E-1,6.789198E-1,-7.720104E-1,1.0423028E0,1.1717401E-1,-2.3446983E-1,-1.0513004E0,6.210925E-1,-5.528371E-1,1.0913182E0,1.0756352E-3,1.1285212E0,6.816936E-1,5.363193E-1,-6.3169426E-1,-6.944075E-1,-1.1202376E0,-1.646433E-1,9.303043E-1,-9.8175174E-1,5.0545845E-2,-1.044917E0,1.6665678E-1,5.4859966E-1,1.1028488E0],"categories":[],"categories_nodes":[],"categories_segments":[],"categories_sizes":[],"default_left":[1,1,1,1,1,1,1,1,0,1,0,1,1,1,1,0,0,1,1,0,1,1,1,0,1,0,0,0,0,1,1],"id":4,"left_children":[1,3,5,7,9,11,13,15,-1,-1,-1,19,-1,23,25,-1,-1,-1,-1,-1,27,-1,-1,-1,-1,-1,-1,-1,-1,-1,-1],"loss_changes":[2.6591562E1,1.0817202E1,1.895157E1,1.6947933E1,4.6559772E0,1.0342527E1,1.4721193E1,5.1945133E0,0E0,1.208725E-1,0E0,9.94701E0,4.1175842E-2,7.1108255E0,4.47513E0,0E0,0E0,0E0,0E0,0E0,7.1574545E0,0E0,0E0,0E0,7.583313E-1,0E0,0E0,0E0,0E0,0E0,0E0],"parents":[2147483647,0,0,1,1,2,2,3,3,4,4,5,5,6,6,7,7,9,9,11,11,12,12,13,13,14,14,20,20,24,24],"right_children":[2,4,6,8,10,12,14,16,-1,-1,-1,20,-1,24,26,-1,-1,-1,-1,-1,28,-1,-1,-1,-1,-1,-1,-1,-1,-1,-1],"split_conditions":[2.7632117E-1,3.2450576E-4,2.526121E-1,3.4210375E-1,9.5424116E-1,5.9851944E-1,4.7036856E-1,9.7981846E-1,-3.860052E-1,5.211514E-1,5.8587003E-2,5.9228206E-1,-5.256502E-1,3.2377917E-1,6.272401E-1,5.456591E-1,5.378176E-4,5.642606E-1,3.408468E-1,2.6815966E-1,2.4856094E-1,-3.4720376E-1,-5.601188E-1,-8.232165E-2,4.6515214E-1,-4.9087587E-1,2.5272923E-2,-5.224585E-1,8.332839E-2,2.7429983E-1,5.514244E-1],"split_indices":[44,29,32,14,210,237,72,129,0,123,0,144,223,13,194,0,0,2147483647,2147483647,0,45,2147483647,2147483647,0,139,0,0,0,0,2147483647,2147483647],"split_type":[0,0,0,0,0,0,0,0,0,0,0,0,0,0,0,0,0,0,0,0,0,0,0,0,0,0,0,0,0,0,0],"sum_hessian":[1.7188797E2,6.54778E1,1.0641017E2,3.0792234E1,3.4685566E1,6.267286E1,4.373731E1,1.7586435E1,1.3205799E1,2.7631243E1,7.0543246E0,3.0381336E1,3.2291523E1,2.763719E1,1.6100117E1,1.0554888E1,7.0315475E0,2.0581024E1,7.0502176E0,1.0213163E1,2.0168173E1,7.020238E0,2.5271286E1,7.9367394E0,1.970045E1,9.044065E0,7.056052E0,1.3086051E1,7.0821223E0,7.4341097E0,1.2266341E1],"tree_param":{"num_deleted":"6","num_feature":"328","num_nodes":"31","size_leaf_vector":"0"}},{"base_weights":[-5.7272036E-3,2.216142E-1,-5.205104E-1,-5.255675E-1,4.6308085E-1,4.1738892E-1,-7.415206E-1,2.2430204E-1,-1.0056248E0,6.42546E-1,-5.4293495E-1,9.448637E-2,-9.685105E-1,8.6336243E-1,-1.2413596E-1,-5.530817E-1,-1.0844553E0,1.9853719E-1,9.685104E-1,-7.251864E-1,4.875808E-1,3.9183676E-1,1.0884463E0,6.6224945E-1,1.1724342E0],"categories":[],"categories_nodes":[],"categories_segments":[],"categories_sizes":[],"default_left":[1,1,1,1,1,0,1,0,0,1,0,0,1,1,1,1,1,0,1,0,0,0,1,1,1],"id":5,"left_children":[1,3,5,7,9,-1,11,-1,-1,13,-1,-1,-1,17,19,-1,-1,-1,21,-1,-1,-1,-1,-1,-1],"loss_changes":[1.652444E1,1.7917313E1,9.274717E0,9.006969E0,1.3811381E1,0E0,6.8021107E0,0E0,0E0,1.0897394E1,0E0,0E0,7.440758E-1,3.2756615E0,5.9151454E0,0E0,0E0,0E0,2.5182915E0,0E0,0E0,0E0,4.6508026E-1,0E0,0E0],"parents":[2147483647,0,0,1,1,2,2,3,3,4,4,6,6,9,9,12,12,13,13,14,14,18,18,22,22],"right_children":[2,4,6,8,10,-1,12,-1,-1,14,-1,-1,-1,18,20,-1,-1,-1,22,-1,-1,-1,-1,-1,-1],"split_conditions":[3.3642375E-1,2.740026E-1,9.993512E-1,9.16633E-1,3.8362014E-1,2.0869446E-1,3.6895263E-1,1.1215102E-1,-5.028124E-1,2.675122E-1,-2.7146748E-1,4.7243185E-2,-4.8425525E-1,6.198869E-1,1.9680235E-1,-2.7654085E-1,-5.422276E-1,9.926859E-2,7.231608E-1,-3.625932E-1,2.437904E-1,1.9591838E-1,5.442231E-1,3.3112472E-1,5.862171E-1],"split_indices":[77,13,109,240,66,0,98,0,0,8,0,0,38,124,41,2147483647,2147483647,0,282,0,0,0,206,2147483647,2147483647],"split_type":[0,0,0,0,0,0,0,0,0,0,0,0,0,0,0,0,0,0,0,0,0,0,0,0,0],"sum_hessian":[1.3921083E2,9.696022E1,4.225061E1,2.3394123E1,7.35661E1,7.887964E0,3.4362644E1,9.338991E0,1.4055133E1,6.273583E1,1.0830272E1,7.462371E0,2.6900274E1,4.8609444E1,1.4126386E1,7.1286445E0,1.977163E1,7.0325394E0,4.1576904E1,7.031751E0,7.0946345E0,7.892998E0,3.3683907E1,7.00781E0,2.6676096E1],"tree_param":{"num_deleted":"4","num_feature":"328","num_nodes":"25","size_leaf_vector":"0"}},{"base_weights":[-3.6411001E-3,2.3117478E-1,-4.750748E-1,7.360027E-1,1.5855579E-4,-7.695236E-1,2.4917689E-1,8.97175E-1,2.9009235E-1,7.0861554E-1,-2.6482615E-1,-2.3506867E-2,-1.0188571E0,6.1344665E-1,1.0276057E0,8.980584E-1,4.2652285E-1,-5.6018305E-1,4.343272E-1,-8.3407485E-1,1.6986181E-1,-1.0569769E0,-3.7992433E-1],"categories":[],"categories_nodes":[],"categories_segments":[],"categories_sizes":[],"default_left":[1,1,1,1,1,1,0,1,1,1,1,0,0,1,1,1,1,1,0,1,0,1,1],"id":6,"left_children":[1,3,5,-1,9,11,-1,-1,-1,-1,17,-1,-1,-1,-1,-1,-1,19,-1,-1,-1,-1,-1],"loss_changes":[1.30788E1,9.198563E0,8.568206E0,1.5193701E0,1.0533975E1,5.2159214E0,0E0,2.5028229E-2,0E0,4.332342E-1,8.676374E0,0E0,0E0,0E0,0E0,0E0,0E0,5.9696093E0,0E0,1.7611294E0,0E0,0E0,0E0],"parents":[2147483647,0,0,1,1,2,2,3,3,4,4,5,5,7,7,9,9,10,10,17,17,19,19],"right_children":[2,4,6,-1,10,12,-1,-1,-1,-1,18,-1,-1,-1,-1,-1,-1,20,-1,-1,-1,-1,-1],"split_conditions":[3.233506E-1,4.4475904E-1,3.7387714E-1,3.6800134E-1,4.2619976E-1,1.3017276E-1,1.24588445E-1,4.485875E-1,1.4504617E-1,3.5430777E-1,5.15473E-1,-1.1753433E-2,-5.0942856E-1,3.0672333E-1,5.138028E-1,4.490292E-1,2.1326143E-1,3.1489515E-1,2.171636E-1,-4.1703743E-1,8.4930904E-2,-5.2848846E-1,-1.8996216E-1],"split_indices":[44,72,38,180,193,38,0,2147483647,2147483647,115,259,0,0,2147483647,2147483647,2147483647,2147483647,12,0,27,0,2147483647,2147483647],"split_type":[0,0,0,0,0,0,0,0,0,0,0,0,0,0,0,0,0,0,0,0,0,0,0],"sum_hessian":[1.1615412E2,7.787505E1,3.8279064E1,2.376239E1,5.4112663E1,2.7170307E1,1.1108758E1,1.671046E1,7.0519285E0,1.4274504E1,3.983816E1,7.080229E0,2.0090078E1,7.058723E0,9.651737E0,7.2333207E0,7.041183E0,2.8146471E1,1.169169E1,2.036399E1,7.782481E0,1.2769303E1,7.594687E0],"tree_param":{"num_deleted":"8","num_feature":"328","num_nodes":"23","size_leaf_vector":"0"}},{"base_weights":[-1.2733946E-2,-6.384239E-1,1.486387E-1,-8.9877653E-1,-1.2585196E-1,-6.7281705E-1,2.8413218E-1,-1.4207229E-1,5.513232E-1,4.2973062E-1,-7.608813E-1,-9.9093884E-2,7.500756E-1,9.246018E-1,1.8449794E-1,1.0476723E0,5.4187155E-1],"categories":[],"categories_nodes":[],"categories_segments":[],"categories_sizes":[],"default_left":[1,1,1,0,0,0,1,1,1,0,0,0,1,1,0,1,1],"id":7,"left_children":[1,3,5,-1,-1,-1,7,9,11,-1,-1,-1,13,-1,-1,-1,-1],"loss_changes":[1.0013987E1,2.6000347E0,8.973766E0,0E0,0E0,0E0,7.8719625E0,9.939652E0,5.538845E0,0E0,0E0,0E0,3.036869E0,5.901966E-1,0E0,0E0,0E0],"parents":[2147483647,0,0,1,1,2,2,6,6,7,7,8,8,12,12,13,13],"right_children":[2,4,6,-1,-1,-1,8,10,12,-1,-1,-1,14,-1,-1,-1,-1],"split_conditions":[4.67561E-1,7.1475637E-1,4.5454547E-2,-4.4938827E-1,-6.292598E-2,-3.3640853E-1,2.477873E-1,3.5000002E-1,3.0817604E-1,2.1486531E-1,-3.8044065E-1,-4.9546942E-2,3.5554725E-1,4.623009E-1,9.224897E-2,5.2383614E-1,2.7093577E-1],"split_indices":[232,187,7,0,0,0,45,17,47,0,0,0,206,123,0,2147483647,2147483647],"split_type":[0,0,0,0,0,0,0,0,0,0,0,0,0,0,0,0,0],"sum_hessian":[9.723876E1,1.9330894E1,7.790787E1,1.2319792E1,7.011103E0,1.0469401E1,6.743846E1,2.6166983E1,4.127148E1,1.3758843E1,1.2408139E1,9.777161E0,3.1494322E1,2.3582447E1,7.911875E0,1.6529778E1,7.0526695E0],"tree_param":{"num_deleted":"2","num_feature":"328","num_nodes":"17","size_leaf_vector":"0"}},{"base_weights":[-9.579663E-3,-7.2820556E-1,9.8414816E-2,2.4690552E-1,-3.6114576E-1,7.812978E-1,-2.8236756E-2,-9.0691906E-1,3.7531918E-1,9.3698615E-1,4.5909184E-1,4.321323E-1,-4.2820117E-1,-4.969481E-2,8.1455487E-1,-7.929567E-1,5.89253E-2],"categories":[],"categories_nodes":[],"categories_segments":[],"categories_sizes":[],"default_left":[1,0,1,1,1,1,1,0,0,1,1,1,1,0,0,0,0],"id":8,"left_children":[1,-1,3,5,7,-1,11,-1,-1,-1,-1,13,15,-1,-1,-1,-1],"loss_changes":[6.7263885E0,0E0,5.236315E0,8.491329E0,7.9072814E0,5.5365276E-1,7.36408E0,0E0,0E0,0E0,0E0,3.4720483E0,3.8429651E0,0E0,0E0,0E0,0E0],"parents":[2147483647,0,0,2,2,3,3,4,4,5,5,6,6,11,11,12,12],"right_children":[2,-1,4,6,8,-1,12,-1,-1,-1,-1,14,16,-1,-1,-1,-1],"split_conditions":[2.0409574E-1,-3.6410278E-1,6.161375E-1,9.994548E-1,3.1900007E-1,3.906489E-1,9.999945E-1,-4.5345953E-1,1.8765959E-1,4.6849307E-1,2.2954592E-1,4.2463255E-1,6.235438E-1,-2.4847405E-2,4.0727744E-1,-3.9647835E-1,2.946265E-2],"split_indices":[45,0,40,131,36,84,115,0,0,2147483647,2147483647,13,87,0,0,0,0],"split_type":[0,0,0,0,0,0,0,0,0,0,0,0,0,0,0,0,0],"sum_hessian":[8.47483E1,1.03217125E1,7.442658E1,5.6600784E1,1.78258E1,1.861207E1,3.7988716E1,1.0105473E1,7.7203283E0,1.1262197E1,7.349873E0,1.762336E1,2.0365355E1,8.183166E0,9.440194E0,1.1286391E1,9.078964E0],"tree_param":{"num_deleted":"2","num_feature":"328","num_nodes":"17","size_leaf_vector":"0"}},{"base_weights":[-9.82262E-3,3.6009833E-1,-1.7504744E-1,9.163774E-1,-1.275766E-1,2.55303E-1,-5.417567E-1,-1.6109431E-1,5.82824E-1,1.8515296E-1,-8.909055E-1,-5.8615315E-1,-1.0162847E0],"categories":[],"categories_nodes":[],"categories_segments":[],"categories_sizes":[],"default_left":[1,1,1,0,0,1,1,0,0,0,1,1,1],"id":9,"left_children":[1,3,5,-1,-1,7,9,-1,-1,-1,-1,-1,-1],"loss_changes":[4.6033807E0,6.427662E0,8.3482485E0,0E0,0E0,3.450763E0,7.3750734E0,0E0,0E0,0E0,1.441536E-1,0E0,0E0],"parents":[2147483647,0,0,1,1,2,2,5,5,6,6,10,10],"right_children":[2,4,6,-1,-1,8,10,-1,-1,-1,-1,-1,-1],"split_conditions":[3.568939E-1,4.1253266E-1,1.18408814E-1,4.581887E-1,-6.37883E-2,6.033635E-1,9.969868E-1,-8.0547154E-2,2.91412E-1,9.257648E-2,-4.4545275E-1,-2.9307657E-1,-5.0814235E-1],"split_indices":[28,32,4,0,0,315,303,0,0,0,105,2147483647,2147483647],"split_type":[0,0,0,0,0,0,0,0,0,0,0,0,0],"sum_hessian":[7.328562E1,2.2262589E1,5.1023033E1,9.9891405E0,1.2273448E1,2.3614323E1,2.740871E1,1.062027E1,1.2994053E1,9.0457115E0,1.8362999E1,7.0068564E0,1.1356142E1],"tree_param":{"num_deleted":"2","num_feature":"328","num_nodes":"13","size_leaf_vector":"0"}},{"base_weights":[-3.7803622E-3,-4.6369857E-1,1.1960619E-1,3.0104455E-1,-2.615424E-1,-3.1191185E-1,4.6227762E-1,-6.45742E-1,2.6780108E-1,6.460239E-1,-9.872611E-2,2.0986229E-1,8.83496E-1],"categories":[],"categories_nodes":[],"categories_segments":[],"categories_sizes":[],"default_left":[1,0,1,1,1,0,1,0,0,1,0,0,0],"id":10,"left_children":[1,-1,3,5,7,-1,9,-1,-1,11,-1,-1,-1],"loss_changes":[3.7744288E0,0E0,3.707117E0,3.7031326E0,3.7230637E0,0E0,3.0443387E0,0E0,0E0,2.0842638E0,0E0,0E0,0E0],"parents":[2147483647,0,0,2,2,3,3,4,4,6,6,9,9],"right_children":[2,-1,4,6,8,-1,10,-1,-1,12,-1,-1,-1],"split_conditions":[4.680354E-1,-2.3184928E-1,9.996574E-1,7.62694E-1,2.190037E-1,-1.5595593E-1,4.4275618E-1,-3.22871E-1,1.3390054E-1,6.478587E-1,-4.9363054E-2,1.04931146E-1,4.41748E-1],"split_indices":[232,0,83,157,105,0,154,0,0,97,0,0,0],"split_type":[0,0,0,0,0,0,0,0,0,0,0,0,0],"sum_hessian":[6.4535095E1,1.30676985E1,5.1467396E1,3.5011173E1,1.645622E1,7.096816E0,2.7914356E1,9.407981E0,7.048241E0,2.0913109E1,7.0012474E0,8.036436E0,1.2876674E1],"tree_param":{"num_deleted":"0","num_feature":"328","num_nodes":"13","size_leaf_vector":"0"}},{"base_weights":[3.1867323E-3,1.1937834E-1,-5.3975683E-1,-2.6079947E-1,2.8578824E-1,1.5230279E-1,-6.314631E-1,4.519753E-1,-2.3195308E-1,6.3813573E-1,-7.102704E-2,2.6917565E-1,8.9526254E-1],"categories":[],"categories_nodes":[],"categories_segments":[],"categories_sizes":[],"default_left":[1,1,0,1,1,0,0,1,0,1,0,1,1],"id":11,"left_children":[1,3,-1,5,7,-1,-1,9,-1,-1,-1,-1,-1],"loss_changes":[3.8733776E0,3.272792E0,0E0,2.5329356E0,3.1713033E0,0E0,0E0,2.705111E0,0E0,1.6798687E0,0E0,0E0,0E0],"parents":[2147483647,0,0,1,1,3,3,4,4,7,7,9,9],"right_children":[2,4,-1,6,8,-1,-1,10,-1,-1,-1,-1,-1],"split_conditions":[3.7398276E-1,2.4607173E-1,-2.6987842E-1,9.999994E-1,8.7095356E-1,7.615139E-2,-3.1573156E-1,4.334539E-1,-1.1597654E-1,3.1906787E-1,-3.551352E-2,1.3458782E-1,4.4763127E-1],"split_indices":[206,45,0,303,245,0,0,32,0,272,0,2147483647,2147483647],"split_type":[0,0,0,0,0,0,0,0,0,0,0,0,0],"sum_hessian":[5.9377472E1,4.9553085E1,9.824387E0,1.4913863E1,3.463922E1,7.3317657E0,7.5820975E0,2.6318432E1,8.320788E0,1.9247297E1,7.0711336E0,8.74527E0,1.0502028E1],"tree_param":{"num_deleted":"2","num_feature":"328","num_nodes":"13","size_leaf_vector":"0"}},{"base_weights":[-2.9996703E-3,-2.8576654E-1,1.8782075E-1,1.3680181E-1,-5.461829E-1,-2.1427065E-1,4.488476E-1,7.63279E-1,-1.3892362E-1],"categories":[],"categories_nodes":[],"categories_segments":[],"categories_sizes":[],"default_left":[1,1,1,0,0,0,1,0,0],"id":12,"left_children":[1,3,5,-1,-1,-1,7,-1,-1],"loss_changes":[3.066304E0,2.5939727E0,3.6584024E0,0E0,0E0,0E0,3.969224E0,0E0,0E0],"parents":[2147483647,0,0,1,1,2,2,6,6],"right_children":[2,4,6,-1,-1,-1,8,-1,-1],"split_conditions":[2.3669294E-1,3.126655E-1,4.1055742E-1,6.8400905E-2,-2.7309144E-1,-1.07135326E-1,3.5127318E-1,3.816395E-1,-6.946181E-2],"split_indices":[32,44,223,0,0,0,133,0,0],"split_type":[0,0,0,0,0,0,0,0,0],"sum_hessian":[5.4833206E1,2.1893217E1,3.293999E1,8.52869E0,1.3364526E1,1.3036858E1,1.9903133E1,1.2772054E1,7.1310787E0],"tree_param":{"num_deleted":"0","num_feature":"328","num_nodes":"9","size_leaf_vector":"0"}},{"base_weights":[4.098377E-3,4.9997953E-1,-8.635215E-2,-3.3187756E-1,2.9552254E-1,6.521271E-2,-5.752476E-1,6.5248334E-1,-1.0139353E-1,-1.5126467E-1,-9.293457E-1],"categories":[],"categories_nodes":[],"categories_segments":[],"categories_sizes":[],"default_left":[1,0,1,1,1,0,1,0,0,0,0],"id":13,"left_children":[1,-1,3,5,7,-1,9,-1,-1,-1,-1],"loss_changes":[2.342384E0,0E0,4.24285E0,2.6832895E0,2.5921674E0,0E0,2.4230986E0,0E0,0E0,0E0,0E0],"parents":[2147483647,0,0,2,2,3,3,4,4,6,6],"right_children":[2,-1,4,6,8,-1,10,-1,-1,-1,-1],"split_conditions":[6.7148454E-2,2.4998976E-1,5.730157E-1,9.99998E-1,4.4919407E-1,3.2606356E-2,2.4331424E-1,3.2624167E-1,-5.0696764E-2,-7.5632334E-2,-4.6467286E-1],"split_indices":[0,0,27,284,46,0,106,0,0,0,0],"split_type":[0,0,0,0,0,0,0,0,0,0,0],"sum_hessian":[5.0261333E1,7.0551105E0,4.3206223E1,2.6377682E1,1.682854E1,1.0301489E1,1.607619E1,8.52122E0,8.30732E0,7.9656377E0,8.110554E0],"tree_param":{"num_deleted":"0","num_feature":"328","num_nodes":"11","size_leaf_vector":"0"}},{"base_weights":[-3.1795374E-3,-4.2954245E-1,1.01868674E-1,2.4376056E-1,-3.8329974E-1,4.9792263E-1,-9.4538905E-2,7.993382E-1,2.1550532E-1],"categories":[],"categories_nodes":[],"categories_segments":[],"categories_sizes":[],"default_left":[1,0,1,1,0,1,0,1,1],"id":14,"left_children":[1,-1,3,5,-1,-1,-1,-1,-1],"loss_changes":[2.1521447E0,0E0,2.749125E0,2.6660223E0,0E0,1.3218379E0,0E0,0E0,0E0],"parents":[2147483647,0,0,2,2,3,3,5,5],"right_children":[2,-1,4,6,-1,-1,-1,-1,-1],"split_conditions":[9.848245E-2,-2.1477123E-1,5.545789E-1,9.849738E-1,-1.9164987E-1,2.4896131E-1,-4.7269452E-2,3.996691E-1,1.0775266E-1],"split_indices":[205,0,313,191,0,21,0,2147483647,2147483647],"split_type":[0,0,0,0,0,0,0,0,0],"sum_hessian":[4.607413E1,8.497208E0,3.7576923E1,2.9458961E1,8.117964E0,1.6551838E1,1.2907124E1,7.121224E0,9.430614E0],"tree_param":{"num_deleted":"2","num_feature":"328","num_nodes":"9","size_leaf_vector":"0"}},{"base_weights":[-4.882952E-3,-3.472654E-1,1.20671056E-1,4.5103976E-1,-6.8945E-2,3.2362E-1,-3.6148417E-1],"categories":[],"categories_nodes":[],"categories_segments":[],"categories_sizes":[],"default_left":[1,0,1,0,1,0,0],"id":15,"left_children":[1,-1,3,-1,5,-1,-1],"loss_changes":[1.9821168E0,0E0,2.1463249E0,0E0,2.6802928E0,0E0,0E0],"parents":[2147483647,0,0,2,2,4,4],"right_children":[2,-1,4,-1,6,-1,-1],"split_conditions":[2.740466E-1,-1.736327E-1,4.4475904E-1,2.2551988E-1,2.2727273E-1,1.6181E-1,-1.8074208E-1],"split_indices":[13,0,72,0,7,0,0],"split_type":[0,0,0,0,0,0,0],"sum_hessian":[4.413434E1,1.1368065E1,3.2766273E1,1.1445697E1,2.1320578E1,9.058511E0,1.2262067E1],"tree_param":{"num_deleted":"0","num_feature":"328","num_nodes":"7","size_leaf_vector":"0"}},{"base_weights":[-7.568625E-4,2.7548742E-1,-2.2293556E-1,-5.5987354E-2,7.050904E-1,-7.7047753E-1,5.732048E-2,3.972721E-1,-3.3359697E-1],"categories":[],"categories_nodes":[],"categories_segments":[],"categories_sizes":[],"default_left":[1,1,1,0,0,0,1,0,0],"id":16,"left_children":[1,3,5,-1,-1,-1,7,-1,-1],"loss_changes":[2.6908274E0,2.8226442E0,3.7725782E0,0E0,0E0,0E0,2.3919528E0,0E0,0E0],"parents":[2147483647,0,0,1,1,2,2,6,6],"right_children":[2,4,6,-1,-1,-1,8,-1,-1],"split_conditions":[9.9960715E-1,2.5040352E-1,3.5603863E-1,-2.7993677E-2,3.525452E-1,-3.8523877E-1,2.2848554E-1,1.9863605E-1,-1.6679849E-1],"split_indices":[224,54,37,0,0,0,26,0,0],"split_type":[0,0,0,0,0,0,0,0,0],"sum_hessian":[4.184132E1,1.8544373E1,2.3296947E1,1.0958583E1,7.5857897E0,7.295123E0,1.6001825E1,8.550147E0,7.4516783E0],"tree_param":{"num_deleted":"0","num_feature":"328","num_nodes":"9","size_leaf_vector":"0"}},{"base_weights":[-2.3859306E-3,2.9350334E-1,-1.2552111E-1,1.5837891E-1,-3.722123E-1,-6.2765025E-2,-6.1967176E-1],"categories":[],"categories_nodes":[],"categories_segments":[],"categories_sizes":[],"default_left":[1,0,1,0,1,1,1],"id":17,"left_children":[1,-1,3,-1,-1,-1,-1],"loss_changes":[1.4775949E0,0E0,2.0636399E0,0E0,1.1567643E0,0E0,0E0],"parents":[2147483647,0,0,2,2,4,4],"right_children":[2,-1,4,-1,-1,-1,-1],"split_conditions":[9.97815E-1,1.4675167E-1,4.5998478E-1,7.918946E-2,-1.8610615E-1,-3.1382512E-2,-3.0983588E-1],"split_indices":[327,0,28,0,41,2147483647,2147483647],"split_type":[0,0,0,0,0,0,0],"sum_hessian":[3.8543808E1,1.0919961E1,2.7623848E1,1.3009774E1,1.4614074E1,7.0507603E0,7.5633135E0],"tree_param":{"num_deleted":"2","num_feature":"328","num_nodes":"7","size_leaf_vector":"0"}},{"base_weights":[-1.2835307E-3,1.17585234E-1,-4.020763E-1,3.208527E-1,-2.3353106E-1,5.534599E-1,-2.69706E-2],"categories":[],"categories_nodes":[],"categories_segments":[],"categories_sizes":[],"default_left":[1,1,0,1,0,1,1],"id":18,"left_children":[1,3,-1,-1,-1,-1,-1],"loss_changes":[1.8741533E0,2.2409132E0,0E0,1.6041098E0,0E0,0E0,0E0],"parents":[2147483647,0,0,1,1,3,3],"right_children":[2,4,-1,-1,-1,-1,-1],"split_conditions":[4.40404E-1,3.3012685E-1,-2.0103815E-1,1.6042635E-1,-1.1676553E-1,2.7672994E-1,-1.34853E-2],"split_indices":[32,44,0,4,0,2147483647,2147483647],"split_type":[0,0,0,0,0,0,0],"sum_hessian":[3.7346104E1,2.934844E1,7.9976625E0,1.8642282E1,1.0706158E1,1.0817116E1,7.825167E0],"tree_param":{"num_deleted":"2","num_feature":"328","num_nodes":"7","size_leaf_vector":"0"}},{"base_weights":[-4.6929684E-3,2.86038E-1,-1.23556316E-1,-3.7965652E-1,1.0946441E-1],"categories":[],"categories_nodes":[],"categories_segments":[],"categories_sizes":[],"default_left":[1,1,1,1,1],"id":19,"left_children":[-1,-1,-1,-1,-1],"loss_changes":[1.3159242E0,0E0,1.65291E0,0E0,0E0],"parents":[2147483647,0,0,2,2],"right_children":[-1,-1,-1,-1,-1],"split_conditions":[-2.3464842E-3,1.43019E-1,-6.1778158E-2,-1.8982826E-1,5.4732203E-2],"split_indices":[114,2147483647,2147483647,2147483647,2147483647],"split_type":[0,0,0,0,0],"sum_hessian":[3.6056824E1,1.0055462E1,2.6001364E1,1.2087441E1,1.3913921E1],"tree_param":{"num_deleted":"4","num_feature":"328","num_nodes":"5","size_leaf_vector":"0"}},{"base_weights":[-2.4097592E-3,2.8801993E-1,-1.2131957E-1,-3.777429E-1,1.116258E-1],"categories":[],"categories_nodes":[],"categories_segments":[],"categories_sizes":[],"default_left":[1,1,1,1,1],"id":20,"left_children":[-1,-1,-1,-1,-1],"loss_changes":[1.3147273E0,0E0,1.6547284E0,0E0,0E0],"parents":[2147483647,0,0,2,2],"right_children":[-1,-1,-1,-1,-1],"split_conditions":[-1.2048796E-3,1.4400996E-1,-6.0659785E-2,-1.8887144E-1,5.58129E-2],"split_indices":[114,2147483647,2147483647,2147483647,2147483647],"split_type":[0,0,0,0,0],"sum_hessian":[3.6057682E1,1.0061336E1,2.5996347E1,1.2078687E1,1.3917662E1],"tree_param":{"num_deleted":"4","num_feature":"328","num_nodes":"5","size_leaf_vector":"0"}},{"base_weights":[-1.237343E-3,2.8903687E-1,-1.2017062E-1,-3.7675926E-1,1.1273533E-1],"categories":[],"categories_nodes":[],"categories_segments":[],"categories_sizes":[],"default_left":[1,1,1,1,1],"id":21,"left_children":[-1,-1,-1,-1,-1],"loss_changes":[1.314103E0,0E0,1.6556518E0,0E0,0E0],"parents":[2147483647,0,0,2,2],"right_children":[-1,-1,-1,-1,-1],"split_conditions":[-6.186715E-4,1.4451844E-1,-6.008531E-2,-1.8837963E-1,5.6367666E-2],"split_indices":[114,2147483647,2147483647,2147483647,2147483647],"split_type":[0,0,0,0,0],"sum_hessian":[3.6058174E1,1.0064364E1,2.599381E1,1.2074208E1,1.3919601E1],"tree_param":{"num_deleted":"4","num_feature":"328","num_nodes":"5","size_leaf_vector":"0"}},{"base_weights":[-6.3535833E-4,2.8955886E-1,-1.1958062E-1,-3.7625408E-1,1.1330497E-1],"categories":[],"categories_nodes":[],"categories_segments":[],"categories_sizes":[],"default_left":[1,1,1,1,1],"id":22,"left_children":[-1,-1,-1,-1,-1],"loss_changes":[1.3137803E0,0E0,1.6561241E0,0E0,0E0],"parents":[2147483647,0,0,2,2],"right_children":[-1,-1,-1,-1,-1],"split_conditions":[-3.1767917E-4,1.4477943E-1,-5.979031E-2,-1.8812704E-1,5.6652486E-2],"split_indices":[114,2147483647,2147483647,2147483647,2147483647],"split_type":[0,0,0,0,0],"sum_hessian":[3.605844E1,1.0065925E1,2.5992517E1,1.2071914E1,1.3920605E1],"tree_param":{"num_deleted":"4","num_feature":"328","num_nodes":"5","size_leaf_vector":"0"}},{"base_weights":[-3.2636855E-4,2.898266E-1,-1.1927766E-1,-3.7599456E-1,1.1359739E-1],"categories":[],"categories_nodes":[],"categories_segments":[],"categories_sizes":[],"default_left":[1,1,1,1,1],"id":23,"left_children":[-1,-1,-1,-1,-1],"loss_changes":[1.3136125E0,0E0,1.6563653E0,0E0,0E0],"parents":[2147483647,0,0,2,2],"right_children":[-1,-1,-1,-1,-1],"split_conditions":[-1.6318428E-4,1.449133E-1,-5.963883E-2,-1.8799728E-1,5.6798697E-2],"split_indices":[114,2147483647,2147483647,2147483647,2147483647],"split_type":[0,0,0,0,0],"sum_hessian":[3.6058582E1,1.0066724E1,2.5991858E1,1.2070737E1,1.3921121E1],"tree_param":{"num_deleted":"4","num_feature":"328","num_nodes":"5","size_leaf_vector":"0"}},{"base_weights":[-1.6759537E-4,2.8996426E-1,-1.19122036E-1,-3.758612E-1,1.1374757E-1],"categories":[],"categories_nodes":[],"categories_segments":[],"categories_sizes":[],"default_left":[1,1,1,1,1],"id":24,"left_children":[-1,-1,-1,-1,-1],"loss_changes":[1.313527E0,0E0,1.6564884E0,0E0,0E0],"parents":[2147483647,0,0,2,2],"right_children":[-1,-1,-1,-1,-1],"split_conditions":[-8.3797684E-5,1.4498213E-1,-5.9561018E-2,-1.879306E-1,5.6873783E-2],"split_indices":[114,2147483647,2147483647,2147483647,2147483647],"split_type":[0,0,0,0,0],"sum_hessian":[3.605866E1,1.0067137E1,2.599152E1,1.2070134E1,1.3921387E1],"tree_param":{"num_deleted":"4","num_feature":"328","num_nodes":"5","size_leaf_vector":"0"}},{"base_weights":[-8.608575E-5,2.9003483E-1,-1.1904209E-1,-3.7579283E-1,1.1382479E-1],"categories":[],"categories_nodes":[],"categories_segments":[],"categories_sizes":[],"default_left":[1,1,1,1,1],"id":25,"left_children":[-1,-1,-1,-1,-1],"loss_changes":[1.3134822E0,0E0,1.6565535E0,0E0,0E0],"parents":[2147483647,0,0,2,2],"right_children":[-1,-1,-1,-1,-1],"split_conditions":[-4.3042874E-5,1.4501742E-1,-5.9521046E-2,-1.8789642E-1,5.6912396E-2],"split_indices":[114,2147483647,2147483647,2147483647,2147483647],"split_type":[0,0,0,0,0],"sum_hessian":[3.6058697E1,1.00673485E1,2.5991348E1,1.2069823E1,1.3921525E1],"tree_param":{"num_deleted":"4","num_feature":"328","num_nodes":"5","size_leaf_vector":"0"}},{"base_weights":[-4.4124383E-5,2.900713E-1,-1.1900103E-1,-3.7575772E-1,1.1386446E-1],"categories":[],"categories_nodes":[],"categories_segments":[],"categories_sizes":[],"default_left":[1,1,1,1,1],"id":26,"left_children":[-1,-1,-1,-1,-1],"loss_changes":[1.313461E0,0E0,1.6565869E0,0E0,0E0],"parents":[2147483647,0,0,2,2],"right_children":[-1,-1,-1,-1,-1],"split_conditions":[-2.2062191E-5,1.4503565E-1,-5.9500515E-2,-1.8787886E-1,5.693223E-2],"split_indices":[114,2147483647,2147483647,2147483647,2147483647],"split_type":[0,0,0,0,0],"sum_hessian":[3.6058716E1,1.0067459E1,2.5991259E1,1.2069663E1,1.3921596E1],"tree_param":{"num_deleted":"4","num_feature":"328","num_nodes":"5","size_leaf_vector":"0"}},{"base_weights":[-2.2755172E-5,2.9008988E-1,-1.189801E-1,-3.7573972E-1,1.1388462E-1],"categories":[],"categories_nodes":[],"categories_segments":[],"categories_sizes":[],"default_left":[1,1,1,1,1],"id":27,"left_children":[-1,-1,-1,-1,-1],"loss_changes":[1.3134495E0,0E0,1.6566021E0,0E0,0E0],"parents":[2147483647,0,0,2,2],"right_children":[-1,-1,-1,-1,-1],"split_conditions":[-1.1377586E-5,1.4504494E-1,-5.949005E-2,-1.8786986E-1,5.694231E-2],"split_indices":[114,2147483647,2147483647,2147483647,2147483647],"split_type":[0,0,0,0,0],"sum_hessian":[3.6058723E1,1.0067513E1,2.5991209E1,1.2069581E1,1.3921628E1],"tree_param":{"num_deleted":"4","num_feature":"328","num_nodes":"5","size_leaf_vector":"0"}},{"base_weights":[-1.1643967E-5,2.900995E-1,-1.1896922E-1,-3.7573028E-1,1.1389505E-1],"categories":[],"categories_nodes":[],"categories_segments":[],"categories_sizes":[],"default_left":[1,1,1,1,1],"id":28,"left_children":[-1,-1,-1,-1,-1],"loss_changes":[1.3134437E0,0E0,1.6566095E0,0E0,0E0],"parents":[2147483647,0,0,2,2],"right_children":[-1,-1,-1,-1,-1],"split_conditions":[-5.8219835E-6,1.4504975E-1,-5.948461E-2,-1.8786514E-1,5.6947526E-2],"split_indices":[114,2147483647,2147483647,2147483647,2147483647],"split_type":[0,0,0,0,0],"sum_hessian":[3.6058727E1,1.0067542E1,2.5991184E1,1.206954E1,1.3921645E1],"tree_param":{"num_deleted":"4","num_feature":"328","num_nodes":"5","size_leaf_vector":"0"}},{"base_weights":[-6.0197467E-6,2.901044E-1,-1.189637E-1,-3.7572554E-1,1.1390037E-1],"categories":[],"categories_nodes":[],"categories_segments":[],"categories_sizes":[],"default_left":[1,1,1,1,1],"id":29,"left_children":[-1,-1,-1,-1,-1],"loss_changes":[1.3134407E0,0E0,1.656614E0,0E0,0E0],"parents":[2147483647,0,0,2,2],"right_children":[-1,-1,-1,-1,-1],"split_conditions":[-3.0098734E-6,1.450522E-1,-5.948185E-2,-1.8786277E-1,5.6950185E-2],"split_indices":[114,2147483647,2147483647,2147483647,2147483647],"split_type":[0,0,0,0,0],"sum_hessian":[3.605873E1,1.0067557E1,2.5991175E1,1.2069519E1,1.3921655E1],"tree_param":{"num_deleted":"4","num_feature":"328","num_nodes":"5","size_leaf_vector":"0"}},{"base_weights":[-2.9390224E-6,2.9010698E-1,-1.18960634E-1,-3.757231E-1,1.1390345E-1],"categories":[],"categories_nodes":[],"categories_segments":[],"categories_sizes":[],"default_left":[1,1,1,1,1],"id":30,"left_children":[-1,-1,-1,-1,-1],"loss_changes":[1.3134382E0,0E0,1.6566186E0,0E0,0E0],"parents":[2147483647,0,0,2,2],"right_children":[-1,-1,-1,-1,-1],"split_conditions":[-1.4695112E-6,1.4505349E-1,-5.9480317E-2,-1.8786155E-1,5.6951724E-2],"split_indices":[114,2147483647,2147483647,2147483647,2147483647],"split_type":[0,0,0,0,0],"sum_hessian":[3.605874E1,1.0067566E1,2.599117E1,1.2069508E1,1.3921664E1],"tree_param":{"num_deleted":"4","num_feature":"328","num_nodes":"5","size_leaf_vector":"0"}},{"base_weights":[-1.6927904E-6,2.9010803E-1,-1.189594E-1,-3.7572202E-1,1.1390462E-1],"categories":[],"categories_nodes":[],"categories_segments":[],"categories_sizes":[],"default_left":[1,1,1,1,1],"id":31,"left_children":[-1,-1,-1,-1,-1],"loss_changes":[1.3134371E0,0E0,1.6566191E0,0E0,0E0],"parents":[2147483647,0,0,2,2],"right_children":[-1,-1,-1,-1,-1],"split_conditions":[-8.463952E-7,1.4505401E-1,-5.94797E-2,-1.8786101E-1,5.695231E-2],"split_indices":[114,2147483647,2147483647,2147483647,2147483647],"split_type":[0,0,0,0,0],"sum_hessian":[3.6058735E1,1.0067567E1,2.5991165E1,1.2069501E1,1.3921665E1],"tree_param":{"num_deleted":"4","num_feature":"328","num_nodes":"5","size_leaf_vector":"0"}},{"base_weights":[-7.9866516E-7,2.9010892E-1,-1.18958585E-1,-3.7572125E-1,1.13905355E-1],"categories":[],"categories_nodes":[],"categories_segments":[],"categories_sizes":[],"default_left":[1,1,1,1,1],"id":32,"left_children":[-1,-1,-1,-1,-1],"loss_changes":[1.3134378E0,0E0,1.6566188E0,0E0,0E0],"parents":[2147483647,0,0,2,2],"right_children":[-1,-1,-1,-1,-1],"split_conditions":[-3.9933258E-7,1.4505446E-1,-5.9479292E-2,-1.8786062E-1,5.6952678E-2],"split_indices":[114,2147483647,2147483647,2147483647,2147483647],"split_type":[0,0,0,0,0],"sum_hessian":[3.605873E1,1.0067571E1,2.5991161E1,1.2069498E1,1.3921664E1],"tree_param":{"num_deleted":"4","num_feature":"328","num_nodes":"5","size_leaf_vector":"0"}},{"base_weights":[-2.7014318E-7,2.9010925E-1,-1.18958E-1,-3.7572062E-1,1.13905855E-1],"categories":[],"categories_nodes":[],"categories_segments":[],"categories_sizes":[],"default_left":[1,1,1,1,1],"id":33,"left_children":[-1,-1,-1,-1,-1],"loss_changes":[1.3134363E0,0E0,1.6566185E0,0E0,0E0],"parents":[2147483647,0,0,2,2],"right_children":[-1,-1,-1,-1,-1],"split_conditions":[-1.3507159E-7,1.4505462E-1,-5.9479E-2,-1.8786031E-1,5.6952927E-2],"split_indices":[114,2147483647,2147483647,2147483647,2147483647],"split_type":[0,0,0,0,0],"sum_hessian":[3.6058735E1,1.0067572E1,2.5991165E1,1.2069498E1,1.3921666E1],"tree_param":{"num_deleted":"4","num_feature":"328","num_nodes":"5","size_leaf_vector":"0"}},{"base_weights":[-1.1749757E-7,2.901094E-1,-1.1895786E-1,-3.7572053E-1,1.13906E-1],"categories":[],"categories_nodes":[],"categories_segments":[],"categories_sizes":[],"default_left":[1,1,1,1,1],"id":34,"left_children":[-1,-1,-1,-1,-1],"loss_changes":[1.3134365E0,0E0,1.6566187E0,0E0,0E0],"parents":[2147483647,0,0,2,2],"right_children":[-1,-1,-1,-1,-1],"split_conditions":[-5.8748785E-8,1.450547E-1,-5.947893E-2,-1.8786027E-1,5.6953E-2],"split_indices":[114,2147483647,2147483647,2147483647,2147483647],"split_type":[0,0,0,0,0],"sum_hessian":[3.6058735E1,1.0067572E1,2.5991163E1,1.2069497E1,1.3921666E1],"tree_param":{"num_deleted":"4","num_feature":"328","num_nodes":"5","size_leaf_vector":"0"}},{"base_weights":[-1.1669338E-7,2.901094E-1,-1.1895786E-1,-3.7572053E-1,1.13906E-1],"categories":[],"categories_nodes":[],"categories_segments":[],"categories_sizes":[],"default_left":[1,1,1,1,1],"id":35,"left_children":[-1,-1,-1,-1,-1],"loss_changes":[1.3134365E0,0E0,1.6566187E0,0E0,0E0],"parents":[2147483647,0,0,2,2],"right_children":[-1,-1,-1,-1,-1],"split_conditions":[-5.834669E-8,1.450547E-1,-5.947893E-2,-1.8786027E-1,5.6953E-2],"split_indices":[114,2147483647,2147483647,2147483647,2147483647],"split_type":[0,0,0,0,0],"sum_hessian":[3.6058735E1,1.0067572E1,2.5991163E1,1.2069497E1,1.3921666E1],"tree_param":{"num_deleted":"4","num_feature":"328","num_nodes":"5","size_leaf_vector":"0"}},{"base_weights":[-1.15084994E-7,2.901094E-1,-1.18957855E-1,-3.7572053E-1,1.1390601E-1],"categories":[],"categories_nodes":[],"categories_segments":[],"categories_sizes":[],"default_left":[1,1,1,1,1],"id":36,"left_children":[-1,-1,-1,-1,-1],"loss_changes":[1.3134365E0,0E0,1.6566187E0,0E0,0E0],"parents":[2147483647,0,0,2,2],"right_children":[-1,-1,-1,-1,-1],"split_conditions":[-5.7542497E-8,1.450547E-1,-5.9478927E-2,-1.8786027E-1,5.6953005E-2],"split_indices":[114,2147483647,2147483647,2147483647,2147483647],"split_type":[0,0,0,0,0],"sum_hessian":[3.6058735E1,1.0067572E1,2.5991163E1,1.2069497E1,1.3921666E1],"tree_param":{"num_deleted":"4","num_feature":"328","num_nodes":"5","size_leaf_vector":"0"}},{"base_weights":[-1.15084994E-7,2.901094E-1,-1.18957855E-1,-3.7572053E-1,1.1390601E-1],"categories":[],"categories_nodes":[],"categories_segments":[],"categories_sizes":[],"default_left":[1,1,1,1,1],"id":37,"left_children":[-1,-1,-1,-1,-1],"loss_changes":[1.3134365E0,0E0,1.6566187E0,0E0,0E0],"parents":[2147483647,0,0,2,2],"right_children":[-1,-1,-1,-1,-1],"split_conditions":[-5.7542497E-8,1.450547E-1,-5.9478927E-2,-1.8786027E-1,5.6953005E-2],"split_indices":[114,2147483647,2147483647,2147483647,2147483647],"split_type":[0,0,0,0,0],"sum_hessian":[3.6058735E1,1.0067572E1,2.5991163E1,1.2069497E1,1.3921666E1],"tree_param":{"num_deleted":"4","num_feature":"328","num_nodes":"5","size_leaf_vector":"0"}},{"base_weights":[-1.1267242E-7,2.901094E-1,-1.18957855E-1,-3.7572053E-1,1.1390601E-1],"categories":[],"categories_nodes":[],"categories_segments":[],"categories_sizes":[],"default_left":[1,1,1,1,1],"id":38,"left_children":[-1,-1,-1,-1,-1],"loss_changes":[1.3134365E0,0E0,1.6566187E0,0E0,0E0],"parents":[2147483647,0,0,2,2],"right_children":[-1,-1,-1,-1,-1],"split_conditions":[-5.633621E-8,1.450547E-1,-5.9478927E-2,-1.8786027E-1,5.6953005E-2],"split_indices":[114,2147483647,2147483647,2147483647,2147483647],"split_type":[0,0,0,0,0],"sum_hessian":[3.6058735E1,1.0067572E1,2.5991163E1,1.2069497E1,1.3921666E1],"tree_param":{"num_deleted":"4","num_feature":"328","num_nodes":"5","size_leaf_vector":"0"}},{"base_weights":[-1.1267242E-7,2.901094E-1,-1.18957855E-1,-3.7572053E-1,1.1390601E-1],"categories":[],"categories_nodes":[],"categories_segments":[],"categories_sizes":[],"default_left":[1,1,1,1,1],"id":39,"left_children":[-1,-1,-1,-1,-1],"loss_changes":[1.3134365E0,0E0,1.6566187E0,0E0,0E0],"parents":[2147483647,0,0,2,2],"right_children":[-1,-1,-1,-1,-1],"split_conditions":[-5.633621E-8,1.450547E-1,-5.9478927E-2,-1.8786027E-1,5.6953005E-2],"split_indices":[114,2147483647,2147483647,2147483647,2147483647],"split_type":[0,0,0,0,0],"sum_hessian":[3.6058735E1,1.0067572E1,2.5991163E1,1.2069497E1,1.3921666E1],"tree_param":{"num_deleted":"4","num_feature":"328","num_nodes":"5","size_leaf_vector":"0"}},{"base_weights":[-1.1025985E-7,2.901094E-1,-1.1895785E-1,-3.7572053E-1,1.1390601E-1],"categories":[],"categories_nodes":[],"categories_segments":[],"categories_sizes":[],"default_left":[1,1,1,1,1],"id":40,"left_children":[-1,-1,-1,-1,-1],"loss_changes":[1.3134365E0,0E0,1.6566188E0,0E0,0E0],"parents":[2147483647,0,0,2,2],"right_children":[-1,-1,-1,-1,-1],"split_conditions":[-5.5129924E-8,1.450547E-1,-5.9478924E-2,-1.8786027E-1,5.6953005E-2],"split_indices":[114,2147483647,2147483647,2147483647,2147483647],"split_type":[0,0,0,0,0],"sum_hessian":[3.6058735E1,1.0067572E1,2.5991163E1,1.2069497E1,1.3921666E1],"tree_param":{"num_deleted":"4","num_feature":"328","num_nodes":"5","size_leaf_vector":"0"}},{"base_weights":[-1.1025985E-7,2.901094E-1,-1.1895785E-1,-3.7572053E-1,1.1390601E-1],"categories":[],"categories_nodes":[],"categories_segments":[],"categories_sizes":[],"default_left":[1,1,1,1,1],"id":41,"left_children":[-1,-1,-1,-1,-1],"loss_changes":[1.3134365E0,0E0,1.6566188E0,0E0,0E0],"parents":[2147483647,0,0,2,2],"right_children":[-1,-1,-1,-1,-1],"split_conditions":[-5.5129924E-8,1.450547E-1,-5.9478924E-2,-1.8786027E-1,5.6953005E-2],"split_indices":[114,2147483647,2147483647,2147483647,2147483647],"split_type":[0,0,0,0,0],"sum_hessian":[3.6058735E1,1.0067572E1,2.5991163E1,1.2069497E1,1.3921666E1],"tree_param":{"num_deleted":"4","num_feature":"328","num_nodes":"5","size_leaf_vector":"0"}}]},"name":"gbtree"},"learner_model_param":{"base_score":"5E-1","boost_from_average":"1","num_class":"0","num_feature":"328","num_target":"1"},"objective":{"name":"binary:logistic","reg_loss_param":{"scale_pos_weight":"1"}}},"version":[1,7,6]}