{"learner":{"attributes":{"best_iteration":"124","best_ntree_limit":"125","scikit_learn":"{\"use_label_encoder\": null, \"n_estimators\": 125, \"objective\": \"binary:logistic\", \"max_depth\": 7, \"max_leaves\": null, \"max_bin\": null, \"grow_policy\": null, \"learning_rate\": 0.5, \"verbosity\": null, \"booster\": null, \"tree_method\": null, \"gamma\": 0, \"min_child_weight\": 8, \"max_delta_step\": null, \"subsample\": null, \"sampling_method\": null, \"colsample_bytree\": null, \"colsample_bylevel\": null, \"colsample_bynode\": null, \"reg_alpha\": null, \"reg_lambda\": null, \"scale_pos_weight\": null, \"base_score\": null, \"missing\": NaN, \"num_parallel_tree\": null, \"random_state\": 1, \"n_jobs\": null, \"monotone_constraints\": null, \"interaction_constraints\": null, \"importance_type\": null, \"gpu_id\": null, \"validate_parameters\": null, \"predictor\": null, \"enable_categorical\": false, \"feature_types\": null, \"max_cat_to_onehot\": null, \"max_cat_threshold\": null, \"eval_metric\": null, \"early_stopping_rounds\": null, \"callbacks\": null, \"classes_\": [0.0, 1.0], \"n_classes_\": 2, \"_estimator_type\": \"classifier\"}"},"feature_names":[],"feature_types":[],"gradient_booster":{"model":{"gbtree_model_param":{"num_parallel_tree":"1","num_trees":"125","size_leaf_vector":"0"},"tree_info":[0,0,0,0,0,0,0,0,0,0,0,0,0,0,0,0,0,0,0,0,0,0,0,0,0,0,0,0,0,0,0,0,0,0,0,0,0,0,0,0,0,0,0,0,0,0,0,0,0,0,0,0,0,0,0,0,0,0,0,0,0,0,0,0,0,0,0,0,0,0,0,0,0,0,0,0,0,0,0,0,0,0,0,0,0,0,0,0,0,0,0,0,0,0,0,0,0,0,0,0,0,0,0,0,0,0,0,0,0,0,0,0,0,0,0,0,0,0,0,0,0,0,0,0,0],"trees":[{"base_weights":[5E-2,6.3652176E-1,-1.4235808E0,-6.490066E-1,1.0841122E0,-5.1282052E-2,-1.6701031E0,2.777778E-1,-1.4216868E0,1.2910053E0,-4.4444445E-1,-8.888889E-1,-1.8024691E0,1.027027E0,-4.6153846E-1,-1.8431373E0,-6.666667E-1,1.433526E0,-2.2222222E-1,1.1111111E-1,1.566879E0,1.6595745E0,6.666667E-1,7.368421E-1,1.7741935E0],"categories":[],"categories_nodes":[],"categories_segments":[],"categories_sizes":[],"default_left":[1,1,1,1,1,0,1,1,1,1,0,0,0,0,0,0,0,1,0,0,1,1,0,0,0],"id":0,"left_children":[1,3,5,7,9,-1,11,13,15,17,-1,-1,-1,-1,-1,-1,-1,19,-1,-1,21,23,-1,-1,-1],"loss_changes":[1.7376358E2,8.341593E1,1.928215E1,2.7427986E1,3.44123E1,0E0,3.4130096E0,1.0444792E1,5.373966E0,2.0699036E1,0E0,0E0,0E0,0E0,0E0,0E0,0E0,1.5080002E1,0E0,0E0,5.444092E0,6.1489716E0,0E0,0E0,0E0],"parents":[2147483647,0,0,1,1,2,2,3,3,4,4,6,6,7,7,8,8,9,9,17,17,20,20,21,21],"right_children":[2,4,6,8,10,-1,12,14,16,18,-1,-1,-1,-1,-1,-1,-1,20,-1,-1,22,24,-1,-1,-1],"split_conditions":[6.0182846E-1,3.6131874E-1,4.7903037E-1,2.6735306E-1,9.9983656E-1,-2.5641026E-2,5.7362354E-1,5.52847E-1,2.7554846E-1,9.2331636E-1,-2.2222222E-1,-4.4444445E-1,-9.0123457E-1,5.135135E-1,-2.3076923E-1,-9.2156863E-1,-3.3333334E-1,5.5541724E-1,-1.1111111E-1,5.5555556E-2,6.78858E-1,9.971708E-1,3.3333334E-1,3.6842105E-1,8.8709676E-1],"split_indices":[72,1,119,65,70,0,66,12,1,26,0,0,0,0,0,0,0,58,0,0,24,123,0,0,0],"split_type":[0,0,0,0,0,0,0,0,0,0,0,0,0,0,0,0,0,0,0,0,0,0,0,0,0],"sum_hessian":[1.99E2,1.4275E2,5.625E1,3.675E1,1.06E2,8.75E0,4.75E1,1.7E1,1.975E1,9.35E1,1.25E1,8E0,3.95E1,8.25E0,8.75E0,1.175E1,8E0,8.55E1,8E0,8E0,7.75E1,6.95E1,8E0,8.5E0,6.1E1],"tree_param":{"num_deleted":"0","num_feature":"134","num_nodes":"25","size_leaf_vector":"0"}},{"base_weights":[2.451209E-2,-1.0318918E0,3.6702186E-1,-2.8486848E-2,-1.2609326E0,6.087267E-1,-9.17743E-1,-6.34984E-1,-1.4232858E0,-7.73565E-1,7.5244397E-1,-2.5598356E-1,-1.5347854E0,-5.2436846E-1,8.841803E-1,-3.6812425E-1,1.0497296E0,1.2969457E0,4.8820487E-1,1.4187675E0,4.9262497E-1,9.1371316E-1,-1.7592075E-1],"categories":[],"categories_nodes":[],"categories_segments":[],"categories_sizes":[],"default_left":[1,1,1,0,1,1,1,0,0,0,1,0,0,0,1,0,1,1,1,0,0,0,0],"id":1,"left_children":[1,3,5,-1,7,9,11,-1,-1,-1,13,-1,-1,-1,15,-1,17,19,21,-1,-1,-1,-1],"loss_changes":[6.487971E1,1.0055149E1,4.25911E1,0E0,2.7268143E0,2.3333351E1,8.521563E0,0E0,0E0,0E0,1.7997978E1,0E0,0E0,0E0,2.005426E1,0E0,1.1034584E1,4.960083E0,7.8744345E0,0E0,0E0,0E0,0E0],"parents":[2147483647,0,0,1,1,2,2,4,4,5,5,6,6,10,10,14,14,16,16,17,17,18,18],"right_children":[2,4,6,-1,8,10,12,-1,-1,-1,14,-1,-1,-1,16,-1,18,20,22,-1,-1,-1,-1],"split_conditions":[4.3038774E-1,2.9045147E-1,9.4169796E-1,-1.4243424E-2,3.8669991E-1,2.5302696E-1,5.5324364E-1,-3.17492E-1,-7.116429E-1,-3.867825E-1,9.978863E-1,-1.2799178E-1,-7.673927E-1,-2.6218423E-1,9.980084E-1,-1.8406212E-1,7.5131714E-1,6.0006535E-1,9.999998E-1,7.093837E-1,2.4631248E-1,4.5685658E-1,-8.796038E-2],"split_indices":[132,42,39,0,54,1,22,0,0,0,51,0,0,0,120,0,49,48,133,0,0,0,0],"split_type":[0,0,0,0,0,0,0,0,0,0,0,0,0,0,0,0,0,0,0,0,0,0,0],"sum_hessian":[1.772639E2,4.2908463E1,1.3435544E2,8.183171E0,3.4725292E1,1.13524155E2,2.083128E1,8.163248E0,2.6562044E1,1.02788E1,1.0324535E2,1.07341175E1,1.0097163E1,9.377404E0,9.386795E1,1.0817188E1,8.3050766E1,5.675444E1,2.6296322E1,4.8625694E1,8.128746E0,1.5798401E1,1.0497921E1],"tree_param":{"num_deleted":"0","num_feature":"134","num_nodes":"23","size_leaf_vector":"0"}},{"base_weights":[1.044516E-2,2.6884183E-1,-6.9576824E-1,7.049624E-1,-1.2890309E-1,-3.769818E-2,-1.0575504E0,9.3641955E-1,-1.6860859E-1,1.5405829E-1,-9.700084E-1,-5.7929564E-1,-1.2707126E0,3.7104204E-1,1.1570116E0,-9.649987E-1,4.694366E-1,1.3133386E0,6.397164E-1,7.901787E-1,-3.8637042E-1,2.878096E-1,1.1794353E0],"categories":[],"categories_nodes":[],"categories_segments":[],"categories_sizes":[],"default_left":[1,1,1,1,1,0,1,1,0,1,0,0,0,0,1,0,1,0,0,1,0,0,0],"id":2,"left_children":[1,3,5,7,9,-1,11,13,-1,15,-1,-1,-1,-1,17,-1,19,-1,-1,21,-1,-1,-1],"loss_changes":[2.8318466E1,1.9793798E1,9.858059E0,1.1143755E1,1.4489287E1,0E0,1.9949398E0,4.9466934E0,0E0,1.6668995E1,0E0,0E0,0E0,0E0,1.6291275E0,0E0,1.0329226E1,0E0,0E0,4.9191074E0,0E0,0E0,0E0],"parents":[2147483647,0,0,1,1,2,2,3,3,4,4,6,6,7,7,9,9,14,14,16,16,19,19],"right_children":[2,4,6,8,10,-1,12,14,-1,16,-1,-1,-1,-1,18,-1,20,-1,-1,22,-1,-1,-1],"split_conditions":[6.0182846E-1,8.5341936E-1,8.073013E-1,6.627852E-1,3.7975335E-1,-1.884909E-2,8.4202075E-1,4.551174E-1,-8.4304295E-2,9.998808E-1,-4.850042E-1,-2.8964782E-1,-6.353563E-1,1.8552102E-1,4.2482677E-1,-4.8249936E-1,9.99874E-1,6.566693E-1,3.198582E-1,9.9975073E-1,-1.9318521E-1,1.439048E-1,5.897176E-1],"split_indices":[72,16,39,103,65,0,107,1,0,51,0,0,0,0,57,0,88,0,0,46,0,0,0],"split_type":[0,0,0,0,0,0,0,0,0,0,0,0,0,0,0,0,0,0,0,0,0,0,0],"sum_hessian":[1.5315892E2,1.1258462E2,4.0574306E1,5.3333233E1,5.925138E1,1.4785027E1,2.5789282E1,4.2105278E1,1.1227956E1,4.4947243E1,1.4304139E1,9.096908E0,1.6692373E1,1.257011E1,2.953517E1,9.429331E0,3.5517914E1,2.1499226E1,8.035943E0,2.5891064E1,9.62685E0,1.2062609E1,1.3828454E1],"tree_param":{"num_deleted":"0","num_feature":"134","num_nodes":"23","size_leaf_vector":"0"}},{"base_weights":[1.1194662E-2,1.4193131E-1,-1.0580207E0,-4.3128392E-1,3.885856E-1,1.3640852E-1,-9.1691566E-1,5.1458806E-1,-6.830627E-1,-4.014487E-1,6.240182E-1,-3.9294162E-1,-1.2928567E0,7.118338E-1,-2.0507282E-1,1.020979E0,3.6498982E-1,4.063952E-1,-7.845148E-1,4.2635763E-1,1.2252141E0,9.8336935E-1,-1.2418124E-1,-6.50049E-1,4.4479227E-1],"categories":[],"categories_nodes":[],"categories_segments":[],"categories_sizes":[],"default_left":[1,1,0,1,1,1,1,1,0,0,0,0,0,1,1,1,1,0,0,0,0,0,1,0,0],"id":3,"left_children":[1,3,-1,5,7,9,11,13,-1,-1,-1,-1,-1,15,17,19,21,-1,-1,-1,-1,-1,23,-1,-1],"loss_changes":[1.8910902E1,1.7200361E1,0E0,1.0247522E1,1.1795738E1,4.9184713E0,3.4155312E0,1.0991922E1,0E0,0E0,0E0,0E0,0E0,6.0816364E0,6.417577E0,3.2751389E0,9.17382E0,0E0,0E0,0E0,0E0,0E0,5.553695E0,0E0,0E0],"parents":[2147483647,0,0,1,1,3,3,4,4,5,5,6,6,7,7,13,13,14,14,15,15,16,16,22,22],"right_children":[2,4,-1,6,8,10,12,14,-1,-1,-1,-1,-1,16,18,20,22,-1,-1,-1,-1,-1,24,-1,-1],"split_conditions":[7.7362967E-1,3.6131874E-1,-5.2901036E-1,3.333617E-1,6.8570715E-1,4.3390784E-1,6.766758E-1,6.123856E-1,-3.4153134E-1,-2.0072435E-1,3.120091E-1,-1.9647081E-1,-6.4642835E-1,6.07317E-1,9.993675E-1,9.9769163E-1,9.585152E-1,2.031976E-1,-3.922574E-1,2.1317881E-1,6.1260706E-1,4.9168468E-1,9.996624E-1,-3.250245E-1,2.2239614E-1],"split_indices":[83,1,0,102,132,48,49,114,0,0,0,0,0,99,78,128,8,0,0,0,0,0,41,0,0],"split_type":[0,0,0,0,0,0,0,0,0,0,0,0,0,0,0,0,0,0,0,0,0,0,0,0,0],"sum_hessian":[1.3321074E2,1.1946999E2,1.374075E1,3.571685E1,8.375314E1,1.6798683E1,1.8918167E1,7.540677E1,8.346373E0,8.071797E0,8.726885E0,8.757491E0,1.0160676E1,5.9193737E1,1.6213036E1,3.0270094E1,2.8923643E1,8.033822E0,8.179213E0,8.528198E0,2.1741896E1,1.2328475E1,1.6595167E1,8.550221E0,8.044946E0],"tree_param":{"num_deleted":"0","num_feature":"134","num_nodes":"25","size_leaf_vector":"0"}},{"base_weights":[4.131031E-3,9.1649896E-1,-1.240325E-1,-6.451452E-1,7.344482E-2,-1.0835083E0,-5.6446407E-2,2.728661E-1,-8.5297006E-1,6.90284E-1,-1.0744376E-1,9.698036E-1,-5.2415732E-2,2.9306576E-1,-6.6689664E-1,1.2975874E0,5.8460027E-1,8.412401E-1,-2.348875E-1],"categories":[],"categories_nodes":[],"categories_segments":[],"categories_sizes":[],"default_left":[1,0,1,1,1,0,0,1,0,1,1,1,0,1,0,0,0,0,0],"id":4,"left_children":[1,-1,3,5,7,-1,-1,9,-1,11,13,15,-1,17,-1,-1,-1,-1,-1],"loss_changes":[1.3883286E1,0E0,1.076356E1,7.350277E0,1.4350035E1,0E0,0E0,1.017634E1,0E0,6.3769646E0,7.8503633E0,2.0434074E0,0E0,6.1608453E0,0E0,0E0,0E0,0E0,0E0],"parents":[2147483647,0,0,2,2,3,3,4,4,7,7,9,9,10,10,11,11,13,13],"right_children":[2,-1,4,6,8,-1,-1,10,-1,12,14,16,-1,18,-1,-1,-1,-1,-1],"split_conditions":[8.7110984E-1,4.5824948E-1,9.9985886E-1,9.9987715E-1,9.9989927E-1,-5.417541E-1,-2.8223203E-2,7.875313E-1,-4.2648503E-1,9.985163E-1,4.5838028E-1,5.178814E-1,-2.6207866E-2,7.899658E-1,-3.3344832E-1,6.487937E-1,2.9230013E-1,4.2062005E-1,-1.1744375E-1],"split_indices":[75,0,133,84,70,0,0,39,0,87,60,35,0,104,0,0,0,0,0],"split_type":[0,0,0,0,0,0,0,0,0,0,0,0,0,0,0,0,0,0,0],"sum_hessian":[1.16757126E2,1.3623489E1,1.0313364E2,2.7719402E1,7.541423E1,1.5406637E1,1.2312765E1,6.2636482E1,1.277775E1,2.9472834E1,3.316365E1,2.1191502E1,8.281333E0,1.9604815E1,1.3558833E1,1.0169401E1,1.10220995E1,9.32709E0,1.0277724E1],"tree_param":{"num_deleted":"0","num_feature":"134","num_nodes":"19","size_leaf_vector":"0"}},{"base_weights":[9.497006E-3,-8.849082E-1,1.0053703E-1,7.5747925E-1,-3.5476726E-2,2.54311E-1,-4.5025378E-1,-6.218781E-1,4.4339126E-1,1.7193322E-1,-6.9936925E-1,6.937212E-1,-3.0353862E-1,-1.0139809E0,-2.6373127E-1,9.158392E-2,9.449569E-1,5.27477E-1,1.2163897E0],"categories":[],"categories_nodes":[],"categories_segments":[],"categories_sizes":[],"default_left":[1,0,1,0,1,1,1,0,1,0,1,1,0,0,0,0,1,0,0],"id":5,"left_children":[1,-1,3,-1,5,7,9,-1,11,-1,13,15,-1,-1,-1,-1,17,-1,-1],"loss_changes":[8.714673E0,0E0,8.698034E0,0E0,9.892948E0,8.315986E0,5.362469E0,0E0,7.783463E0,0E0,3.069765E0,4.548499E0,0E0,0E0,0E0,0E0,1.7960243E0,0E0,0E0],"parents":[2147483647,0,0,2,2,4,4,5,5,6,6,8,8,10,10,11,11,16,16],"right_children":[2,-1,4,-1,6,8,10,-1,12,-1,14,16,-1,-1,-1,-1,18,-1,-1],"split_conditions":[3.352526E-1,-4.424541E-1,2.9773748E-1,3.7873963E-1,7.442806E-1,9.935838E-1,9.622202E-1,-3.1093904E-1,6.095151E-1,8.596661E-2,4.2502975E-1,3.4839082E-1,-1.5176931E-1,-5.0699043E-1,-1.3186564E-1,4.579196E-2,4.6765146E-1,2.637385E-1,6.081948E-1],"split_indices":[80,0,42,0,49,51,8,0,48,0,19,68,0,0,0,0,64,0,0],"split_type":[0,0,0,0,0,0,0,0,0,0,0,0,0,0,0,0,0,0,0],"sum_hessian":[1.0493221E2,8.888534E0,9.604368E1,1.5690399E1,8.035328E1,4.7531704E1,3.282158E1,8.030373E0,3.9501328E1,9.472653E0,2.3348925E1,2.963915E1,9.862179E0,1.278686E1,1.0562065E1,9.127584E0,2.0511566E1,9.241259E0,1.1270307E1],"tree_param":{"num_deleted":"0","num_feature":"134","num_nodes":"19","size_leaf_vector":"0"}},{"base_weights":[6.408447E-3,1.0827613E-1,-6.913078E-1,8.345313E-1,-4.5006135E-3,-6.644707E-1,1.530485E-1,-4.2445365E-1,3.2449937E-1,-2.7535623E-1,5.956571E-1,1.1057914E0,3.6682802E-1,6.296625E-1,-3.958752E-2],"categories":[],"categories_nodes":[],"categories_segments":[],"categories_sizes":[],"default_left":[1,1,0,0,1,0,1,0,1,0,1,0,1,0,0],"id":6,"left_children":[1,3,-1,-1,5,-1,7,-1,9,-1,11,-1,13,-1,-1],"loss_changes":[6.8492136E0,6.886602E0,0E0,0E0,7.768396E0,0E0,6.11191E0,0E0,7.8236985E0,0E0,3.4170847E0,0E0,2.599628E0,0E0,0E0],"parents":[2147483647,0,0,1,1,4,4,6,6,8,8,10,10,12,12],"right_children":[2,4,-1,-1,6,-1,8,-1,10,-1,12,-1,14,-1,-1],"split_conditions":[6.420536E-1,4.5962715E-1,-3.456539E-1,4.1726565E-1,9.988534E-1,-3.3223534E-1,3.8520354E-1,-2.1222682E-1,9.9988633E-1,-1.3767812E-1,9.9997705E-1,5.528957E-1,3.1639862E-1,3.1483126E-1,-1.979376E-2],"split_indices":[45,9,0,0,59,0,64,0,133,0,133,0,65,0,0],"split_type":[0,0,0,0,0,0,0,0,0,0,0,0,0,0,0],"sum_hessian":[9.431321E1,8.303481E1,1.1278401E1,1.030073E1,7.273408E1,1.33969555E1,5.9337124E1,1.324569E1,4.6091434E1,1.434404E1,3.1747395E1,8.644224E0,2.310317E1,1.3696286E1,9.406884E0],"tree_param":{"num_deleted":"0","num_feature":"134","num_nodes":"15","size_leaf_vector":"0"}},{"base_weights":[1.1849526E-2,5.114428E-1,-1.4440235E-1,1.2642993E-1,1.0046346E0,4.7662956E-1,-2.9182866E-1,-1.118344E-1,-7.9718685E-1,-4.0606543E-1,3.789419E-1,-7.7129006E-1,1.9544085E-2],"categories":[],"categories_nodes":[],"categories_segments":[],"categories_sizes":[],"default_left":[1,1,1,0,0,0,1,1,0,1,0,0,0],"id":7,"left_children":[1,3,5,-1,-1,-1,7,9,-1,11,-1,-1,-1],"loss_changes":[7.0357904E0,3.949418E0,6.430522E0,0E0,0E0,0E0,5.018668E0,6.300929E0,0E0,4.2270207E0,0E0,0E0,0E0],"parents":[2147483647,0,0,1,1,2,2,6,6,7,7,9,9],"right_children":[2,4,6,-1,-1,-1,8,10,-1,12,-1,-1,-1],"split_conditions":[9.775522E-1,5.1649034E-1,9.9449515E-1,6.3214965E-2,5.023173E-1,2.3831478E-1,6.1062217E-1,4.507624E-1,-3.9859343E-1,2.4284574E-1,1.8947095E-1,-3.8564503E-1,9.772043E-3],"split_indices":[36,1,112,0,0,0,48,19,0,71,0,0,0],"split_type":[0,0,0,0,0,0,0,0,0,0,0,0,0],"sum_hessian":[8.818428E1,2.0467894E1,6.7716385E1,1.2200139E1,8.267755E0,1.2562784E1,5.5153603E1,4.1569145E1,1.35844555E1,2.6096395E1,1.547275E1,1.3607397E1,1.2488999E1],"tree_param":{"num_deleted":"0","num_feature":"134","num_nodes":"13","size_leaf_vector":"0"}},{"base_weights":[9.439482E-3,-5.475443E-1,1.1305486E-1,3.4082076E-1,-2.1312998E-1,-3.4052002E-1,5.090978E-1,1.2192701E-1,-6.771148E-1,7.4212134E-1,1.5514095E-2,6.17534E-1,-4.4625887E-1,2.734221E-1,9.7873473E-1],"categories":[],"categories_nodes":[],"categories_segments":[],"categories_sizes":[],"default_left":[1,0,1,1,1,0,1,1,0,1,0,0,0,0,0],"id":8,"left_children":[1,-1,3,5,7,-1,9,11,-1,13,-1,-1,-1,-1,-1],"loss_changes":[4.8985534E0,0E0,5.383924E0,5.043934E0,4.7479005E0,0E0,3.952837E0,5.4212885E0,0E0,2.3266296E0,0E0,0E0,0E0,0E0,0E0],"parents":[2147483647,0,0,2,2,3,3,4,4,6,6,7,7,9,9],"right_children":[2,-1,4,6,8,-1,10,12,-1,14,-1,-1,-1,-1,-1],"split_conditions":[9.9816775E-1,-2.7377215E-1,7.5131714E-1,2.4419382E-1,4.2148313E-1,-1.7026001E-1,5.698514E-1,9.9999833E-1,-3.385574E-1,4.5260257E-1,7.7570477E-3,3.08767E-1,-2.2312944E-1,1.3671105E-1,4.8936737E-1],"split_indices":[96,0,49,95,42,0,48,133,0,43,0,0,0,0,0],"split_type":[0,0,0,0,0,0,0,0,0,0,0,0,0,0,0],"sum_hessian":[8.280654E1,1.2316246E1,7.0490295E1,4.1480637E1,2.9009659E1,8.01301E0,3.346763E1,1.7273312E1,1.1736347E1,2.239248E1,1.1075146E1,9.179516E0,8.093796E0,8.2352085E0,1.4157272E1],"tree_param":{"num_deleted":"0","num_feature":"134","num_nodes":"15","size_leaf_vector":"0"}},{"base_weights":[1.0908735E-2,1.0165452E-1,-6.3128895E-1,-1.4990646E-1,4.5632136E-1,5.7494063E-2,-5.7963884E-1,6.8762684E-1,-3.473345E-2,-3.6167303E-1,3.6088887E-1,3.726915E-1,1.0127599E0,7.3524696E-1,-5.7304E-2],"categories":[],"categories_nodes":[],"categories_segments":[],"categories_sizes":[],"default_left":[1,1,0,1,1,1,0,1,0,0,1,0,0,0,0],"id":9,"left_children":[1,3,-1,5,7,9,-1,11,-1,-1,13,-1,-1,-1,-1],"loss_changes":[4.5968623E0,6.225521E0,0E0,3.6987853E0,3.304616E0,3.773858E0,0E0,1.6380205E0,0E0,0E0,2.722329E0,0E0,0E0,0E0,0E0],"parents":[2147483647,0,0,1,1,3,3,4,4,5,5,7,7,10,10],"right_children":[2,4,-1,6,8,10,-1,12,-1,-1,14,-1,-1,-1,-1],"split_conditions":[9.998964E-1,4.9116486E-1,-3.1564447E-1,9.08505E-1,4.5274526E-1,6.917143E-1,-2.8981942E-1,6.732823E-1,-1.7366724E-2,-1.8083651E-1,9.8089546E-1,1.8634576E-1,5.0637996E-1,3.6762348E-1,-2.8652E-2],"split_indices":[70,1,0,39,57,73,0,5,0,0,62,0,0,0,0],"split_type":[0,0,0,0,0,0,0,0,0,0,0,0,0,0,0],"sum_hessian":[7.67787E1,6.801022E1,8.76848E0,4.0126385E1,2.7883839E1,2.7648619E1,1.2477766E1,1.8683086E1,9.200751E0,1.1528658E1,1.611996E1,1.0580609E1,8.102478E0,8.105723E0,8.014237E0],"tree_param":{"num_deleted":"0","num_feature":"134","num_nodes":"15","size_leaf_vector":"0"}},{"base_weights":[1.30316E-2,2.8108266E-1,-1.6152795E-1,-2.6480785E-1,5.48566E-1,8.118495E-2,-4.7615513E-1,-2.955315E-3,9.3239117E-1,-2.6194957E-1,7.330374E-1,-7.194108E-2,-8.48544E-1,1.5545331E-1,-6.5477943E-1],"categories":[],"categories_nodes":[],"categories_segments":[],"categories_sizes":[],"default_left":[1,1,1,0,1,1,1,0,0,1,0,0,0,0,0],"id":10,"left_children":[1,3,5,-1,7,9,11,-1,-1,13,-1,-1,-1,-1,-1],"loss_changes":[3.4426587E0,4.3796577E0,3.4449291E0,0E0,4.1917014E0,6.015336E0,2.8848386E0,0E0,0E0,3.0193057E0,0E0,0E0,0E0,0E0,0E0],"parents":[2147483647,0,0,1,1,2,2,4,4,5,5,6,6,9,9],"right_children":[2,4,6,-1,8,10,12,-1,-1,14,-1,-1,-1,-1,-1],"split_conditions":[9.8371756E-1,4.140281E-1,9.996383E-1,-1.3240393E-1,9.839827E-1,3.4617576E-1,5.514797E-1,-1.4776575E-3,4.6619558E-1,4.8620903E-1,3.665187E-1,-3.597054E-2,-4.24272E-1,7.7726655E-2,-3.2738972E-1],"split_indices":[7,33,41,0,62,95,114,0,0,32,0,0,0,0,0],"split_type":[0,0,0,0,0,0,0,0,0,0,0,0,0,0,0],"sum_hessian":[7.1605095E1,2.7999397E1,4.3605698E1,9.211074E0,1.8788322E1,2.5034948E1,1.8570751E1,8.117102E0,1.0671222E1,1.679318E1,8.241769E0,9.477006E0,9.093745E0,8.434908E0,8.358272E0],"tree_param":{"num_deleted":"0","num_feature":"134","num_nodes":"15","size_leaf_vector":"0"}},{"base_weights":[8.497058E-3,-5.3427774E-1,9.483987E-2,4.4251016E-1,-7.117138E-2,7.7968603E-1,-1.9687124E-2,-4.9127275E-1,1.699801E-1,-1.3478336E-1,7.2054124E-1,-6.3932246E-1,3.7819004E-1],"categories":[],"categories_nodes":[],"categories_segments":[],"categories_sizes":[],"default_left":[1,0,1,1,1,0,0,0,1,1,0,0,0],"id":11,"left_children":[1,-1,3,5,7,-1,-1,-1,9,11,-1,-1,-1],"loss_changes":[3.242131E0,0E0,3.4715784E0,3.0388086E0,4.257561E0,0E0,0E0,0E0,4.6138444E0,4.9443746E0,0E0,0E0,0E0],"parents":[2147483647,0,0,2,2,3,3,4,4,8,8,9,9],"right_children":[2,-1,4,6,8,-1,-1,-1,10,12,-1,-1,-1],"split_conditions":[6.083319E-1,-2.6713887E-1,8.1629443E-1,2.5428575E-1,5.8189553E-1,3.8984302E-1,-9.843562E-3,-2.4563637E-1,2.809457E-1,5.4736215E-1,3.6027062E-1,-3.1966123E-1,1.8909502E-1],"split_indices":[104,0,107,71,58,0,0,0,129,89,0,0,0],"split_type":[0,0,0,0,0,0,0,0,0,0,0,0,0],"sum_hessian":[6.709944E1,8.497012E0,5.860243E1,1.8400826E1,4.0201603E1,1.0242179E1,8.158647E0,1.428282E1,2.5918785E1,1.7169685E1,8.7491E0,8.531829E0,8.6378565E0],"tree_param":{"num_deleted":"0","num_feature":"134","num_nodes":"13","size_leaf_vector":"0"}},{"base_weights":[8.902465E-3,9.212642E-2,-4.898869E-1,-3.2884404E-1,2.765651E-1,-8.6385506E-1,2.375574E-1,7.3404753E-1,9.3453445E-2,3.2772747E-1,-4.4922355E-1,-2.0959881E-1,7.007592E-1],"categories":[],"categories_nodes":[],"categories_segments":[],"categories_sizes":[],"default_left":[1,1,0,1,1,0,0,0,1,1,0,0,0],"id":12,"left_children":[1,3,-1,5,7,-1,-1,-1,9,11,-1,-1,-1],"loss_changes":[2.6990783E0,4.4104667E0,0E0,5.4796114E0,3.2174993E0,0E0,0E0,0E0,3.8545222E0,4.3452463E0,0E0,0E0,0E0],"parents":[2147483647,0,0,1,1,3,3,4,4,8,8,9,9],"right_children":[2,4,-1,6,8,-1,-1,-1,10,12,-1,-1,-1],"split_conditions":[6.651364E-1,9.999486E-1,-2.4494345E-1,9.999998E-1,4.5960498E-1,-4.3192753E-1,1.187787E-1,3.6702377E-1,7.264949E-1,9.9995047E-1,-2.2461177E-1,-1.04799405E-1,3.503796E-1],"split_indices":[132,28,0,106,53,0,0,0,0,133,0,0,0],"split_type":[0,0,0,0,0,0,0,0,0,0,0,0,0],"sum_hessian":[6.2933228E1,5.463292E1,8.300307E0,1.6405464E1,3.8227455E1,8.166446E0,8.239019E0,1.0067149E1,2.8160307E1,1.9945787E1,8.214519E0,8.352587E0,1.1593202E1],"tree_param":{"num_deleted":"0","num_feature":"134","num_nodes":"13","size_leaf_vector":"0"}},{"base_weights":[4.5683174E-3,4.9945086E-1,-9.98745E-2,-6.827535E-1,2.9031934E-2,2.5760585E-1,-2.5003934E-1,-1.0930011E-1,4.7069597E-1,7.613372E-2,-6.130219E-1],"categories":[],"categories_nodes":[],"categories_segments":[],"categories_sizes":[],"default_left":[1,0,1,0,1,1,1,0,0,0,0],"id":13,"left_children":[1,-1,3,-1,5,7,9,-1,-1,-1,-1],"loss_changes":[3.1657932E0,0E0,3.8226542E0,0E0,2.7693787E0,1.9125636E0,2.367334E0,0E0,0E0,0E0,0E0],"parents":[2147483647,0,0,2,2,4,4,5,5,6,6],"right_children":[2,-1,4,-1,6,8,10,-1,-1,-1,-1],"split_conditions":[8.641777E-1,2.4972543E-1,1E0,-3.4137675E-1,4.5068645E-1,4.2742372E-1,9.994736E-1,-5.4650053E-2,2.3534799E-1,3.806686E-2,-3.0651096E-1],"split_indices":[23,0,15,0,79,64,67,0,0,0,0],"split_type":[0,0,0,0,0,0,0,0,0,0,0],"sum_hessian":[5.9284317E1,9.67223E0,4.9612087E1,8.206785E0,4.14053E1,2.2804306E1,1.8600996E1,8.557234E0,1.4247071E1,1.0213493E1,8.387504E0],"tree_param":{"num_deleted":"0","num_feature":"134","num_nodes":"11","size_leaf_vector":"0"}},{"base_weights":[-2.3466365E-3,8.6630896E-2,-4.4966945E-1,5.0142676E-1,-8.137754E-2,2.1881081E-1,-3.4112984E-1,4.7576746E-1,-6.2043738E-2,-5.9842885E-1,-5.543708E-3],"categories":[],"categories_nodes":[],"categories_segments":[],"categories_sizes":[],"default_left":[1,1,0,0,1,1,1,0,0,0,0],"id":14,"left_children":[1,3,-1,-1,5,7,9,-1,-1,-1,-1],"loss_changes":[2.325332E0,3.438302E0,0E0,0E0,2.8472981E0,1.2639079E0,1.67645E0,0E0,0E0,0E0,0E0],"parents":[2147483647,0,0,1,1,4,4,5,5,6,6],"right_children":[2,4,-1,-1,6,8,10,-1,-1,-1,-1],"split_conditions":[5.283135E-1,5.721978E-1,-2.2483473E-1,2.5071338E-1,3.508538E-1,9.88325E-1,4.9506405E-1,2.3788373E-1,-3.1021869E-2,-2.9921442E-1,-2.771854E-3],"split_indices":[100,21,0,0,74,18,111,0,0,0,0],"split_type":[0,0,0,0,0,0,0,0,0,0,0],"sum_hessian":[5.644423E1,4.775213E1,8.692101E0,1.3193694E1,3.4558434E1,1.6104517E1,1.8453917E1,8.047646E0,8.056871E0,1.0001998E1,8.451918E0],"tree_param":{"num_deleted":"0","num_feature":"134","num_nodes":"11","size_leaf_vector":"0"}},{"base_weights":[-1.8686726E-3,-3.8205603E-1,1.0284717E-1,4.8745376E-1,-1.3277264E-1,8.135598E-1,1.0533232E-1,1.3179822E-1,-4.3500206E-1],"categories":[],"categories_nodes":[],"categories_segments":[],"categories_sizes":[],"default_left":[1,0,1,1,1,0,0,0,0],"id":15,"left_children":[1,-1,3,5,7,-1,-1,-1,-1],"loss_changes":[2.2714334E0,0E0,4.1197834E0,2.0592985E0,2.3389566E0,0E0,0E0,0E0,0E0],"parents":[2147483647,0,0,2,2,3,3,4,4],"right_children":[2,-1,4,6,8,-1,-1,-1,-1],"split_conditions":[4.00695E-1,-1.9102801E-1,9.864032E-1,4.630213E-1,6.266874E-1,4.067799E-1,5.266616E-2,6.589911E-2,-2.1750103E-1],"split_indices":[100,0,7,32,103,0,0,0,0],"split_type":[0,0,0,0,0,0,0,0,0],"sum_hessian":[5.5067524E1,1.1319995E1,4.3747528E1,1.6213354E1,2.7534174E1,8.138673E0,8.074681E0,1.4982471E1,1.2551703E1],"tree_param":{"num_deleted":"0","num_feature":"134","num_nodes":"9","size_leaf_vector":"0"}},{"base_weights":[3.5848613E-3,-4.5217425E-1,9.322017E-2,-2.1871285E-1,2.669174E-1,5.899538E-1,8.288498E-2,-2.3648828E-1,4.123037E-1],"categories":[],"categories_nodes":[],"categories_segments":[],"categories_sizes":[],"default_left":[1,0,1,0,1,0,1,0,0],"id":16,"left_children":[1,-1,3,-1,5,-1,7,-1,-1],"loss_changes":[2.2443519E0,0E0,2.5440378E0,0E0,1.7296934E0,0E0,2.2251282E0,0E0,0E0],"parents":[2147483647,0,0,2,2,4,4,6,6],"right_children":[2,-1,4,-1,6,-1,8,-1,-1],"split_conditions":[2.797413E-1,-2.2608712E-1,5.834221E-1,-1.09356426E-1,4.8845077E-1,2.949769E-1,6.7320657E-1,-1.1824414E-1,2.0615184E-1],"split_indices":[1,0,55,0,35,0,98,0,0],"split_type":[0,0,0,0,0,0,0,0,0],"sum_hessian":[5.290665E1,8.030454E0,4.4876194E1,1.5958346E1,2.891785E1,9.69474E0,1.9223108E1,9.903609E0,9.3195E0],"tree_param":{"num_deleted":"0","num_feature":"134","num_nodes":"9","size_leaf_vector":"0"}},{"base_weights":[5.2862135E-3,-4.124753E-1,9.296173E-2,3.5441798E-1,-8.786389E-2,-1.8159531E-2,6.7635816E-1,-3.375631E-1,1.9980562E-1],"categories":[],"categories_nodes":[],"categories_segments":[],"categories_sizes":[],"default_left":[1,0,1,1,1,0,0,0,0],"id":17,"left_children":[1,-1,3,5,7,-1,-1,-1,-1],"loss_changes":[1.9309919E0,0E0,2.0889418E0,2.170615E0,1.9732349E0,0E0,0E0,0E0,0E0],"parents":[2147483647,0,0,2,2,3,3,4,4],"right_children":[2,-1,4,6,8,-1,-1,-1,-1],"split_conditions":[5.238036E-1,-2.0623764E-1,9.7202575E-1,6.102445E-1,5.896684E-1,-9.0797655E-3,3.3817908E-1,-1.6878155E-1,9.990281E-2],"split_indices":[50,0,62,69,61,0,0,0,0],"split_type":[0,0,0,0,0,0,0,0,0],"sum_hessian":[5.067292E1,8.147354E0,4.2525566E1,1.6993958E1,2.5531607E1,8.314861E0,8.679096E0,1.3574983E1,1.1956624E1],"tree_param":{"num_deleted":"0","num_feature":"134","num_nodes":"9","size_leaf_vector":"0"}},{"base_weights":[6.2674936E-3,-1.2699537E-1,3.0615667E-1,3.320425E-2,-4.1655168E-1,3.376833E-1,-3.4899688E-1],"categories":[],"categories_nodes":[],"categories_segments":[],"categories_sizes":[],"default_left":[1,1,0,1,0,0,0],"id":18,"left_children":[1,3,-1,5,-1,-1,-1],"loss_changes":[2.0331316E0,1.6492169E0,0E0,2.867013E0,0E0,0E0,0E0],"parents":[2147483647,0,0,1,1,3,3],"right_children":[2,4,-1,6,-1,-1,-1],"split_conditions":[7.1765566E-1,5.728424E-1,1.5307833E-1,4.1945142E-1,-2.0827584E-1,1.6884165E-1,-1.7449844E-1],"split_indices":[66,12,0,108,0,0,0],"split_type":[0,0,0,0,0,0,0],"sum_hessian":[4.8901077E1,3.42554E1,1.4645676E1,2.262387E1,1.1631532E1,1.2657111E1,9.96676E0],"tree_param":{"num_deleted":"0","num_feature":"134","num_nodes":"7","size_leaf_vector":"0"}},{"base_weights":[1.7706517E-3,1.5058239E-1,-2.2046523E-1,-2.4016233E-1,3.8497645E-1,-5.045113E-1,8.973751E-2,6.875501E-1,9.871725E-2],"categories":[],"categories_nodes":[],"categories_segments":[],"categories_sizes":[],"default_left":[1,1,1,0,1,0,0,0,0],"id":19,"left_children":[1,3,5,-1,7,-1,-1,-1,-1],"loss_changes":[1.6459106E0,2.8219128E0,1.8042789E0,0E0,1.5788081E0,0E0,0E0,0E0,0E0],"parents":[2147483647,0,0,1,1,2,2,4,4],"right_children":[2,4,6,-1,8,-1,-1,-1,-1],"split_conditions":[9.998282E-1,6.039218E-1,9.9376214E-1,-1.20081164E-1,6.9182014E-1,-2.5225565E-1,4.4868756E-2,3.4377506E-1,4.9358625E-2],"split_indices":[88,50,87,0,50,0,0,0,0],"split_type":[0,0,0,0,0,0,0,0,0],"sum_hessian":[4.77647E1,2.880138E1,1.896332E1,1.0789771E1,1.801161E1,9.572026E0,9.391293E0,8.074783E0,9.936826E0],"tree_param":{"num_deleted":"0","num_feature":"134","num_nodes":"9","size_leaf_vector":"0"}},{"base_weights":[3.6109774E-3,-2.1160342E-1,1.442745E-1,-5.429406E-1,2.1521088E-1,3.2248497E-1,-2.0033073E-1,2.9091226E-2,6.481877E-1],"categories":[],"categories_nodes":[],"categories_segments":[],"categories_sizes":[],"default_left":[1,1,1,0,0,1,0,0,0],"id":20,"left_children":[1,3,5,-1,-1,7,-1,-1,-1],"loss_changes":[1.4527253E0,2.8001888E0,1.8458648E0,0E0,0E0,1.8446727E0,0E0,0E0,0E0],"parents":[2147483647,0,0,1,1,2,2,5,5],"right_children":[2,4,6,-1,-1,8,-1,-1,-1],"split_conditions":[9.999825E-1,4.904384E-1,9.999293E-1,-2.714703E-1,1.0760544E-1,6.2458897E-1,-1.0016537E-1,1.4545613E-2,3.2409385E-1],"split_indices":[59,132,88,0,0,92,0,0,0],"split_type":[0,0,0,0,0,0,0,0,0],"sum_hessian":[4.5979324E1,1.7974348E1,2.8004974E1,9.9657955E0,8.008553E0,1.8501322E1,9.503654E0,1.0306512E1,8.19481E0],"tree_param":{"num_deleted":"0","num_feature":"134","num_nodes":"9","size_leaf_vector":"0"}},{"base_weights":[4.2749858E-3,-3.415159E-1,1.0137941E-1,2.801704E-1,-2.0298576E-1,5.4387224E-1,1.2202675E-2],"categories":[],"categories_nodes":[],"categories_segments":[],"categories_sizes":[],"default_left":[1,0,1,1,0,0,0],"id":21,"left_children":[1,-1,3,5,-1,-1,-1],"loss_changes":[1.5359237E0,0E0,1.9984592E0,1.6113034E0,0E0,0E0,0E0],"parents":[2147483647,0,0,2,2,3,3],"right_children":[2,-1,4,6,-1,-1,-1],"split_conditions":[4.00695E-1,-1.7075795E-1,9.9948645E-1,4.44376E-1,-1.0149288E-1,2.7193612E-1,6.1013377E-3],"split_indices":[100,0,70,60,0,0,0],"split_type":[0,0,0,0,0,0,0],"sum_hessian":[4.371109E1,9.031771E0,3.4679317E1,2.189638E1,1.2782939E1,1.0517096E1,1.1379285E1],"tree_param":{"num_deleted":"0","num_feature":"134","num_nodes":"7","size_leaf_vector":"0"}},{"base_weights":[4.1171694E-3,-3.1338042E-1,9.487387E-2,3.9298147E-1,-5.092104E-2,2.7355075E-1,-2.932267E-1],"categories":[],"categories_nodes":[],"categories_segments":[],"categories_sizes":[],"default_left":[1,0,1,0,1,0,0],"id":22,"left_children":[1,-1,3,-1,5,-1,-1],"loss_changes":[1.2912867E0,0E0,1.5332048E0,0E0,1.9880672E0,0E0,0E0],"parents":[2147483647,0,0,2,2,4,4],"right_children":[2,-1,4,-1,6,-1,-1],"split_conditions":[9.9550843E-1,-1.5669021E-1,9.8546135E-1,1.9649073E-1,7.3517954E-1,1.3677537E-1,-1.4661334E-1],"split_indices":[70,0,117,0,39,0,0],"split_type":[0,0,0,0,0,0,0],"sum_hessian":[4.2781147E1,8.965128E0,3.3816017E1,1.0549651E1,2.3266367E1,9.891584E0,1.3374783E1],"tree_param":{"num_deleted":"0","num_feature":"134","num_nodes":"7","size_leaf_vector":"0"}},{"base_weights":[3.3559685E-3,2.8996435E-1,-8.75554E-2,-4.4753754E-1,5.1107194E-2,3.410319E-1,-1.8906805E-1],"categories":[],"categories_nodes":[],"categories_segments":[],"categories_sizes":[],"default_left":[1,0,1,0,1,0,0],"id":23,"left_children":[1,-1,3,-1,5,-1,-1],"loss_changes":[1.139019E0,0E0,1.6808712E0,0E0,1.7967074E0,0E0,0E0],"parents":[2147483647,0,0,2,2,4,4],"right_children":[2,-1,4,-1,6,-1,-1],"split_conditions":[2.396471E-1,1.4498217E-1,5.787909E-1,-2.2376877E-1,3.7977615E-1,1.7051595E-1,-9.4534025E-2],"split_indices":[52,0,58,0,42,0,0],"split_type":[0,0,0,0,0,0,0],"sum_hessian":[4.1739967E1,9.524229E0,3.221574E1,8.339089E0,2.387665E1,1.0627663E1,1.3248987E1],"tree_param":{"num_deleted":"0","num_feature":"134","num_nodes":"7","size_leaf_vector":"0"}},{"base_weights":[1.5272907E-3,-2.222988E-1,1.3062346E-1,-1.191511E-1,4.649023E-1],"categories":[],"categories_nodes":[],"categories_segments":[],"categories_sizes":[],"default_left":[1,0,1,0,0],"id":24,"left_children":[1,-1,3,-1,-1],"loss_changes":[1.2234548E0,0E0,2.296859E0,0E0,0E0],"parents":[2147483647,0,0,2,2],"right_children":[2,-1,4,-1,-1],"split_conditions":[4.4130713E-1,-1.111494E-1,4.7837442E-1,-5.957555E-2,2.3245116E-1],"split_indices":[77,0,80,0,0],"split_type":[0,0,0,0,0],"sum_hessian":[4.033634E1,1.4490626E1,2.5845715E1,1.5160948E1,1.0684767E1],"tree_param":{"num_deleted":"0","num_feature":"134","num_nodes":"5","size_leaf_vector":"0"}},{"base_weights":[4.038858E-3,-2.0919828E-1,1.312937E-1,-1.8001595E-1,2.865914E-1,-4.9604766E-2,6.192478E-1],"categories":[],"categories_nodes":[],"categories_segments":[],"categories_sizes":[],"default_left":[1,0,1,0,1,0,0],"id":25,"left_children":[1,-1,3,-1,5,-1,-1],"loss_changes":[1.1306316E0,0E0,1.312178E0,0E0,2.0194256E0,0E0,0E0],"parents":[2147483647,0,0,2,2,4,4],"right_children":[2,-1,4,-1,6,-1,-1],"split_conditions":[9.999902E-1,-1.0459914E-1,4.149828E-1,-9.0007976E-2,6.370274E-1,-2.4802383E-2,3.096239E-1],"split_indices":[123,0,86,0,55,0,0],"split_type":[0,0,0,0,0,0,0],"sum_hessian":[3.9654007E1,1.4579554E1,2.5074453E1,8.292382E0,1.6782072E1,8.769818E0,8.012254E0],"tree_param":{"num_deleted":"0","num_feature":"134","num_nodes":"7","size_leaf_vector":"0"}},{"base_weights":[7.2539593E-3,-8.6171366E-2,2.6108494E-1,-3.4334326E-1,9.499571E-2,-1.4755656E-1,3.540507E-1],"categories":[],"categories_nodes":[],"categories_segments":[],"categories_sizes":[],"default_left":[1,1,0,0,1,0,0],"id":26,"left_children":[1,3,-1,-1,5,-1,-1],"loss_changes":[9.660708E-1,1.4227209E0,0E0,0E0,1.2013652E0,0E0,0E0],"parents":[2147483647,0,0,1,1,4,4],"right_children":[2,4,-1,-1,6,-1,-1],"split_conditions":[6.379857E-1,4.725805E-1,1.3054247E-1,-1.7167163E-1,4.5944682E-1,-7.377828E-2,1.7702535E-1],"split_indices":[38,45,0,0,1,0,0],"split_type":[0,0,0,0,0,0,0],"sum_hessian":[3.8789288E1,2.8836287E1,9.953001E0,1.15481615E1,1.7288124E1,9.150731E0,8.137393E0],"tree_param":{"num_deleted":"0","num_feature":"134","num_nodes":"7","size_leaf_vector":"0"}},{"base_weights":[5.8612023E-3,1.216234E-1,-2.0421216E-1,-1.1906552E-1,3.5667035E-1],"categories":[],"categories_nodes":[],"categories_segments":[],"categories_sizes":[],"default_left":[1,1,0,0,0],"id":27,"left_children":[1,3,-1,-1,-1],"loss_changes":[9.783649E-1,1.5080646E0,0E0,0E0,0E0],"parents":[2147483647,0,0,1,1],"right_children":[2,4,-1,-1,-1],"split_conditions":[9.9336183E-1,5.0787294E-1,-1.0210608E-1,-5.953276E-2,1.7833517E-1],"split_indices":[31,53,0,0,0],"split_type":[0,0,0,0,0],"sum_hessian":[3.8209896E1,2.4906218E1,1.3303678E1,1.2549215E1,1.2357002E1],"tree_param":{"num_deleted":"0","num_feature":"134","num_nodes":"5","size_leaf_vector":"0"}},{"base_weights":[4.0591797E-3,-2.5750387E-1,1.09248236E-1,3.5395584E-1,-1.0230999E-1],"categories":[],"categories_nodes":[],"categories_segments":[],"categories_sizes":[],"default_left":[1,0,1,0,0],"id":28,"left_children":[1,-1,3,-1,-1],"loss_changes":[1.0927205E0,0E0,1.5011795E0,0E0,0E0],"parents":[2147483647,0,0,2,2],"right_children":[2,-1,4,-1,-1],"split_conditions":[9.999486E-1,-1.2875193E-1,9.9999714E-1,1.7697792E-1,-5.1154993E-2],"split_indices":[28,0,28,0,0],"split_type":[0,0,0,0,0],"sum_hessian":[3.7693222E1,1.0395577E1,2.7297646E1,1.2345093E1,1.4952553E1],"tree_param":{"num_deleted":"0","num_feature":"134","num_nodes":"5","size_leaf_vector":"0"}},{"base_weights":[2.889231E-3,2.5802702E-1,-7.988759E-2,9.161228E-2,-3.3607018E-1,3.0933475E-1,-1.42524E-1],"categories":[],"categories_nodes":[],"categories_segments":[],"categories_sizes":[],"default_left":[1,0,1,1,0,0,0],"id":29,"left_children":[1,-1,3,5,-1,-1,-1],"loss_changes":[8.2196945E-1,0E0,1.3230398E0,9.8226374E-1,0E0,0E0,0E0],"parents":[2147483647,0,0,2,2,3,3],"right_children":[2,-1,4,6,-1,-1,-1],"split_conditions":[3.8906533E-1,1.2901351E-1,4.6110278E-1,3.904239E-1,-1.6803509E-1,1.5466738E-1,-7.1262E-2],"split_indices":[111,0,100,108,0,0,0],"split_type":[0,0,0,0,0,0,0],"sum_hessian":[3.6943916E1,8.531297E0,2.8412619E1,1.7404007E1,1.1008612E1,8.851684E0,8.552322E0],"tree_param":{"num_deleted":"0","num_feature":"134","num_nodes":"7","size_leaf_vector":"0"}},{"base_weights":[2.573491E-3,2.5759625E-1,-8.895575E-2,-2.8388494E-1,2.1793005E-1,1.0885679E-2,-5.34209E-1],"categories":[],"categories_nodes":[],"categories_segments":[],"categories_sizes":[],"default_left":[1,0,1,1,0,0,0],"id":30,"left_children":[1,-1,3,5,-1,-1,-1],"loss_changes":[8.9534163E-1,0E0,1.7516682E0,1.3125423E0,0E0,0E0,0E0],"parents":[2147483647,0,0,2,2,3,3],"right_children":[2,-1,4,6,-1,-1,-1],"split_conditions":[5.0536305E-1,1.2879813E-1,6.622492E-1,4.478482E-1,1.08965024E-1,5.4428396E-3,-2.671045E-1],"split_indices":[103,0,58,32,0,0,0],"split_type":[0,0,0,0,0,0,0],"sum_hessian":[3.637578E1,9.128155E0,2.7247623E1,1.6709166E1,1.0538458E1,8.1126175E0,8.596548E0],"tree_param":{"num_deleted":"0","num_feature":"134","num_nodes":"7","size_leaf_vector":"0"}},{"base_weights":[-1.224616E-3,-1.0664268E-1,2.2956672E-1,1.0900378E-1,-2.860461E-1],"categories":[],"categories_nodes":[],"categories_segments":[],"categories_sizes":[],"default_left":[1,1,0,0,0],"id":31,"left_children":[1,3,-1,-1,-1],"loss_changes":[9.058586E-1,1.0196735E0,0E0,0E0,0E0],"parents":[2147483647,0,0,1,1],"right_children":[2,4,-1,-1,-1],"split_conditions":[7.1765566E-1,5.4705226E-1,1.1478336E-1,5.450189E-2,-1.4302304E-1],"split_indices":[66,12,0,0,0],"split_type":[0,0,0,0,0],"sum_hessian":[3.5226566E1,2.455058E1,1.0675989E1,1.1327323E1,1.3223256E1],"tree_param":{"num_deleted":"0","num_feature":"134","num_nodes":"5","size_leaf_vector":"0"}},{"base_weights":[-1.185492E-4,2.2797179E-1,-8.833793E-2,1.9583063E-1,-2.7958483E-1],"categories":[],"categories_nodes":[],"categories_segments":[],"categories_sizes":[],"default_left":[1,0,1,0,0],"id":32,"left_children":[1,-1,3,-1,-1],"loss_changes":[7.402256E-1,0E0,1.4963423E0,0E0,0E0],"parents":[2147483647,0,0,2,2],"right_children":[2,-1,4,-1,-1],"split_conditions":[9.003626E-1,1.13985896E-1,9.997185E-1,9.7915314E-2,-1.3979241E-1],"split_indices":[18,0,84,0,0],"split_type":[0,0,0,0,0],"sum_hessian":[3.4786076E1,9.26008E0,2.5525993E1,1.0258781E1,1.5267212E1],"tree_param":{"num_deleted":"0","num_feature":"134","num_nodes":"5","size_leaf_vector":"0"}},{"base_weights":[1.892992E-3,9.238048E-2,-2.209093E-1,2.5794095E-1,-1.4740412E-1],"categories":[],"categories_nodes":[],"categories_segments":[],"categories_sizes":[],"default_left":[1,1,0,0,0],"id":33,"left_children":[1,3,-1,-1,-1],"loss_changes":[7.318902E-1,1.0623541E0,0E0,0E0,0E0],"parents":[2147483647,0,0,1,1],"right_children":[2,4,-1,-1,-1],"split_conditions":[6.29272E-1,2.6216978E-1,-1.1045465E-1,1.2897047E-1,-7.370206E-2],"split_indices":[27,71,0,0,0],"split_type":[0,0,0,0,0],"sum_hessian":[3.429036E1,2.4802572E1,9.487786E0,1.4627336E1,1.0175237E1],"tree_param":{"num_deleted":"0","num_feature":"134","num_nodes":"5","size_leaf_vector":"0"}},{"base_weights":[-2.9445937E-4,-2.1888588E-1,8.641367E-2,-6.822189E-2,3.2189026E-1],"categories":[],"categories_nodes":[],"categories_segments":[],"categories_sizes":[],"default_left":[1,0,1,0,0],"id":34,"left_children":[1,-1,3,-1,-1],"loss_changes":[6.813821E-1,0E0,9.593125E-1,0E0,0E0],"parents":[2147483647,0,0,2,2],"right_children":[2,-1,4,-1,-1],"split_conditions":[5.723562E-1,-1.0944294E-1,5.1452744E-1,-3.4110945E-2,1.6094513E-1],"split_indices":[58,0,43,0,0],"split_type":[0,0,0,0,0],"sum_hessian":[3.395196E1,9.209753E0,2.474221E1,1.5363444E1,9.378766E0],"tree_param":{"num_deleted":"0","num_feature":"134","num_nodes":"5","size_leaf_vector":"0"}},{"base_weights":[9.492897E-4,8.7574646E-2,-1.9934206E-1,-2.2497621E-1,2.5995088E-1],"categories":[],"categories_nodes":[],"categories_segments":[],"categories_sizes":[],"default_left":[1,1,0,0,0],"id":35,"left_children":[1,3,-1,-1,-1],"loss_changes":[6.139894E-1,1.3890115E0,0E0,0E0,0E0],"parents":[2147483647,0,0,1,1],"right_children":[2,4,-1,-1,-1],"split_conditions":[1E0,9.972122E-1,-9.967103E-2,-1.12488106E-1,1.2997544E-1],"split_indices":[133,70,0,0,0],"split_type":[0,0,0,0,0],"sum_hessian":[3.3381645E1,2.3695976E1,9.685669E0,8.3147E0,1.5381277E1],"tree_param":{"num_deleted":"0","num_feature":"134","num_nodes":"5","size_leaf_vector":"0"}},{"base_weights":[-1.6342094E-3,2.2066763E-1,-8.153248E-2,-3.350362E-1,6.075901E-2,-1.1138009E-1,2.2447832E-1],"categories":[],"categories_nodes":[],"categories_segments":[],"categories_sizes":[],"default_left":[1,0,1,0,1,0,0],"id":36,"left_children":[1,-1,3,-1,5,-1,-1],"loss_changes":[6.2147266E-1,0E0,9.4825643E-1,0E0,5.131933E-1,0E0,0E0],"parents":[2147483647,0,0,2,2,4,4],"right_children":[2,-1,4,-1,6,-1,-1],"split_conditions":[3.317521E-1,1.10333815E-1,4.1723317E-1,-1.675181E-1,3.2551903E-1,-5.5690046E-2,1.1223916E-1],"split_indices":[125,0,1,0,102,0,0],"split_type":[0,0,0,0,0,0,0],"sum_hessian":[3.297686E1,8.252892E0,2.4723967E1,8.401481E0,1.6322487E1,8.112482E0,8.210005E0],"tree_param":{"num_deleted":"0","num_feature":"134","num_nodes":"7","size_leaf_vector":"0"}},{"base_weights":[-1.2888227E-3,1.4907552E-1,-1.1758074E-1,-2.8959584E-1,1.0919032E-1],"categories":[],"categories_nodes":[],"categories_segments":[],"categories_sizes":[],"default_left":[1,0,1,0,0],"id":37,"left_children":[1,-1,3,-1,-1],"loss_changes":[5.9990025E-1,0E0,7.860058E-1,0E0,0E0],"parents":[2147483647,0,0,2,2],"right_children":[2,-1,4,-1,-1],"split_conditions":[3.8975567E-1,7.453776E-2,5.2380216E-1,-1.4479792E-1,5.459516E-2],"split_indices":[108,0,29,0,0],"split_type":[0,0,0,0,0],"sum_hessian":[3.2304737E1,1.396553E1,1.8339205E1,1.027111E1,8.068096E0],"tree_param":{"num_deleted":"0","num_feature":"134","num_nodes":"5","size_leaf_vector":"0"}},{"base_weights":[-1.2477841E-3,-1.9730103E-1,9.00836E-2,-9.4914526E-2,3.131563E-1],"categories":[],"categories_nodes":[],"categories_segments":[],"categories_sizes":[],"default_left":[1,0,1,0,0],"id":38,"left_children":[1,-1,3,-1,-1],"loss_changes":[6.10822E-1,0E0,9.9049395E-1,0E0,0E0],"parents":[2147483647,0,0,2,2],"right_children":[2,-1,4,-1,-1],"split_conditions":[4.563282E-1,-9.8650515E-2,4.603275E-1,-4.7457263E-2,1.5657815E-1],"split_indices":[132,0,116,0,0],"split_type":[0,0,0,0,0],"sum_hessian":[3.2120438E1,9.839198E0,2.228124E1,1.2494142E1,9.787099E0],"tree_param":{"num_deleted":"0","num_feature":"134","num_nodes":"5","size_leaf_vector":"0"}},{"base_weights":[3.118382E-4,1.2970261E-1,-1.4961198E-1,-1.5273789E-1,3.7277836E-1],"categories":[],"categories_nodes":[],"categories_segments":[],"categories_sizes":[],"default_left":[1,1,0,0,0],"id":39,"left_children":[1,3,-1,-1,-1],"loss_changes":[6.520248E-1,1.2954624E0,0E0,0E0,0E0],"parents":[2147483647,0,0,1,1],"right_children":[2,4,-1,-1,-1],"split_conditions":[5.5846596E-1,4.5994222E-1,-7.480599E-2,-7.636894E-2,1.8638918E-1],"split_indices":[131,33,0,0,0],"split_type":[0,0,0,0,0],"sum_hessian":[3.1611353E1,1.7039984E1,1.457137E1,8.053689E0,8.986294E0],"tree_param":{"num_deleted":"0","num_feature":"134","num_nodes":"5","size_leaf_vector":"0"}},{"base_weights":[2.2013253E-3,-2.126266E-1,8.589931E-2,2.1967897E-1,-1.2620081E-1],"categories":[],"categories_nodes":[],"categories_segments":[],"categories_sizes":[],"default_left":[1,0,1,0,0],"id":40,"left_children":[1,-1,3,-1,-1],"loss_changes":[5.9687614E-1,0E0,7.0501804E-1,0E0,0E0],"parents":[2147483647,0,0,2,2],"right_children":[2,-1,4,-1,-1],"split_conditions":[9.998728E-1,-1.063133E-1,1E0,1.09839484E-1,-6.3100405E-2],"split_indices":[133,0,133,0,0],"split_type":[0,0,0,0,0],"sum_hessian":[3.1179659E1,8.309985E0,2.2869675E1,1.4002212E1,8.867462E0],"tree_param":{"num_deleted":"0","num_feature":"134","num_nodes":"5","size_leaf_vector":"0"}},{"base_weights":[-5.6872144E-4,9.629775E-2,-2.0645772E-1,2.6334888E-1,-1.181163E-1],"categories":[],"categories_nodes":[],"categories_segments":[],"categories_sizes":[],"default_left":[1,1,0,0,0],"id":41,"left_children":[1,3,-1,-1,-1],"loss_changes":[6.531534E-1,8.289726E-1,0E0,0E0,0E0],"parents":[2147483647,0,0,1,1],"right_children":[2,4,-1,-1,-1],"split_conditions":[5.45331E-1,6.720469E-1,-1.0322886E-1,1.3167444E-1,-5.905815E-2],"split_indices":[48,50,0,0,0],"split_type":[0,0,0,0,0],"sum_hessian":[3.0752918E1,2.1275515E1,9.477403E0,1.1830266E1,9.44525E0],"tree_param":{"num_deleted":"0","num_feature":"134","num_nodes":"5","size_leaf_vector":"0"}},{"base_weights":[-8.6681516E-4,1.0293691E-1,-1.6562878E-1,2.75943E-1,-1.2836424E-1],"categories":[],"categories_nodes":[],"categories_segments":[],"categories_sizes":[],"default_left":[1,1,0,0,0],"id":42,"left_children":[1,3,-1,-1,-1],"loss_changes":[5.523294E-1,8.284461E-1,0E0,0E0,0E0],"parents":[2147483647,0,0,1,1],"right_children":[2,4,-1,-1,-1],"split_conditions":[5.304241E-1,9.890227E-1,-8.281439E-2,1.379715E-1,-6.418212E-2],"split_indices":[105,31,0,0,0],"split_type":[0,0,0,0,0],"sum_hessian":[3.0297615E1,1.8817444E1,1.1480172E1,1.0654902E1,8.16254E0],"tree_param":{"num_deleted":"0","num_feature":"134","num_nodes":"5","size_leaf_vector":"0"}},{"base_weights":[-1.6181784E-4,-1.06360465E-1,1.7492206E-1,8.200593E-2,-2.6676223E-1],"categories":[],"categories_nodes":[],"categories_segments":[],"categories_sizes":[],"default_left":[1,1,0,0,0],"id":43,"left_children":[1,3,-1,-1,-1],"loss_changes":[5.9263855E-1,6.2128067E-1,0E0,0E0,0E0],"parents":[2147483647,0,0,1,1],"right_children":[2,4,-1,-1,-1],"split_conditions":[5.980061E-1,9.531692E-1,8.746103E-2,4.1002966E-2,-1.3338111E-1],"split_indices":[17,126,0,0,0],"split_type":[0,0,0,0,0],"sum_hessian":[2.987254E1,1.8838438E1,1.10341015E1,8.888754E0,9.949683E0],"tree_param":{"num_deleted":"0","num_feature":"134","num_nodes":"5","size_leaf_vector":"0"}},{"base_weights":[-5.186125E-4,-1.998203E-1,9.044826E-2,2.6675668E-1,-1.0462279E-1],"categories":[],"categories_nodes":[],"categories_segments":[],"categories_sizes":[],"default_left":[1,0,1,0,0],"id":44,"left_children":[1,-1,3,-1,-1],"loss_changes":[5.7255405E-1,0E0,7.738039E-1,0E0,0E0],"parents":[2147483647,0,0,2,2],"right_children":[2,-1,4,-1,-1],"split_conditions":[9.999818E-1,-9.991015E-2,8.377522E-1,1.3337834E-1,-5.2311394E-2],"split_indices":[96,0,44,0,0],"split_type":[0,0,0,0,0],"sum_hessian":[2.9583853E1,8.8962345E0,2.0687618E1,1.06733675E1,1.001425E1],"tree_param":{"num_deleted":"0","num_feature":"134","num_nodes":"5","size_leaf_vector":"0"}},{"base_weights":[-4.5287932E-4,-1.7496042E-1,1.1102529E-1,-9.248223E-2,2.713162E-1],"categories":[],"categories_nodes":[],"categories_segments":[],"categories_sizes":[],"default_left":[1,0,1,0,0],"id":45,"left_children":[1,-1,3,-1,-1],"loss_changes":[6.0679036E-1,0E0,6.460333E-1,0E0,0E0],"parents":[2147483647,0,0,2,2],"right_children":[2,-1,4,-1,-1],"split_conditions":[9.9998057E-1,-8.748021E-2,4.619763E-1,-4.6241116E-2,1.356581E-1],"split_indices":[59,0,119,0,0],"split_type":[0,0,0,0,0],"sum_hessian":[2.9192863E1,1.1157497E1,1.8035366E1,8.132838E0,9.902528E0],"tree_param":{"num_deleted":"0","num_feature":"134","num_nodes":"5","size_leaf_vector":"0"}},{"base_weights":[2.831459E-4,9.566654E-2,-2.1533094E-1,3.0334872E-1,-1.06883325E-1],"categories":[],"categories_nodes":[],"categories_segments":[],"categories_sizes":[],"default_left":[1,1,0,0,0],"id":46,"left_children":[1,3,-1,-1,-1],"loss_changes":[6.335416E-1,9.307507E-1,0E0,0E0,0E0],"parents":[2147483647,0,0,1,1],"right_children":[2,4,-1,-1,-1],"split_conditions":[6.4518845E-1,9.707142E-1,-1.0766547E-1,1.5167436E-1,-5.3441662E-2],"split_indices":[54,75,0,0,0],"split_type":[0,0,0,0,0],"sum_hessian":[2.880363E1,2.03552E1,8.44843E0,9.804559E0,1.0550641E1],"tree_param":{"num_deleted":"0","num_feature":"134","num_nodes":"5","size_leaf_vector":"0"}},{"base_weights":[4.8045465E-4,-1.1617465E-1,1.590463E-1,5.9593916E-2,-2.8433946E-1],"categories":[],"categories_nodes":[],"categories_segments":[],"categories_sizes":[],"default_left":[1,1,0,0,0],"id":47,"left_children":[1,3,-1,-1,-1],"loss_changes":[5.613958E-1,5.338602E-1,0E0,0E0,0E0],"parents":[2147483647,0,0,1,1],"right_children":[2,4,-1,-1,-1],"split_conditions":[5.9971976E-1,5.6810457E-1,7.952315E-2,2.9796958E-2,-1.4216973E-1],"split_indices":[61,131,0,0,0],"split_type":[0,0,0,0,0],"sum_hessian":[2.8350897E1,1.6488115E1,1.186278E1,8.37747E0,8.110645E0],"tree_param":{"num_deleted":"0","num_feature":"134","num_nodes":"5","size_leaf_vector":"0"}},{"base_weights":[-1.1852368E-3,1.0903922E-1,-1.6355914E-1,-1.3709237E-1,3.6539784E-1],"categories":[],"categories_nodes":[],"categories_segments":[],"categories_sizes":[],"default_left":[1,1,0,0,0],"id":48,"left_children":[1,3,-1,-1,-1],"loss_changes":[5.379313E-1,1.1801424E0,0E0,0E0,0E0],"parents":[2147483647,0,0,1,1],"right_children":[2,4,-1,-1,-1],"split_conditions":[6.257061E-1,4.3882868E-1,-8.177957E-2,-6.854618E-2,1.8269892E-1],"split_indices":[103,72,0,0,0],"split_type":[0,0,0,0,0],"sum_hessian":[2.8059633E1,1.6909445E1,1.1150189E1,8.864149E0,8.045296E0],"tree_param":{"num_deleted":"0","num_feature":"134","num_nodes":"5","size_leaf_vector":"0"}},{"base_weights":[1.7530249E-3,-1.5597042E-1,1.03202745E-1,-9.0083115E-2,2.6963258E-1],"categories":[],"categories_nodes":[],"categories_segments":[],"categories_sizes":[],"default_left":[1,0,1,0,0],"id":49,"left_children":[1,-1,3,-1,-1],"loss_changes":[4.721864E-1,0E0,6.016568E-1,0E0,0E0],"parents":[2147483647,0,0,2,2],"right_children":[2,-1,4,-1,-1],"split_conditions":[6.042044E-1,-7.798521E-2,5.017358E-1,-4.5041557E-2,1.3481629E-1],"split_indices":[50,0,130,0,0],"split_type":[0,0,0,0,0],"sum_hessian":[2.7503834E1,1.0555628E1,1.6948206E1,8.053677E0,8.894529E0],"tree_param":{"num_deleted":"0","num_feature":"134","num_nodes":"5","size_leaf_vector":"0"}},{"base_weights":[1.6762919E-3,-1.0459619E-1,1.5038078E-1,6.849191E-2,-2.672109E-1],"categories":[],"categories_nodes":[],"categories_segments":[],"categories_sizes":[],"default_left":[1,1,0,0,0],"id":50,"left_children":[1,3,-1,-1,-1],"loss_changes":[4.621472E-1,4.9861276E-1,0E0,0E0,0E0],"parents":[2147483647,0,0,1,1],"right_children":[2,4,-1,-1,-1],"split_conditions":[4.4743964E-1,5.5083156E-1,7.519039E-2,3.4245957E-2,-1.3360545E-1],"split_indices":[19,40,0,0,0],"split_type":[0,0,0,0,0],"sum_hessian":[2.7248589E1,1.6064571E1,1.1184018E1,8.062066E0,8.002504E0],"tree_param":{"num_deleted":"0","num_feature":"134","num_nodes":"5","size_leaf_vector":"0"}},{"base_weights":[-1.665625E-4,1.6422354E-1,-9.203474E-2,-2.396221E-1,5.100552E-2],"categories":[],"categories_nodes":[],"categories_segments":[],"categories_sizes":[],"default_left":[1,0,1,0,0],"id":51,"left_children":[1,-1,3,-1,-1],"loss_changes":[4.3861002E-1,0E0,4.0551472E-1,0E0,0E0],"parents":[2147483647,0,0,2,2],"right_children":[2,-1,4,-1,-1],"split_conditions":[5.665306E-1,8.211177E-2,5.219661E-1,-1.1981105E-1,2.550276E-2],"split_indices":[24,0,132,0,0],"split_type":[0,0,0,0,0],"sum_hessian":[2.7041952E1,9.412143E0,1.762981E1,8.3446665E0,9.285143E0],"tree_param":{"num_deleted":"0","num_feature":"134","num_nodes":"5","size_leaf_vector":"0"}},{"base_weights":[-7.5621967E-4,-1.4791462E-1,1.0374323E-1],"categories":[],"categories_nodes":[],"categories_segments":[],"categories_sizes":[],"default_left":[1,0,0],"id":52,"left_children":[1,-1,-1],"loss_changes":[4.423224E-1,0E0,0E0],"parents":[2147483647,0,0],"right_children":[2,-1,-1],"split_conditions":[7.469802E-1,-7.395731E-2,5.1871616E-2],"split_indices":[110,0,0],"split_type":[0,0,0],"sum_hessian":[2.6765514E1,1.0941707E1,1.5823808E1],"tree_param":{"num_deleted":"0","num_feature":"134","num_nodes":"3","size_leaf_vector":"0"}},{"base_weights":[-1.1910801E-3,-1.6892043E-1,8.366369E-2,2.7544633E-1,-8.3201714E-2],"categories":[],"categories_nodes":[],"categories_segments":[],"categories_sizes":[],"default_left":[1,0,1,0,0],"id":53,"left_children":[1,-1,3,-1,-1],"loss_changes":[4.0820536E-1,0E0,6.327156E-1,0E0,0E0],"parents":[2147483647,0,0,2,2],"right_children":[2,-1,4,-1,-1],"split_conditions":[5.840488E-1,-8.4460214E-2,8.534126E-1,1.3772316E-1,-4.1600857E-2],"split_indices":[69,0,16,0,0],"split_type":[0,0,0,0,0],"sum_hessian":[2.6687975E1,8.632911E0,1.8055065E1,8.0975895E0,9.957475E0],"tree_param":{"num_deleted":"0","num_feature":"134","num_nodes":"5","size_leaf_vector":"0"}},{"base_weights":[3.3482388E-4,9.486684E-2,-1.7012505E-1,2.735013E-1,-9.58061E-2],"categories":[],"categories_nodes":[],"categories_segments":[],"categories_sizes":[],"default_left":[1,1,0,0,0],"id":54,"left_children":[1,3,-1,-1,-1],"loss_changes":[4.5667735E-1,6.4706945E-1,0E0,0E0,0E0],"parents":[2147483647,0,0,1,1],"right_children":[2,4,-1,-1,-1],"split_conditions":[5.0728E-1,9.9435246E-1,-8.5062526E-2,1.3675065E-1,-4.790305E-2],"split_indices":[14,88,0,0,0],"split_type":[0,0,0,0,0],"sum_hessian":[2.6338985E1,1.7228199E1,9.110786E0,8.670616E0,8.557583E0],"tree_param":{"num_deleted":"0","num_feature":"134","num_nodes":"5","size_leaf_vector":"0"}},{"base_weights":[8.314707E-4,1.0058136E-1,-1.489956E-1],"categories":[],"categories_nodes":[],"categories_segments":[],"categories_sizes":[],"default_left":[1,0,0],"id":55,"left_children":[1,-1,-1],"loss_changes":[4.183173E-1,0E0,0E0],"parents":[2147483647,0,0],"right_children":[2,-1,-1],"split_conditions":[6.720469E-1,5.029068E-2,-7.44978E-2],"split_indices":[50,0,0],"split_type":[0,0,0],"sum_hessian":[2.5987272E1,1.5798103E1,1.0189169E1],"tree_param":{"num_deleted":"0","num_feature":"134","num_nodes":"3","size_leaf_vector":"0"}},{"base_weights":[-4.9543264E-4,-1.6902156E-1,8.811405E-2,2.3512028E-1,-5.701612E-2],"categories":[],"categories_nodes":[],"categories_segments":[],"categories_sizes":[],"default_left":[1,0,1,0,0],"id":56,"left_children":[1,-1,3,-1,-1],"loss_changes":[4.1668224E-1,0E0,4.0365595E-1,0E0,0E0],"parents":[2147483647,0,0,2,2],"right_children":[2,-1,4,-1,-1],"split_conditions":[9.999387E-1,-8.451078E-2,5.680606E-1,1.1756014E-1,-2.850806E-2],"split_indices":[133,0,131,0,0],"split_type":[0,0,0,0,0],"sum_hessian":[2.5906092E1,8.614573E0,1.729152E1,8.282197E0,9.009323E0],"tree_param":{"num_deleted":"0","num_feature":"134","num_nodes":"5","size_leaf_vector":"0"}},{"base_weights":[1.7039625E-4,9.596815E-2,-1.4366055E-1],"categories":[],"categories_nodes":[],"categories_segments":[],"categories_sizes":[],"default_left":[1,0,0],"id":57,"left_children":[1,-1,-1],"loss_changes":[3.8094354E-1,0E0,0E0],"parents":[2147483647,0,0],"right_children":[2,-1,-1],"split_conditions":[7.737512E-1,4.7984075E-2,-7.183027E-2],"split_indices":[49,0,0],"split_type":[0,0,0],"sum_hessian":[2.5646723E1,1.5593521E1,1.0053202E1],"tree_param":{"num_deleted":"0","num_feature":"134","num_nodes":"3","size_leaf_vector":"0"}},{"base_weights":[-8.545251E-4,-1.4773344E-1,8.462372E-2,2.5396347E-1,-9.081397E-2],"categories":[],"categories_nodes":[],"categories_segments":[],"categories_sizes":[],"default_left":[1,0,1,0,0],"id":58,"left_children":[1,-1,3,-1,-1],"loss_changes":[3.4524608E-1,0E0,5.396674E-1,0E0,0E0],"parents":[2147483647,0,0,2,2],"right_children":[2,-1,4,-1,-1],"split_conditions":[9.9998325E-1,-7.386672E-2,5.5846596E-1,1.2698174E-1,-4.5406986E-2],"split_indices":[123,0,131,0,0],"split_type":[0,0,0,0,0],"sum_hessian":[2.5503038E1,9.113985E0,1.6389053E1,8.111702E0,8.277351E0],"tree_param":{"num_deleted":"0","num_feature":"134","num_nodes":"5","size_leaf_vector":"0"}},{"base_weights":[2.8549068E-4,-1.6252993E-1,9.030209E-2,2.2965187E-1,-6.650373E-2],"categories":[],"categories_nodes":[],"categories_segments":[],"categories_sizes":[],"default_left":[1,0,1,0,0],"id":59,"left_children":[1,-1,3,-1,-1],"loss_changes":[3.9890522E-1,0E0,3.982147E-1,0E0,0E0],"parents":[2147483647,0,0,2,2],"right_children":[2,-1,4,-1,-1],"split_conditions":[6.114632E-1,-8.1264965E-2,9.9735004E-1,1.14825934E-1,-3.3251867E-2],"split_indices":[5,0,36,0,0],"split_type":[0,0,0,0,0],"sum_hessian":[2.5216295E1,8.691034E0,1.652526E1,8.503675E0,8.021586E0],"tree_param":{"num_deleted":"0","num_feature":"134","num_nodes":"5","size_leaf_vector":"0"}},{"base_weights":[4.970794E-4,1.3654993E-1,-9.6440524E-2],"categories":[],"categories_nodes":[],"categories_segments":[],"categories_sizes":[],"default_left":[1,0,0],"id":60,"left_children":[1,-1,-1],"loss_changes":[3.5568944E-1,0E0,0E0],"parents":[2147483647,0,0],"right_children":[2,-1,-1],"split_conditions":[9.9917436E-1,6.827497E-2,-4.8220262E-2],"split_indices":[78,0,0],"split_type":[0,0,0],"sum_hessian":[2.4970875E1,1.0219321E1,1.4751554E1],"tree_param":{"num_deleted":"0","num_feature":"134","num_nodes":"3","size_leaf_vector":"0"}},{"base_weights":[1.0955061E-3,-1.4687175E-1,9.488496E-2],"categories":[],"categories_nodes":[],"categories_segments":[],"categories_sizes":[],"default_left":[1,0,0],"id":61,"left_children":[1,-1,-1],"loss_changes":[3.7276587E-1,0E0,0E0],"parents":[2147483647,0,0],"right_children":[2,-1,-1],"split_conditions":[2.6060575E-1,-7.343587E-2,4.744248E-2],"split_indices":[129,0,0],"split_type":[0,0,0],"sum_hessian":[2.4856459E1,9.423488E0,1.5432971E1],"tree_param":{"num_deleted":"0","num_feature":"134","num_nodes":"3","size_leaf_vector":"0"}},{"base_weights":[-4.5542797E-4,-9.682845E-2,1.2663132E-1],"categories":[],"categories_nodes":[],"categories_segments":[],"categories_sizes":[],"default_left":[1,0,0],"id":62,"left_children":[1,-1,-1],"loss_changes":[3.2848346E-1,0E0,0E0],"parents":[2147483647,0,0],"right_children":[2,-1,-1],"split_conditions":[4.9116486E-1,-4.8414227E-2,6.331566E-2],"split_indices":[1,0,0],"split_type":[0,0,0],"sum_hessian":[2.481881E1,1.4250441E1,1.056837E1],"tree_param":{"num_deleted":"0","num_feature":"134","num_nodes":"3","size_leaf_vector":"0"}},{"base_weights":[4.1281397E-4,7.692037E-2,-1.4432284E-1,-1.2025406E-1,2.591562E-1],"categories":[],"categories_nodes":[],"categories_segments":[],"categories_sizes":[],"default_left":[1,1,0,0,0],"id":63,"left_children":[1,3,-1,-1,-1],"loss_changes":[2.9556027E-1,6.5845484E-1,0E0,0E0,0E0],"parents":[2147483647,0,0,1,1],"right_children":[2,4,-1,-1,-1],"split_conditions":[6.520926E-1,4.4828922E-1,-7.216142E-2,-6.012703E-2,1.295781E-1],"split_indices":[103,116,0,0,0],"split_type":[0,0,0,0,0],"sum_hessian":[2.4688555E1,1.6457586E1,8.2309675E0,8.068163E0,8.389424E0],"tree_param":{"num_deleted":"0","num_feature":"134","num_nodes":"5","size_leaf_vector":"0"}},{"base_weights":[5.3019467E-4,-1.3368712E-1,8.653333E-2],"categories":[],"categories_nodes":[],"categories_segments":[],"categories_sizes":[],"default_left":[1,0,0],"id":64,"left_children":[1,-1,-1],"loss_changes":[3.0466464E-1,0E0,0E0],"parents":[2147483647,0,0],"right_children":[2,-1,-1],"split_conditions":[9.999825E-1,-6.684356E-2,4.3266665E-2],"split_indices":[59,0,0],"split_type":[0,0,0],"sum_hessian":[2.4391445E1,9.309112E0,1.50823345E1],"tree_param":{"num_deleted":"0","num_feature":"134","num_nodes":"3","size_leaf_vector":"0"}},{"base_weights":[-7.08917E-4,-9.892927E-2,1.260833E-1],"categories":[],"categories_nodes":[],"categories_segments":[],"categories_sizes":[],"default_left":[1,0,0],"id":65,"left_children":[1,-1,-1],"loss_changes":[3.2712275E-1,0E0,0E0],"parents":[2147483647,0,0],"right_children":[2,-1,-1],"split_conditions":[9.9989486E-1,-4.9464636E-2,6.304165E-2],"split_indices":[84,0,0],"split_type":[0,0,0],"sum_hessian":[2.4265787E1,1.3797344E1,1.0468443E1],"tree_param":{"num_deleted":"0","num_feature":"134","num_nodes":"3","size_leaf_vector":"0"}},{"base_weights":[2.2476597E-4,1.0970347E-1,-1.1107226E-1],"categories":[],"categories_nodes":[],"categories_segments":[],"categories_sizes":[],"default_left":[1,0,0],"id":66,"left_children":[1,-1,-1],"loss_changes":[3.1928012E-1,0E0,0E0],"parents":[2147483647,0,0],"right_children":[2,-1,-1],"split_conditions":[8.734522E-1,5.4851733E-2,-5.553613E-2],"split_indices":[94,0,0],"split_type":[0,0,0],"sum_hessian":[2.4203436E1,1.2208607E1,1.1994829E1],"tree_param":{"num_deleted":"0","num_feature":"134","num_nodes":"3","size_leaf_vector":"0"}},{"base_weights":[1.0560553E-4,1.11578725E-1,-1.0443954E-1],"categories":[],"categories_nodes":[],"categories_segments":[],"categories_sizes":[],"default_left":[1,0,0],"id":67,"left_children":[1,-1,-1],"loss_changes":[3.040021E-1,0E0,0E0],"parents":[2147483647,0,0],"right_children":[2,-1,-1],"split_conditions":[5.469599E-1,5.5789363E-2,-5.221977E-2],"split_indices":[12,0,0],"split_type":[0,0,0],"sum_hessian":[2.4085766E1,1.1624093E1,1.2461673E1],"tree_param":{"num_deleted":"0","num_feature":"134","num_nodes":"3","size_leaf_vector":"0"}},{"base_weights":[2.2596992E-4,-8.995559E-2,1.4984778E-1],"categories":[],"categories_nodes":[],"categories_segments":[],"categories_sizes":[],"default_left":[1,0,0],"id":68,"left_children":[1,-1,-1],"loss_changes":[3.5047433E-1,0E0,0E0],"parents":[2147483647,0,0],"right_children":[2,-1,-1],"split_conditions":[5.980061E-1,-4.4977795E-2,7.492389E-2],"split_indices":[17,0,0],"split_type":[0,0,0],"sum_hessian":[2.3975285E1,1.5207841E1,8.767444E0],"tree_param":{"num_deleted":"0","num_feature":"134","num_nodes":"3","size_leaf_vector":"0"}},{"base_weights":[1.3695954E-3,-8.763857E-2,1.254399E-1],"categories":[],"categories_nodes":[],"categories_segments":[],"categories_sizes":[],"default_left":[1,0,0],"id":69,"left_children":[1,-1,-1],"loss_changes":[2.86369E-1,0E0,0E0],"parents":[2147483647,0,0],"right_children":[2,-1,-1],"split_conditions":[7.497121E-1,-4.3819286E-2,6.271995E-2],"split_indices":[73,0,0],"split_type":[0,0,0],"sum_hessian":[2.3936058E1,1.4108351E1,9.827708E0],"tree_param":{"num_deleted":"0","num_feature":"134","num_nodes":"3","size_leaf_vector":"0"}},{"base_weights":[1.4884294E-3,8.280866E-2,-1.3742743E-1],"categories":[],"categories_nodes":[],"categories_segments":[],"categories_sizes":[],"default_left":[1,0,0],"id":70,"left_children":[1,-1,-1],"loss_changes":[2.924875E-1,0E0,0E0],"parents":[2147483647,0,0],"right_children":[2,-1,-1],"split_conditions":[9.9998385E-1,4.140433E-2,-6.871372E-2],"split_indices":[112,0,0],"split_type":[0,0,0],"sum_hessian":[2.3884089E1,1.53198595E1,8.564229E0],"tree_param":{"num_deleted":"0","num_feature":"134","num_nodes":"3","size_leaf_vector":"0"}},{"base_weights":[-3.8722606E-4,-7.8466825E-2,1.365979E-1],"categories":[],"categories_nodes":[],"categories_segments":[],"categories_sizes":[],"default_left":[1,0,0],"id":71,"left_children":[1,-1,-1],"loss_changes":[2.7594516E-1,0E0,0E0],"parents":[2147483647,0,0],"right_children":[2,-1,-1],"split_conditions":[3.464228E-1,-3.9233413E-2,6.829895E-2],"split_indices":[95,0,0],"split_type":[0,0,0],"sum_hessian":[2.3797411E1,1.5429819E1,8.367593E0],"tree_param":{"num_deleted":"0","num_feature":"134","num_nodes":"3","size_leaf_vector":"0"}},{"base_weights":[1.0416938E-3,-7.534903E-2,1.4062802E-1],"categories":[],"categories_nodes":[],"categories_segments":[],"categories_sizes":[],"default_left":[1,0,0],"id":72,"left_children":[1,-1,-1],"loss_changes":[2.7426222E-1,0E0,0E0],"parents":[2147483647,0,0],"right_children":[2,-1,-1],"split_conditions":[5.702827E-1,-3.7674516E-2,7.031401E-2],"split_indices":[89,0,0],"split_type":[0,0,0],"sum_hessian":[2.372696E1,1.5632199E1,8.09476E0],"tree_param":{"num_deleted":"0","num_feature":"134","num_nodes":"3","size_leaf_vector":"0"}},{"base_weights":[1.9177129E-3,8.687528E-2,-1.3823755E-1],"categories":[],"categories_nodes":[],"categories_segments":[],"categories_sizes":[],"default_left":[1,0,0],"id":73,"left_children":[1,-1,-1],"loss_changes":[3.0551994E-1,0E0,0E0],"parents":[2147483647,0,0],"right_children":[2,-1,-1],"split_conditions":[6.76419E-1,4.343764E-2,-6.9118775E-2],"split_indices":[83,0,0],"split_type":[0,0,0],"sum_hessian":[2.364973E1,1.4961005E1,8.688726E0],"tree_param":{"num_deleted":"0","num_feature":"134","num_nodes":"3","size_leaf_vector":"0"}},{"base_weights":[-1.3913529E-4,9.778794E-2,-1.11051425E-1],"categories":[],"categories_nodes":[],"categories_segments":[],"categories_sizes":[],"default_left":[1,0,0],"id":74,"left_children":[1,-1,-1],"loss_changes":[2.77105E-1,0E0,0E0],"parents":[2147483647,0,0],"right_children":[2,-1,-1],"split_conditions":[9.992107E-1,4.889397E-2,-5.5525713E-2],"split_indices":[67,0,0],"split_type":[0,0,0],"sum_hessian":[2.3513191E1,1.2550442E1,1.096275E1],"tree_param":{"num_deleted":"0","num_feature":"134","num_nodes":"3","size_leaf_vector":"0"}},{"base_weights":[-3.3551516E-4,8.3028786E-2,-1.2635699E-1],"categories":[],"categories_nodes":[],"categories_segments":[],"categories_sizes":[],"default_left":[1,0,0],"id":75,"left_children":[1,-1,-1],"loss_changes":[2.6721638E-1,0E0,0E0],"parents":[2147483647,0,0],"right_children":[2,-1,-1],"split_conditions":[6.720469E-1,4.1514393E-2,-6.3178495E-2],"split_indices":[50,0,0],"split_type":[0,0,0],"sum_hessian":[2.3436764E1,1.431104E1,9.125723E0],"tree_param":{"num_deleted":"0","num_feature":"134","num_nodes":"3","size_leaf_vector":"0"}},{"base_weights":[-1.0658444E-3,-1.401297E-1,8.989614E-2],"categories":[],"categories_nodes":[],"categories_segments":[],"categories_sizes":[],"default_left":[1,0,0],"id":76,"left_children":[1,-1,-1],"loss_changes":[3.2107013E-1,0E0,0E0],"parents":[2147483647,0,0],"right_children":[2,-1,-1],"split_conditions":[6.042044E-1,-7.006485E-2,4.494807E-2],"split_indices":[50,0,0],"split_type":[0,0,0],"sum_hessian":[2.3386135E1,9.034122E0,1.4352013E1],"tree_param":{"num_deleted":"0","num_feature":"134","num_nodes":"3","size_leaf_vector":"0"}},{"base_weights":[-1.6142497E-3,1.12225994E-1,-9.111743E-2],"categories":[],"categories_nodes":[],"categories_segments":[],"categories_sizes":[],"default_left":[1,0,0],"id":77,"left_children":[1,-1,-1],"loss_changes":[2.5752515E-1,0E0,0E0],"parents":[2147483647,0,0],"right_children":[2,-1,-1],"split_conditions":[2.6840907E-1,5.6112997E-2,-4.5558713E-2],"split_indices":[65,0,0],"split_type":[0,0,0],"sum_hessian":[2.3271063E1,1.0131191E1,1.3139871E1],"tree_param":{"num_deleted":"0","num_feature":"134","num_nodes":"3","size_leaf_vector":"0"}},{"base_weights":[-3.3335944E-4,-1.3404118E-1,7.655931E-2],"categories":[],"categories_nodes":[],"categories_segments":[],"categories_sizes":[],"default_left":[1,0,0],"id":78,"left_children":[1,-1,-1],"loss_changes":[2.5868967E-1,0E0,0E0],"parents":[2147483647,0,0],"right_children":[2,-1,-1],"split_conditions":[9.978833E-1,-6.702059E-2,3.8279656E-2],"split_indices":[70,0,0],"split_type":[0,0,0],"sum_hessian":[2.31634E1,8.185866E0,1.4977535E1],"tree_param":{"num_deleted":"0","num_feature":"134","num_nodes":"3","size_leaf_vector":"0"}},{"base_weights":[-1.3749509E-3,-8.3646744E-2,1.2640955E-1],"categories":[],"categories_nodes":[],"categories_segments":[],"categories_sizes":[],"default_left":[1,0,0],"id":79,"left_children":[1,-1,-1],"loss_changes":[2.6407778E-1,0E0,0E0],"parents":[2147483647,0,0],"right_children":[2,-1,-1],"split_conditions":[9.996888E-1,-4.1823372E-2,6.320477E-2],"split_indices":[41,0,0],"split_type":[0,0,0],"sum_hessian":[2.311325E1,1.4270713E1,8.842538E0],"tree_param":{"num_deleted":"0","num_feature":"134","num_nodes":"3","size_leaf_vector":"0"}},{"base_weights":[2.4234844E-4,1.0118877E-1,-9.993415E-2],"categories":[],"categories_nodes":[],"categories_segments":[],"categories_sizes":[],"default_left":[1,0,0],"id":80,"left_children":[1,-1,-1],"loss_changes":[2.5344115E-1,0E0,0E0],"parents":[2147483647,0,0],"right_children":[2,-1,-1],"split_conditions":[8.377522E-1,5.0594386E-2,-4.9967077E-2],"split_indices":[44,0,0],"split_type":[0,0,0],"sum_hessian":[2.3062288E1,1.1481969E1,1.1580319E1],"tree_param":{"num_deleted":"0","num_feature":"134","num_nodes":"3","size_leaf_vector":"0"}},{"base_weights":[1.6396676E-4,-8.155487E-2,1.1676385E-1],"categories":[],"categories_nodes":[],"categories_segments":[],"categories_sizes":[],"default_left":[1,0,0],"id":81,"left_children":[1,-1,-1],"loss_changes":[2.3802145E-1,0E0,0E0],"parents":[2147483647,0,0],"right_children":[2,-1,-1],"split_conditions":[8.7808466E-1,-4.0777434E-2,5.8381926E-2],"split_indices":[26,0,0],"split_type":[0,0,0],"sum_hessian":[2.2980797E1,1.3688084E1,9.292712E0],"tree_param":{"num_deleted":"0","num_feature":"134","num_nodes":"3","size_leaf_vector":"0"}},{"base_weights":[8.5254025E-4,8.972642E-2,-1.0424228E-1],"categories":[],"categories_nodes":[],"categories_segments":[],"categories_sizes":[],"default_left":[1,0,0],"id":82,"left_children":[1,-1,-1],"loss_changes":[2.3289451E-1,0E0,0E0],"parents":[2147483647,0,0],"right_children":[2,-1,-1],"split_conditions":[4.8579586E-1,4.486321E-2,-5.212114E-2],"split_indices":[32,0,0],"split_type":[0,0,0],"sum_hessian":[2.2933277E1,1.2504786E1,1.0428491E1],"tree_param":{"num_deleted":"0","num_feature":"134","num_nodes":"3","size_leaf_vector":"0"}},{"base_weights":[1.3105314E-4,-8.104196E-2,1.0712032E-1],"categories":[],"categories_nodes":[],"categories_segments":[],"categories_sizes":[],"default_left":[1,0,0],"id":83,"left_children":[1,-1,-1],"loss_changes":[2.1616717E-1,0E0,0E0],"parents":[2147483647,0,0],"right_children":[2,-1,-1],"split_conditions":[5.9971976E-1,-4.052098E-2,5.356016E-2],"split_indices":[61,0,0],"split_type":[0,0,0],"sum_hessian":[2.2891134E1,1.3153821E1,9.737313E0],"tree_param":{"num_deleted":"0","num_feature":"134","num_nodes":"3","size_leaf_vector":"0"}},{"base_weights":[6.434981E-4,-7.4386254E-2,1.2938713E-1],"categories":[],"categories_nodes":[],"categories_segments":[],"categories_sizes":[],"default_left":[1,0,0],"id":84,"left_children":[1,-1,-1],"loss_changes":[2.398178E-1,0E0,0E0],"parents":[2147483647,0,0],"right_children":[2,-1,-1],"split_conditions":[5.029429E-1,-3.7193127E-2,6.469356E-2],"split_indices":[86,0,0],"split_type":[0,0,0],"sum_hessian":[2.28305E1,1.469102E1,8.13948E0],"tree_param":{"num_deleted":"0","num_feature":"134","num_nodes":"3","size_leaf_vector":"0"}},{"base_weights":[1.5118938E-3,8.044877E-2,-1.2659916E-1],"categories":[],"categories_nodes":[],"categories_segments":[],"categories_sizes":[],"default_left":[1,0,0],"id":85,"left_children":[1,-1,-1],"loss_changes":[2.5087133E-1,0E0,0E0],"parents":[2147483647,0,0],"right_children":[2,-1,-1],"split_conditions":[5.514797E-1,4.0224385E-2,-6.329958E-2],"split_indices":[114,0,0],"split_type":[0,0,0],"sum_hessian":[2.2800459E1,1.4337999E1,8.462459E0],"tree_param":{"num_deleted":"0","num_feature":"134","num_nodes":"3","size_leaf_vector":"0"}},{"base_weights":[-2.5936103E-4,-8.3083816E-2,1.1570398E-1],"categories":[],"categories_nodes":[],"categories_segments":[],"categories_sizes":[],"default_left":[1,0,0],"id":86,"left_children":[1,-1,-1],"loss_changes":[2.3712195E-1,0E0,0E0],"parents":[2147483647,0,0],"right_children":[2,-1,-1],"split_conditions":[4.4743964E-1,-4.1541908E-2,5.785199E-2],"split_indices":[19,0,0],"split_type":[0,0,0],"sum_hessian":[2.2687487E1,1.34002E1,9.287286E0],"tree_param":{"num_deleted":"0","num_feature":"134","num_nodes":"3","size_leaf_vector":"0"}},{"base_weights":[6.009959E-4,7.4967265E-2,-1.2057485E-1],"categories":[],"categories_nodes":[],"categories_segments":[],"categories_sizes":[],"default_left":[1,0,0],"id":87,"left_children":[1,-1,-1],"loss_changes":[2.2178636E-1,0E0,0E0],"parents":[2147483647,0,0],"right_children":[2,-1,-1],"split_conditions":[9.997263E-1,3.7483633E-2,-6.0287423E-2],"split_indices":[78,0,0],"split_type":[0,0,0],"sum_hessian":[2.2608686E1,1.4246728E1,8.361959E0],"tree_param":{"num_deleted":"0","num_feature":"134","num_nodes":"3","size_leaf_vector":"0"}},{"base_weights":[-6.9150765E-4,7.32697E-2,-1.224774E-1],"categories":[],"categories_nodes":[],"categories_segments":[],"categories_sizes":[],"default_left":[1,0,0],"id":88,"left_children":[1,-1,-1],"loss_changes":[2.2103094E-1,0E0,0E0],"parents":[2147483647,0,0],"right_children":[2,-1,-1],"split_conditions":[9.999988E-1,3.663485E-2,-6.12387E-2],"split_indices":[28,0,0],"split_type":[0,0,0],"sum_hessian":[2.2542454E1,1.4272849E1,8.269604E0],"tree_param":{"num_deleted":"0","num_feature":"134","num_nodes":"3","size_leaf_vector":"0"}},{"base_weights":[-1.4313142E-3,7.423127E-2,-1.19534075E-1],"categories":[],"categories_nodes":[],"categories_segments":[],"categories_sizes":[],"default_left":[1,0,0],"id":89,"left_children":[1,-1,-1],"loss_changes":[2.1850677E-1,0E0,0E0],"parents":[2147483647,0,0],"right_children":[2,-1,-1],"split_conditions":[5.6573415E-1,3.7115633E-2,-5.9767038E-2],"split_indices":[12,0,0],"split_type":[0,0,0],"sum_hessian":[2.2459549E1,1.3915833E1,8.5437155E0],"tree_param":{"num_deleted":"0","num_feature":"134","num_nodes":"3","size_leaf_vector":"0"}},{"base_weights":[-1.7105888E-3,-7.03477E-2,1.1358559E-1],"categories":[],"categories_nodes":[],"categories_segments":[],"categories_sizes":[],"default_left":[1,0,0],"id":90,"left_children":[1,-1,-1],"loss_changes":[1.9310883E-1,0E0,0E0],"parents":[2147483647,0,0],"right_children":[2,-1,-1],"split_conditions":[5.980061E-1,-3.517385E-2,5.6792796E-2],"split_indices":[17,0,0],"split_type":[0,0,0],"sum_hessian":[2.2392445E1,1.4280785E1,8.111659E0],"tree_param":{"num_deleted":"0","num_feature":"134","num_nodes":"3","size_leaf_vector":"0"}},{"base_weights":[9.1233655E-5,-1.20743945E-1,7.2581746E-2],"categories":[],"categories_nodes":[],"categories_segments":[],"categories_sizes":[],"default_left":[1,0,0],"id":91,"left_children":[1,-1,-1],"loss_changes":[2.1347629E-1,0E0,0E0],"parents":[2147483647,0,0],"right_children":[2,-1,-1],"split_conditions":[4.7036022E-1,-6.0371973E-2,3.6290873E-2],"split_indices":[132,0,0],"split_type":[0,0,0],"sum_hessian":[2.2370594E1,8.13861E0,1.4231984E1],"tree_param":{"num_deleted":"0","num_feature":"134","num_nodes":"3","size_leaf_vector":"0"}},{"base_weights":[-1.0367153E-3,8.358271E-2,-9.9283546E-2],"categories":[],"categories_nodes":[],"categories_segments":[],"categories_sizes":[],"default_left":[1,0,0],"id":92,"left_children":[1,-1,-1],"loss_changes":[2.0170128E-1,0E0,0E0],"parents":[2147483647,0,0],"right_children":[2,-1,-1],"split_conditions":[4.5068645E-1,4.1791353E-2,-4.9641773E-2],"split_indices":[79,0,0],"split_type":[0,0,0],"sum_hessian":[2.2263462E1,1.20414715E1,1.0221992E1],"tree_param":{"num_deleted":"0","num_feature":"134","num_nodes":"3","size_leaf_vector":"0"}},{"base_weights":[-8.659005E-4,-8.784587E-2,1.13580495E-1],"categories":[],"categories_nodes":[],"categories_segments":[],"categories_sizes":[],"default_left":[1,0,0],"id":93,"left_children":[1,-1,-1],"loss_changes":[2.4067946E-1,0E0,0E0],"parents":[2147483647,0,0],"right_children":[2,-1,-1],"split_conditions":[9.9989486E-1,-4.3922935E-2,5.6790248E-2],"split_indices":[84,0,0],"split_type":[0,0,0],"sum_hessian":[2.2175533E1,1.2731751E1,9.443782E0],"tree_param":{"num_deleted":"0","num_feature":"134","num_nodes":"3","size_leaf_vector":"0"}},{"base_weights":[1.4839253E-4,1.0451283E-1,-9.209057E-2],"categories":[],"categories_nodes":[],"categories_segments":[],"categories_sizes":[],"default_left":[1,0,0],"id":94,"left_children":[1,-1,-1],"loss_changes":[2.3227534E-1,0E0,0E0],"parents":[2147483647,0,0],"right_children":[2,-1,-1],"split_conditions":[5.250267E-1,5.2256417E-2,-4.6045285E-2],"split_indices":[131,0,0],"split_type":[0,0,0],"sum_hessian":[2.2129011E1,1.0319675E1,1.1809337E1],"tree_param":{"num_deleted":"0","num_feature":"134","num_nodes":"3","size_leaf_vector":"0"}},{"base_weights":[3.658197E-4,1.1067231E-1,-8.361059E-2],"categories":[],"categories_nodes":[],"categories_segments":[],"categories_sizes":[],"default_left":[1,0,0],"id":95,"left_children":[1,-1,-1],"loss_changes":[2.2283347E-1,0E0,0E0],"parents":[2147483647,0,0],"right_children":[2,-1,-1],"split_conditions":[3.8975567E-1,5.5336155E-2,-4.1805293E-2],"split_indices":[108,0,0],"split_type":[0,0,0],"sum_hessian":[2.2056982E1,9.396453E0,1.2660528E1],"tree_param":{"num_deleted":"0","num_feature":"134","num_nodes":"3","size_leaf_vector":"0"}},{"base_weights":[7.9570594E-4,-1.0807936E-1,7.785063E-2],"categories":[],"categories_nodes":[],"categories_segments":[],"categories_sizes":[],"default_left":[1,0,0],"id":96,"left_children":[1,-1,-1],"loss_changes":[2.0155516E-1,0E0,0E0],"parents":[2147483647,0,0],"right_children":[2,-1,-1],"split_conditions":[7.462226E-1,-5.403968E-2,3.8925316E-2],"split_indices":[110,0,0],"split_type":[0,0,0],"sum_hessian":[2.202215E1,8.959774E0,1.3062376E1],"tree_param":{"num_deleted":"0","num_feature":"134","num_nodes":"3","size_leaf_vector":"0"}},{"base_weights":[-2.61091E-4,7.315496E-2,-1.207226E-1],"categories":[],"categories_nodes":[],"categories_segments":[],"categories_sizes":[],"default_left":[1,0,0],"id":97,"left_children":[1,-1,-1],"loss_changes":[2.1209407E-1,0E0,0E0],"parents":[2147483647,0,0],"right_children":[2,-1,-1],"split_conditions":[5.6555057E-1,3.657748E-2,-6.03613E-2],"split_indices":[43,0,0],"split_type":[0,0,0],"sum_hessian":[2.1983606E1,1.3903028E1,8.08058E0],"tree_param":{"num_deleted":"0","num_feature":"134","num_nodes":"3","size_leaf_vector":"0"}},{"base_weights":[-1.2100784E-3,-7.502342E-2,1.18160345E-1],"categories":[],"categories_nodes":[],"categories_segments":[],"categories_sizes":[],"default_left":[1,0,0],"id":98,"left_children":[1,-1,-1],"loss_changes":[2.1053645E-1,0E0,0E0],"parents":[2147483647,0,0],"right_children":[2,-1,-1],"split_conditions":[5.352339E-1,-3.751171E-2,5.9080172E-2],"split_indices":[130,0,0],"split_type":[0,0,0],"sum_hessian":[2.1888287E1,1.3754578E1,8.133709E0],"tree_param":{"num_deleted":"0","num_feature":"134","num_nodes":"3","size_leaf_vector":"0"}},{"base_weights":[3.6897114E-4,1.0717772E-1,-7.6399006E-2],"categories":[],"categories_nodes":[],"categories_segments":[],"categories_sizes":[],"default_left":[1,0,0],"id":99,"left_children":[1,-1,-1],"loss_changes":[1.9556507E-1,0E0,0E0],"parents":[2147483647,0,0],"right_children":[2,-1,-1],"split_conditions":[8.1629443E-1,5.358886E-2,-3.8199503E-2],"split_indices":[107,0,0],"split_type":[0,0,0],"sum_hessian":[2.1852247E1,8.972505E0,1.2879742E1],"tree_param":{"num_deleted":"0","num_feature":"134","num_nodes":"3","size_leaf_vector":"0"}},{"base_weights":[8.9557294E-4,-9.635505E-2,8.133082E-2],"categories":[],"categories_nodes":[],"categories_segments":[],"categories_sizes":[],"default_left":[1,0,0],"id":100,"left_children":[1,-1,-1],"loss_changes":[1.8609203E-1,0E0,0E0],"parents":[2147483647,0,0],"right_children":[2,-1,-1],"split_conditions":[9.999818E-1,-4.8177525E-2,4.066541E-2],"split_indices":[106,0,0],"split_type":[0,0,0],"sum_hessian":[2.178788E1,9.773393E0,1.2014487E1],"tree_param":{"num_deleted":"0","num_feature":"134","num_nodes":"3","size_leaf_vector":"0"}},{"base_weights":[1.18009775E-4,-1.12588E-1,7.432248E-2],"categories":[],"categories_nodes":[],"categories_segments":[],"categories_sizes":[],"default_left":[1,0,0],"id":101,"left_children":[1,-1,-1],"loss_changes":[1.9836742E-1,0E0,0E0],"parents":[2147483647,0,0],"right_children":[2,-1,-1],"split_conditions":[9.999833E-1,-5.6294E-2,3.716124E-2],"split_indices":[59,0,0],"split_type":[0,0,0],"sum_hessian":[2.1718285E1,8.416918E0,1.3301366E1],"tree_param":{"num_deleted":"0","num_feature":"134","num_nodes":"3","size_leaf_vector":"0"}},{"base_weights":[-8.1437733E-4,9.2654146E-2,-8.513109E-2],"categories":[],"categories_nodes":[],"categories_segments":[],"categories_sizes":[],"default_left":[1,0,0],"id":102,"left_children":[1,-1,-1],"loss_changes":[1.862206E-1,0E0,0E0],"parents":[2147483647,0,0],"right_children":[2,-1,-1],"split_conditions":[9.997568E-1,4.6327073E-2,-4.2565543E-2],"split_indices":[56,0,0],"split_type":[0,0,0],"sum_hessian":[2.162832E1,1.0210586E1,1.1417734E1],"tree_param":{"num_deleted":"0","num_feature":"134","num_nodes":"3","size_leaf_vector":"0"}},{"base_weights":[-2.263414E-4,7.62597E-2,-1.0929642E-1],"categories":[],"categories_nodes":[],"categories_segments":[],"categories_sizes":[],"default_left":[1,0,0],"id":103,"left_children":[1,-1,-1],"loss_changes":[1.9682798E-1,0E0,0E0],"parents":[2147483647,0,0],"right_children":[2,-1,-1],"split_conditions":[6.257061E-1,3.812985E-2,-5.464821E-2],"split_indices":[103,0,0],"split_type":[0,0,0],"sum_hessian":[2.159475E1,1.2870238E1,8.724512E0],"tree_param":{"num_deleted":"0","num_feature":"134","num_nodes":"3","size_leaf_vector":"0"}},{"base_weights":[-8.7215035E-4,8.7303326E-2,-9.208799E-2],"categories":[],"categories_nodes":[],"categories_segments":[],"categories_sizes":[],"default_left":[1,0,0],"id":104,"left_children":[1,-1,-1],"loss_changes":[1.8901925E-1,0E0,0E0],"parents":[2147483647,0,0],"right_children":[2,-1,-1],"split_conditions":[8.734522E-1,4.3651663E-2,-4.6043996E-2],"split_indices":[94,0,0],"split_type":[0,0,0],"sum_hessian":[2.1501514E1,1.0954773E1,1.0546741E1],"tree_param":{"num_deleted":"0","num_feature":"134","num_nodes":"3","size_leaf_vector":"0"}},{"base_weights":[-5.3745083E-4,7.30113E-2,-1.111273E-1],"categories":[],"categories_nodes":[],"categories_segments":[],"categories_sizes":[],"default_left":[1,0,0],"id":105,"left_children":[1,-1,-1],"loss_changes":[1.9055831E-1,0E0,0E0],"parents":[2147483647,0,0],"right_children":[2,-1,-1],"split_conditions":[6.720469E-1,3.650565E-2,-5.556365E-2],"split_indices":[50,0,0],"split_type":[0,0,0],"sum_hessian":[2.14306E1,1.3074854E1,8.355745E0],"tree_param":{"num_deleted":"0","num_feature":"134","num_nodes":"3","size_leaf_vector":"0"}},{"base_weights":[-1.1258043E-3,-1.1952217E-1,7.798725E-2],"categories":[],"categories_nodes":[],"categories_segments":[],"categories_sizes":[],"default_left":[1,0,0],"id":106,"left_children":[1,-1,-1],"loss_changes":[2.1909648E-1,0E0,0E0],"parents":[2147483647,0,0],"right_children":[2,-1,-1],"split_conditions":[6.042044E-1,-5.9761085E-2,3.8993627E-2],"split_indices":[50,0,0],"split_type":[0,0,0],"sum_hessian":[2.139586E1,8.36559E0,1.3030271E1],"tree_param":{"num_deleted":"0","num_feature":"134","num_nodes":"3","size_leaf_vector":"0"}},{"base_weights":[-1.5243219E-3,7.279959E-2,-1.1356487E-1],"categories":[],"categories_nodes":[],"categories_segments":[],"categories_sizes":[],"default_left":[1,0,0],"id":107,"left_children":[1,-1,-1],"loss_changes":[1.940691E-1,0E0,0E0],"parents":[2147483647,0,0],"right_children":[2,-1,-1],"split_conditions":[7.737512E-1,3.6399797E-2,-5.6782436E-2],"split_indices":[49,0,0],"split_type":[0,0,0],"sum_hessian":[2.1312368E1,1.3023355E1,8.289015E0],"tree_param":{"num_deleted":"0","num_feature":"134","num_nodes":"3","size_leaf_vector":"0"}},{"base_weights":[-1.7104779E-3,-1.08334266E-1,7.68389E-2],"categories":[],"categories_nodes":[],"categories_segments":[],"categories_sizes":[],"default_left":[1,0,0],"id":108,"left_children":[1,-1,-1],"loss_changes":[1.9451483E-1,0E0,0E0],"parents":[2147483647,0,0],"right_children":[2,-1,-1],"split_conditions":[9.779931E-1,-5.4167133E-2,3.841945E-2],"split_indices":[31,0,0],"split_type":[0,0,0],"sum_hessian":[2.1231089E1,8.845255E0,1.2385833E1],"tree_param":{"num_deleted":"0","num_feature":"134","num_nodes":"3","size_leaf_vector":"0"}},{"base_weights":[-1.564477E-3,-1.1137542E-1,6.924444E-2],"categories":[],"categories_nodes":[],"categories_segments":[],"categories_sizes":[],"default_left":[1,0,0],"id":109,"left_children":[1,-1,-1],"loss_changes":[1.8040428E-1,0E0,0E0],"parents":[2147483647,0,0],"right_children":[2,-1,-1],"split_conditions":[2.6060575E-1,-5.568771E-2,3.462222E-2],"split_indices":[129,0,0],"split_type":[0,0,0],"sum_hessian":[2.1209513E1,8.090229E0,1.3119284E1],"tree_param":{"num_deleted":"0","num_feature":"134","num_nodes":"3","size_leaf_vector":"0"}},{"base_weights":[-1.736375E-3,9.0088494E-2,-8.646878E-2],"categories":[],"categories_nodes":[],"categories_segments":[],"categories_sizes":[],"default_left":[1,0,0],"id":110,"left_children":[1,-1,-1],"loss_changes":[1.8041407E-1,0E0,0E0],"parents":[2147483647,0,0],"right_children":[2,-1,-1],"split_conditions":[2.2689794E-1,4.5044247E-2,-4.323439E-2],"split_indices":[71,0,0],"split_type":[0,0,0],"sum_hessian":[2.1186659E1,1.0137449E1,1.104921E1],"tree_param":{"num_deleted":"0","num_feature":"134","num_nodes":"3","size_leaf_vector":"0"}},{"base_weights":[-7.7690324E-4,-7.545015E-2,1.0965618E-1],"categories":[],"categories_nodes":[],"categories_segments":[],"categories_sizes":[],"default_left":[1,0,0],"id":111,"left_children":[1,-1,-1],"loss_changes":[1.9065242E-1,0E0,0E0],"parents":[2147483647,0,0],"right_children":[2,-1,-1],"split_conditions":[8.809767E-1,-3.7725076E-2,5.482809E-2],"split_indices":[26,0,0],"split_type":[0,0,0],"sum_hessian":[2.1116186E1,1.278675E1,8.329436E0],"tree_param":{"num_deleted":"0","num_feature":"134","num_nodes":"3","size_leaf_vector":"0"}},{"base_weights":[4.1187578E-4,8.277205E-2,-1.1104508E-1],"categories":[],"categories_nodes":[],"categories_segments":[],"categories_sizes":[],"default_left":[1,0,0],"id":112,"left_children":[1,-1,-1],"loss_changes":[2.1189065E-1,0E0,0E0],"parents":[2147483647,0,0],"right_children":[2,-1,-1],"split_conditions":[9.90576E-1,4.1386023E-2,-5.552254E-2],"split_indices":[23,0,0],"split_type":[0,0,0],"sum_hessian":[2.1081455E1,1.22711525E1,8.810302E0],"tree_param":{"num_deleted":"0","num_feature":"134","num_nodes":"3","size_leaf_vector":"0"}},{"base_weights":[-4.386483E-4,-1.0031099E-1,7.412224E-2],"categories":[],"categories_nodes":[],"categories_segments":[],"categories_sizes":[],"default_left":[1,0,0],"id":113,"left_children":[1,-1,-1],"loss_changes":[1.7153E-1,0E0,0E0],"parents":[2147483647,0,0],"right_children":[2,-1,-1],"split_conditions":[6.635448E-1,-5.0155494E-2,3.706112E-2],"split_indices":[127,0,0],"split_type":[0,0,0],"sum_hessian":[2.1036282E1,8.844265E0,1.2192017E1],"tree_param":{"num_deleted":"0","num_feature":"134","num_nodes":"3","size_leaf_vector":"0"}},{"base_weights":[-8.240224E-4,8.340009E-2,-8.259612E-2],"categories":[],"categories_nodes":[],"categories_segments":[],"categories_sizes":[],"default_left":[1,0,0],"id":114,"left_children":[1,-1,-1],"loss_changes":[1.5827443E-1,0E0,0E0],"parents":[2147483647,0,0],"right_children":[2,-1,-1],"split_conditions":[8.377522E-1,4.1700047E-2,-4.129806E-2],"split_indices":[44,0,0],"split_type":[0,0,0],"sum_hessian":[2.0980816E1,1.0325642E1,1.0655175E1],"tree_param":{"num_deleted":"0","num_feature":"134","num_nodes":"3","size_leaf_vector":"0"}},{"base_weights":[-3.8496943E-4,9.540545E-2,-8.4160656E-2],"categories":[],"categories_nodes":[],"categories_segments":[],"categories_sizes":[],"default_left":[1,0,0],"id":115,"left_children":[1,-1,-1],"loss_changes":[1.8397507E-1,0E0,0E0],"parents":[2147483647,0,0],"right_children":[2,-1,-1],"split_conditions":[5.250267E-1,4.7702726E-2,-4.2080328E-2],"split_indices":[131,0,0],"split_type":[0,0,0],"sum_hessian":[2.0924948E1,9.697665E0,1.1227282E1],"tree_param":{"num_deleted":"0","num_feature":"134","num_nodes":"3","size_leaf_vector":"0"}},{"base_weights":[8.388013E-5,8.2242936E-2,-9.6638665E-2],"categories":[],"categories_nodes":[],"categories_segments":[],"categories_sizes":[],"default_left":[1,0,0],"id":116,"left_children":[1,-1,-1],"loss_changes":[1.8173003E-1,0E0,0E0],"parents":[2147483647,0,0],"right_children":[2,-1,-1],"split_conditions":[4.5068645E-1,4.1121468E-2,-4.8319332E-2],"split_indices":[79,0,0],"split_type":[0,0,0],"sum_hessian":[2.0868656E1,1.1364775E1,9.503881E0],"tree_param":{"num_deleted":"0","num_feature":"134","num_nodes":"3","size_leaf_vector":"0"}},{"base_weights":[-2.879715E-4,-9.261785E-2,9.707955E-2],"categories":[],"categories_nodes":[],"categories_segments":[],"categories_sizes":[],"default_left":[1,0,0],"id":117,"left_children":[1,-1,-1],"loss_changes":[2.0490302E-1,0E0,0E0],"parents":[2147483647,0,0],"right_children":[2,-1,-1],"split_conditions":[7.2810423E-1,-4.6308924E-2,4.8539776E-2],"split_indices":[73,0,0],"split_type":[0,0,0],"sum_hessian":[2.0792349E1,1.0697295E1,1.0095053E1],"tree_param":{"num_deleted":"0","num_feature":"134","num_nodes":"3","size_leaf_vector":"0"}},{"base_weights":[-2.288399E-5,-1.05172284E-1,7.557878E-2],"categories":[],"categories_nodes":[],"categories_segments":[],"categories_sizes":[],"default_left":[1,0,0],"id":118,"left_children":[1,-1,-1],"loss_changes":[1.8076804E-1,0E0,0E0],"parents":[2147483647,0,0],"right_children":[2,-1,-1],"split_conditions":[7.462226E-1,-5.2586142E-2,3.778939E-2],"split_indices":[110,0,0],"split_type":[0,0,0],"sum_hessian":[2.0739721E1,8.51108E0,1.2228641E1],"tree_param":{"num_deleted":"0","num_feature":"134","num_nodes":"3","size_leaf_vector":"0"}},{"base_weights":[-6.928232E-4,9.809702E-2,-7.246777E-2],"categories":[],"categories_nodes":[],"categories_segments":[],"categories_sizes":[],"default_left":[1,0,0],"id":119,"left_children":[1,-1,-1],"loss_changes":[1.610154E-1,0E0,0E0],"parents":[2147483647,0,0],"right_children":[2,-1,-1],"split_conditions":[8.1629443E-1,4.904851E-2,-3.6233883E-2],"split_indices":[107,0,0],"split_type":[0,0,0],"sum_hessian":[2.0705605E1,8.558751E0,1.2146854E1],"tree_param":{"num_deleted":"0","num_feature":"134","num_nodes":"3","size_leaf_vector":"0"}},{"base_weights":[2.7368075E-4,-8.6175926E-2,7.290542E-2],"categories":[],"categories_nodes":[],"categories_segments":[],"categories_sizes":[],"default_left":[1,0,0],"id":120,"left_children":[1,-1,-1],"loss_changes":[1.4223684E-1,0E0,0E0],"parents":[2147483647,0,0],"right_children":[2,-1,-1],"split_conditions":[7.6083136E-1,-4.3087963E-2,3.645271E-2],"split_indices":[110,0,0],"split_type":[0,0,0],"sum_hessian":[2.065225E1,9.344054E0,1.1308196E1],"tree_param":{"num_deleted":"0","num_feature":"134","num_nodes":"3","size_leaf_vector":"0"}},{"base_weights":[-1.6374476E-4,8.172321E-2,-8.183776E-2],"categories":[],"categories_nodes":[],"categories_segments":[],"categories_sizes":[],"default_left":[1,0,0],"id":121,"left_children":[1,-1,-1],"loss_changes":[1.5130271E-1,0E0,0E0],"parents":[2147483647,0,0],"right_children":[2,-1,-1],"split_conditions":[4.9490494E-1,4.0861607E-2,-4.091888E-2],"split_indices":[33,0,0],"split_type":[0,0,0],"sum_hessian":[2.0622889E1,1.0297719E1,1.03251705E1],"tree_param":{"num_deleted":"0","num_feature":"134","num_nodes":"3","size_leaf_vector":"0"}},{"base_weights":[-7.312015E-5,-7.138448E-2,9.26959E-2],"categories":[],"categories_nodes":[],"categories_segments":[],"categories_sizes":[],"default_left":[1,0,0],"id":122,"left_children":[1,-1,-1],"loss_changes":[1.4928553E-1,0E0,0E0],"parents":[2147483647,0,0],"right_children":[2,-1,-1],"split_conditions":[4.8980862E-1,-3.569224E-2,4.634795E-2],"split_indices":[1,0,0],"split_type":[0,0,0],"sum_hessian":[2.0565836E1,1.1757999E1,8.8078375E0],"tree_param":{"num_deleted":"0","num_feature":"134","num_nodes":"3","size_leaf_vector":"0"}},{"base_weights":[4.8612582E-4,9.600597E-2,-7.108909E-2],"categories":[],"categories_nodes":[],"categories_segments":[],"categories_sizes":[],"default_left":[1,0,0],"id":123,"left_children":[1,-1,-1],"loss_changes":[1.5386403E-1,0E0,0E0],"parents":[2147483647,0,0],"right_children":[2,-1,-1],"split_conditions":[3.8975567E-1,4.8002984E-2,-3.5544544E-2],"split_indices":[108,0,0],"split_type":[0,0,0],"sum_hessian":[2.050683E1,8.637898E0,1.1868932E1],"tree_param":{"num_deleted":"0","num_feature":"134","num_nodes":"3","size_leaf_vector":"0"}},{"base_weights":[8.4523036E-4,6.831258E-2,-9.69434E-2],"categories":[],"categories_nodes":[],"categories_segments":[],"categories_sizes":[],"default_left":[1,0,0],"id":124,"left_children":[1,-1,-1],"loss_changes":[1.4833632E-1,0E0,0E0],"parents":[2147483647,0,0],"right_children":[2,-1,-1],"split_conditions":[5.304241E-1,3.415629E-2,-4.84717E-2],"split_indices":[105,0,0],"split_type":[0,0,0],"sum_hessian":[2.0479801E1,1.2297091E1,8.182711E0],"tree_param":{"num_deleted":"0","num_feature":"134","num_nodes":"3","size_leaf_vector":"0"}}]},"name":"gbtree"},"learner_model_param":{"base_score":"5E-1","boost_from_average":"1","num_class":"0","num_feature":"134","num_target":"1"},"objective":{"name":"binary:logistic","reg_loss_param":{"scale_pos_weight":"1"}}},"version":[1,7,6]}